{"learner":{"attributes":{"scikit_learn":"{\"_estimator_type\": \"regressor\"}"},"feature_names":["home_forma_pts","away_forma_pts","home_avg_scored","away_avg_scored","home_avg_conceded","away_avg_conceded","home_avg_scored_home","home_avg_conceded_home","away_avg_scored_away","away_avg_conceded_away","home_avg_yellow","away_avg_yellow","home_avg_red","away_avg_red","home_attack_strength","away_attack_strength","home_defense_strength","away_defense_strength","home_volatility","away_volatility","home_rest_days","away_rest_days","odd_home","odd_draw","odd_away","tipi_ndeshjes"],"feature_types":["float","float","float","float","float","float","float","float","float","float","float","float","float","float","float","float","float","float","float","float","float","float","float","float","float","float"],"gradient_booster":{"model":{"cats":{"enc":[],"feature_segments":[],"sorted_idx":[]},"gbtree_model_param":{"num_parallel_tree":"1","num_trees":"400"},"iteration_indptr":[0,1,2,3,4,5,6,7,8,9,10,11,12,13,14,15,16,17,18,19,20,21,22,23,24,25,26,27,28,29,30,31,32,33,34,35,36,37,38,39,40,41,42,43,44,45,46,47,48,49,50,51,52,53,54,55,56,57,58,59,60,61,62,63,64,65,66,67,68,69,70,71,72,73,74,75,76,77,78,79,80,81,82,83,84,85,86,87,88,89,90,91,92,93,94,95,96,97,98,99,100,101,102,103,104,105,106,107,108,109,110,111,112,113,114,115,116,117,118,119,120,121,122,123,124,125,126,127,128,129,130,131,132,133,134,135,136,137,138,139,140,141,142,143,144,145,146,147,148,149,150,151,152,153,154,155,156,157,158,159,160,161,162,163,164,165,166,167,168,169,170,171,172,173,174,175,176,177,178,179,180,181,182,183,184,185,186,187,188,189,190,191,192,193,194,195,196,197,198,199,200,201,202,203,204,205,206,207,208,209,210,211,212,213,214,215,216,217,218,219,220,221,222,223,224,225,226,227,228,229,230,231,232,233,234,235,236,237,238,239,240,241,242,243,244,245,246,247,248,249,250,251,252,253,254,255,256,257,258,259,260,261,262,263,264,265,266,267,268,269,270,271,272,273,274,275,276,277,278,279,280,281,282,283,284,285,286,287,288,289,290,291,292,293,294,295,296,297,298,299,300,301,302,303,304,305,306,307,308,309,310,311,312,313,314,315,316,317,318,319,320,321,322,323,324,325,326,327,328,329,330,331,332,333,334,335,336,337,338,339,340,341,342,343,344,345,346,347,348,349,350,351,352,353,354,355,356,357,358,359,360,361,362,363,364,365,366,367,368,369,370,371,372,373,374,375,376,377,378,379,380,381,382,383,384,385,386,387,388,389,390,391,392,393,394,395,396,397,398,399,400],"tree_info":[0,0,0,0,0,0,0,0,0,0,0,0,0,0,0,0,0,0,0,0,0,0,0,0,0,0,0,0,0,0,0,0,0,0,0,0,0,0,0,0,0,0,0,0,0,0,0,0,0,0,0,0,0,0,0,0,0,0,0,0,0,0,0,0,0,0,0,0,0,0,0,0,0,0,0,0,0,0,0,0,0,0,0,0,0,0,0,0,0,0,0,0,0,0,0,0,0,0,0,0,0,0,0,0,0,0,0,0,0,0,0,0,0,0,0,0,0,0,0,0,0,0,0,0,0,0,0,0,0,0,0,0,0,0,0,0,0,0,0,0,0,0,0,0,0,0,0,0,0,0,0,0,0,0,0,0,0,0,0,0,0,0,0,0,0,0,0,0,0,0,0,0,0,0,0,0,0,0,0,0,0,0,0,0,0,0,0,0,0,0,0,0,0,0,0,0,0,0,0,0,0,0,0,0,0,0,0,0,0,0,0,0,0,0,0,0,0,0,0,0,0,0,0,0,0,0,0,0,0,0,0,0,0,0,0,0,0,0,0,0,0,0,0,0,0,0,0,0,0,0,0,0,0,0,0,0,0,0,0,0,0,0,0,0,0,0,0,0,0,0,0,0,0,0,0,0,0,0,0,0,0,0,0,0,0,0,0,0,0,0,0,0,0,0,0,0,0,0,0,0,0,0,0,0,0,0,0,0,0,0,0,0,0,0,0,0,0,0,0,0,0,0,0,0,0,0,0,0,0,0,0,0,0,0,0,0,0,0,0,0,0,0,0,0,0,0,0,0,0,0,0,0,0,0,0,0,0,0,0,0,0,0,0,0,0,0,0,0,0,0,0,0,0,0,0,0,0,0,0,0,0,0,0,0,0,0,0,0,0,0,0,0,0,0,0,0,0,0,0,0],"trees":[{"base_weights":[-7.8938185E-4,2.6465243E-1,-6.395865E-2,2.0544429E-1,5.505066E-1,-2.3422632E-2,-1.6489534E-1,1.5438516E-1,3.0617598E-1,4.2751285E-1,6.134357E-1,4.042E-2,-4.5122255E-2,-2.1322304E-1,-1.4626084E-1,7.28364E-2,1.8281911E-1,3.230987E-1,1.7012335E-1,3.8010016E-1,7E-1,7E-1,5.3617865E-1,-1.8496206E-2,9.068885E-2,-7.451998E-2,-6.4492216E-3,-1.6567473E-1,-2.4312219E-1,-1.1078824E-1,-1.6567443E-1,3.5E-2,3.1484512E-3,8.877509E-3,3.0937016E-2,1.5857756E-2,3.5E-2,7.156844E-3,3.5E-2,2.1790631E-2,1.0121628E-2,3.5E-2,6.9585512E-3,1.8730484E-2,3.5E-2,3.0323729E-2,1.3767505E-2,-1.2950298E-3,7.283029E-3,3.850586E-3,1.1928141E-2,-2.7203008E-3,-5.689908E-3,1.9141838E-3,-2.4034732E-3,-1.3802585E-2,-7.076898E-3,-1.2608187E-2,-8.091385E-3,-3.4332336E-3,-7.4097128E-3,-8.858073E-3,-6.169927E-3],"categories":[],"categories_nodes":[],"categories_segments":[],"categories_sizes":[],"default_left":[0,0,0,0,0,0,0,0,0,0,0,0,0,0,0,0,0,0,0,0,0,0,0,0,0,0,0,0,0,0,0,0,0,0,0,0,0,0,0,0,0,0,0,0,0,0,0,0,0,0,0,0,0,0,0,0,0,0,0,0,0,0,0],"id":0,"left_children":[1,3,5,7,9,11,13,15,17,19,21,23,25,27,29,31,33,35,37,39,41,43,45,47,49,51,53,55,57,59,61,-1,-1,-1,-1,-1,-1,-1,-1,-1,-1,-1,-1,-1,-1,-1,-1,-1,-1,-1,-1,-1,-1,-1,-1,-1,-1,-1,-1,-1,-1,-1,-1],"loss_changes":[6.4139417E2,1.24338196E2,1.2641938E2,3.1290894E1,9.498627E0,3.054393E1,7.94162E0,9.36718E0,4.6615753E0,7.5518265E0,7.373108E0,1.656633E1,1.8706375E1,3.4591446E0,4.383957E0,8.470081E0,6.778244E0,5.3584747E0,3.3933063E0,3.7787628E0,1.7346058E0,3.5809479E0,9.464203E0,3.1346967E0,6.085861E0,7.3791428E0,1.3233989E1,2.5009747E0,1.0684052E0,3.5573616E0,1.9835129E0,0E0,0E0,0E0,0E0,0E0,0E0,0E0,0E0,0E0,0E0,0E0,0E0,0E0,0E0,0E0,0E0,0E0,0E0,0E0,0E0,0E0,0E0,0E0,0E0,0E0,0E0,0E0,0E0,0E0,0E0,0E0,0E0],"parents":[2147483647,0,0,1,1,2,2,3,3,4,4,5,5,6,6,7,7,8,8,9,9,10,10,11,11,12,12,13,13,14,14,15,15,16,16,17,17,18,18,19,19,20,20,21,21,22,22,23,23,24,24,25,25,26,26,27,27,28,28,29,29,30,30],"right_children":[2,4,6,8,10,12,14,16,18,20,22,24,26,28,30,32,34,36,38,40,42,44,46,48,50,52,54,56,58,60,62,-1,-1,-1,-1,-1,-1,-1,-1,-1,-1,-1,-1,-1,-1,-1,-1,-1,-1,-1,-1,-1,-1,-1,-1,-1,-1,-1,-1,-1,-1,-1,-1],"split_conditions":[2.35E0,4.4E0,4.8E0,3.7E0,1.33E0,2.88E0,7.5E-1,3.29E0,1.306E0,3.25E0,1.3E0,3.25E0,3.39E0,7E0,6E0,2.95E0,2.8E1,2E0,3E0,1.871E0,2.168E0,4E-1,1.6E1,2.345E0,1.2E1,3.7E0,3.8E0,9E0,1.75E0,1.67E0,9E0,3.5E-2,3.1484512E-3,8.877509E-3,3.0937016E-2,1.5857756E-2,3.5E-2,7.156844E-3,3.5E-2,2.1790631E-2,1.0121628E-2,3.5E-2,6.9585512E-3,1.8730484E-2,3.5E-2,3.0323729E-2,1.3767505E-2,-1.2950298E-3,7.283029E-3,3.850586E-3,1.1928141E-2,-2.7203008E-3,-5.689908E-3,1.9141838E-3,-2.4034732E-3,-1.3802585E-2,-7.076898E-3,-1.2608187E-2,-8.091385E-3,-3.4332336E-3,-7.4097128E-3,-8.858073E-3,-6.169927E-3],"split_indices":[24,23,24,23,4,24,4,23,14,8,24,23,23,24,24,22,20,2,11,19,19,11,1,19,0,24,24,0,8,22,1,0,0,0,0,0,0,0,0,0,0,0,0,0,0,0,0,0,0,0,0,0,0,0,0,0,0,0,0,0,0,0,0],"split_type":[0,0,0,0,0,0,0,0,0,0,0,0,0,0,0,0,0,0,0,0,0,0,0,0,0,0,0,0,0,0,0,0,0,0,0,0,0,0,0,0,0,0,0,0,0,0,0,0,0,0,0,0,0,0,0,0,0,0,0,0,0,0,0],"sum_hessian":[3.824961E4,7.3521514E3,3.0897457E4,6.092043E3,1.2601085E3,2.204532E4,8.852136E3,4.044493E3,2.0475499E3,4.2914542E2,8.3096313E2,5.592048E3,1.6453273E4,2.4605012E3,6.391635E3,1.046548E3,2.997945E3,1.8198195E3,2.2773047E2,3.8967212E2,3.947328E1,3.0667703E2,5.2428613E2,2.5748723E3,3.0171755E3,9.34707E3,7.1062026E3,9.524194E2,1.5080817E3,2.2631348E3,4.1285E3,1.0121354E1,1.0364266E3,2.9635325E3,3.44126E1,1.8036252E3,1.6194166E1,2.1862125E2,9.109219E0,2.9554352E2,9.412859E1,3.3400467E1,6.072812E0,3.744901E1,2.6922803E2,4.1193912E2,1.1234703E2,2.4645496E3,1.10322754E2,2.7631296E3,2.5404597E2,6.1831353E3,3.1639353E3,3.4250662E3,3.6811365E3,1.6902661E2,7.8339276E2,1.3552493E3,1.5283244E2,1.0657786E3,1.1973562E3,3.2438938E3,8.846063E2],"tree_param":{"num_deleted":"0","num_feature":"26","num_nodes":"63","size_leaf_vector":"1"}},{"base_weights":[3.5926152E-3,-5.906003E-2,2.4885693E-1,-1.3005891E-1,-8.560911E-3,1.3951865E-1,3.931348E-1,-1.7091286E-1,-9.3890294E-2,-5.1756512E-2,4.254712E-2,5.7059985E-2,1.8302605E-1,3.0652708E-1,5.2461207E-1,-1.5530773E-1,-2.123015E-1,-1.7590548E-1,-7.8435235E-2,-1.1968923E-1,-3.3865403E-2,5.5831126E-3,7.692209E-2,7.6636866E-2,-4.624365E-2,1.6443504E-1,3.3774415E-1,2.2386E-1,3.4211093E-1,4.706117E-1,6.7937243E-1,-8.807867E-3,-5.9625115E-3,-5.4749358E-3,-1.1152471E-2,-1.7551811E-2,-7.817569E-3,-4.012987E-3,1.7563613E-2,-6.1547565E-3,3.5E-2,-3.0826286E-3,-5.4475025E-4,-1.6652039E-4,7.483735E-3,2.174054E-3,7.558919E-3,5.562612E-4,5.7715476E-3,8.5512205E-4,-9.377367E-3,-7.989935E-3,8.529902E-3,2.0228816E-2,-4.4516027E-3,1.0421655E-2,3.5E-2,1.4938972E-2,2.1300077E-2,2.1115132E-2,3.3324238E-2,3.5E-2,2.1798268E-2],"categories":[],"categories_nodes":[],"categories_segments":[],"categories_sizes":[],"default_left":[0,0,0,0,0,0,0,0,0,0,0,0,0,0,0,0,0,0,0,0,0,0,0,0,0,0,0,0,0,0,0,0,0,0,0,0,0,0,0,0,0,0,0,0,0,0,0,0,0,0,0,0,0,0,0,0,0,0,0,0,0,0,0],"id":1,"left_children":[1,3,5,7,9,11,13,15,17,19,21,23,25,27,29,31,33,35,37,39,41,43,45,47,49,51,53,55,57,59,61,-1,-1,-1,-1,-1,-1,-1,-1,-1,-1,-1,-1,-1,-1,-1,-1,-1,-1,-1,-1,-1,-1,-1,-1,-1,-1,-1,-1,-1,-1,-1,-1],"loss_changes":[5.8967694E2,1.09590454E2,1.23118835E2,1.8756393E1,3.9436935E1,1.593071E1,3.816388E1,3.819397E0,8.530525E0,1.1762455E1,1.039666E1,3.1102495E0,8.309723E0,5.8992004E0,1.0838623E1,3.2381058E0,1.7770386E0,3.6026154E0,4.4764557E0,8.754362E0,4.8914175E0,5.0658836E0,1.0521463E1,3.2818136E0,2.1994486E0,5.219208E0,8.907173E0,6.4428806E0,5.0282745E0,9.115448E0,5.232147E0,0E0,0E0,0E0,0E0,0E0,0E0,0E0,0E0,0E0,0E0,0E0,0E0,0E0,0E0,0E0,0E0,0E0,0E0,0E0,0E0,0E0,0E0,0E0,0E0,0E0,0E0,0E0,0E0,0E0,0E0,0E0,0E0],"parents":[2147483647,0,0,1,1,2,2,3,3,4,4,5,5,6,6,7,7,8,8,9,9,10,10,11,11,12,12,13,13,14,14,15,15,16,16,17,17,18,18,19,19,20,20,21,21,22,22,23,23,24,24,25,25,26,26,27,27,28,28,29,29,30,30],"right_children":[2,4,6,8,10,12,14,16,18,20,22,24,26,28,30,32,34,36,38,40,42,44,46,48,50,52,54,56,58,60,62,-1,-1,-1,-1,-1,-1,-1,-1,-1,-1,-1,-1,-1,-1,-1,-1,-1,-1,-1,-1,-1,-1,-1,-1,-1,-1,-1,-1,-1,-1,-1,-1],"split_conditions":[3.1E0,1.95E0,3.7E0,1.6E0,3.3E0,3.29E0,4.4E0,6E0,3.39E0,2.15E0,2.25E0,3.3E-1,1.4E1,7.5E-1,1.7E-1,1.2E0,9.57E-1,1.73E0,4.67E0,3.67E0,1.75E0,2.387E0,3.5E0,1.14E0,8.66E-1,5.77E-1,2.2E0,2.739E0,1.2E1,3E0,2.33E0,-8.807867E-3,-5.9625115E-3,-5.4749358E-3,-1.1152471E-2,-1.7551811E-2,-7.817569E-3,-4.012987E-3,1.7563613E-2,-6.1547565E-3,3.5E-2,-3.0826286E-3,-5.4475025E-4,-1.6652039E-4,7.483735E-3,2.174054E-3,7.558919E-3,5.562612E-4,5.7715476E-3,8.5512205E-4,-9.377367E-3,-7.989935E-3,8.529902E-3,2.0228816E-2,-4.4516027E-3,1.0421655E-2,3.5E-2,1.4938972E-2,2.1300077E-2,2.1115132E-2,3.3324238E-2,3.5E-2,2.1798268E-2],"split_indices":[22,22,23,22,23,23,23,23,23,22,22,12,21,5,13,8,19,22,9,7,11,18,23,19,14,19,4,19,1,8,11,0,0,0,0,0,0,0,0,0,0,0,0,0,0,0,0,0,0,0,0,0,0,0,0,0,0,0,0,0,0,0,0],"split_type":[0,0,0,0,0,0,0,0,0,0,0,0,0,0,0,0,0,0,0,0,0,0,0,0,0,0,0,0,0,0,0,0,0,0,0,0,0,0,0,0,0,0,0,0,0,0,0,0,0,0,0,0,0,0,0,0,0,0,0,0,0,0,0],"sum_hessian":[3.837234E4,3.0565227E4,7.8071123E3,1.2703396E4,1.786183E4,4.4424507E3,3.3646614E3,5.963572E3,6.7398247E3,9.680245E3,8.1815845E3,1.5351759E3,2.907275E3,2.0304674E3,1.334194E3,4.334171E3,1.6294009E3,1.0670328E3,5.672792E3,2.0167886E3,7.6634565E3,3.9428892E3,4.2386953E3,1.2908142E3,2.4436168E2,2.5972507E3,3.1002414E2,6.131987E2,1.4172687E3,9.920723E2,3.4212167E2,2.743756E3,1.5904147E3,1.5528696E2,1.474114E3,1.054698E2,9.61563E2,5.6496177E3,2.3174562E1,2.0137694E3,3.0191784E0,3.4673445E3,4.196112E3,3.7141106E3,2.2877838E2,2.923634E3,1.315061E3,4.805669E2,8.102474E2,1.6933029E2,7.503138E1,4.798231E1,2.5492686E3,2.6809332E2,4.1930798E1,6.039439E2,9.254822E0,9.375588E2,4.7970984E2,7.9833203E2,1.9374028E2,2.589476E2,8.317407E1],"tree_param":{"num_deleted":"0","num_feature":"26","num_nodes":"63","size_leaf_vector":"1"}},{"base_weights":[-2.3861532E-3,2.341606E-1,-6.538861E-2,1.6101953E-1,4.0685412E-1,-2.6085166E-2,-1.616456E-1,1.257895E-1,2.2795907E-1,3.6055607E-1,5.762187E-1,1.845106E-2,-5.5043373E-2,-1.2955949E-1,-2.034034E-1,7.28044E-2,1.5345533E-1,2.1541603E-1,4.1819233E-1,3.1183448E-1,4.2806414E-1,1.530746E-1,6.129561E-1,-1.4996233E-2,1.0993354E-1,-9.299381E-2,-2.994644E-2,-1.8400982E-1,-1.1434306E-1,-2.4248913E-1,-1.8056132E-1,3.1156938E-3,1.7340012E-2,8.482632E-3,1.3062975E-3,1.6975647E-2,9.915755E-3,3.0687049E-2,3.2013182E-3,1.5080675E-2,3.4415584E-2,1.7497974E-2,2.756294E-2,3.5E-2,-3.3918147E-3,2.509074E-2,3.5E-2,5.544754E-4,-2.5997947E-3,2.2500695E-3,7.934484E-3,-4.73951E-3,3.5E-2,-6.582945E-5,-2.569147E-3,-9.682921E-3,-6.546015E-4,-1.914591E-2,-5.48373E-3,-1.4094606E-2,-7.3114033E-3,-6.48508E-3,-1.0337663E-2],"categories":[],"categories_nodes":[],"categories_segments":[],"categories_sizes":[],"default_left":[0,0,0,0,0,0,0,0,0,0,0,0,0,0,0,0,0,0,0,0,0,0,0,0,0,0,0,0,0,0,0,0,0,0,0,0,0,0,0,0,0,0,0,0,0,0,0,0,0,0,0,0,0,0,0,0,0,0,0,0,0,0,0],"id":2,"left_children":[1,3,5,7,9,11,13,15,17,19,21,23,25,27,29,31,33,35,37,39,41,43,45,47,49,51,53,55,57,59,61,-1,-1,-1,-1,-1,-1,-1,-1,-1,-1,-1,-1,-1,-1,-1,-1,-1,-1,-1,-1,-1,-1,-1,-1,-1,-1,-1,-1,-1,-1,-1,-1],"loss_changes":[5.712738E2,1.0176944E2,1.145157E2,1.33315735E1,1.8595978E1,2.7723145E1,1.1732391E1,5.433094E0,4.5681915E0,6.069504E0,7.883011E0,2.591933E1,1.2403629E1,4.0931625E0,3.3592377E0,3.6458497E0,5.0258904E0,3.8237991E0,8.250553E0,4.0215225E0,7.38797E0,6.7838063E0,4.7669983E0,5.9878845E0,7.1725197E0,8.50259E0,4.812903E0,1.7833366E0,4.827442E0,5.280319E0,3.1830597E0,0E0,0E0,0E0,0E0,0E0,0E0,0E0,0E0,0E0,0E0,0E0,0E0,0E0,0E0,0E0,0E0,0E0,0E0,0E0,0E0,0E0,0E0,0E0,0E0,0E0,0E0,0E0,0E0,0E0,0E0,0E0,0E0],"parents":[2147483647,0,0,1,1,2,2,3,3,4,4,5,5,6,6,7,7,8,8,9,9,10,10,11,11,12,12,13,13,14,14,15,15,16,16,17,17,18,18,19,19,20,20,21,21,22,22,23,23,24,24,25,25,26,26,27,27,28,28,29,29,30,30],"right_children":[2,4,6,8,10,12,14,16,18,20,22,24,26,28,30,32,34,36,38,40,42,44,46,48,50,52,54,56,58,60,62,-1,-1,-1,-1,-1,-1,-1,-1,-1,-1,-1,-1,-1,-1,-1,-1,-1,-1,-1,-1,-1,-1,-1,-1,-1,-1,-1,-1,-1,-1,-1,-1],"split_conditions":[2.39E0,4E0,4.8E0,3.6E0,5.4E0,3.2E0,7.5E0,3.29E0,1.5E1,1.25E0,1.33E0,3.4E0,3.29E0,3.6E0,1.25E0,1.479E0,1.662E0,5E-1,1.381E0,2.75E0,4.4E0,1E1,1.167E0,2.88E0,7E0,3.67E0,3.79E0,1.2E1,3.38E-1,2.6E0,1.33E0,3.1156938E-3,1.7340012E-2,8.482632E-3,1.3062975E-3,1.6975647E-2,9.915755E-3,3.0687049E-2,3.2013182E-3,1.5080675E-2,3.4415584E-2,1.7497974E-2,2.756294E-2,3.5E-2,-3.3918147E-3,2.509074E-2,3.5E-2,5.544754E-4,-2.5997947E-3,2.2500695E-3,7.934484E-3,-4.73951E-3,3.5E-2,-6.582945E-5,-2.569147E-3,-9.682921E-3,-6.546015E-4,-1.914591E-2,-5.48373E-3,-1.4094606E-2,-7.3114033E-3,-6.48508E-3,-1.0337663E-2],"split_indices":[24,23,24,23,23,24,24,23,20,2,3,23,23,23,22,14,16,9,15,9,23,22,16,24,0,7,24,1,17,2,9,0,0,0,0,0,0,0,0,0,0,0,0,0,0,0,0,0,0,0,0,0,0,0,0,0,0,0,0,0,0,0,0],"split_type":[0,0,0,0,0,0,0,0,0,0,0,0,0,0,0,0,0,0,0,0,0,0,0,0,0,0,0,0,0,0,0,0,0,0,0,0,0,0,0,0,0,0,0,0,0,0,0,0,0,0,0,0,0,0,0,0,0,0,0,0,0,0,0],"sum_hessian":[3.8330707E4,8.061305E3,3.02694E4,5.664251E3,2.397054E3,2.1494203E4,8.775196E3,3.7129944E3,1.9512567E3,1.884916E3,5.1213806E2,8.469269E3,1.3024936E4,4.9645815E3,3.810615E3,1.2749215E3,2.438073E3,1.8325592E3,1.1869749E2,1.0980535E3,7.868625E2,4.132458E1,4.7081348E2,6.202414E3,2.2668545E3,5.1836895E3,7.8412456E3,1.0819275E3,3.882654E3,1.4019987E3,2.4086165E3,1.2290905E3,4.5830997E1,2.1626362E3,2.754367E2,2.1966377E2,1.6128954E3,7.600131E1,4.2696175E1,1.0707839E3,2.7269619E1,4.839083E2,3.0295416E2,8.513228E0,3.2811356E1,2.2385634E2,2.4695714E2,3.6381338E3,2.5642805E3,9.729836E2,1.293871E3,5.174515E3,9.1746235E0,3.357776E3,4.4834697E3,1.0239885E3,5.793895E1,6.495209E1,3.817702E3,9.934264E2,4.085722E2,8.20777E2,1.5878395E3],"tree_param":{"num_deleted":"0","num_feature":"26","num_nodes":"63","size_leaf_vector":"1"}},{"base_weights":[-2.4436803E-3,2.27942E-1,-6.4819746E-2,4.0267628E-1,1.6044179E-1,-2.8529149E-2,-1.5419878E-1,6.531253E-1,3.777578E-1,2.1809919E-1,1.12807244E-1,2.9707113E-2,-4.642482E-2,-1.19909905E-1,-1.9860497E-1,3.917861E-1,7E-1,3.2689378E-1,4.3868268E-1,3.376843E-1,2.0083542E-1,1.2960623E-1,-1.44506665E-2,1.804157E-2,1.1485871E-1,-3.03966E-2,-7.245375E-2,-1.2923183E-1,-5.4253858E-2,-1.8287642E-1,-2.3240072E-1,3.5E-2,1.415302E-2,3.5E-2,1.3218746E-2,2.1767212E-2,1.4300631E-2,2.718086E-2,1.6923232E-2,8.442972E-3,2.1220889E-2,1.7358506E-3,1.0796248E-2,5.6296843E-3,1.3976534E-2,2.2300014E-2,-1.8399475E-3,8.1951043E-4,3.5E-2,1.11719845E-2,2.576798E-3,-3.7347246E-3,-8.786693E-4,-5.5503445E-3,-2.842559E-3,-5.925599E-3,-9.709016E-3,-3.2149497E-3,2.8062655E-2,-9.404332E-3,8.4131425E-3,-1.4040202E-2,-9.524847E-3],"categories":[],"categories_nodes":[],"categories_segments":[],"categories_sizes":[],"default_left":[0,0,0,0,0,0,0,0,0,0,0,0,0,0,0,0,0,0,0,0,0,0,0,0,0,0,0,0,0,0,0,0,0,0,0,0,0,0,0,0,0,0,0,0,0,0,0,0,0,0,0,0,0,0,0,0,0,0,0,0,0,0,0],"id":3,"left_children":[1,3,5,7,9,11,13,15,17,19,21,23,25,27,29,31,33,35,37,39,41,43,45,47,49,51,53,55,57,59,61,-1,-1,-1,-1,-1,-1,-1,-1,-1,-1,-1,-1,-1,-1,-1,-1,-1,-1,-1,-1,-1,-1,-1,-1,-1,-1,-1,-1,-1,-1,-1,-1],"loss_changes":[5.493854E2,9.600604E1,9.757858E1,1.3914215E1,1.611708E1,2.2301956E1,1.3204178E1,7.1348953E0,6.2592163E0,5.4192047E0,6.88649E0,4.9948883E0,6.826729E0,2.994896E0,1.9687805E0,3.36516E0,4.1227036E0,4.885277E0,9.671494E0,4.816391E0,5.8204193E0,7.2248955E0,3.8901274E0,5.215488E0,4.154695E0,5.7541685E0,3.7456856E0,2.9667816E0,3.8170543E0,4.764206E0,2.3764267E0,0E0,0E0,0E0,0E0,0E0,0E0,0E0,0E0,0E0,0E0,0E0,0E0,0E0,0E0,0E0,0E0,0E0,0E0,0E0,0E0,0E0,0E0,0E0,0E0,0E0,0E0,0E0,0E0,0E0,0E0,0E0,0E0],"parents":[2147483647,0,0,1,1,2,2,3,3,4,4,5,5,6,6,7,7,8,8,9,9,10,10,11,11,12,12,13,13,14,14,15,15,16,16,17,17,18,18,19,19,20,20,21,21,22,22,23,23,24,24,25,25,26,26,27,27,28,28,29,29,30,30],"right_children":[2,4,6,8,10,12,14,16,18,20,22,24,26,28,30,32,34,36,38,40,42,44,46,48,50,52,54,56,58,60,62,-1,-1,-1,-1,-1,-1,-1,-1,-1,-1,-1,-1,-1,-1,-1,-1,-1,-1,-1,-1,-1,-1,-1,-1,-1,-1,-1,-1,-1,-1,-1,-1],"split_conditions":[2.39E0,1.64E0,4.8E0,1.22E0,2.05E0,2.88E0,7.5E0,1.6E0,1E0,3.7E0,1.628E0,2.098E0,3.8E0,1.3E1,1.294E0,4.63E-1,1.2E1,1.3E1,9.11E-1,7E0,3.79E0,1.4E1,2.87E0,3.2E0,2.62E0,1E0,1.33E0,1.225E0,4.25E0,1.277E0,6.71E-1,3.5E-2,1.415302E-2,3.5E-2,1.3218746E-2,2.1767212E-2,1.4300631E-2,2.718086E-2,1.6923232E-2,8.442972E-3,2.1220889E-2,1.7358506E-3,1.0796248E-2,5.6296843E-3,1.3976534E-2,2.2300014E-2,-1.8399475E-3,8.1951043E-4,3.5E-2,1.11719845E-2,2.576798E-3,-3.7347246E-3,-8.786693E-4,-5.5503445E-3,-2.842559E-3,-5.925599E-3,-9.709016E-3,-3.2149497E-3,2.8062655E-2,-9.404332E-3,8.4131425E-3,-1.4040202E-2,-9.524847E-3],"split_indices":[24,24,24,24,24,24,24,4,5,22,16,19,24,21,17,14,21,1,17,20,22,21,22,4,22,5,11,16,6,17,16,0,0,0,0,0,0,0,0,0,0,0,0,0,0,0,0,0,0,0,0,0,0,0,0,0,0,0,0,0,0,0,0],"split_type":[0,0,0,0,0,0,0,0,0,0,0,0,0,0,0,0,0,0,0,0,0,0,0,0,0,0,0,0,0,0,0,0,0,0,0,0,0,0,0,0,0,0,0,0,0,0,0,0,0,0,0,0,0,0,0,0,0,0,0,0,0,0,0],"sum_hessian":[3.822791E4,8.1443057E3,3.0083605E4,2.26808E3,5.8762256E3,2.1397066E4,8.68654E3,2.0296141E2,2.0651187E3,2.6568113E3,3.2194143E3,5.029467E3,1.6367599E4,4.9037446E3,3.7827952E3,8.398313E1,1.1897827E2,1.1289578E3,9.361609E2,3.3282086E2,2.3239905E3,2.8439707E3,3.7544376E2,4.42453E3,6.049371E2,1.0131156E4,6.2364434E3,4.2932197E3,6.1052466E2,2.5857822E3,1.1970131E3,1.63666E1,6.761653E1,9.567137E1,2.3306902E1,3.06423E2,8.225347E2,4.551579E2,4.8100302E2,1.1395558E2,2.1886526E2,1.9379791E2,2.1301926E3,2.555714E3,2.882565E2,1.650142E1,3.5894235E2,4.4153833E3,9.146342E0,2.2190417E2,3.8303287E2,2.273277E3,7.857879E3,1.7949941E3,4.441449E3,3.687429E3,6.057909E2,6.01602E2,8.922674E0,2.5484326E3,3.7349487E1,5.5278564E2,6.4422736E2],"tree_param":{"num_deleted":"0","num_feature":"26","num_nodes":"63","size_leaf_vector":"1"}},{"base_weights":[3.9731857E-4,-5.9273534E-2,2.237606E-1,-1.5989266E-1,-2.9409189E-2,1.6629568E-1,3.9341527E-1,-1.8664077E-1,-1.21344276E-1,-6.2251434E-2,8.237198E-3,1.2234628E-1,2.1187371E-1,3.4085023E-1,4.63172E-1,-2.2103788E-1,-1.6922948E-1,-1.362689E-1,4.2935396E-3,-1.5072015E-1,-5.4439783E-2,4.8379865E-3,1.7874157E-1,7.885471E-2,1.80558E-1,1.7760979E-1,2.9224524E-1,2.6479483E-1,4.2010322E-1,3.8204685E-1,5.5506885E-1,-1.1349182E-2,4.4934195E-3,1.0862767E-3,-8.762422E-3,-7.13895E-3,4.274492E-3,-3.6028964E-3,1.0314518E-2,-2.848864E-3,-9.368616E-3,-4.498057E-3,-2.1967106E-3,-9.811532E-4,1.1710915E-3,2.731142E-2,6.5132612E-3,1.8743966E-3,9.610655E-3,4.399946E-3,1.1225704E-2,1.0273016E-2,3.847769E-3,1.9514112E-2,1.0311296E-2,1.5453353E-2,3.740113E-3,2.573596E-2,1.7036216E-2,1.6758924E-2,3.228945E-2,2.8495986E-2,-1.5014976E-2],"categories":[],"categories_nodes":[],"categories_segments":[],"categories_sizes":[],"default_left":[0,0,0,0,0,0,0,0,0,0,0,0,0,0,0,0,0,0,0,0,0,0,0,0,0,0,0,0,0,0,0,0,0,0,0,0,0,0,0,0,0,0,0,0,0,0,0,0,0,0,0,0,0,0,0,0,0,0,0,0,0,0,0],"id":4,"left_children":[1,3,5,7,9,11,13,15,17,19,21,23,25,27,29,31,33,35,37,39,41,43,45,47,49,51,53,55,57,59,61,-1,-1,-1,-1,-1,-1,-1,-1,-1,-1,-1,-1,-1,-1,-1,-1,-1,-1,-1,-1,-1,-1,-1,-1,-1,-1,-1,-1,-1,-1,-1,-1],"loss_changes":[5.1099756E2,9.091363E1,7.873648E1,7.1173553E0,2.8848917E1,1.2072067E1,7.3383484E0,2.4098053E0,5.3249245E0,8.603844E0,6.3004107E0,7.7760353E0,8.109009E0,6.9388885E0,6.3167267E0,2.5529022E0,3.126854E0,3.6762962E0,4.679654E0,3.4612827E0,4.269657E0,4.8465796E0,3.714138E0,8.259949E0,5.3306885E0,5.8157196E0,7.3761826E0,5.020069E0,4.1136627E0,5.572731E0,5.359009E0,0E0,0E0,0E0,0E0,0E0,0E0,0E0,0E0,0E0,0E0,0E0,0E0,0E0,0E0,0E0,0E0,0E0,0E0,0E0,0E0,0E0,0E0,0E0,0E0,0E0,0E0,0E0,0E0,0E0,0E0,0E0,0E0],"parents":[2147483647,0,0,1,1,2,2,3,3,4,4,5,5,6,6,7,7,8,8,9,9,10,10,11,11,12,12,13,13,14,14,15,15,16,16,17,17,18,18,19,19,20,20,21,21,22,22,23,23,24,24,25,25,26,26,27,27,28,28,29,29,30,30],"right_children":[2,4,6,8,10,12,14,16,18,20,22,24,26,28,30,32,34,36,38,40,42,44,46,48,50,52,54,56,58,60,62,-1,-1,-1,-1,-1,-1,-1,-1,-1,-1,-1,-1,-1,-1,-1,-1,-1,-1,-1,-1,-1,-1,-1,-1,-1,-1,-1,-1,-1,-1,-1,-1],"split_conditions":[3.1E0,1.66E0,5.75E0,1.48E0,2.25E0,1.17E0,8.5E0,7.5E-1,2.2E0,6.7E-1,2.733E0,3.8E0,1.75E0,6.43E-1,1.67E0,1.702E0,5.51E-1,2.608E0,1.232E0,1E0,1E0,2.5E0,2.757E0,1.4E0,6E-1,1.4E0,1.549E0,1E1,8.65E-1,1.3E1,3.2E0,-1.1349182E-2,4.4934195E-3,1.0862767E-3,-8.762422E-3,-7.13895E-3,4.274492E-3,-3.6028964E-3,1.0314518E-2,-2.848864E-3,-9.368616E-3,-4.498057E-3,-2.1967106E-3,-9.811532E-4,1.1710915E-3,2.731142E-2,6.5132612E-3,1.8743966E-3,9.610655E-3,4.399946E-3,1.1225704E-2,1.0273016E-2,3.847769E-3,1.9514112E-2,1.0311296E-2,1.5453353E-2,3.740113E-3,2.573596E-2,1.7036216E-2,1.6758924E-2,3.228945E-2,2.8495986E-2,-1.5014976E-2],"split_indices":[22,22,22,22,22,2,22,4,2,4,18,22,8,17,4,15,16,19,15,18,11,22,18,5,6,8,19,0,17,21,4,0,0,0,0,0,0,0,0,0,0,0,0,0,0,0,0,0,0,0,0,0,0,0,0,0,0,0,0,0,0,0,0],"split_type":[0,0,0,0,0,0,0,0,0,0,0,0,0,0,0,0,0,0,0,0,0,0,0,0,0,0,0,0,0,0,0,0,0,0,0,0,0,0,0,0,0,0,0,0,0,0,0,0,0,0,0,0,0,0,0,0,0,0,0,0,0,0,0],"sum_hessian":[3.8337355E4,3.0255438E4,8.0819175E3,6.923703E3,2.3331734E4,6.0385405E3,2.0433768E3,4.0852039E3,2.838499E3,1.2460604E4,1.0871131E4,3.0760713E3,2.9624692E3,1.1686382E3,8.747387E2,1.3689877E3,2.7162163E3,2.5370376E3,3.0146155E2,1.0094996E3,1.14511045E4,1.0659646E4,2.1148463E2,1.7619928E3,1.3140785E3,2.0792534E3,8.83216E2,5.9856464E2,5.7007355E2,4.673377E2,4.0740097E2,1.3435635E3,2.5424227E1,8.291988E1,2.6332964E3,2.4650288E3,7.200876E1,2.1923688E2,8.2224655E1,2.8447382E2,7.250257E2,2.6119697E3,8.839135E3,4.6020825E3,6.057564E3,2.3449799E1,1.8803484E2,1.2918875E3,4.7010532E2,4.240826E2,8.8999585E2,1.6278066E3,4.514467E2,4.1112085E2,4.7209515E2,4.8493738E2,1.1362725E2,2.5757355E2,3.1250003E2,3.987488E2,6.858891E1,4.0077646E2,6.6245217E0],"tree_param":{"num_deleted":"0","num_feature":"26","num_nodes":"63","size_leaf_vector":"1"}},{"base_weights":[7.0917165E-5,2.1511824E-1,-6.0249157E-2,4.0848124E-1,1.6148806E-1,-2.5343347E-2,-1.485145E-1,3.5367134E-1,4.9674413E-1,1.1426856E-1,2.2854759E-1,-3.2718726E-3,-6.802713E-2,-1.2121656E-1,-1.850388E-1,2.7619544E-1,4.4400883E-1,1.7438804E-1,5.3068674E-1,5.70442E-2,1.4464815E-1,2.0124897E-1,3.112055E-1,-2.8198883E-2,5.5300377E-2,-1.1942021E-1,-4.389526E-2,-1.6124225E-1,-1.0105177E-1,-1.8608655E-1,3.1735078E-2,2.1585746E-2,1.1072293E-2,1.6414488E-2,2.8514797E-2,2.6565209E-2,-9.308513E-4,2.0199243E-2,2.9402286E-2,2.6283562E-3,3.5E-2,-2.8525405E-3,7.650915E-3,2.3845054E-2,9.461976E-3,1.8996362E-2,8.193201E-3,3.510364E-4,-2.4623815E-3,-4.995468E-3,3.1968895E-3,-6.5937056E-3,5.732003E-3,-2.4130128E-3,8.271396E-3,-4.022924E-3,-8.784784E-3,-4.23384E-3,-8.6726695E-3,-1.0035458E-2,-7.5069577E-3],"categories":[],"categories_nodes":[],"categories_segments":[],"categories_sizes":[],"default_left":[0,0,0,0,0,0,0,0,0,0,0,0,0,0,0,0,0,0,0,0,0,0,0,0,0,0,0,0,0,0,0,0,0,0,0,0,0,0,0,0,0,0,0,0,0,0,0,0,0,0,0,0,0,0,0,0,0,0,0,0,0],"id":5,"left_children":[1,3,5,7,9,11,13,15,17,19,21,23,25,27,29,31,33,35,37,39,41,43,45,47,49,51,53,55,57,59,-1,-1,-1,-1,-1,-1,-1,-1,-1,-1,-1,-1,-1,-1,-1,-1,-1,-1,-1,-1,-1,-1,-1,-1,-1,-1,-1,-1,-1,-1,-1],"loss_changes":[4.9752173E2,8.706015E1,9.2280075E1,8.646393E0,2.0806534E1,2.0222408E1,8.440643E0,7.7755585E0,7.5243683E0,6.70673E0,6.069107E0,2.066133E1,9.068615E0,3.9066925E0,3.234642E0,5.0994225E0,7.4024506E0,4.6808767E0,4.33609E0,4.208164E0,4.267296E0,6.68161E0,6.750412E0,7.3592386E0,5.6699343E0,6.827873E0,4.5583878E0,1.8851929E0,3.820488E0,1.8752365E0,0E0,0E0,0E0,0E0,0E0,0E0,0E0,0E0,0E0,0E0,0E0,0E0,0E0,0E0,0E0,0E0,0E0,0E0,0E0,0E0,0E0,0E0,0E0,0E0,0E0,0E0,0E0,0E0,0E0,0E0,0E0],"parents":[2147483647,0,0,1,1,2,2,3,3,4,4,5,5,6,6,7,7,8,8,9,9,10,10,11,11,12,12,13,13,14,14,15,15,16,16,17,17,18,18,19,19,20,20,21,21,22,22,23,23,24,24,25,25,26,26,27,27,28,28,29,29],"right_children":[2,4,6,8,10,12,14,16,18,20,22,24,26,28,30,32,34,36,38,40,42,44,46,48,50,52,54,56,58,60,-1,-1,-1,-1,-1,-1,-1,-1,-1,-1,-1,-1,-1,-1,-1,-1,-1,-1,-1,-1,-1,-1,-1,-1,-1,-1,-1,-1,-1,-1,-1],"split_conditions":[2.39E0,1.55E0,5E0,5.1E0,3.6E0,3.7E0,7.5E0,1.5E0,1.4E0,3.29E0,2.5E0,3.4E0,3.3E0,3.7E0,5.33E0,1.4E0,1.17E0,1E1,1.17E0,3.67E0,6E-1,2.64E-1,9.33E-1,2.88E0,3.3E-1,2E0,3.67E0,6.7E-1,1.6E0,1.835E0,3.1735078E-2,2.1585746E-2,1.1072293E-2,1.6414488E-2,2.8514797E-2,2.6565209E-2,-9.308513E-4,2.0199243E-2,2.9402286E-2,2.6283562E-3,3.5E-2,-2.8525405E-3,7.650915E-3,2.3845054E-2,9.461976E-3,1.8996362E-2,8.193201E-3,3.510364E-4,-2.4623815E-3,-4.995468E-3,3.1968895E-3,-6.5937056E-3,5.732003E-3,-2.4130128E-3,8.271396E-3,-4.022924E-3,-8.784784E-3,-4.23384E-3,-8.6726695E-3,-1.0035458E-2,-7.5069577E-3],"split_indices":[24,24,24,23,23,24,24,19,3,23,10,23,23,23,9,3,2,22,11,8,4,14,17,24,7,2,11,3,7,18,0,0,0,0,0,0,0,0,0,0,0,0,0,0,0,0,0,0,0,0,0,0,0,0,0,0,0,0,0,0,0],"split_type":[0,0,0,0,0,0,0,0,0,0,0,0,0,0,0,0,0,0,0,0,0,0,0,0,0,0,0,0,0,0,0,0,0,0,0,0,0,0,0,0,0,0,0,0,0,0,0,0,0,0,0,0,0,0,0,0,0,0,0,0,0],"sum_hessian":[3.8352484E4,8.400668E3,2.9951816E4,1.822619E3,6.5780483E3,2.1464611E4,8.487206E3,1.1274788E3,6.9514026E2,3.8616204E3,2.7164282E3,1.4149226E4,7.315385E3,4.8595444E3,3.627661E3,6.091298E2,5.1834894E2,6.680685E1,6.283334E2,1.3401434E3,2.5214768E3,2.0446097E3,6.718185E2,9.925625E3,4.2236006E3,2.3361636E3,4.979221E3,1.6256823E3,3.2338625E3,3.6238022E3,3.8587017E0,1.5681165E2,4.5231818E2,2.723706E2,2.4597836E2,2.2831924E1,4.3974922E1,1.9831438E2,4.30019E2,1.3328676E3,7.275935E0,1.0023571E2,2.4212412E3,8.374344E1,1.9608662E3,4.5706143E2,2.1475703E2,3.713206E3,6.2124194E3,2.2209541E2,4.0015051E3,2.218555E3,1.176086E2,4.8782646E3,1.0095655E2,2.4771405E2,1.3779681E3,2.639141E3,5.947214E2,2.5727004E3,1.0511017E3],"tree_param":{"num_deleted":"0","num_feature":"26","num_nodes":"61","size_leaf_vector":"1"}},{"base_weights":[-2.1081655E-3,2.0534797E-1,-6.1076697E-2,1.5844159E-1,4.3163958E-1,-2.4896262E-2,-1.5286452E-1,1.0363302E-1,2.254555E-1,3.7941873E-1,5.867785E-1,3.1809963E-2,-4.2893246E-2,-1.24240175E-1,-1.9103156E-1,5.5305615E-2,1.2958285E-1,1.78061E-1,2.7438417E-1,5.4066443E-1,3.4709007E-1,4.4106233E-1,7E-1,-1.9952564E-2,7.776597E-2,-6.6501155E-2,-1.0756661E-2,-1.6949756E-1,-1.0139821E-1,-1.7244986E-1,-2.3037528E-1,2.170811E-3,1.975819E-2,5.5388655E-3,1.3191183E-2,1.0042125E-2,2.3898752E-3,1.5163791E-2,1.4793136E-3,4.975706E-3,3.2663118E-2,1.5454069E-2,2.7012331E-2,3.5E-2,1.1624884E-2,3.5E-2,-1.1547281E-2,-1.7994319E-3,4.6383264E-3,3.177752E-3,9.393834E-3,-8.034153E-4,-3.808391E-3,1.6729303E-3,-2.5507433E-3,-6.470637E-3,-1.0360763E-2,-1.8066224E-3,-5.9874724E-3,-8.897517E-3,1.1129902E-2,-1.7852051E-2,-1.0684277E-2],"categories":[],"categories_nodes":[],"categories_segments":[],"categories_sizes":[],"default_left":[0,0,0,0,0,0,0,0,0,0,0,0,0,0,0,0,0,0,0,0,0,0,0,0,0,0,0,0,0,0,0,0,0,0,0,0,0,0,0,0,0,0,0,0,0,0,0,0,0,0,0,0,0,0,0,0,0,0,0,0,0,0,0],"id":6,"left_children":[1,3,5,7,9,11,13,15,17,19,21,23,25,27,29,31,33,35,37,39,41,43,45,47,49,51,53,55,57,59,61,-1,-1,-1,-1,-1,-1,-1,-1,-1,-1,-1,-1,-1,-1,-1,-1,-1,-1,-1,-1,-1,-1,-1,-1,-1,-1,-1,-1,-1,-1,-1,-1],"loss_changes":[4.6681985E2,8.958136E1,9.867254E1,2.5677689E1,1.1520752E1,2.1752993E1,9.154083E0,4.8224487E0,7.249649E0,5.4803925E0,6.402069E0,1.2217523E1,1.2274282E1,4.948349E0,2.5909424E0,5.4264073E0,6.294365E0,4.743244E0,1.0930588E1,8.866077E0,6.503029E0,1.0893314E1,4.392662E0,4.3702483E0,4.2449627E0,4.545971E0,1.2200645E1,2.4068298E0,3.8219604E0,5.3591003E0,2.3576508E0,0E0,0E0,0E0,0E0,0E0,0E0,0E0,0E0,0E0,0E0,0E0,0E0,0E0,0E0,0E0,0E0,0E0,0E0,0E0,0E0,0E0,0E0,0E0,0E0,0E0,0E0,0E0,0E0,0E0,0E0,0E0,0E0],"parents":[2147483647,0,0,1,1,2,2,3,3,4,4,5,5,6,6,7,7,8,8,9,9,10,10,11,11,12,12,13,13,14,14,15,15,16,16,17,17,18,18,19,19,20,20,21,21,22,22,23,23,24,24,25,25,26,26,27,27,28,28,29,29,30,30],"right_children":[2,4,6,8,10,12,14,16,18,20,22,24,26,28,30,32,34,36,38,40,42,44,46,48,50,52,54,56,58,60,62,-1,-1,-1,-1,-1,-1,-1,-1,-1,-1,-1,-1,-1,-1,-1,-1,-1,-1,-1,-1,-1,-1,-1,-1,-1,-1,-1,-1,-1,-1,-1,-1],"split_conditions":[2.39E0,4.4E0,4.8E0,3.6E0,1.7E-1,2.88E0,7.5E0,3.29E0,1.472E0,1.22E0,7.38E-1,3.25E0,3.4E0,3.7E0,1.294E0,1.489E0,1.4E1,1.164E0,2.4E0,1.519E0,1.2E1,1.3E0,2.708E0,1.1E1,2.25E0,5.54E-1,3.8E0,7E0,5.4E0,1.277E0,1.342E0,2.170811E-3,1.975819E-2,5.5388655E-3,1.3191183E-2,1.0042125E-2,2.3898752E-3,1.5163791E-2,1.4793136E-3,4.975706E-3,3.2663118E-2,1.5454069E-2,2.7012331E-2,3.5E-2,1.1624884E-2,3.5E-2,-1.1547281E-2,-1.7994319E-3,4.6383264E-3,3.177752E-3,9.393834E-3,-8.034153E-4,-3.808391E-3,1.6729303E-3,-2.5507433E-3,-6.470637E-3,-1.0360763E-2,-1.8066224E-3,-5.9874724E-3,-8.897517E-3,1.1129902E-2,-1.7852051E-2,-1.0684277E-2],"split_indices":[24,23,24,23,13,24,24,23,18,24,14,23,23,23,17,14,21,14,4,15,21,24,18,20,6,15,24,1,24,17,17,0,0,0,0,0,0,0,0,0,0,0,0,0,0,0,0,0,0,0,0,0,0,0,0,0,0,0,0,0,0,0,0],"split_type":[0,0,0,0,0,0,0,0,0,0,0,0,0,0,0,0,0,0,0,0,0,0,0,0,0,0,0,0,0,0,0,0,0,0,0,0,0,0,0,0,0,0,0,0,0,0,0,0,0,0,0,0,0,0,0,0,0,0,0,0,0,0,0],"sum_hessian":[3.815748E4,8.444954E3,2.9712525E4,6.9964175E3,1.4485372E3,2.1312822E4,8.399704E3,3.850093E3,3.1463242E3,1.0863198E3,3.622174E2,5.1343535E3,1.6178469E4,4.80233E3,3.5973738E3,1.3461803E3,2.5039126E3,1.600575E3,1.5457494E3,1.787991E2,9.0752075E2,1.712359E2,1.909815E2,2.414899E3,2.7194546E3,9.326236E3,6.8522324E3,1.6086494E3,3.1936807E3,2.44704E3,1.1503337E3,1.3017678E3,4.4412533E1,2.1978455E3,3.060671E2,1.3618601E3,2.3871474E2,1.3823608E3,1.6338855E2,3.673965E1,1.4205946E2,7.604769E2,1.4704384E2,6.7314255E1,1.03921646E2,1.8634761E2,4.633892E0,2.1147266E3,3.0017255E2,2.4099968E3,3.0945782E2,1.5005006E3,7.825736E3,3.265704E3,3.5865283E3,7.820013E2,8.2664813E2,7.0156177E2,2.492119E3,2.4139783E3,3.306167E1,1.3154993E2,1.01878375E3],"tree_param":{"num_deleted":"0","num_feature":"26","num_nodes":"63","size_leaf_vector":"1"}},{"base_weights":[-1.2173406E-4,2.0005162E-1,-5.722765E-2,1.1406276E-1,3.0934936E-1,-1.2986612E-2,-1.2166957E-1,1.2833403E-1,3.2423303E-2,2.5070956E-1,3.9993954E-1,-4.46517E-2,2.2708314E-2,-9.7293384E-2,-1.7961884E-1,1.24072164E-1,4.8668885E-1,-9.908146E-2,1.0494519E-1,2.2593246E-1,3.5102648E-1,5.734791E-1,3.65503E-1,-8.763701E-3,-6.1129484E-2,6.534694E-2,-1.3217095E-2,-1.07151225E-1,-4.2523734E-2,-1.6071907E-1,-2.2101887E-1,5.661236E-3,1.3615275E-2,3.37562E-2,-3.4784642E-3,-6.064657E-3,1.6551945E-2,4.441244E-3,3.5E-2,1.0922931E-2,2.9365925E-2,1.29607245E-2,2.6128134E-2,1.5655225E-3,3.173565E-2,2.9779668E-3,1.9022508E-2,-2.2948287E-2,-3.368522E-4,-3.6086396E-3,3.9094474E-4,1.1572397E-3,5.0116046E-3,-1.0453421E-3,5.677959E-3,-7.511098E-3,-4.7196187E-3,1.6142359E-2,-2.3754223E-3,-8.27079E-3,8.334975E-3,-1.7820356E-2,-1.0301714E-2],"categories":[],"categories_nodes":[],"categories_segments":[],"categories_sizes":[],"default_left":[0,0,0,0,0,0,0,0,0,0,0,0,0,0,0,0,0,0,0,0,0,0,0,0,0,0,0,0,0,0,0,0,0,0,0,0,0,0,0,0,0,0,0,0,0,0,0,0,0,0,0,0,0,0,0,0,0,0,0,0,0,0,0],"id":7,"left_children":[1,3,5,7,9,11,13,15,17,19,21,23,25,27,29,31,33,35,37,39,41,43,45,47,49,51,53,55,57,59,61,-1,-1,-1,-1,-1,-1,-1,-1,-1,-1,-1,-1,-1,-1,-1,-1,-1,-1,-1,-1,-1,-1,-1,-1,-1,-1,-1,-1,-1,-1,-1,-1],"loss_changes":[4.3798172E2,7.989261E1,8.4987656E1,5.5432663E0,1.9789032E1,1.998084E1,1.712378E1,6.1288757E0,6.779855E0,5.576706E0,8.572586E0,5.5389957E0,1.2730698E1,4.6083603E0,2.7749405E0,6.410988E0,5.003578E0,2.4555104E0,4.83151E0,4.808029E0,6.934368E0,8.000084E0,5.597473E0,2.687424E0,4.8886356E0,5.5925503E0,4.400091E0,3.9644318E0,2.3918767E0,3.8255157E0,2.205101E0,0E0,0E0,0E0,0E0,0E0,0E0,0E0,0E0,0E0,0E0,0E0,0E0,0E0,0E0,0E0,0E0,0E0,0E0,0E0,0E0,0E0,0E0,0E0,0E0,0E0,0E0,0E0,0E0,0E0,0E0,0E0,0E0],"parents":[2147483647,0,0,1,1,2,2,3,3,4,4,5,5,6,6,7,7,8,8,9,9,10,10,11,11,12,12,13,13,14,14,15,15,16,16,17,17,18,18,19,19,20,20,21,21,22,22,23,23,24,24,25,25,26,26,27,27,28,28,29,29,30,30],"right_children":[2,4,6,8,10,12,14,16,18,20,22,24,26,28,30,32,34,36,38,40,42,44,46,48,50,52,54,56,58,60,62,-1,-1,-1,-1,-1,-1,-1,-1,-1,-1,-1,-1,-1,-1,-1,-1,-1,-1,-1,-1,-1,-1,-1,-1,-1,-1,-1,-1,-1,-1,-1,-1],"split_conditions":[2.39E0,3.75E0,4.2E0,2.67E0,4.4E0,3.3E0,7.5E0,3.75E0,7.14E-1,2E0,1.22E0,2.88E0,3.25E0,2.4E0,1.294E0,1.5E1,2.38E0,5E-1,3.25E0,1.424E0,9.86E-1,1.75E0,1.34E-1,1.37E-1,1E1,7E0,3.8E0,1E0,1E0,1.277E0,1.342E0,5.661236E-3,1.3615275E-2,3.37562E-2,-3.4784642E-3,-6.064657E-3,1.6551945E-2,4.441244E-3,3.5E-2,1.0922931E-2,2.9365925E-2,1.29607245E-2,2.6128134E-2,1.5655225E-3,3.173565E-2,2.9779668E-3,1.9022508E-2,-2.2948287E-2,-3.368522E-4,-3.6086396E-3,3.9094474E-4,1.1572397E-3,5.0116046E-3,-1.0453421E-3,5.677959E-3,-7.511098E-3,-4.7196187E-3,1.6142359E-2,-2.3754223E-3,-8.27079E-3,8.334975E-3,-1.7820356E-2,-1.0301714E-2],"split_indices":[24,23,24,11,23,23,24,8,17,19,24,24,24,9,17,20,19,13,9,17,14,3,17,16,20,0,23,11,0,17,17,0,0,0,0,0,0,0,0,0,0,0,0,0,0,0,0,0,0,0,0,0,0,0,0,0,0,0,0,0,0,0,0],"split_type":[0,0,0,0,0,0,0,0,0,0,0,0,0,0,0,0,0,0,0,0,0,0,0,0,0,0,0,0,0,0,0,0,0,0,0,0,0,0,0,0,0,0,0,0,0,0,0,0,0,0,0,0,0,0,0,0,0,0,0,0,0,0,0],"sum_hessian":[3.831298E4,8.503425E3,2.9809557E4,4.7603296E3,3.7430957E3,1.767584E4,1.2133718E4,4.0515176E3,7.088118E2,2.2745364E3,1.4685594E3,9.366519E3,8.30932E3,8.542866E3,3.5908518E3,4.00523E3,4.628751E1,2.5181915E2,4.569927E2,1.826632E3,4.4790433E2,2.4057106E2,1.2279884E3,2.947817E3,6.4187017E3,3.7992742E3,4.510047E3,7.2389844E3,1.3038816E3,2.468723E3,1.1221287E3,3.733764E3,2.7146597E2,3.441543E1,1.1872082E1,2.4013635E2,1.1682792E1,4.473977E2,9.595005E0,1.7911927E3,3.5439198E1,2.9338562E2,1.545187E2,2.4566763E1,2.1600429E2,5.7431896E1,1.1705565E3,1.2200188E1,2.9356167E3,5.5325234E3,8.861785E2,1.7200791E3,2.079195E3,4.2529165E3,2.5712997E2,1.6518787E3,5.5871055E3,1.6691008E1,1.2871906E3,2.4342983E3,3.442458E1,1.0954919E2,1.0125795E3],"tree_param":{"num_deleted":"0","num_feature":"26","num_nodes":"63","size_leaf_vector":"1"}},{"base_weights":[1.7002524E-3,2.035564E-1,-5.2338284E-2,1.2114566E-1,2.9789513E-1,-6.3588023E-3,-1.21533826E-1,5.6464303E-2,1.429516E-1,2.706707E-1,4.7218505E-1,-4.4445056E-2,3.583179E-2,-8.7724514E-2,-1.594206E-1,4.24386E-2,4.1245496E-1,1.3817433E-1,4.95211E-1,3.209674E-1,2.3245686E-1,1.2314713E-1,5.153612E-1,-4.535291E-3,-6.623481E-2,7.4386716E-2,-1.5134837E-4,-1.1188446E-1,-4.6549525E-2,-2.1453872E-1,-1.4642994E-1,3.3722904E-3,-4.898421E-3,3.5E-2,4.243384E-3,7.2098225E-3,-4.3039857E-3,-1.5154444E-2,3.2623485E-2,1.6748412E-2,5.82129E-4,3.5E-2,1.1344758E-2,2.1585478E-2,3.6544105E-4,2.210411E-2,3.5E-2,-3.756293E-4,3.5E-2,-5.6170863E-3,-2.6537823E-3,5.115467E-3,1.2501521E-3,-1.49989E-4,1.1551376E-2,-4.5908997E-3,-7.925202E-3,-3.2098114E-3,5.239248E-3,-1.4904399E-2,-9.746402E-3,-4.2237397E-3,-7.741207E-3],"categories":[],"categories_nodes":[],"categories_segments":[],"categories_sizes":[],"default_left":[0,0,0,0,0,0,0,0,0,0,0,0,0,0,0,0,0,0,0,0,0,0,0,0,0,0,0,0,0,0,0,0,0,0,0,0,0,0,0,0,0,0,0,0,0,0,0,0,0,0,0,0,0,0,0,0,0,0,0,0,0,0,0],"id":8,"left_children":[1,3,5,7,9,11,13,15,17,19,21,23,25,27,29,31,33,35,37,39,41,43,45,47,49,51,53,55,57,59,61,-1,-1,-1,-1,-1,-1,-1,-1,-1,-1,-1,-1,-1,-1,-1,-1,-1,-1,-1,-1,-1,-1,-1,-1,-1,-1,-1,-1,-1,-1,-1,-1],"loss_changes":[4.180537E2,6.2885864E1,9.618478E1,6.087055E0,1.7774414E1,2.9189062E1,1.5445511E1,5.430958E0,5.3692474E0,6.2018433E0,7.597763E0,8.301836E0,1.1956326E1,6.3414307E0,4.0427856E0,3.6967502E0,5.533317E0,4.319641E0,5.576888E0,6.0906067E0,5.9393616E0,2.0441263E0,6.456047E0,7.5899105E0,3.7407017E0,5.7343693E0,2.9367964E0,3.7461166E0,6.311682E0,1.7165833E0,2.383339E0,0E0,0E0,0E0,0E0,0E0,0E0,0E0,0E0,0E0,0E0,0E0,0E0,0E0,0E0,0E0,0E0,0E0,0E0,0E0,0E0,0E0,0E0,0E0,0E0,0E0,0E0,0E0,0E0,0E0,0E0,0E0,0E0],"parents":[2147483647,0,0,1,1,2,2,3,3,4,4,5,5,6,6,7,7,8,8,9,9,10,10,11,11,12,12,13,13,14,14,15,15,16,16,17,17,18,18,19,19,20,20,21,21,22,22,23,23,24,24,25,25,26,26,27,27,28,28,29,29,30,30],"right_children":[2,4,6,8,10,12,14,16,18,20,22,24,26,28,30,32,34,36,38,40,42,44,46,48,50,52,54,56,58,60,62,-1,-1,-1,-1,-1,-1,-1,-1,-1,-1,-1,-1,-1,-1,-1,-1,-1,-1,-1,-1,-1,-1,-1,-1,-1,-1,-1,-1,-1,-1,-1,-1],"split_conditions":[2.35E0,3.7E0,4.2E0,3.29E0,5.75E0,3.3E0,6E0,1.503E0,2.8E1,1.55E0,1.149E0,2.9E0,3.25E0,3.75E0,1.22E0,2E0,1.095E0,2.708E0,6.6E-1,1.408E0,1.7E-1,1.05E1,1E-1,2.391E0,2.14E0,1.193E0,1.6E1,4.8E0,1.654E0,1.6E0,7.69E-1,3.3722904E-3,-4.898421E-3,3.5E-2,4.243384E-3,7.2098225E-3,-4.3039857E-3,-1.5154444E-2,3.2623485E-2,1.6748412E-2,5.82129E-4,3.5E-2,1.1344758E-2,2.1585478E-2,3.6544105E-4,2.210411E-2,3.5E-2,-3.756293E-4,3.5E-2,-5.6170863E-3,-2.6537823E-3,5.115467E-3,1.2501521E-3,-1.49989E-4,1.1551376E-2,-4.5908997E-3,-7.925202E-3,-3.2098114E-3,5.239248E-3,-1.4904399E-2,-9.746402E-3,-4.2237397E-3,-7.741207E-3],"split_indices":[24,23,24,23,23,23,24,14,20,24,15,24,24,23,22,4,19,18,15,14,2,22,13,15,22,16,1,24,17,2,14,0,0,0,0,0,0,0,0,0,0,0,0,0,0,0,0,0,0,0,0,0,0,0,0,0,0,0,0,0,0,0,0],"split_type":[0,0,0,0,0,0,0,0,0,0,0,0,0,0,0,0,0,0,0,0,0,0,0,0,0,0,0,0,0,0,0,0,0,0,0,0,0,0,0,0,0,0,0,0,0,0,0,0,0,0,0,0,0,0,0,0,0,0,0,0,0,0,0],"sum_hessian":[3.8323402E4,8.0923564E3,3.0231047E4,4.320455E3,3.7719016E3,1.8163045E4,1.2068001E4,1.090216E3,3.230239E3,3.2645288E3,5.073729E2,9.545809E3,8.617236E3,6.3789136E3,5.689087E3,1.0499674E3,4.0248543E1,3.1883909E3,4.18481E1,1.4062445E3,1.8582842E3,5.6277275E1,4.510956E2,3.3716177E3,6.1741914E3,4.159443E3,4.4577935E3,4.0189978E3,2.3599158E3,1.0821423E3,4.606945E3,8.9167523E2,1.5829225E2,1.6316887E1,2.3931654E1,3.1053564E3,8.3034386E1,6.7344337E0,3.5113663E1,1.3452712E3,6.097335E1,1.4733223E1,1.8435509E3,1.4616358E1,4.1660915E1,3.351111E2,1.15984505E2,3.3594338E3,1.2183716E1,1.3692157E3,4.8049756E3,2.65639E3,1.5030531E3,4.404511E3,5.328242E1,2.8117185E3,1.2072793E3,2.1139854E3,2.4593037E2,2.0301576E2,8.791265E2,5.510281E2,4.0559167E3],"tree_param":{"num_deleted":"0","num_feature":"26","num_nodes":"63","size_leaf_vector":"1"}},{"base_weights":[2.8964353E-4,1.8898283E-1,-5.343585E-2,3.217037E-1,1.3312653E-1,1.0350287E-3,-1.11165605E-1,2.8552157E-1,4.0694824E-1,4.8037745E-2,1.5542543E-1,-3.389901E-2,4.158292E-2,-8.9217186E-2,-1.7923085E-1,7E-1,2.7894193E-1,3.7055063E-1,7E-1,4.2832427E-2,4.719567E-1,1.8352087E-1,1.190837E-1,2.1869729E-3,-5.412189E-2,3.355432E-2,1.7631048E-1,-1.063749E-1,-6.331315E-2,-2.2293463E-1,-1.6016658E-1,1.039184E-2,3.5E-2,1.2223395E-2,1.853309E-2,3.5E-2,1.7449701E-2,3.5E-2,1.3873733E-2,1.9901216E-3,3.5E-2,3.5E-2,-1.594106E-3,1.5270655E-2,8.271809E-3,-1.0092043E-2,6.2324456E-3,-8.201296E-4,4.477986E-3,2.8834813E-3,-3.0490798E-3,3.785855E-3,6.442044E-4,-4.494828E-3,1.0394885E-2,-5.3726365E-3,2.7256805E-2,-1.7021099E-4,-4.8618466E-3,-1.5872326E-2,-9.9459095E-3,-8.253633E-3,2.8482536E-3],"categories":[],"categories_nodes":[],"categories_segments":[],"categories_sizes":[],"default_left":[0,0,0,0,0,0,0,0,0,0,0,0,0,0,0,0,0,0,0,0,0,0,0,0,0,0,0,0,0,0,0,0,0,0,0,0,0,0,0,0,0,0,0,0,0,0,0,0,0,0,0,0,0,0,0,0,0,0,0,0,0,0,0],"id":9,"left_children":[1,3,5,7,9,11,13,15,17,19,21,23,25,27,29,31,33,35,37,39,41,43,45,47,49,51,53,55,57,59,61,-1,-1,-1,-1,-1,-1,-1,-1,-1,-1,-1,-1,-1,-1,-1,-1,-1,-1,-1,-1,-1,-1,-1,-1,-1,-1,-1,-1,-1,-1,-1,-1],"loss_changes":[3.8822415E2,6.2874664E1,9.3734764E1,7.635254E0,1.1329323E1,2.1727697E1,2.160292E1,5.0283813E0,7.934128E0,2.720726E0,4.8115387E0,6.013298E0,7.672966E0,4.8576508E0,2.9034271E0,1.7439346E0,5.423752E0,5.1463776E0,3.77602E0,2.5607831E0,2.7620616E0,5.8306885E0,3.7165852E0,4.8095894E0,4.0530243E0,5.839095E0,3.3739138E0,4.680794E0,8.867367E0,2.3630219E0,2.62965E0,0E0,0E0,0E0,0E0,0E0,0E0,0E0,0E0,0E0,0E0,0E0,0E0,0E0,0E0,0E0,0E0,0E0,0E0,0E0,0E0,0E0,0E0,0E0,0E0,0E0,0E0,0E0,0E0,0E0,0E0,0E0,0E0],"parents":[2147483647,0,0,1,1,2,2,3,3,4,4,5,5,6,6,7,7,8,8,9,9,10,10,11,11,12,12,13,13,14,14,15,15,16,16,17,17,18,18,19,19,20,20,21,21,22,22,23,23,24,24,25,25,26,26,27,27,28,28,29,29,30,30],"right_children":[2,4,6,8,10,12,14,16,18,20,22,24,26,28,30,32,34,36,38,40,42,44,46,48,50,52,54,56,58,60,62,-1,-1,-1,-1,-1,-1,-1,-1,-1,-1,-1,-1,-1,-1,-1,-1,-1,-1,-1,-1,-1,-1,-1,-1,-1,-1,-1,-1,-1,-1,-1,-1],"split_conditions":[2.38E0,1.64E0,3.8E0,5.1E0,3.29E0,3.29E0,7.5E0,1.37E-1,3.67E0,3E0,2.05E0,2.88E0,2.483E0,3.7E0,1.22E0,7E0,1.6E0,7.5E-1,1.8E1,2.5E0,8E0,3.7E0,3.3E-1,3.25E0,3E0,2.88E0,5E-1,3.67E0,5.25E0,1.67E0,3E0,1.039184E-2,3.5E-2,1.2223395E-2,1.853309E-2,3.5E-2,1.7449701E-2,3.5E-2,1.3873733E-2,1.9901216E-3,3.5E-2,3.5E-2,-1.594106E-3,1.5270655E-2,8.271809E-3,-1.0092043E-2,6.2324456E-3,-8.201296E-4,4.477986E-3,2.8834813E-3,-3.0490798E-3,3.785855E-3,6.442044E-4,-4.494828E-3,1.0394885E-2,-5.3726365E-3,2.7256805E-2,-1.7021099E-4,-4.8618466E-3,-1.5872326E-2,-9.9459095E-3,-8.253633E-3,2.8482536E-3],"split_indices":[24,24,24,23,23,23,24,14,8,3,24,24,18,23,22,21,6,8,1,5,20,22,5,23,1,24,7,7,24,2,5,0,0,0,0,0,0,0,0,0,0,0,0,0,0,0,0,0,0,0,0,0,0,0,0,0,0,0,0,0,0,0,0],"split_type":[0,0,0,0,0,0,0,0,0,0,0,0,0,0,0,0,0,0,0,0,0,0,0,0,0,0,0,0,0,0,0,0,0,0,0,0,0,0,0,0,0,0,0,0,0,0,0,0,0,0,0,0,0,0,0,0,0,0,0,0,0,0,0],"sum_hessian":[3.8293336E4,8.486116E3,2.980722E4,2.5121665E3,5.9739497E3,1.5336991E4,1.4470229E4,1.7666569E3,7.455097E2,1.2411372E3,4.7328125E3,8.238917E3,7.098075E3,1.0943638E4,3.5265906E3,2.3686378E1,1.7429705E3,6.67288E2,7.822168E1,1.2271698E3,1.3967431E1,2.6669607E3,2.0658518E3,2.959262E3,5.279655E3,6.7000586E3,3.980166E2,6.5813374E3,4.3623003E3,1.0678685E3,2.4587222E3,8.222574E0,1.5463804E1,1.2694845E3,4.7348596E2,3.381583E1,6.334722E2,5.5326134E1,2.2895546E1,1.2229216E3,4.248136E0,7.4430895E0,6.524341E0,3.4251263E2,2.324448E3,3.4612495E1,2.0312393E3,2.4407717E3,5.184902E2,3.0480978E2,4.974845E3,2.2032483E3,4.49681E3,4.2022057E1,3.5599454E2,6.5713013E3,1.0036142E1,1.5775208E3,2.7847798E3,2.1389809E2,8.539704E2,2.4046294E3,5.40927E1],"tree_param":{"num_deleted":"0","num_feature":"26","num_nodes":"63","size_leaf_vector":"1"}},{"base_weights":[2.4689448E-3,-4.9195785E-2,1.8145561E-1,-1.404308E-1,-2.3250114E-2,1.3196993E-1,3.1776044E-1,-2.0801549E-1,-1.2406071E-1,-5.5551562E-2,2.1390673E-3,1.08477175E-1,1.8394472E-1,3.0796736E-1,5.788977E-1,-2.4074538E-1,-1.5039125E-1,-1.2507866E-1,2.8621498E-1,-1.3900189E-1,-4.7951918E-2,-2.233225E-2,1.9030433E-2,1.02408165E-2,1.2365293E-1,1.6292076E-1,3.4007913E-1,7E-1,3.0272228E-1,7E-1,3.8753787E-1,-1.24422E-2,1.0814809E-2,3.292893E-2,-8.149792E-3,-3.6256977E-3,-6.6565215E-3,-3.049607E-3,2.4127964E-2,2.2602502E-2,-7.144755E-3,-2.7216345E-3,1.3563408E-3,1.7480402E-3,-2.2629125E-3,7.027259E-4,8.522709E-3,-4.876131E-5,2.6969051E-2,5.9180665E-3,2.1193258E-2,2.4418168E-2,7.65358E-3,1.4286025E-2,3.5E-2,3.5E-2,5.468569E-3,1.4950499E-2,3.5E-2,1.274494E-2,3.5E-2,4.9706264E-3,3.453808E-2],"categories":[],"categories_nodes":[],"categories_segments":[],"categories_sizes":[],"default_left":[0,0,0,0,0,0,0,0,0,0,0,0,0,0,0,0,0,0,0,0,0,0,0,0,0,0,0,0,0,0,0,0,0,0,0,0,0,0,0,0,0,0,0,0,0,0,0,0,0,0,0,0,0,0,0,0,0,0,0,0,0,0,0],"id":10,"left_children":[1,3,5,7,9,11,13,15,17,19,21,23,25,27,29,31,33,35,37,39,41,43,45,47,49,51,53,55,57,59,61,-1,-1,-1,-1,-1,-1,-1,-1,-1,-1,-1,-1,-1,-1,-1,-1,-1,-1,-1,-1,-1,-1,-1,-1,-1,-1,-1,-1,-1,-1,-1,-1],"loss_changes":[3.5384164E2,7.028546E1,5.7770752E1,7.247879E0,1.8960976E1,7.6600876E0,5.6580353E0,2.3787537E0,2.2471924E0,6.4462185E0,5.3517146E0,6.4603004E0,6.3671265E0,5.7721405E0,4.003559E0,3.0702705E0,4.8640366E0,2.22612E0,9.435544E-1,2.0176296E0,4.539795E0,6.9463944E0,5.7690244E0,3.4490378E0,5.9137497E0,5.4585724E0,5.6387615E0,1.5229425E0,3.9819489E0,1.7499714E0,5.020069E0,0E0,0E0,0E0,0E0,0E0,0E0,0E0,0E0,0E0,0E0,0E0,0E0,0E0,0E0,0E0,0E0,0E0,0E0,0E0,0E0,0E0,0E0,0E0,0E0,0E0,0E0,0E0,0E0,0E0,0E0,0E0,0E0],"parents":[2147483647,0,0,1,1,2,2,3,3,4,4,5,5,6,6,7,7,8,8,9,9,10,10,11,11,12,12,13,13,14,14,15,15,16,16,17,17,18,18,19,19,20,20,21,21,22,22,23,23,24,24,25,25,26,26,27,27,28,28,29,29,30,30],"right_children":[2,4,6,8,10,12,14,16,18,20,22,24,26,28,30,32,34,36,38,40,42,44,46,48,50,52,54,56,58,60,62,-1,-1,-1,-1,-1,-1,-1,-1,-1,-1,-1,-1,-1,-1,-1,-1,-1,-1,-1,-1,-1,-1,-1,-1,-1,-1,-1,-1,-1,-1,-1,-1],"split_conditions":[3.1E0,1.66E0,5.75E0,1.25E0,2.14E0,4.2E0,3.75E0,1.751E0,3.67E0,4.53E-1,1.2E0,1E0,2.6E0,5.36E-1,2.178E0,1.372E0,8.38E-1,1E0,1.67E0,4.47E-1,2.75E0,7.91E-1,2.75E0,2.67E0,2.2E0,4.44E-1,1.4E1,1.317E0,2.17E0,1.17E0,3.75E0,-1.24422E-2,1.0814809E-2,3.292893E-2,-8.149792E-3,-3.6256977E-3,-6.6565215E-3,-3.049607E-3,2.4127964E-2,2.2602502E-2,-7.144755E-3,-2.7216345E-3,1.3563408E-3,1.7480402E-3,-2.2629125E-3,7.027259E-4,8.522709E-3,-4.876131E-5,2.6969051E-2,5.9180665E-3,2.1193258E-2,2.4418168E-2,7.65358E-3,1.4286025E-2,3.5E-2,3.5E-2,5.468569E-3,1.4950499E-2,3.5E-2,1.274494E-2,3.5E-2,4.9706264E-3,3.453808E-2],"split_indices":[22,22,22,22,22,22,8,18,7,16,9,18,8,15,15,16,14,18,9,19,9,16,7,6,5,16,20,16,5,11,3,0,0,0,0,0,0,0,0,0,0,0,0,0,0,0,0,0,0,0,0,0,0,0,0,0,0,0,0,0,0,0,0],"split_type":[0,0,0,0,0,0,0,0,0,0,0,0,0,0,0,0,0,0,0,0,0,0,0,0,0,0,0,0,0,0,0,0,0,0,0,0,0,0,0,0,0,0,0,0,0,0,0,0,0,0,0,0,0,0,0,0,0,0,0,0,0,0,0],"sum_hessian":[3.8262367E4,2.9692357E4,8.570012E3,6.5733843E3,2.3118973E4,6.2888154E3,2.281196E3,1.2794408E3,5.2939434E3,1.017395E4,1.2945021E4,4.3332573E3,1.9555582E3,2.2008403E3,8.035562E1,8.1394934E2,4.654915E2,5.281534E3,1.240902E1,8.4774347E2,9.326207E3,5.2862544E3,7.658767E3,5.8006036E2,3.753197E3,1.7252867E3,2.3027144E2,1.8079588E1,2.1827607E3,2.3109678E1,5.724594E1,8.002252E2,1.3724166E1,6.3553076E0,4.5913617E2,7.0288293E2,4.5786514E3,4.731461E0,7.67756E0,4.7942023E0,8.429492E2,8.585394E3,7.4081323E2,1.5106216E3,3.7756328E3,7.4161587E3,2.4260864E2,5.689977E2,1.1062733E1,3.6895586E3,6.363855E1,4.925296E1,1.6760338E3,2.0927145E2,2.0999977E1,1.3309233E1,4.770355E0,2.170326E3,1.2434987E1,1.0306407E1,1.280327E1,3.003465E1,2.7211288E1],"tree_param":{"num_deleted":"0","num_feature":"26","num_nodes":"63","size_leaf_vector":"1"}},{"base_weights":[2.3071729E-3,1.8673414E-1,-4.965301E-2,1.04244255E-1,2.8166017E-1,-1.8024042E-2,-1.3464008E-1,1.1982133E-1,1.6959755E-2,2.238344E-1,3.6805895E-1,3.4235515E-2,-3.623427E-2,-1.1026145E-1,-1.6710667E-1,1.1535046E-1,4.6490487E-1,3.4653157E-1,-7.3915753E-3,2.3639221E-1,9.566631E-2,2.9179475E-1,4.2077777E-1,-1.2303373E-2,7.3749036E-2,-5.8239505E-2,-8.07682E-3,-2.0896366E-1,-1.0126738E-1,-2.0897059E-1,-1.4355496E-1,5.0155236E-3,1.0648116E-2,1.0090792E-2,3.5E-2,-8.664047E-3,2.746741E-2,-2.7959873E-3,4.9617984E-3,2.6858328E-2,1.1388759E-2,3.212282E-4,1.4298603E-2,1.0152033E-2,1.9055417E-2,2.8532729E-2,1.9030748E-2,-4.5261392E-3,9.9541096E-5,3.2950358E-3,1.6971678E-2,-2.1545861E-3,-4.4499766E-3,2.756294E-3,-1.0696122E-3,-1.4225274E-2,-6.6809664E-3,-4.558179E-3,-7.632089E-3,-1.0645836E-2,1.0838038E-2,2.6621077E-2,-7.345645E-3],"categories":[],"categories_nodes":[],"categories_segments":[],"categories_sizes":[],"default_left":[0,0,0,0,0,0,0,0,0,0,0,0,0,0,0,0,0,0,0,0,0,0,0,0,0,0,0,0,0,0,0,0,0,0,0,0,0,0,0,0,0,0,0,0,0,0,0,0,0,0,0,0,0,0,0,0,0,0,0,0,0,0,0],"id":11,"left_children":[1,3,5,7,9,11,13,15,17,19,21,23,25,27,29,31,33,35,37,39,41,43,45,47,49,51,53,55,57,59,61,-1,-1,-1,-1,-1,-1,-1,-1,-1,-1,-1,-1,-1,-1,-1,-1,-1,-1,-1,-1,-1,-1,-1,-1,-1,-1,-1,-1,-1,-1,-1,-1],"loss_changes":[3.6541757E2,6.560446E1,7.996874E1,6.0976906E0,1.9385254E1,2.0635761E1,6.3680267E0,5.8194885E0,5.4643774E0,3.7385025E0,6.1522675E0,1.0305415E1,9.962952E0,4.072548E0,3.379959E0,5.497715E0,5.187089E0,5.033999E0,3.2898223E0,5.392006E0,3.5681877E0,5.0052567E0,5.3241577E0,2.878023E0,6.297121E0,4.2017784E0,5.9385805E0,2.1485672E0,2.1808586E0,2.1343231E0,5.109482E0,0E0,0E0,0E0,0E0,0E0,0E0,0E0,0E0,0E0,0E0,0E0,0E0,0E0,0E0,0E0,0E0,0E0,0E0,0E0,0E0,0E0,0E0,0E0,0E0,0E0,0E0,0E0,0E0,0E0,0E0,0E0,0E0],"parents":[2147483647,0,0,1,1,2,2,3,3,4,4,5,5,6,6,7,7,8,8,9,9,10,10,11,11,12,12,13,13,14,14,15,15,16,16,17,17,18,18,19,19,20,20,21,21,22,22,23,23,24,24,25,25,26,26,27,27,28,28,29,29,30,30],"right_children":[2,4,6,8,10,12,14,16,18,20,22,24,26,28,30,32,34,36,38,40,42,44,46,48,50,52,54,56,58,60,62,-1,-1,-1,-1,-1,-1,-1,-1,-1,-1,-1,-1,-1,-1,-1,-1,-1,-1,-1,-1,-1,-1,-1,-1,-1,-1,-1,-1,-1,-1,-1,-1],"split_conditions":[2.37E0,3.75E0,4.8E0,2.67E0,4.4E0,2.88E0,7.5E0,3.75E0,2E-1,2.033E0,1.011E0,3.25E0,3.39E0,3.4E0,8E-1,1.3E1,3.89E0,3.35E0,9.94E-1,4.44E-1,8.02E-1,6.13E-1,1.22E0,6.7E-1,2.646E0,3.7E0,3.25E0,8.69E-1,1.6E0,3.6E0,5.31E-1,5.0155236E-3,1.0648116E-2,1.0090792E-2,3.5E-2,-8.664047E-3,2.746741E-2,-2.7959873E-3,4.9617984E-3,2.6858328E-2,1.1388759E-2,3.212282E-4,1.4298603E-2,1.0152033E-2,1.9055417E-2,2.8532729E-2,1.9030748E-2,-4.5261392E-3,9.9541096E-5,3.2950358E-3,1.6971678E-2,-2.1545861E-3,-4.4499766E-3,2.756294E-3,-1.0696122E-3,-1.4225274E-2,-6.6809664E-3,-4.558179E-3,-7.632089E-3,-1.0645836E-2,1.0838038E-2,2.6621077E-2,-7.345645E-3],"split_indices":[24,23,24,11,23,24,24,8,7,15,16,23,23,23,4,21,22,22,17,16,17,17,24,2,18,24,24,15,7,10,16,0,0,0,0,0,0,0,0,0,0,0,0,0,0,0,0,0,0,0,0,0,0,0,0,0,0,0,0,0,0,0,0],"split_type":[0,0,0,0,0,0,0,0,0,0,0,0,0,0,0,0,0,0,0,0,0,0,0,0,0,0,0,0,0,0,0,0,0,0,0,0,0,0,0,0,0,0,0,0,0,0,0,0,0,0,0,0,0,0,0,0,0,0,0,0,0,0,0],"sum_hessian":[3.8130457E4,8.380873E3,2.9749584E4,4.4852915E3,3.895581E3,2.1681691E4,8.067891E3,3.8057349E3,6.795568E2,2.3358274E3,1.5597535E3,5.602579E3,1.6079112E4,4.610407E3,3.457484E3,3.758376E3,4.7358875E1,4.584592E1,6.337109E2,2.1266187E3,2.0920894E2,6.401839E2,9.1956964E2,2.5729067E3,3.0296724E3,9.024971E3,7.0541416E3,3.831734E2,4.227234E3,1.2419703E3,2.2155137E3,3.2583572E3,5.0001865E2,3.2643394E1,1.4715481E1,1.2908211E1,3.293771E1,4.3583145E2,1.9787941E2,5.752138E1,2.0690972E3,1.4312556E2,6.608337E1,3.2273953E2,3.1744434E2,1.9154956E2,7.280201E2,3.967136E2,2.176193E3,2.943956E3,8.5716446E1,6.048692E3,2.976279E3,1.2269913E3,5.8271504E3,1.8994974E2,1.9322366E2,3.534816E3,6.9241785E2,1.2310594E3,1.0910889E1,1.0172506E1,2.205341E3],"tree_param":{"num_deleted":"0","num_feature":"26","num_nodes":"63","size_leaf_vector":"1"}},{"base_weights":[1.5650186E-3,1.7217125E-1,-5.0625175E-2,1.12546556E-1,2.70399E-1,-9.706689E-3,-1.1191424E-1,5.21679E-2,1.3213775E-1,2.1830437E-1,3.2622656E-1,-3.8125128E-2,2.2405002E-2,-8.054616E-2,-1.4792511E-1,1.5560466E-1,2.4336401E-2,1.1754851E-1,2.2150928E-1,2.5506926E-1,1.4408678E-1,2.4899419E-1,3.639567E-1,-6.1700363E-2,-1.3274939E-2,6.429622E-2,-8.606894E-3,-1.3754977E-1,-6.2532306E-2,-1.9666836E-1,-1.336774E-1,3.5820238E-3,2.036745E-2,1.543828E-3,-2.0240923E-2,5.7853865E-3,3.47972E-2,1.3172507E-2,-4.2818966E-3,1.067565E-2,1.917508E-2,-5.4458954E-4,9.694044E-3,1.1772114E-2,3.5E-2,1.744756E-2,3.2445014E-2,-3.1291384E-3,3.5E-2,-2.45186E-3,7.4296916E-4,3.715789E-3,-1.2788271E-3,-7.8871753E-4,5.638994E-3,-7.570284E-3,3.6256039E-3,-3.420716E-3,1.5906731E-3,-1.1876443E-2,-4.872108E-3,-3.3392073E-3,-7.1618683E-3],"categories":[],"categories_nodes":[],"categories_segments":[],"categories_sizes":[],"default_left":[0,0,0,0,0,0,0,0,0,0,0,0,0,0,0,0,0,0,0,0,0,0,0,0,0,0,0,0,0,0,0,0,0,0,0,0,0,0,0,0,0,0,0,0,0,0,0,0,0,0,0,0,0,0,0,0,0,0,0,0,0,0,0],"id":12,"left_children":[1,3,5,7,9,11,13,15,17,19,21,23,25,27,29,31,33,35,37,39,41,43,45,47,49,51,53,55,57,59,61,-1,-1,-1,-1,-1,-1,-1,-1,-1,-1,-1,-1,-1,-1,-1,-1,-1,-1,-1,-1,-1,-1,-1,-1,-1,-1,-1,-1,-1,-1,-1,-1],"loss_changes":[3.4139438E2,5.2572937E1,7.363019E1,6.6063614E0,9.7933655E0,1.6068419E1,1.3265488E1,3.9438672E0,5.476837E0,4.7590714E0,4.674469E0,5.4716244E0,1.0740437E1,6.4444275E0,3.7731552E0,6.1124096E0,3.0486348E0,3.7846565E0,7.637682E0,6.184334E0,4.5129976E0,5.1220512E0,4.4614563E0,3.5847664E0,4.57752E0,3.1687107E0,4.1355104E0,4.400728E0,2.6531715E0,4.9854126E0,2.6997375E0,0E0,0E0,0E0,0E0,0E0,0E0,0E0,0E0,0E0,0E0,0E0,0E0,0E0,0E0,0E0,0E0,0E0,0E0,0E0,0E0,0E0,0E0,0E0,0E0,0E0,0E0,0E0,0E0,0E0,0E0,0E0,0E0],"parents":[2147483647,0,0,1,1,2,2,3,3,4,4,5,5,6,6,7,7,8,8,9,9,10,10,11,11,12,12,13,13,14,14,15,15,16,16,17,17,18,18,19,19,20,20,21,21,22,22,23,23,24,24,25,25,26,26,27,27,28,28,29,29,30,30],"right_children":[2,4,6,8,10,12,14,16,18,20,22,24,26,28,30,32,34,36,38,40,42,44,46,48,50,52,54,56,58,60,62,-1,-1,-1,-1,-1,-1,-1,-1,-1,-1,-1,-1,-1,-1,-1,-1,-1,-1,-1,-1,-1,-1,-1,-1,-1,-1,-1,-1,-1,-1,-1,-1],"split_conditions":[2.39E0,3.8E0,4.2E0,3.29E0,4.4E0,3.3E0,6E0,6E-1,1.3E1,1.564E0,1.33E0,1.83E0,3.2E0,3.39E0,1.25E0,8E0,2.264E0,4.2E0,2.33E0,2.4E0,1.211E0,1.57E0,1.5E1,3.2E0,2.38E0,2.8E0,3.8E0,2E0,1.5E1,2.6E0,7.76E-1,3.5820238E-3,2.036745E-2,1.543828E-3,-2.0240923E-2,5.7853865E-3,3.47972E-2,1.3172507E-2,-4.2818966E-3,1.067565E-2,1.917508E-2,-5.4458954E-4,9.694044E-3,1.1772114E-2,3.5E-2,1.744756E-2,3.2445014E-2,-3.1291384E-3,3.5E-2,-2.45186E-3,7.4296916E-4,3.715789E-3,-1.2788271E-3,-7.8871753E-4,5.638994E-3,-7.570284E-3,3.6256039E-3,-3.420716E-3,1.5906731E-3,-1.1876443E-2,-4.872108E-3,-3.3392073E-3,-7.1618683E-3],"split_indices":[24,23,24,23,23,23,24,11,21,15,4,11,24,23,22,21,15,10,4,10,19,24,21,3,22,10,23,2,21,2,14,0,0,0,0,0,0,0,0,0,0,0,0,0,0,0,0,0,0,0,0,0,0,0,0,0,0,0,0,0,0,0,0],"split_type":[0,0,0,0,0,0,0,0,0,0,0,0,0,0,0,0,0,0,0,0,0,0,0,0,0,0,0,0,0,0,0,0,0,0,0,0,0,0,0,0,0,0,0,0,0,0,0,0,0,0,0,0,0,0,0,0,0,0,0,0,0,0,0],"sum_hessian":[3.833983E4,8.980589E3,2.935924E4,5.589738E3,3.390851E3,1.760605E4,1.1753189E4,1.3702842E3,4.2194536E3,1.7566091E3,1.6342421E3,9.340044E3,8.266007E3,6.2832563E3,5.469933E3,2.8955426E2,1.0807299E3,3.6293108E3,5.90143E2,1.173072E3,5.8353705E2,5.3884393E2,1.0953981E3,4.792214E3,4.5478296E3,3.5157793E3,4.7502275E3,1.5071978E3,4.7760586E3,1.2343306E3,4.2356025E3,2.1809703E2,7.145724E1,1.0654213E3,1.5308565E1,3.6189932E3,1.0317614E1,5.1936597E2,7.077704E1,8.8830865E2,2.8476337E2,1.4208733E2,4.4144974E2,5.338112E2,5.032724E0,1.042712E3,5.2686043E1,4.788135E3,4.079344E0,2.002129E3,2.5457007E3,3.16329E3,3.5248935E2,4.4862036E3,2.6402432E2,1.4141952E3,9.300252E1,4.4960273E3,2.8003128E2,8.7331366E2,3.6101694E2,5.3063324E2,3.7049692E3],"tree_param":{"num_deleted":"0","num_feature":"26","num_nodes":"63","size_leaf_vector":"1"}},{"base_weights":[2.5751238E-4,1.7928378E-1,-4.9924627E-2,1.0734066E-1,2.5880045E-1,-1.8921446E-2,-1.3446194E-1,8.827699E-2,1.7581509E-1,2.319108E-1,3.664569E-1,3.15219E-2,-3.6800012E-2,-1.0451842E-1,-1.7505671E-1,8.347252E-2,4.7856066E-1,-3.5054034E-1,1.8522081E-1,1.940356E-1,2.833652E-1,3.1954736E-1,4.9639535E-1,-1.5964812E-2,7.068364E-2,-6.2872805E-2,-2.898311E-3,-1.9855231E-1,-9.617604E-2,-2.2185862E-1,-1.6158704E-1,3.6450883E-3,1.1814702E-2,3.1027213E-2,-5.3249616E-3,-7.900349E-3,-2.2513298E-2,3.5E-2,8.94644E-3,1.4740831E-2,8.283508E-3,1.2204188E-2,2.1260764E-2,5.191659E-3,1.7673938E-2,2.8294E-2,7.5816126E-3,-1.1957884E-3,8.323457E-3,-4.946222E-3,3.8845146E-3,1.9752819E-4,-3.6821484E-3,3.967021E-3,-8.022003E-4,-1.2631197E-2,-7.431164E-4,-4.8930435E-3,1.4908112E-2,-1.1378088E-2,1.972088E-2,-5.818904E-4,-8.377886E-3],"categories":[],"categories_nodes":[],"categories_segments":[],"categories_sizes":[],"default_left":[0,0,0,0,0,0,0,0,0,0,0,0,0,0,0,0,0,0,0,0,0,0,0,0,0,0,0,0,0,0,0,0,0,0,0,0,0,0,0,0,0,0,0,0,0,0,0,0,0,0,0,0,0,0,0,0,0,0,0,0,0,0,0],"id":13,"left_children":[1,3,5,7,9,11,13,15,17,19,21,23,25,27,29,31,33,35,37,39,41,43,45,47,49,51,53,55,57,59,61,-1,-1,-1,-1,-1,-1,-1,-1,-1,-1,-1,-1,-1,-1,-1,-1,-1,-1,-1,-1,-1,-1,-1,-1,-1,-1,-1,-1,-1,-1,-1,-1],"loss_changes":[3.4263602E2,4.7739807E1,7.807174E1,5.70916E0,1.1394562E1,1.9658615E1,9.697769E0,6.3962154E0,4.7881317E0,6.1340027E0,4.661598E0,1.0609252E1,1.4224943E1,3.5914268E0,2.102211E0,5.4621754E0,3.5158358E0,2.5708055E-1,4.3777657E0,5.189438E0,7.386818E0,4.236763E0,4.8959465E0,3.7448125E0,3.7230234E0,6.5474205E0,7.565996E0,3.7120457E0,2.8391495E0,2.7443619E0,2.3592377E0,0E0,0E0,0E0,0E0,0E0,0E0,0E0,0E0,0E0,0E0,0E0,0E0,0E0,0E0,0E0,0E0,0E0,0E0,0E0,0E0,0E0,0E0,0E0,0E0,0E0,0E0,0E0,0E0,0E0,0E0,0E0,0E0],"parents":[2147483647,0,0,1,1,2,2,3,3,4,4,5,5,6,6,7,7,8,8,9,9,10,10,11,11,12,12,13,13,14,14,15,15,16,16,17,17,18,18,19,19,20,20,21,21,22,22,23,23,24,24,25,25,26,26,27,27,28,28,29,29,30,30],"right_children":[2,4,6,8,10,12,14,16,18,20,22,24,26,28,30,32,34,36,38,40,42,44,46,48,50,52,54,56,58,60,62,-1,-1,-1,-1,-1,-1,-1,-1,-1,-1,-1,-1,-1,-1,-1,-1,-1,-1,-1,-1,-1,-1,-1,-1,-1,-1,-1,-1,-1,-1,-1,-1],"split_conditions":[2.35E0,3.7E0,4.8E0,1.4E0,5.1E0,2.88E0,7.5E0,3.75E0,3.1E0,1.25E0,1.7E-1,3.25E0,3.39E0,3.4E0,6.7E-1,1.5E1,2.38E0,1.379E0,3E0,1.095E0,1.949E0,1.155E0,1.594E0,2.366E0,6.7E-1,5.33E-1,3.2E0,1.751E0,3.5E0,6E-1,4.75E-1,3.6450883E-3,1.1814702E-2,3.1027213E-2,-5.3249616E-3,-7.900349E-3,-2.2513298E-2,3.5E-2,8.94644E-3,1.4740831E-2,8.283508E-3,1.2204188E-2,2.1260764E-2,5.191659E-3,1.7673938E-2,2.8294E-2,7.5816126E-3,-1.1957884E-3,8.323457E-3,-4.946222E-3,3.8845146E-3,1.9752819E-4,-3.6821484E-3,3.967021E-3,-8.022003E-4,-1.2631197E-2,-7.431164E-4,-4.8930435E-3,1.4908112E-2,-1.1378088E-2,1.972088E-2,-5.818904E-4,-8.377886E-3],"split_indices":[24,23,24,5,23,24,24,8,23,2,13,23,23,23,4,20,19,17,21,19,19,15,16,19,4,15,24,19,7,13,16,0,0,0,0,0,0,0,0,0,0,0,0,0,0,0,0,0,0,0,0,0,0,0,0,0,0,0,0,0,0,0,0],"split_type":[0,0,0,0,0,0,0,0,0,0,0,0,0,0,0,0,0,0,0,0,0,0,0,0,0,0,0,0,0,0,0,0,0,0,0,0,0,0,0,0,0,0,0,0,0,0,0,0,0,0,0,0,0,0,0,0,0,0,0,0,0,0,0],"sum_hessian":[3.813681E4,8.348984E3,2.9787824E4,4.384466E3,3.964519E3,2.1795701E4,7.992123E3,3.431426E3,9.5303955E2,3.1747158E3,7.898033E2,5.7033276E3,1.6092374E4,4.6015225E3,3.3906006E3,3.3908972E3,4.052874E1,1.6094635E1,9.3694495E2,1.831404E3,1.3433116E3,5.82847E2,2.069563E2,2.5779507E3,3.125377E3,9.096032E3,6.996342E3,3.731082E2,4.228414E3,7.542837E2,2.636317E3,3.1729028E3,2.1799455E2,3.2565117E1,7.9636245E0,6.3737307E0,9.720904E0,4.5867763E0,9.3235815E2,4.001825E2,1.4312216E3,1.0541224E3,2.891892E2,7.977131E1,5.0307565E2,1.7170831E2,3.5247993E1,2.4711216E3,1.0682913E2,1.2346934E2,3.0019077E3,1.2626389E3,7.833393E3,9.6352814E2,6.0328135E3,2.879662E2,8.5142006E1,4.211174E3,1.7240492E1,7.479924E2,6.291318E0,1.01065865E2,2.535251E3],"tree_param":{"num_deleted":"0","num_feature":"26","num_nodes":"63","size_leaf_vector":"1"}},{"base_weights":[-4.9006776E-4,1.6829346E-1,-4.4440508E-2,9.869088E-2,2.3451214E-1,3.1926455E-3,-9.933488E-2,1.1093926E-1,-6.392376E-2,1.9280408E-1,2.934684E-1,-1.9354586E-2,5.1604204E-2,-6.855153E-2,-1.482771E-1,2.0975587E-1,9.2474364E-2,1.9816844E-1,-1.2620568E-1,2.0570086E-1,5.2100055E-2,2.4153507E-1,3.6181659E-1,1.6130878E-2,-4.3105114E-2,4.267494E-2,1.9169861E-1,-1.2352275E-1,-5.1544674E-2,-2.0684898E-1,-1.3463108E-1,-2.6195236E-3,1.2206968E-2,3.8739059E-3,1.10702505E-2,3.5E-2,-4.5323926E-3,-8.147197E-3,1.0828324E-2,1.6148937E-3,1.0860863E-2,1.1707906E-2,-6.1576883E-4,1.1210955E-2,3.0171016E-2,1.721603E-2,3.4976196E-2,6.8040524E-4,2.4081454E-2,1.4532207E-3,-2.671044E-3,-6.272148E-4,2.8880981E-3,1.1617485E-2,-4.898684E-3,-7.5028674E-3,-3.0803669E-3,-4.824745E-3,-2.0418817E-3,-1.2260592E-2,-6.069101E-3,-6.912708E-3,3.3435223E-3],"categories":[],"categories_nodes":[],"categories_segments":[],"categories_sizes":[],"default_left":[0,0,0,0,0,0,0,0,0,0,0,0,0,0,0,0,0,0,0,0,0,0,0,0,0,0,0,0,0,0,0,0,0,0,0,0,0,0,0,0,0,0,0,0,0,0,0,0,0,0,0,0,0,0,0,0,0,0,0,0,0,0,0],"id":14,"left_children":[1,3,5,7,9,11,13,15,17,19,21,23,25,27,29,31,33,35,37,39,41,43,45,47,49,51,53,55,57,59,61,-1,-1,-1,-1,-1,-1,-1,-1,-1,-1,-1,-1,-1,-1,-1,-1,-1,-1,-1,-1,-1,-1,-1,-1,-1,-1,-1,-1,-1,-1,-1,-1],"loss_changes":[2.847349E2,3.652617E1,7.963049E1,7.7111397E0,9.934311E0,1.7800013E1,2.1306046E1,6.544525E0,4.457962E0,4.3127136E0,5.881256E0,9.377367E0,6.473686E0,8.115368E0,4.33786E0,5.110697E0,5.846678E0,8.604727E0,2.806158E0,4.350685E0,2.3645866E0,5.871113E0,4.037018E0,5.23282E0,4.963624E0,4.0598984E0,3.6753702E0,3.361868E0,3.1900826E0,3.3481293E0,3.2455063E0,0E0,0E0,0E0,0E0,0E0,0E0,0E0,0E0,0E0,0E0,0E0,0E0,0E0,0E0,0E0,0E0,0E0,0E0,0E0,0E0,0E0,0E0,0E0,0E0,0E0,0E0,0E0,0E0,0E0,0E0,0E0,0E0],"parents":[2147483647,0,0,1,1,2,2,3,3,4,4,5,5,6,6,7,7,8,8,9,9,10,10,11,11,12,12,13,13,14,14,15,15,16,16,17,17,18,18,19,19,20,20,21,21,22,22,23,23,24,24,25,25,26,26,27,27,28,28,29,29,30,30],"right_children":[2,4,6,8,10,12,14,16,18,20,22,24,26,28,30,32,34,36,38,40,42,44,46,48,50,52,54,56,58,60,62,-1,-1,-1,-1,-1,-1,-1,-1,-1,-1,-1,-1,-1,-1,-1,-1,-1,-1,-1,-1,-1,-1,-1,-1,-1,-1,-1,-1,-1,-1,-1,-1],"split_conditions":[2.29E0,3.75E0,3.79E0,1.784E0,4.4E0,3.4E0,6E0,7E0,1.9E0,1.727E0,1.33E0,2.88E0,2.449E0,3.3E0,1.22E0,4E0,1.4E1,7E0,1.564E0,2.64E-1,1.169E0,1.8E1,2.25E0,3.077E0,5.28E-1,1E0,1.4E1,1.6E0,1E0,2.6E0,3E0,-2.6195236E-3,1.2206968E-2,3.8739059E-3,1.10702505E-2,3.5E-2,-4.5323926E-3,-8.147197E-3,1.0828324E-2,1.6148937E-3,1.0860863E-2,1.1707906E-2,-6.1576883E-4,1.1210955E-2,3.0171016E-2,1.721603E-2,3.4976196E-2,6.8040524E-4,2.4081454E-2,1.4532207E-3,-2.671044E-3,-6.272148E-4,2.8880981E-3,1.1617485E-2,-4.898684E-3,-7.5028674E-3,-3.0803669E-3,-4.824745E-3,-2.0418817E-3,-1.2260592E-2,-6.069101E-3,-6.912708E-3,3.3435223E-3],"split_indices":[24,23,24,16,23,23,24,1,24,16,6,24,18,23,22,20,21,20,15,17,19,21,2,19,15,2,20,6,11,2,5,0,0,0,0,0,0,0,0,0,0,0,0,0,0,0,0,0,0,0,0,0,0,0,0,0,0,0,0,0,0,0,0],"split_type":[0,0,0,0,0,0,0,0,0,0,0,0,0,0,0,0,0,0,0,0,0,0,0,0,0,0,0,0,0,0,0,0,0,0,0,0,0,0,0,0,0,0,0,0,0,0,0,0,0,0,0,0,0,0,0,0,0,0,0,0,0,0,0],"sum_hessian":[3.8381742E4,7.9290117E3,3.0452732E4,3.8669468E3,4.0620652E3,1.6305234E4,1.4147497E4,3.5963796E3,2.7056696E2,2.3815383E3,1.680527E3,1.1124639E4,5.180596E3,8.686391E3,5.461107E3,5.645859E2,3.031794E3,5.1531685E1,2.1903528E2,2.181154E3,2.0038425E2,9.575111E2,7.2301587E2,4.460526E3,6.664113E3,4.871409E3,3.091868E2,2.0509255E3,6.635465E3,1.0292352E3,4.4318716E3,6.540461E1,4.9918124E2,2.7173347E3,3.144591E2,1.6820309E1,3.4711376E1,1.9830557E2,2.0729715E1,1.3607486E2,2.0450791E3,5.16814E1,1.4870284E2,9.1533264E2,4.2178493E1,6.893229E2,3.3692974E1,4.437506E3,2.3019873E1,8.331992E2,5.8309136E3,1.0453918E3,3.8260173E3,2.713104E2,3.78764E1,1.4346608E3,6.162648E2,1.2749531E3,5.3605117E3,7.0908514E2,3.2015012E2,4.3539004E3,7.7970856E1],"tree_param":{"num_deleted":"0","num_feature":"26","num_nodes":"63","size_leaf_vector":"1"}},{"base_weights":[3.598213E-4,-4.6318874E-2,1.5306182E-1,-1.0921227E-1,-1.39278695E-2,8.518002E-2,2.3084292E-1,-1.536154E-1,-8.275281E-2,-3.631208E-2,2.7036209E-2,2.3266021E-2,1.17227025E-1,1.8208784E-1,2.9914656E-1,-1.665674E-1,-1.0268446E-1,-1.8399313E-1,-7.484181E-2,-7.095187E-2,-1.03757735E-2,-7.647273E-4,6.5281205E-2,3.847949E-2,-1.1585398E-1,5.4669946E-1,1.1251373E-1,6.8244964E-1,1.7683612E-1,2.8064257E-1,5.4856527E-1,-8.965514E-3,-4.8505506E-3,1.6136303E-4,-7.11243E-3,-1.12573225E-2,-1.2789281E-3,-1.4429211E-2,-3.5476945E-3,-4.0877876E-3,1.1820832E-3,-7.386575E-4,7.9951845E-3,1.4930996E-2,-1.9887589E-4,6.810137E-3,2.2169405E-3,1.7615712E-3,3.5E-2,-1.4121668E-2,2.6987558E-3,-5.7467516E-3,3.3973157E-2,4.7027036E-3,1.0958155E-2,4.399633E-3,3.5E-2,2.1499662E-2,8.390804E-3,2.391123E-3,1.4625854E-2,3.5E-2,1.9470667E-2],"categories":[],"categories_nodes":[],"categories_segments":[],"categories_sizes":[],"default_left":[0,0,0,0,0,0,0,0,0,0,0,0,0,0,0,0,0,0,0,0,0,0,0,0,0,0,0,0,0,0,0,0,0,0,0,0,0,0,0,0,0,0,0,0,0,0,0,0,0,0,0,0,0,0,0,0,0,0,0,0,0,0,0],"id":15,"left_children":[1,3,5,7,9,11,13,15,17,19,21,23,25,27,29,31,33,35,37,39,41,43,45,47,49,51,53,55,57,59,61,-1,-1,-1,-1,-1,-1,-1,-1,-1,-1,-1,-1,-1,-1,-1,-1,-1,-1,-1,-1,-1,-1,-1,-1,-1,-1,-1,-1,-1,-1,-1,-1],"loss_changes":[2.7320038E2,5.9799564E1,4.7358795E1,1.1711136E1,1.776878E1,9.507668E0,1.3869476E1,2.44001E0,4.9958878E0,1.1257097E1,7.280629E0,3.4671283E0,6.3312607E0,6.296974E0,7.8760834E0,2.6132965E0,3.1758547E0,2.9452305E0,4.802124E0,5.484783E0,5.3686304E0,3.8160646E0,4.2750235E0,4.032058E0,4.584713E0,3.0667877E0,6.131813E0,3.6648102E0,5.44989E0,4.4696426E0,5.760231E0,0E0,0E0,0E0,0E0,0E0,0E0,0E0,0E0,0E0,0E0,0E0,0E0,0E0,0E0,0E0,0E0,0E0,0E0,0E0,0E0,0E0,0E0,0E0,0E0,0E0,0E0,0E0,0E0,0E0,0E0,0E0,0E0],"parents":[2147483647,0,0,1,1,2,2,3,3,4,4,5,5,6,6,7,7,8,8,9,9,10,10,11,11,12,12,13,13,14,14,15,15,16,16,17,17,18,18,19,19,20,20,21,21,22,22,23,23,24,24,25,25,26,26,27,27,28,28,29,29,30,30],"right_children":[2,4,6,8,10,12,14,16,18,20,22,24,26,28,30,32,34,36,38,40,42,44,46,48,50,52,54,56,58,60,62,-1,-1,-1,-1,-1,-1,-1,-1,-1,-1,-1,-1,-1,-1,-1,-1,-1,-1,-1,-1,-1,-1,-1,-1,-1,-1,-1,-1,-1,-1,-1,-1],"split_conditions":[3.1E0,1.85E0,3.7E0,1.48E0,3.4E0,3.29E0,4.4E0,1.4E0,3.39E0,2.3E0,2.25E0,2.17E0,2E0,1.7E-1,3.67E0,2.67E0,1.175E0,1.751E0,3.38E-1,1.4E1,1.8E1,1E0,7.96E-1,4.17E0,1.472E0,1E0,1.3E1,1.019E0,4.44E-1,1.34E-1,1.3E1,-8.965514E-3,-4.8505506E-3,1.6136303E-4,-7.11243E-3,-1.12573225E-2,-1.2789281E-3,-1.4429211E-2,-3.5476945E-3,-4.0877876E-3,1.1820832E-3,-7.386575E-4,7.9951845E-3,1.4930996E-2,-1.9887589E-4,6.810137E-3,2.2169405E-3,1.7615712E-3,3.5E-2,-1.4121668E-2,2.6987558E-3,-5.7467516E-3,3.3973157E-2,4.7027036E-3,1.0958155E-2,4.399633E-3,3.5E-2,2.1499662E-2,8.390804E-3,2.391123E-3,1.4625854E-2,3.5E-2,1.9470667E-2],"split_indices":[22,22,23,22,23,23,23,8,23,22,22,4,1,2,8,2,14,19,17,20,21,0,16,11,19,0,21,16,16,17,1,0,0,0,0,0,0,0,0,0,0,0,0,0,0,0,0,0,0,0,0,0,0,0,0,0,0,0,0,0,0,0,0],"split_type":[0,0,0,0,0,0,0,0,0,0,0,0,0,0,0,0,0,0,0,0,0,0,0,0,0,0,0,0,0,0,0,0,0,0,0,0,0,0,0,0,0,0,0,0,0,0,0,0,0,0,0,0,0,0,0,0,0,0,0,0,0,0,0],"sum_hessian":[3.832616E4,2.9353834E4,8.972328E3,9.977744E3,1.937609E4,4.792164E3,4.180164E3,3.7238066E3,6.253938E3,1.2529593E4,6.8464966E3,1.6350381E3,3.1571257E3,2.4412605E3,1.7389034E3,2.9670103E3,7.5679626E2,4.5165555E2,5.802282E3,5.363937E3,7.1656562E3,3.9651455E3,2.881351E3,1.4745159E3,1.6052226E2,3.302387E1,3.124102E3,2.4017567E1,2.417243E3,1.620785E3,1.18118324E2,2.5062773E3,4.6073285E2,2.0607079E2,5.5072546E2,3.5818433E2,9.347123E1,1.0234841E2,5.699934E3,4.814222E3,5.497146E2,6.986156E3,1.7950049E2,4.1123196E1,3.9240222E3,6.5561255E2,2.2257385E3,1.4703651E3,4.150729E0,8.070173E1,7.9820526E1,5.5415525E0,2.7482317E1,2.6647495E3,4.593525E2,1.0113291E1,1.3904276E1,8.155812E1,2.3356848E3,7.889707E1,1.541888E3,2.6006907E1,9.211141E1],"tree_param":{"num_deleted":"0","num_feature":"26","num_nodes":"63","size_leaf_vector":"1"}},{"base_weights":[-4.485467E-4,1.467705E-1,-4.7124755E-2,2.510429E-1,1.146558E-1,-8.804015E-3,-1.04867846E-1,2.1588641E-1,3.3499956E-1,1.417151E-1,8.649158E-2,2.6155181E-2,-2.3492685E-2,-8.9773156E-2,-1.7764035E-1,1.820713E-1,3.2268387E-1,5.473166E-1,2.5550696E-1,2.3873076E-1,1.293524E-1,1.0241772E-1,-8.486007E-3,2.149044E-2,2.640732E-1,-7.3287286E-2,-1.7803548E-2,-1.3403486E-1,-7.933483E-2,-2.0232119E-1,-9.580028E-2,3.5E-2,8.828151E-3,1.8099023E-2,-6.999238E-3,1.7866135E-2,3.2469183E-2,5.588594E-3,1.6726967E-2,6.464088E-3,1.7850358E-2,9.6997406E-5,6.927689E-3,4.516901E-3,1.00538945E-2,-9.158033E-4,3.5E-2,6.17426E-4,4.429491E-3,2.499975E-2,3.8750363E-3,-4.056552E-3,3.3384554E-2,-1.6298268E-3,2.9375183E-4,-7.6369974E-3,-3.3255701E-3,-2.4199765E-3,-5.2647297E-3,-1.2368678E-2,-8.239702E-3,-5.7882746E-3,1.1780678E-2],"categories":[],"categories_nodes":[],"categories_segments":[],"categories_sizes":[],"default_left":[0,0,0,0,0,0,0,0,0,0,0,0,0,0,0,0,0,0,0,0,0,0,0,0,0,0,0,0,0,0,0,0,0,0,0,0,0,0,0,0,0,0,0,0,0,0,0,0,0,0,0,0,0,0,0,0,0,0,0,0,0,0,0],"id":16,"left_children":[1,3,5,7,9,11,13,15,17,19,21,23,25,27,29,31,33,35,37,39,41,43,45,47,49,51,53,55,57,59,61,-1,-1,-1,-1,-1,-1,-1,-1,-1,-1,-1,-1,-1,-1,-1,-1,-1,-1,-1,-1,-1,-1,-1,-1,-1,-1,-1,-1,-1,-1,-1,-1],"loss_changes":[2.6286417E2,3.080835E1,6.426823E1,6.325363E0,5.3546295E0,8.966222E0,1.2711182E1,5.4687424E0,1.0626976E1,4.274887E0,5.224306E0,5.727726E0,3.4816194E0,4.4236984E0,3.998886E0,4.3256607E0,6.7193108E0,3.1209755E0,5.256569E0,5.1912727E0,3.735382E0,3.5064392E0,4.195045E0,3.107574E0,4.3299594E0,7.3792853E0,3.8656008E0,2.3012962E0,6.2337456E0,2.541809E0,3.0897255E0,0E0,0E0,0E0,0E0,0E0,0E0,0E0,0E0,0E0,0E0,0E0,0E0,0E0,0E0,0E0,0E0,0E0,0E0,0E0,0E0,0E0,0E0,0E0,0E0,0E0,0E0,0E0,0E0,0E0,0E0,0E0,0E0],"parents":[2147483647,0,0,1,1,2,2,3,3,4,4,5,5,6,6,7,7,8,8,9,9,10,10,11,11,12,12,13,13,14,14,15,15,16,16,17,17,18,18,19,19,20,20,21,21,22,22,23,23,24,24,25,25,26,26,27,27,28,28,29,29,30,30],"right_children":[2,4,6,8,10,12,14,16,18,20,22,24,26,28,30,32,34,36,38,40,42,44,46,48,50,52,54,56,58,60,62,-1,-1,-1,-1,-1,-1,-1,-1,-1,-1,-1,-1,-1,-1,-1,-1,-1,-1,-1,-1,-1,-1,-1,-1,-1,-1,-1,-1,-1,-1,-1,-1],"split_conditions":[2.39E0,1.55E0,4.2E0,1.33E0,2.05E0,2.88E0,9.5E0,1.436E0,1.2E1,3.7E0,2.5E-1,2.793E0,4E0,1.7E-1,2.6E0,5.36E-1,3.2E0,1.298E0,9.38E-1,2E0,3.79E0,1.4E1,2.2E0,2.2E0,2.62E0,3.33E0,1.33E0,1.8E0,5.25E0,1.22E0,2.4E0,3.5E-2,8.828151E-3,1.8099023E-2,-6.999238E-3,1.7866135E-2,3.2469183E-2,5.588594E-3,1.6726967E-2,6.464088E-3,1.7850358E-2,9.6997406E-5,6.927689E-3,4.516901E-3,1.00538945E-2,-9.158033E-4,3.5E-2,6.17426E-4,4.429491E-3,2.499975E-2,3.8750363E-3,-4.056552E-3,3.3384554E-2,-1.6298268E-3,2.9375183E-4,-7.6369974E-3,-3.3255701E-3,-2.4199765E-3,-5.2647297E-3,-1.2368678E-2,-8.239702E-3,-5.7882746E-3,1.1780678E-2],"split_indices":[24,24,24,2,24,24,24,16,1,22,12,19,20,11,2,15,10,15,16,10,22,21,2,9,22,7,2,2,24,22,5,0,0,0,0,0,0,0,0,0,0,0,0,0,0,0,0,0,0,0,0,0,0,0,0,0,0,0,0,0,0,0,0],"split_type":[0,0,0,0,0,0,0,0,0,0,0,0,0,0,0,0,0,0,0,0,0,0,0,0,0,0,0,0,0,0,0,0,0,0,0,0,0,0,0,0,0,0,0,0,0,0,0,0,0,0,0,0,0,0,0,0,0,0,0,0,0,0,0],"sum_hessian":[3.825155E4,9.20774E3,2.904381E4,2.1665166E3,7.0412236E3,1.7458662E4,1.1585148E4,1.5295823E3,6.369344E2,3.588997E3,3.4522266E3,5.1650366E3,1.2293625E4,9.596787E3,1.9883607E3,1.1637961E3,3.6578613E2,1.719057E2,4.650287E2,4.0358328E2,3.1854138E3,2.9564084E3,4.9581815E2,5.066785E3,9.825162E1,1.2593333E3,1.1034292E4,1.8290807E3,7.7677065E3,1.5265277E3,4.6183313E2,6.8097477E0,1.1569863E3,3.37351E2,2.8435135E1,6.164912E1,1.1025658E2,1.6583716E2,2.9919153E2,2.1070084E2,1.9288243E2,2.1462917E2,2.9707847E3,2.6356248E3,3.207836E2,4.9139334E2,4.4248056E0,4.460281E3,6.065046E2,4.264584E1,5.5605774E1,1.2470232E3,1.2310058E1,6.791183E3,4.2431094E3,1.43132E3,3.9776074E2,3.5455127E3,4.222194E3,6.9116876E2,8.353589E2,4.362057E2,2.5627445E1],"tree_param":{"num_deleted":"0","num_feature":"26","num_nodes":"63","size_leaf_vector":"1"}},{"base_weights":[-3.6386133E-4,1.4822428E-1,-4.8210952E-2,9.222972E-2,2.1597393E-1,-2.3025699E-2,-1.3715248E-1,1.4734586E-1,7.995037E-2,1.7577623E-1,2.7488238E-1,-3.5874436E-3,-6.1888207E-2,-1.9508153E-1,-1.2346655E-1,1.7971513E-1,-6.315178E-3,6.813046E-2,1.808452E-1,6.471429E-1,1.7197248E-1,2.417714E-1,3.6696032E-1,-3.27142E-2,3.1237576E-2,-8.3501086E-2,7.3700044E-3,-2.3595797E-1,-9.690565E-2,-1.8583979E-1,-1.1557056E-1,8.180731E-3,2.8929105E-2,2.9570113E-3,-1.5383566E-2,-6.9775432E-3,3.6488757E-3,-7.2317645E-3,1.1106817E-2,-3.771786E-3,3.5E-2,5.701439E-3,1.0423776E-2,1.15704825E-2,3.1195892E-2,1.1640657E-2,2.1556754E-2,-4.068717E-3,-1.10456E-3,3.454887E-3,6.257166E-4,-4.2503043E-3,2.2013975E-2,-1.8856504E-4,9.894214E-3,-1.2438985E-2,4.4419426E-3,2.5652999E-3,-6.924367E-3,-6.871057E-3,-1.3334364E-2,-5.947149E-3,5.834641E-3],"categories":[],"categories_nodes":[],"categories_segments":[],"categories_sizes":[],"default_left":[0,0,0,0,0,0,0,0,0,0,0,0,0,0,0,0,0,0,0,0,0,0,0,0,0,0,0,0,0,0,0,0,0,0,0,0,0,0,0,0,0,0,0,0,0,0,0,0,0,0,0,0,0,0,0,0,0,0,0,0,0,0,0],"id":17,"left_children":[1,3,5,7,9,11,13,15,17,19,21,23,25,27,29,31,33,35,37,39,41,43,45,47,49,51,53,55,57,59,61,-1,-1,-1,-1,-1,-1,-1,-1,-1,-1,-1,-1,-1,-1,-1,-1,-1,-1,-1,-1,-1,-1,-1,-1,-1,-1,-1,-1,-1,-1,-1,-1],"loss_changes":[2.7130157E2,3.524164E1,6.465573E1,3.4335747E0,9.9096985E0,1.6994167E1,5.0259323E0,4.608635E0,4.9551907E0,4.3753204E0,5.106079E0,1.5213093E1,1.122806E1,4.855282E0,2.517456E0,4.8193417E0,3.2166388E0,3.76515E0,5.8944483E0,4.4473333E0,5.229561E0,4.829666E0,3.7626534E0,4.2199297E0,4.8413095E0,4.543869E0,3.7892792E0,3.5932617E0,2.2197616E0,2.2245045E0,3.6002045E0,0E0,0E0,0E0,0E0,0E0,0E0,0E0,0E0,0E0,0E0,0E0,0E0,0E0,0E0,0E0,0E0,0E0,0E0,0E0,0E0,0E0,0E0,0E0,0E0,0E0,0E0,0E0,0E0,0E0,0E0,0E0,0E0],"parents":[2147483647,0,0,1,1,2,2,3,3,4,4,5,5,6,6,7,7,8,8,9,9,10,10,11,11,12,12,13,13,14,14,15,15,16,16,17,17,18,18,19,19,20,20,21,21,22,22,23,23,24,24,25,25,26,26,27,27,28,28,29,29,30,30],"right_children":[2,4,6,8,10,12,14,16,18,20,22,24,26,28,30,32,34,36,38,40,42,44,46,48,50,52,54,56,58,60,62,-1,-1,-1,-1,-1,-1,-1,-1,-1,-1,-1,-1,-1,-1,-1,-1,-1,-1,-1,-1,-1,-1,-1,-1,-1,-1,-1,-1,-1,-1,-1,-1],"split_conditions":[2.39E0,3.75E0,5.5E0,7E0,4.4E0,3.79E0,1.25E0,1.647E0,1.4E1,2E0,1.7E-1,3.3E0,3.75E0,2.6E0,2E-1,2.2E0,1.3E1,3.99E-1,9.57E-1,1.249E0,1.18E0,3.33E0,9.38E-1,2.25E0,2.88E0,4.67E0,1.5E1,5E-1,1.962E0,8E0,2.33E0,8.180731E-3,2.8929105E-2,2.9570113E-3,-1.5383566E-2,-6.9775432E-3,3.6488757E-3,-7.2317645E-3,1.1106817E-2,-3.771786E-3,3.5E-2,5.701439E-3,1.0423776E-2,1.15704825E-2,3.1195892E-2,1.1640657E-2,2.1556754E-2,-4.068717E-3,-1.10456E-3,3.454887E-3,6.257166E-4,-4.2503043E-3,2.2013975E-2,-1.8856504E-4,9.894214E-3,-1.2438985E-2,4.4419426E-3,2.5652999E-3,-6.924367E-3,-6.871057E-3,-1.3334364E-2,-5.947149E-3,5.834641E-3],"split_indices":[24,23,24,1,23,24,22,16,21,1,13,23,23,2,7,4,20,16,19,17,15,7,16,22,24,9,21,13,14,24,3,0,0,0,0,0,0,0,0,0,0,0,0,0,0,0,0,0,0,0,0,0,0,0,0,0,0,0,0,0,0,0,0],"split_type":[0,0,0,0,0,0,0,0,0,0,0,0,0,0,0,0,0,0,0,0,0,0,0,0,0,0,0,0,0,0,0,0,0,0,0,0,0,0,0,0,0,0,0,0,0,0,0,0,0,0,0,0,0,0,0,0,0,0,0,0,0,0,0],"sum_hessian":[3.8158367E4,9.293986E3,2.886438E4,5.089727E3,4.20426E3,2.2495633E4,6.368748E3,9.2533594E2,4.164391E3,2.501369E3,1.7028906E3,1.4996016E4,7.499617E3,1.2145621E3,5.154186E3,7.6418744E2,1.6114854E2,3.729189E3,4.3520206E2,1.8669521E1,2.4826995E3,1.2551633E3,4.477274E2,8.166132E3,6.8298833E3,5.7157437E3,1.7838737E3,8.5653314E2,3.58029E2,5.766321E2,4.5775537E3,7.358928E2,2.8294586E1,1.3305284E2,2.80957E1,8.441637E1,3.6447727E3,4.8713264E1,3.864888E2,7.302479E0,1.1367042E1,9.6114056E2,1.5215588E3,1.2235917E3,3.1571606E1,1.4637704E2,3.0135034E2,1.4621034E3,6.704029E3,2.2590935E3,4.57079E3,5.7002026E3,1.5540897E1,1.6862422E3,9.7631516E1,8.242298E2,3.230335E1,7.838908E1,2.7963992E2,3.623341E2,2.1429799E2,4.512521E3,6.503298E1],"tree_param":{"num_deleted":"0","num_feature":"26","num_nodes":"63","size_leaf_vector":"1"}},{"base_weights":[1.1059056E-3,1.4159535E-1,-4.4552445E-2,1.1308696E-1,2.6426548E-1,-1.4317921E-2,-1.2536386E-1,6.821097E-2,1.4441113E-1,2.5858048E-1,3.5E-2,-4.003502E-2,9.434296E-3,-1.9855772E-1,-1.12351425E-1,6.438128E-2,4.7095492E-1,1.1079822E-1,1.692224E-1,5.361959E-1,2.4986315E-1,-8.431938E-2,-2.4156423E-2,4.4705786E-2,-1.5270758E-2,-2.3340705E-1,-1.1259747E-1,-2.107173E-1,-1.0722988E-1,7.5072056E-4,4.5049856E-3,2.9837057E-2,-1.9171458E-2,2.3943698E-2,5.1394133E-3,6.0881577E-3,9.962449E-3,4.546067E-3,3.5E-2,1.1519131E-2,1.9256683E-2,-4.6967287E-3,3.9964947E-3,-3.6187184E-3,-4.350183E-4,1.7782567E-3,1.0402072E-2,1.2436102E-2,-8.6441357E-4,-1.4875277E-2,-8.980513E-3,-6.6776923E-3,1.2066092E-2,-1.3267243E-2,-1.6860159E-4,-3.7072927E-3,-6.2929015E-3],"categories":[],"categories_nodes":[],"categories_segments":[],"categories_sizes":[],"default_left":[0,0,0,0,0,0,0,0,0,0,0,0,0,0,0,0,0,0,0,0,0,0,0,0,0,0,0,0,0,0,0,0,0,0,0,0,0,0,0,0,0,0,0,0,0,0,0,0,0,0,0,0,0,0,0,0,0],"id":18,"left_children":[1,3,5,7,9,11,13,15,17,19,-1,21,23,25,27,29,31,33,35,37,39,41,43,45,47,49,51,53,55,-1,-1,-1,-1,-1,-1,-1,-1,-1,-1,-1,-1,-1,-1,-1,-1,-1,-1,-1,-1,-1,-1,-1,-1,-1,-1,-1,-1],"loss_changes":[2.4626126E2,3.2901184E1,7.0791824E1,1.0733414E1,5.804329E0,1.2881026E1,7.491249E0,4.818328E0,3.7341843E0,4.1298447E0,0E0,7.117481E0,9.553672E0,3.5369797E0,3.3529434E0,3.953762E0,3.3940716E0,5.5935955E0,3.6624222E0,4.090723E0,4.41761E0,4.227068E0,5.5545526E0,6.735035E0,3.4385395E0,2.861824E0,2.5914493E0,3.7432833E0,3.9169388E0,0E0,0E0,0E0,0E0,0E0,0E0,0E0,0E0,0E0,0E0,0E0,0E0,0E0,0E0,0E0,0E0,0E0,0E0,0E0,0E0,0E0,0E0,0E0,0E0,0E0,0E0,0E0,0E0],"parents":[2147483647,0,0,1,1,2,2,3,3,4,4,5,5,6,6,7,7,8,8,9,9,11,11,12,12,13,13,14,14,15,15,16,16,17,17,18,18,19,19,20,20,21,21,22,22,23,23,24,24,25,25,26,26,27,27,28,28],"right_children":[2,4,6,8,10,12,14,16,18,20,-1,22,24,26,28,30,32,34,36,38,40,42,44,46,48,50,52,54,56,-1,-1,-1,-1,-1,-1,-1,-1,-1,-1,-1,-1,-1,-1,-1,-1,-1,-1,-1,-1,-1,-1,-1,-1,-1,-1,-1,-1],"split_conditions":[2.39E0,4.4E0,4.8E0,3.5E0,1.433E0,3.3E0,1.25E0,3.75E0,1.167E0,8.63E-1,3.5E-2,2.2E0,3.39E0,2.6E0,3.39E0,6.71E-1,2.17E0,4.44E-1,3.7E0,7.5E-1,3.25E0,2E0,8E-1,2.483E0,5.16E-1,1.4E0,2.4E0,1.751E0,6E0,7.5072056E-4,4.5049856E-3,2.9837057E-2,-1.9171458E-2,2.3943698E-2,5.1394133E-3,6.0881577E-3,9.962449E-3,4.546067E-3,3.5E-2,1.1519131E-2,1.9256683E-2,-4.6967287E-3,3.9964947E-3,-3.6187184E-3,-4.350183E-4,1.7782567E-3,1.0402072E-2,1.2436102E-2,-8.6441357E-4,-1.4875277E-2,-8.980513E-3,-6.6776923E-3,1.2066092E-2,-1.3267243E-2,-1.6860159E-4,-3.7072927E-3,-6.2929015E-3],"split_indices":[24,23,24,23,17,23,22,8,15,15,0,22,24,2,23,17,4,16,23,6,8,2,9,18,18,5,5,19,24,0,0,0,0,0,0,0,0,0,0,0,0,0,0,0,0,0,0,0,0,0,0,0,0,0,0,0,0],"split_type":[0,0,0,0,0,0,0,0,0,0,0,0,0,0,0,0,0,0,0,0,0,0,0,0,0,0,0,0,0,0,0,0,0,0,0,0,0,0,0,0,0,0,0,0,0,0,0,0,0,0,0,0,0,0,0,0,0],"sum_hessian":[3.838926E4,9.415607E3,2.8973656E4,7.641625E3,1.7739822E3,2.1085844E4,7.887813E3,3.1426052E3,4.4990195E3,1.7608602E3,1.3121934E1,1.0123836E4,1.0962007E4,1.1884757E3,6.6993374E3,3.1141528E3,2.845261E1,1.9129415E3,2.5860781E3,5.1766827E1,1.7090934E3,2.6708108E3,7.453025E3,4.515048E3,6.446959E3,8.4442163E2,3.440541E2,3.295602E2,6.369777E3,1.0672113E3,2.0469414E3,2.5064114E1,3.388496E0,3.9490246E1,1.8734513E3,1.0040912E3,1.5819869E3,1.5164217E1,3.6602608E1,1.4963103E3,2.1278307E2,2.523512E3,1.4729892E2,1.8082334E3,5.6447915E3,4.2769194E3,2.3812885E2,4.7968502E1,6.3989907E3,3.832509E2,4.6117072E2,3.2540857E2,1.864554E1,2.6061768E2,6.894253E1,2.2963625E3,4.0734143E3],"tree_param":{"num_deleted":"0","num_feature":"26","num_nodes":"57","size_leaf_vector":"1"}},{"base_weights":[6.934747E-4,-4.225029E-2,1.3736397E-1,-1.1883548E-1,-2.1428078E-2,7.783339E-2,2.05474E-1,-1.8408628E-1,-1.0360907E-1,-4.421934E-2,3.720278E-3,1.6968606E-2,1.0898749E-1,1.6878082E-1,2.5813514E-1,-2.2471382E-1,-8.050029E-2,-1.3927303E-1,-8.519703E-2,-9.327914E-2,-2.4133993E-2,-8.451039E-3,8.833825E-2,-5.5524204E-2,4.554791E-2,1.04732856E-1,4.3448734E-1,9.341587E-2,1.9119257E-1,2.1459167E-1,3.185885E-1,-1.19207185E-2,7.885067E-3,6.201522E-3,-6.053287E-3,-8.022131E-3,-2.005793E-3,1.5774362E-3,-4.9962536E-3,-3.7817482E-3,-7.1506873E-3,-2.481368E-3,3.2322685E-4,-1.5603404E-3,4.195935E-4,6.598543E-3,1.8047454E-3,5.5192076E-3,-4.7320146E-3,-5.5620885E-3,3.225641E-3,4.564155E-3,1.0369295E-2,3.5E-2,1.2914441E-2,5.8715707E-3,-6.597373E-3,8.01463E-3,1.3075731E-2,1.0023787E-2,2.958754E-2,2.6040147E-3,1.6623605E-2],"categories":[],"categories_nodes":[],"categories_segments":[],"categories_sizes":[],"default_left":[0,0,0,0,0,0,0,0,0,0,0,0,0,0,0,0,0,0,0,0,0,0,0,0,0,0,0,0,0,0,0,0,0,0,0,0,0,0,0,0,0,0,0,0,0,0,0,0,0,0,0,0,0,0,0,0,0,0,0,0,0,0,0],"id":19,"left_children":[1,3,5,7,9,11,13,15,17,19,21,23,25,27,29,31,33,35,37,39,41,43,45,47,49,51,53,55,57,59,61,-1,-1,-1,-1,-1,-1,-1,-1,-1,-1,-1,-1,-1,-1,-1,-1,-1,-1,-1,-1,-1,-1,-1,-1,-1,-1,-1,-1,-1,-1,-1,-1],"loss_changes":[2.2453113E2,4.6417686E1,3.7070145E1,6.1630783E0,1.3118831E1,9.255955E0,8.1983185E0,4.931015E0,3.3024635E0,1.1829111E1,1.1208603E1,3.4295924E0,4.426506E0,4.2329025E0,4.5373383E0,4.460285E0,2.7766864E0,3.5977058E0,5.7312756E0,3.0494804E0,6.6467776E0,3.6470284E0,3.1148643E0,3.0487967E0,3.5366375E0,4.383747E0,3.443644E0,3.1481242E0,4.1711044E0,5.312519E0,2.685646E0,0E0,0E0,0E0,0E0,0E0,0E0,0E0,0E0,0E0,0E0,0E0,0E0,0E0,0E0,0E0,0E0,0E0,0E0,0E0,0E0,0E0,0E0,0E0,0E0,0E0,0E0,0E0,0E0,0E0,0E0,0E0,0E0],"parents":[2147483647,0,0,1,1,2,2,3,3,4,4,5,5,6,6,7,7,8,8,9,9,10,10,11,11,12,12,13,13,14,14,15,15,16,16,17,17,18,18,19,19,20,20,21,21,22,22,23,23,24,24,25,25,26,26,27,27,28,28,29,29,30,30],"right_children":[2,4,6,8,10,12,14,16,18,20,22,24,26,28,30,32,34,36,38,40,42,44,46,48,50,52,54,56,58,60,62,-1,-1,-1,-1,-1,-1,-1,-1,-1,-1,-1,-1,-1,-1,-1,-1,-1,-1,-1,-1,-1,-1,-1,-1,-1,-1,-1,-1,-1,-1,-1,-1],"split_conditions":[3.1E0,1.66E0,3.7E0,1.25E0,2.25E0,3.29E0,4.4E0,2.6E0,1E0,3.3E0,3.5E0,1.17E0,3.75E0,4.86E-1,1.33E0,5E-1,1.919E0,1.966E0,7.69E-1,1E1,1.95E0,1.75E0,1.549E0,3.2E0,9.83E-1,1.4E1,6E-1,1.583E0,1.6E0,1.8E1,8E-1,-1.19207185E-2,7.885067E-3,6.201522E-3,-6.053287E-3,-8.022131E-3,-2.005793E-3,1.5774362E-3,-4.9962536E-3,-3.7817482E-3,-7.1506873E-3,-2.481368E-3,3.2322685E-4,-1.5603404E-3,4.195935E-4,6.598543E-3,1.8047454E-3,5.5192076E-3,-4.7320146E-3,-5.5620885E-3,3.225641E-3,4.564155E-3,1.0369295E-2,3.5E-2,1.2914441E-2,5.8715707E-3,-6.597373E-3,8.01463E-3,1.3075731E-2,1.0023787E-2,2.958754E-2,2.6040147E-3,1.6623605E-2],"split_indices":[22,22,23,22,22,23,23,2,3,23,23,4,8,17,6,13,14,18,14,0,22,10,18,22,18,21,6,16,6,21,4,0,0,0,0,0,0,0,0,0,0,0,0,0,0,0,0,0,0,0,0,0,0,0,0,0,0,0,0,0,0,0,0],"split_type":[0,0,0,0,0,0,0,0,0,0,0,0,0,0,0,0,0,0,0,0,0,0,0,0,0,0,0,0,0,0,0,0,0,0,0,0,0,0,0,0,0,0,0,0,0,0,0,0,0,0,0,0,0,0,0,0,0,0,0,0,0,0,0],"sum_hessian":[3.8254195E4,2.9108568E4,9.145625E3,6.221363E3,2.2887205E4,4.8813213E3,4.264304E3,1.1749927E3,5.04637E3,1.2005864E4,1.0881342E4,1.6531527E3,3.2281685E3,2.5156543E3,1.7486499E3,8.431362E2,3.3185645E2,1.715976E3,3.3303943E3,3.4864165E3,8.519447E3,9.513793E3,1.3675491E3,4.6718137E2,1.1859713E3,3.187822E3,4.034649E1,5.7780664E2,1.9378478E3,1.0191351E3,7.2951483E2,8.14338E2,2.8798233E1,5.458445E1,2.77272E2,1.4135677E3,3.0240823E2,3.7295163E2,2.9574426E3,2.5753052E3,9.111112E2,4.6470806E3,3.872367E3,4.0462358E3,5.467557E3,7.443536E2,6.231955E2,8.878472E1,3.7839664E2,1.2744794E2,1.0585234E3,2.8202039E3,3.676182E2,6.245822E0,3.4100666E1,5.225958E2,5.52108E1,1.3485607E3,5.892871E2,9.838443E2,3.52908E1,3.6357155E1,6.931577E2],"tree_param":{"num_deleted":"0","num_feature":"26","num_nodes":"63","size_leaf_vector":"1"}},{"base_weights":[9.475703E-4,1.3087136E-1,-4.21754E-2,8.425901E-2,1.840958E-1,-1.47125665E-2,-1.169188E-1,3.265101E-2,1.03749834E-1,3.3479175E-1,1.7315829E-1,3.0732738E-2,-2.957558E-2,-9.310585E-2,-1.5037885E-1,4.5520255E-1,2.5680508E-2,9.440117E-2,1.9862771E-1,7E-1,3.0539003E-1,1.6864176E-1,3.6511955E-1,-1.0767875E-2,6.6079535E-2,-5.3574327E-2,1.0194975E-3,-1.4417985E-1,-7.8747354E-2,-1.426315E-1,-2.7085546E-1,5.2227476E-4,3.5E-2,5.6083854E-3,-7.952806E-5,5.1946733E-3,-3.914501E-3,6.083407E-3,2.4169998E-2,3.5E-2,5.767559E-3,9.127859E-3,2.1667892E-2,3.5E-2,8.342899E-3,2.5282627E-2,-1.0122515E-3,-1.3160447E-2,-1.7645977E-4,-5.632214E-3,3.5815616E-3,-3.8368807E-3,-1.8589081E-3,1.5864533E-3,-1.4590294E-3,-5.9290733E-3,-1.2391156E-2,-2.6004978E-3,-5.22154E-3,-9.984051E-3,-6.4532E-3,-4.907976E-3,-1.6172795E-2],"categories":[],"categories_nodes":[],"categories_segments":[],"categories_sizes":[],"default_left":[0,0,0,0,0,0,0,0,0,0,0,0,0,0,0,0,0,0,0,0,0,0,0,0,0,0,0,0,0,0,0,0,0,0,0,0,0,0,0,0,0,0,0,0,0,0,0,0,0,0,0,0,0,0,0,0,0,0,0,0,0,0,0],"id":20,"left_children":[1,3,5,7,9,11,13,15,17,19,21,23,25,27,29,31,33,35,37,39,41,43,45,47,49,51,53,55,57,59,61,-1,-1,-1,-1,-1,-1,-1,-1,-1,-1,-1,-1,-1,-1,-1,-1,-1,-1,-1,-1,-1,-1,-1,-1,-1,-1,-1,-1,-1,-1,-1,-1],"loss_changes":[2.1436357E2,2.3638824E1,5.896367E1,5.1113586E0,7.277832E0,1.4191291E1,6.1360626E0,4.098317E0,3.254593E0,5.01495E0,3.537819E0,7.5965133E0,1.1624279E1,3.2975044E0,2.9552612E0,4.2489433E0,3.2404563E0,5.518133E0,7.1758566E0,9.045391E-1,4.517004E0,3.8902435E0,5.1321344E0,4.352846E0,2.7828197E0,3.366724E0,6.4561615E0,2.594284E0,2.414587E0,2.3086052E0,1.7186508E0,0E0,0E0,0E0,0E0,0E0,0E0,0E0,0E0,0E0,0E0,0E0,0E0,0E0,0E0,0E0,0E0,0E0,0E0,0E0,0E0,0E0,0E0,0E0,0E0,0E0,0E0,0E0,0E0,0E0,0E0,0E0,0E0],"parents":[2147483647,0,0,1,1,2,2,3,3,4,4,5,5,6,6,7,7,8,8,9,9,10,10,11,11,12,12,13,13,14,14,15,15,16,16,17,17,18,18,19,19,20,20,21,21,22,22,23,23,24,24,25,25,26,26,27,27,28,28,29,29,30,30],"right_children":[2,4,6,8,10,12,14,16,18,20,22,24,26,28,30,32,34,36,38,40,42,44,46,48,50,52,54,56,58,60,62,-1,-1,-1,-1,-1,-1,-1,-1,-1,-1,-1,-1,-1,-1,-1,-1,-1,-1,-1,-1,-1,-1,-1,-1,-1,-1,-1,-1,-1,-1,-1,-1],"split_conditions":[2.39E0,3.7E0,4.8E0,3.29E0,1.22E0,2.88E0,7.5E0,2.88E0,1.331E0,6E0,1.424E0,3.25E0,3.39E0,3.6E0,3.25E0,8E0,1.17E0,2.408E0,9E0,2.25E0,1.75E0,3.29E-1,2.25E0,5.77E-1,3.75E-1,2.2E0,3.8E0,2.67E0,6E0,5E0,4.33E-1,5.2227476E-4,3.5E-2,5.6083854E-3,-7.952806E-5,5.1946733E-3,-3.914501E-3,6.083407E-3,2.4169998E-2,3.5E-2,5.767559E-3,9.127859E-3,2.1667892E-2,3.5E-2,8.342899E-3,2.5282627E-2,-1.0122515E-3,-1.3160447E-2,-1.7645977E-4,-5.632214E-3,3.5815616E-3,-3.8368807E-3,-1.8589081E-3,1.5864533E-3,-1.4590294E-3,-5.9290733E-3,-1.2391156E-2,-2.6004978E-3,-5.22154E-3,-9.984051E-3,-6.4532E-3,-4.907976E-3,-1.6172795E-2],"split_indices":[24,23,24,23,24,24,24,22,17,23,17,23,23,23,9,1,11,19,1,8,4,15,8,19,16,22,24,10,24,20,15,0,0,0,0,0,0,0,0,0,0,0,0,0,0,0,0,0,0,0,0,0,0,0,0,0,0,0,0,0,0,0,0],"split_type":[0,0,0,0,0,0,0,0,0,0,0,0,0,0,0,0,0,0,0,0,0,0,0,0,0,0,0,0,0,0,0,0,0,0,0,0,0,0,0,0,0,0,0,0,0,0,0,0,0,0,0,0,0,0,0,0,0,0,0,0,0,0,0],"sum_hessian":[3.8258777E4,9.533518E3,2.8725258E4,5.0838335E3,4.449684E3,2.1007652E4,7.717607E3,1.3944004E3,3.6894329E3,2.991004E2,4.1505835E3,5.177083E3,1.5830568E4,4.510993E3,3.2066138E3,2.158548E1,1.372815E3,3.3603232E3,3.2910974E2,7.7016487E0,2.9139874E2,4.0570078E3,9.357598E1,2.3815752E3,2.7955078E3,8.871232E3,6.959336E3,9.87908E2,3.5230852E3,3.0149207E3,1.916931E2,1.1813E1,9.77248E0,3.283562E2,1.0444587E3,3.1856182E3,1.7470503E2,2.602142E2,6.889552E1,4.6218376E0,3.079811E0,1.499206E2,1.4147815E2,1.1698682E1,4.045309E3,6.834141E1,2.5234575E1,6.540168E1,2.3161736E3,8.363952E1,2.7118682E3,3.675325E3,5.1959077E3,3.4505369E3,3.5087988E3,7.939564E2,1.9395158E2,1.7276082E3,1.795477E3,5.766157E2,2.438305E3,4.5424168E1,1.4626894E2],"tree_param":{"num_deleted":"0","num_feature":"26","num_nodes":"63","size_leaf_vector":"1"}},{"base_weights":[1.0568228E-3,1.4142522E-1,-3.8567685E-2,2.3230964E-1,1.06158696E-1,1.300232E-3,-9.150815E-2,3.428664E-1,2.1506415E-1,1.15859285E-1,-2.6235212E-2,-2.6350182E-2,3.2382023E-2,-7.167989E-2,-1.497189E-1,-1.7103238E-1,3.762053E-1,2.4461976E-1,1.4870651E-1,7.5552E-2,1.3826266E-1,2.9300347E-1,-6.723192E-2,2.5055092E-2,-3.989818E-2,6.4101316E-2,1.5922058E-2,-7.799889E-2,1.2247985E-2,-1.3996813E-1,-2.1991342E-1,7.7961693E-3,-1.3620007E-2,3.2018065E-2,1.5631078E-2,1.1022303E-2,2.5722995E-2,5.5760476E-3,1.8015249E-2,3.4909116E-3,2.6908418E-2,6.649197E-3,1.832231E-2,-2.2673141E-3,2.966894E-2,-4.1026147E-3,3.499807E-2,5.2698277E-4,1.33002475E-2,-1.7775862E-3,-9.030479E-3,2.2096462E-3,6.8595856E-3,-7.3376944E-4,1.8090457E-3,-4.451063E-3,-8.0724776E-4,-1.3949216E-3,5.7450114E-3,-7.420073E-3,-3.0665372E-3,1.9774891E-2,-1.1452909E-2],"categories":[],"categories_nodes":[],"categories_segments":[],"categories_sizes":[],"default_left":[0,0,0,0,0,0,0,0,0,0,0,0,0,0,0,0,0,0,0,0,0,0,0,0,0,0,0,0,0,0,0,0,0,0,0,0,0,0,0,0,0,0,0,0,0,0,0,0,0,0,0,0,0,0,0,0,0,0,0,0,0,0,0],"id":21,"left_children":[1,3,5,7,9,11,13,15,17,19,21,23,25,27,29,31,33,35,37,39,41,43,45,47,49,51,53,55,57,59,61,-1,-1,-1,-1,-1,-1,-1,-1,-1,-1,-1,-1,-1,-1,-1,-1,-1,-1,-1,-1,-1,-1,-1,-1,-1,-1,-1,-1,-1,-1,-1,-1],"loss_changes":[2.1302895E2,2.7000366E1,6.3042236E1,4.418808E0,7.8069153E0,1.4644628E1,1.479892E1,5.4830093E0,3.966568E0,5.102211E0,5.459492E0,6.2813597E0,4.1873703E0,5.0777397E0,2.1999588E0,7.038555E-1,4.793579E0,9.087563E0,4.9286537E0,5.333437E0,4.333145E0,4.85328E0,4.2547226E0,6.5779314E0,4.3587036E0,3.9815044E0,3.2752035E0,6.068142E0,2.7690387E0,1.8904839E0,2.3178616E0,0E0,0E0,0E0,0E0,0E0,0E0,0E0,0E0,0E0,0E0,0E0,0E0,0E0,0E0,0E0,0E0,0E0,0E0,0E0,0E0,0E0,0E0,0E0,0E0,0E0,0E0,0E0,0E0,0E0,0E0,0E0,0E0],"parents":[2147483647,0,0,1,1,2,2,3,3,4,4,5,5,6,6,7,7,8,8,9,9,10,10,11,11,12,12,13,13,14,14,15,15,16,16,17,17,18,18,19,19,20,20,21,21,22,22,23,23,24,24,25,25,26,26,27,27,28,28,29,29,30,30],"right_children":[2,4,6,8,10,12,14,16,18,20,22,24,26,28,30,32,34,36,38,40,42,44,46,48,50,52,54,56,58,60,62,-1,-1,-1,-1,-1,-1,-1,-1,-1,-1,-1,-1,-1,-1,-1,-1,-1,-1,-1,-1,-1,-1,-1,-1,-1,-1,-1,-1,-1,-1,-1,-1],"split_conditions":[2.29E0,1.55E0,3.9E0,1.22E0,1.784E0,3.3E0,7.5E0,1.149E0,1.823E0,3.5E0,6E-1,2.62E0,2.87E0,2.33E0,2.6E0,1.2E0,1.6E0,2.75E0,2.049E0,3.75E0,5E-1,3.5E0,2.2E0,1.5E1,2.87E0,1E1,7E0,2.4E0,1.232E0,1.8E0,2E-1,7.7961693E-3,-1.3620007E-2,3.2018065E-2,1.5631078E-2,1.1022303E-2,2.5722995E-2,5.5760476E-3,1.8015249E-2,3.4909116E-3,2.6908418E-2,6.649197E-3,1.832231E-2,-2.2673141E-3,2.966894E-2,-4.1026147E-3,3.499807E-2,5.2698277E-4,1.33002475E-2,-1.7775862E-3,-9.030479E-3,2.2096462E-3,6.8595856E-3,-7.3376944E-4,1.8090457E-3,-4.451063E-3,-8.0724776E-4,-1.3949216E-3,5.7450114E-3,-7.420073E-3,-3.0665372E-3,1.9774891E-2,-1.1452909E-2],"split_indices":[24,24,24,24,16,23,24,15,15,23,11,24,24,2,10,8,8,8,18,8,13,23,5,20,22,0,0,9,15,8,9,0,0,0,0,0,0,0,0,0,0,0,0,0,0,0,0,0,0,0,0,0,0,0,0,0,0,0,0,0,0,0,0],"split_type":[0,0,0,0,0,0,0,0,0,0,0,0,0,0,0,0,0,0,0,0,0,0,0,0,0,0,0,0,0,0,0,0,0,0,0,0,0,0,0,0,0,0,0,0,0,0,0,0,0,0,0,0,0,0,0,0,0,0,0,0,0,0,0],"sum_hessian":[3.8298605E4,8.430674E3,2.986793E4,2.355302E3,6.0753716E3,1.703805E4,1.2829881E4,3.152738E2,2.0400282E3,5.660731E3,4.1464056E2,9.016822E3,8.021228E3,9.571711E3,3.25817E3,1.8955544E1,2.9631827E2,1.4095363E3,6.3049194E2,2.0238575E3,3.6368735E3,4.648875E1,3.6815182E2,1.8805579E3,7.136264E3,2.7393838E3,5.281844E3,8.901574E3,6.701365E2,2.8634065E3,3.9476334E2,4.3586802E0,1.4596863E1,5.572789E1,2.4059036E2,1.2953123E3,1.1422391E2,5.375516E2,9.294037E1,2.0002174E3,2.3640245E1,3.5561887E3,8.068484E1,2.2261696E1,2.4227055E1,3.620509E2,6.100922E0,1.7746897E3,1.0586812E2,6.923651E3,2.126132E2,2.154221E3,5.851629E2,2.1041582E3,3.177686E3,7.5548594E3,1.3467148E3,4.8225778E2,1.878787E2,2.5852676E3,2.7813913E2,5.1615167E0,3.896018E2],"tree_param":{"num_deleted":"0","num_feature":"26","num_nodes":"63","size_leaf_vector":"1"}},{"base_weights":[-2.364037E-3,1.2382822E-1,-4.4920158E-2,2.123838E-1,9.573622E-2,-9.137918E-3,-1.0041262E-1,1.864303E-1,2.840908E-1,6.274672E-2,1.1221551E-1,2.243119E-2,-2.238853E-2,-7.901599E-2,-1.5383528E-1,2.9395556E-1,1.6783808E-1,3.8560018E-1,2.0719357E-1,-1.6479254E-2,8.626687E-2,1.3712774E-1,8.532254E-2,5.4357544E-2,-8.1907995E-3,-2.6358228E-2,6.775165E-2,-1.22670956E-1,-6.806676E-2,-1.828375E-1,-1.2639453E-1,-1.5070081E-2,1.6912246E-2,-3.3640102E-3,9.006452E-3,2.3968576E-2,7.009742E-3,6.159115E-3,1.6006809E-2,-2.223064E-3,2.3683157E-2,2.3742735E-2,3.8947058E-3,6.6792727E-3,3.5E-2,6.231177E-3,2.3181697E-3,2.2035833E-3,1.2272209E-2,6.295896E-4,-5.1935604E-3,-2.507813E-3,-5.814922E-4,7.380894E-3,-1.3625452E-3,-6.662966E-3,2.6932645E-3,-1.378101E-2,-3.2431723E-3,-8.022238E-3,-1.1558692E-2,-2.6790039E-3,-7.6469122E-3],"categories":[],"categories_nodes":[],"categories_segments":[],"categories_sizes":[],"default_left":[0,0,0,0,0,0,0,0,0,0,0,0,0,0,0,0,0,0,0,0,0,0,0,0,0,0,0,0,0,0,0,0,0,0,0,0,0,0,0,0,0,0,0,0,0,0,0,0,0,0,0,0,0,0,0,0,0,0,0,0,0,0,0],"id":22,"left_children":[1,3,5,7,9,11,13,15,17,19,21,23,25,27,29,31,33,35,37,39,41,43,45,47,49,51,53,55,57,59,61,-1,-1,-1,-1,-1,-1,-1,-1,-1,-1,-1,-1,-1,-1,-1,-1,-1,-1,-1,-1,-1,-1,-1,-1,-1,-1,-1,-1,-1,-1,-1,-1],"loss_changes":[2.0592336E2,2.4036163E1,5.6937443E1,4.2795944E0,3.9850006E0,7.2936096E0,1.2837379E1,3.3736954E0,4.7344666E0,4.563884E0,3.2682343E0,5.040159E0,4.396204E0,3.8292236E0,2.5344925E0,6.722677E0,4.237526E0,6.0236015E0,3.310834E0,7.719761E0,6.1061144E0,7.1225433E0,3.6029434E0,4.9497924E0,5.2351766E0,4.1225853E0,3.9366324E0,3.0141125E0,4.2511444E0,1.6516037E0,3.1896515E0,0E0,0E0,0E0,0E0,0E0,0E0,0E0,0E0,0E0,0E0,0E0,0E0,0E0,0E0,0E0,0E0,0E0,0E0,0E0,0E0,0E0,0E0,0E0,0E0,0E0,0E0,0E0,0E0,0E0,0E0,0E0,0E0],"parents":[2147483647,0,0,1,1,2,2,3,3,4,4,5,5,6,6,7,7,8,8,9,9,10,10,11,11,12,12,13,13,14,14,15,15,16,16,17,17,18,18,19,19,20,20,21,21,22,22,23,23,24,24,25,25,26,26,27,27,28,28,29,29,30,30],"right_children":[2,4,6,8,10,12,14,16,18,20,22,24,26,28,30,32,34,36,38,40,42,44,46,48,50,52,54,56,58,60,62,-1,-1,-1,-1,-1,-1,-1,-1,-1,-1,-1,-1,-1,-1,-1,-1,-1,-1,-1,-1,-1,-1,-1,-1,-1,-1,-1,-1,-1,-1,-1,-1],"split_conditions":[2.39E0,1.55E0,4.2E0,1.7E-1,1.211E0,2.88E0,7.5E0,1.22E0,1.83E0,5.5E-1,2.05E0,2.75E0,2.483E0,6.7E-1,1E0,1.072E0,1.34E-1,2.033E0,1.25E0,2.25E0,5.74E-1,2.002E0,8.28E-1,2.51E0,1.436E0,7E0,1.517E0,2.33E0,5.48E-1,1.294E0,1E0,-1.5070081E-2,1.6912246E-2,-3.3640102E-3,9.006452E-3,2.3968576E-2,7.009742E-3,6.159115E-3,1.6006809E-2,-2.223064E-3,2.3683157E-2,2.3742735E-2,3.8947058E-3,6.6792727E-3,3.5E-2,6.231177E-3,2.3181697E-3,2.2035833E-3,1.2272209E-2,6.295896E-4,-5.1935604E-3,-2.507813E-3,-5.814922E-4,7.380894E-3,-1.3625452E-3,-6.662966E-3,2.6932645E-3,-1.378101E-2,-3.2431723E-3,-8.022238E-3,-1.1558692E-2,-2.6790039E-3,-7.6469122E-3],"split_indices":[24,24,24,13,18,24,24,24,11,17,24,22,18,11,4,15,17,15,6,6,17,14,17,19,15,21,19,2,19,17,7,0,0,0,0,0,0,0,0,0,0,0,0,0,0,0,0,0,0,0,0,0,0,0,0,0,0,0,0,0,0,0,0],"split_type":[0,0,0,0,0,0,0,0,0,0,0,0,0,0,0,0,0,0,0,0,0,0,0,0,0,0,0,0,0,0,0,0,0,0,0,0,0,0,0,0,0,0,0,0,0,0,0,0,0,0,0,0,0,0,0,0,0,0,0,0,0,0,0],"sum_hessian":[3.8343152E4,9.669157E3,2.8673996E4,2.3270232E3,7.3421343E3,1.7433695E4,1.1240302E4,1.7112545E3,6.157687E2,2.4474502E3,4.894684E3,5.1539355E3,1.227976E4,8.027599E3,3.2127024E3,2.5008958E2,1.4611649E3,2.636797E2,3.5208902E2,5.603272E2,1.8871229E3,2.5387876E3,2.3558965E3,2.522849E3,2.6310864E3,1.1762458E4,5.1730133E2,1.6076481E3,6.419951E3,1.5591594E3,1.653543E3,1.6914333E1,2.3317525E2,7.236643E1,1.3887985E3,1.9009103E2,7.358867E1,2.0310326E2,1.4898575E2,5.3092615E2,2.9401064E1,3.8628372E1,1.8484946E3,2.530848E3,7.9396753E0,1.171708E3,1.1841886E3,2.3951526E3,1.2769649E2,2.1622878E3,4.6879874E2,4.4957876E3,7.2666704E3,2.807381E2,2.365632E2,1.5169113E3,9.073682E1,9.6284966E1,6.323666E3,1.0684829E3,4.906765E2,4.4255365E2,1.2109894E3],"tree_param":{"num_deleted":"0","num_feature":"26","num_nodes":"63","size_leaf_vector":"1"}},{"base_weights":[1.19729855E-4,1.2770429E-1,-4.3024767E-2,8.374561E-2,1.7768033E-1,-1.8435681E-2,-1.1042061E-1,4.7885258E-2,1.1911183E-1,1.5758851E-1,2.5386035E-1,2.4070064E-2,-3.226444E-2,-8.476936E-2,-1.4663082E-1,-4.0048216E-2,7.533832E-2,1.03194915E-1,2.4576715E-1,4.6373308E-1,1.5344927E-1,2.3050039E-1,4.5189074E-1,-2.5992574E-2,6.600342E-2,-5.373664E-2,-5.397504E-3,-1.0906569E-1,-5.512652E-2,-1.589588E-1,-8.697026E-2,-3.7449312E-3,8.042112E-3,4.880069E-3,-1.5428968E-4,2.0680474E-3,6.5700286E-3,1.6573751E-2,3.8391177E-3,-7.5987056E-3,3.390072E-2,7.5776274E-3,3.5E-2,1.3275409E-2,2.465351E-3,3.5E-2,1.3746408E-2,2.6166532E-2,-1.4894118E-3,2.633838E-3,1.0328548E-2,-4.4620335E-3,-2.0803981E-3,3.4389894E-3,-8.8192394E-4,-5.5251378E-3,3.2635327E-2,4.084674E-3,-3.307959E-3,-1.0814779E-2,-6.6798837E-3,4.4726185E-3,-6.3507566E-3],"categories":[],"categories_nodes":[],"categories_segments":[],"categories_sizes":[],"default_left":[0,0,0,0,0,0,0,0,0,0,0,0,0,0,0,0,0,0,0,0,0,0,0,0,0,0,0,0,0,0,0,0,0,0,0,0,0,0,0,0,0,0,0,0,0,0,0,0,0,0,0,0,0,0,0,0,0,0,0,0,0,0,0],"id":23,"left_children":[1,3,5,7,9,11,13,15,17,19,21,23,25,27,29,31,33,35,37,39,41,43,45,47,49,51,53,55,57,59,61,-1,-1,-1,-1,-1,-1,-1,-1,-1,-1,-1,-1,-1,-1,-1,-1,-1,-1,-1,-1,-1,-1,-1,-1,-1,-1,-1,-1,-1,-1,-1,-1],"loss_changes":[2.1097125E2,2.1262772E1,4.7462154E1,6.5318604E0,6.896057E0,1.2336445E1,7.0987854E0,6.185858E0,5.205288E0,4.4761963E0,4.263237E0,1.0817605E1,9.134768E0,3.2232742E0,2.3200989E0,4.2828636E0,3.4087296E0,4.017557E0,4.159384E0,6.353647E0,3.9514313E0,5.3565826E0,6.204792E0,4.9136887E0,5.241832E0,3.7861328E0,6.388992E0,2.7685032E0,3.0571365E0,3.7934494E0,3.8661113E0,0E0,0E0,0E0,0E0,0E0,0E0,0E0,0E0,0E0,0E0,0E0,0E0,0E0,0E0,0E0,0E0,0E0,0E0,0E0,0E0,0E0,0E0,0E0,0E0,0E0,0E0,0E0,0E0,0E0,0E0,0E0,0E0],"parents":[2147483647,0,0,1,1,2,2,3,3,4,4,5,5,6,6,7,7,8,8,9,9,10,10,11,11,12,12,13,13,14,14,15,15,16,16,17,17,18,18,19,19,20,20,21,21,22,22,23,23,24,24,25,25,26,26,27,27,28,28,29,29,30,30],"right_children":[2,4,6,8,10,12,14,16,18,20,22,24,26,28,30,32,34,36,38,40,42,44,46,48,50,52,54,56,58,60,62,-1,-1,-1,-1,-1,-1,-1,-1,-1,-1,-1,-1,-1,-1,-1,-1,-1,-1,-1,-1,-1,-1,-1,-1,-1,-1,-1,-1,-1,-1,-1,-1],"split_conditions":[2.39E0,3.7E0,4.8E0,8.02E-1,5.1E0,2.88E0,7.5E0,8E-1,1.4E1,4.5E-1,3.67E0,3.25E0,3.39E0,3.9E0,2.6E0,1.893E0,2.67E0,9.18E-1,8.65E-1,6E0,4.5E0,9.46E-1,2.099E0,2.39E0,1.2E1,1E0,3.2E0,3.5E0,6.32E-1,1.25E0,1.919E0,-3.7449312E-3,8.042112E-3,4.880069E-3,-1.5428968E-4,2.0680474E-3,6.5700286E-3,1.6573751E-2,3.8391177E-3,-7.5987056E-3,3.390072E-2,7.5776274E-3,3.5E-2,1.3275409E-2,2.465351E-3,3.5E-2,1.3746408E-2,2.6166532E-2,-1.4894118E-3,2.633838E-3,1.0328548E-2,-4.4620335E-3,-2.0803981E-3,3.4389894E-3,-8.8192394E-4,-5.5251378E-3,3.2635327E-2,4.084674E-3,-3.307959E-3,-1.0814779E-2,-6.6798837E-3,4.4726185E-3,-6.3507566E-3],"split_indices":[24,23,24,14,23,24,24,5,21,15,8,23,23,23,2,18,10,16,17,21,7,17,15,22,0,5,24,7,14,22,14,0,0,0,0,0,0,0,0,0,0,0,0,0,0,0,0,0,0,0,0,0,0,0,0,0,0,0,0,0,0,0,0],"split_type":[0,0,0,0,0,0,0,0,0,0,0,0,0,0,0,0,0,0,0,0,0,0,0,0,0,0,0,0,0,0,0,0,0,0,0,0,0,0,0,0,0,0,0,0,0,0,0,0,0,0,0,0,0,0,0,0,0,0,0,0,0,0,0],"sum_hessian":[3.8324555E4,9.684403E3,2.8640152E4,5.1538115E3,4.530592E3,2.0985102E4,7.655051E3,2.5601973E3,2.5936143E3,3.5874907E3,9.431011E2,5.151154E3,1.5833947E4,4.482791E3,3.17226E3,6.0901965E2,1.9511777E3,2.3056726E3,2.879417E2,4.6376564E1,3.541114E3,8.455255E2,9.757559E1,2.3481577E3,2.802996E3,8.799967E3,7.0339805E3,2.4620923E3,2.0206985E3,2.627634E3,5.446259E2,5.1952057E2,8.949908E1,1.5195602E3,4.316176E2,7.230437E2,1.5826289E3,1.9040704E2,9.753465E1,1.20482855E1,3.4328278E1,3.5314224E3,9.691753E0,7.082261E2,1.3729941E2,2.7939642E1,6.963595E1,1.5174456E1,2.3329834E3,2.5615227E3,2.4147325E2,2.2391094E3,6.5608574E3,9.95695E2,6.038285E3,2.4583098E3,3.7825844E0,1.5030519E2,1.8703933E3,8.035125E2,1.8241216E3,1.0052348E2,4.4410245E2],"tree_param":{"num_deleted":"0","num_feature":"26","num_nodes":"63","size_leaf_vector":"1"}},{"base_weights":[-2.0231178E-3,8.3698235E-2,-5.6658164E-2,4.193387E-2,1.4902428E-1,-3.2262266E-2,-1.07341856E-1,1.09337075E-2,6.923222E-2,1.2312653E-1,2.0401007E-1,-5.7923324E-2,-1.2540606E-2,-8.4242105E-2,-1.3991146E-1,8.176814E-3,4.7344273E-1,-1.1530525E-1,7.366968E-2,1.0651456E-1,1.870307E-1,6.462976E-1,1.9853869E-1,-3.9569866E-2,-9.99173E-2,-1.0286299E-2,-2.116812E-1,-1.0842749E-1,-5.222377E-2,-2.0612217E-1,-1.2837777E-1,-4.807718E-5,5.2070953E-3,3.5E-2,-2.0321736E-3,-1.540311E-2,-6.001645E-4,3.5243207E-3,1.5485266E-2,3.5E-2,5.247922E-3,5.7906853E-3,1.535662E-2,3.5E-2,1.3157951E-2,7.5662727E-3,1.1986931E-2,-1.7662247E-3,-1.0000571E-2,-5.6409743E-3,7.5260377E-3,-7.202866E-4,4.0521477E-3,-1.6020123E-2,6.9050603E-3,-4.813631E-3,-9.049219E-3,-3.474308E-3,2.5159544E-3,-1.0846022E-2,3.5E-2,-8.317E-3,-5.263938E-3],"categories":[],"categories_nodes":[],"categories_segments":[],"categories_sizes":[],"default_left":[0,0,0,0,0,0,0,0,0,0,0,0,0,0,0,0,0,0,0,0,0,0,0,0,0,0,0,0,0,0,0,0,0,0,0,0,0,0,0,0,0,0,0,0,0,0,0,0,0,0,0,0,0,0,0,0,0,0,0,0,0,0,0],"id":24,"left_children":[1,3,5,7,9,11,13,15,17,19,21,23,25,27,29,31,33,35,37,39,41,43,45,47,49,51,53,55,57,59,61,-1,-1,-1,-1,-1,-1,-1,-1,-1,-1,-1,-1,-1,-1,-1,-1,-1,-1,-1,-1,-1,-1,-1,-1,-1,-1,-1,-1,-1,-1,-1,-1],"loss_changes":[1.7956575E2,4.071254E1,2.8950272E1,7.7048187E0,8.262711E0,7.9998837E0,5.712349E0,5.4342E0,3.973217E0,4.1829567E0,4.377533E0,5.290798E0,4.0113306E0,3.4432564E0,2.3832703E0,3.7189543E0,4.8268356E0,2.2678907E0,3.531065E0,3.4972343E0,6.9397297E0,1.0774546E0,3.5441742E0,3.250187E0,6.765789E0,3.3274684E0,3.8479505E0,2.2194138E0,3.3994555E0,5.798725E0,2.3413696E0,0E0,0E0,0E0,0E0,0E0,0E0,0E0,0E0,0E0,0E0,0E0,0E0,0E0,0E0,0E0,0E0,0E0,0E0,0E0,0E0,0E0,0E0,0E0,0E0,0E0,0E0,0E0,0E0,0E0,0E0,0E0,0E0],"parents":[2147483647,0,0,1,1,2,2,3,3,4,4,5,5,6,6,7,7,8,8,9,9,10,10,11,11,12,12,13,13,14,14,15,15,16,16,17,17,18,18,19,19,20,20,21,21,22,22,23,23,24,24,25,25,26,26,27,27,28,28,29,29,30,30],"right_children":[2,4,6,8,10,12,14,16,18,20,22,24,26,28,30,32,34,36,38,40,42,44,46,48,50,52,54,56,58,60,62,-1,-1,-1,-1,-1,-1,-1,-1,-1,-1,-1,-1,-1,-1,-1,-1,-1,-1,-1,-1,-1,-1,-1,-1,-1,-1,-1,-1,-1,-1,-1,-1],"split_conditions":[2.88E0,3.6E0,4.8E0,3.29E0,4.4E0,3.29E0,7.5E0,3E0,1E0,1.975E0,6.72E-1,3.7E0,3.75E0,4E0,3.7E-1,1.67E0,8E0,7E0,3.25E0,1E0,9.75E-1,1.17E0,8.3E-1,1.709E0,2E0,2.25E0,1.114E0,6.2E0,1.3E1,6E-1,1E0,-4.807718E-5,5.2070953E-3,3.5E-2,-2.0321736E-3,-1.540311E-2,-6.001645E-4,3.5243207E-3,1.5485266E-2,3.5E-2,5.247922E-3,5.7906853E-3,1.535662E-2,3.5E-2,1.3157951E-2,7.5662727E-3,1.1986931E-2,-1.7662247E-3,-1.0000571E-2,