{"learner":{"attributes":{"scikit_learn":"{\"_estimator_type\": \"regressor\"}"},"feature_names":["home_forma_pts","away_forma_pts","home_avg_scored","away_avg_scored","home_avg_conceded","away_avg_conceded","home_avg_scored_home","home_avg_conceded_home","away_avg_scored_away","away_avg_conceded_away","home_avg_yellow","away_avg_yellow","home_avg_red","away_avg_red","home_attack_strength","away_attack_strength","home_defense_strength","away_defense_strength","home_volatility","away_volatility","home_rest_days","away_rest_days","odd_home","odd_draw","odd_away","tipi_ndeshjes","ah_line","ah_home_odd","ah_away_odd","ou25_over","ou25_under"],"feature_types":["float","float","float","float","float","float","float","float","float","float","float","float","float","float","float","float","float","float","float","float","float","float","float","float","float","float","float","float","float","float","float"],"gradient_booster":{"model":{"cats":{"enc":[],"feature_segments":[],"sorted_idx":[]},"gbtree_model_param":{"num_parallel_tree":"1","num_trees":"400"},"iteration_indptr":[0,1,2,3,4,5,6,7,8,9,10,11,12,13,14,15,16,17,18,19,20,21,22,23,24,25,26,27,28,29,30,31,32,33,34,35,36,37,38,39,40,41,42,43,44,45,46,47,48,49,50,51,52,53,54,55,56,57,58,59,60,61,62,63,64,65,66,67,68,69,70,71,72,73,74,75,76,77,78,79,80,81,82,83,84,85,86,87,88,89,90,91,92,93,94,95,96,97,98,99,100,101,102,103,104,105,106,107,108,109,110,111,112,113,114,115,116,117,118,119,120,121,122,123,124,125,126,127,128,129,130,131,132,133,134,135,136,137,138,139,140,141,142,143,144,145,146,147,148,149,150,151,152,153,154,155,156,157,158,159,160,161,162,163,164,165,166,167,168,169,170,171,172,173,174,175,176,177,178,179,180,181,182,183,184,185,186,187,188,189,190,191,192,193,194,195,196,197,198,199,200,201,202,203,204,205,206,207,208,209,210,211,212,213,214,215,216,217,218,219,220,221,222,223,224,225,226,227,228,229,230,231,232,233,234,235,236,237,238,239,240,241,242,243,244,245,246,247,248,249,250,251,252,253,254,255,256,257,258,259,260,261,262,263,264,265,266,267,268,269,270,271,272,273,274,275,276,277,278,279,280,281,282,283,284,285,286,287,288,289,290,291,292,293,294,295,296,297,298,299,300,301,302,303,304,305,306,307,308,309,310,311,312,313,314,315,316,317,318,319,320,321,322,323,324,325,326,327,328,329,330,331,332,333,334,335,336,337,338,339,340,341,342,343,344,345,346,347,348,349,350,351,352,353,354,355,356,357,358,359,360,361,362,363,364,365,366,367,368,369,370,371,372,373,374,375,376,377,378,379,380,381,382,383,384,385,386,387,388,389,390,391,392,393,394,395,396,397,398,399,400],"tree_info":[0,0,0,0,0,0,0,0,0,0,0,0,0,0,0,0,0,0,0,0,0,0,0,0,0,0,0,0,0,0,0,0,0,0,0,0,0,0,0,0,0,0,0,0,0,0,0,0,0,0,0,0,0,0,0,0,0,0,0,0,0,0,0,0,0,0,0,0,0,0,0,0,0,0,0,0,0,0,0,0,0,0,0,0,0,0,0,0,0,0,0,0,0,0,0,0,0,0,0,0,0,0,0,0,0,0,0,0,0,0,0,0,0,0,0,0,0,0,0,0,0,0,0,0,0,0,0,0,0,0,0,0,0,0,0,0,0,0,0,0,0,0,0,0,0,0,0,0,0,0,0,0,0,0,0,0,0,0,0,0,0,0,0,0,0,0,0,0,0,0,0,0,0,0,0,0,0,0,0,0,0,0,0,0,0,0,0,0,0,0,0,0,0,0,0,0,0,0,0,0,0,0,0,0,0,0,0,0,0,0,0,0,0,0,0,0,0,0,0,0,0,0,0,0,0,0,0,0,0,0,0,0,0,0,0,0,0,0,0,0,0,0,0,0,0,0,0,0,0,0,0,0,0,0,0,0,0,0,0,0,0,0,0,0,0,0,0,0,0,0,0,0,0,0,0,0,0,0,0,0,0,0,0,0,0,0,0,0,0,0,0,0,0,0,0,0,0,0,0,0,0,0,0,0,0,0,0,0,0,0,0,0,0,0,0,0,0,0,0,0,0,0,0,0,0,0,0,0,0,0,0,0,0,0,0,0,0,0,0,0,0,0,0,0,0,0,0,0,0,0,0,0,0,0,0,0,0,0,0,0,0,0,0,0,0,0,0,0,0,0,0,0,0,0,0,0,0,0,0,0,0,0,0,0,0,0,0,0,0,0,0,0,0,0,0,0,0,0,0,0],"trees":[{"base_weights":[-1.6666802E-3,2.0056233E-1,-7.1054004E-2,1.3328038E-1,3.8841248E-1,-1.678372E-2,-1.2584573E-1,1.953123E-1,6.874386E-2,6.1672056E-1,3.2886907E-1,-6.0014177E-2,2.8098917E-2,-2.29382E-1,-1.1153461E-1,1.8156114E-1,3.2574368E-1,1.1858296E-2,9.585536E-2,5.1503867E-1,7E-1,2.4528833E-1,3.5999945E-1,-7.656181E-2,-8.727691E-3,1.4153953E-1,2.0744026E-2,-1.4754657E-1,-2.4338794E-1,-7.154832E-2,-1.3924585E-1,3.5990432E-3,9.594966E-3,-5.3343936E-3,1.673983E-2,-1.615557E-4,4.395184E-3,4.9396106E-3,-5.830215E-3,2.3390403E-2,3.4837086E-2,2.3995461E-2,3.5E-2,1.6186511E-2,9.821151E-3,1.5128113E-2,1.953197E-2,-5.2131214E-3,-3.2338381E-3,-2.770945E-4,-1.3392215E-2,5.560636E-3,1.504335E-2,2.4621433E-4,2.6087395E-3,-1.0317667E-2,-2.252913E-3,-1.3692337E-2,-1.02917785E-2,-2.0728146E-3,-5.9805866E-3,-9.314227E-3,-5.9949416E-3],"categories":[],"categories_nodes":[],"categories_segments":[],"categories_sizes":[],"default_left":[0,0,0,0,0,0,0,0,0,0,0,0,0,0,0,0,0,0,0,0,0,0,0,0,0,0,0,0,0,0,0,0,0,0,0,0,0,0,0,0,0,0,0,0,0,0,0,0,0,0,0,0,0,0,0,0,0,0,0,0,0,0,0],"id":0,"left_children":[1,3,5,7,9,11,13,15,17,19,21,23,25,27,29,31,33,35,37,39,41,43,45,47,49,51,53,55,57,59,61,-1,-1,-1,-1,-1,-1,-1,-1,-1,-1,-1,-1,-1,-1,-1,-1,-1,-1,-1,-1,-1,-1,-1,-1,-1,-1,-1,-1,-1,-1,-1,-1],"loss_changes":[1.5754574E3,3.624563E2,2.4856738E2,8.4535065E1,1.0261438E2,8.1489426E1,6.1608948E1,1.9254547E1,1.5964836E1,2.020221E1,1.5525513E1,1.8154793E1,1.7189316E1,5.752777E0,4.0486786E1,1.1024139E1,4.0512466E0,3.8357894E0,4.386009E0,7.5847015E0,6.03302E0,6.190773E0,7.572937E0,5.3181458E0,4.307391E0,6.027916E0,9.622206E0,4.454277E0,4.8744354E0,2.1635277E1,1.962207E1,0E0,0E0,0E0,0E0,0E0,0E0,0E0,0E0,0E0,0E0,0E0,0E0,0E0,0E0,0E0,0E0,0E0,0E0,0E0,0E0,0E0,0E0,0E0,0E0,0E0,0E0,0E0,0E0,0E0,0E0,0E0,0E0],"parents":[2147483647,0,0,1,1,2,2,3,3,4,4,5,5,6,6,7,7,8,8,9,9,10,10,11,11,12,12,13,13,14,14,15,15,16,16,17,17,18,18,19,19,20,20,21,21,22,22,23,23,24,24,25,25,26,26,27,27,28,28,29,29,30,30],"right_children":[2,4,6,8,10,12,14,16,18,20,22,24,26,28,30,32,34,36,38,40,42,44,46,48,50,52,54,56,58,60,62,-1,-1,-1,-1,-1,-1,-1,-1,-1,-1,-1,-1,-1,-1,-1,-1,-1,-1,-1,-1,-1,-1,-1,-1,-1,-1,-1,-1,-1,-1,-1,-1],"split_conditions":[-5E-1,2.37E0,0E0,1.87E0,-2E0,1.71E0,1.57E0,1.2E1,1.68E0,3.6E0,7E0,4.2E0,1.6E0,1.43E0,1.96E0,5E0,1.92E0,6.75E0,2.83E0,2.2E1,1.2E0,1.342E0,7E0,3.29E0,2.92E0,3.89E0,3.8E0,1.3E0,1.44E0,5E-1,2.29E0,3.5990432E-3,9.594966E-3,-5.3343936E-3,1.673983E-2,-1.615557E-4,4.395184E-3,4.9396106E-3,-5.830215E-3,2.3390403E-2,3.4837086E-2,2.3995461E-2,3.5E-2,1.6186511E-2,9.821151E-3,1.5128113E-2,1.953197E-2,-5.2131214E-3,-3.2338381E-3,-2.770945E-4,-1.3392215E-2,5.560636E-3,1.504335E-2,2.4621433E-4,2.6087395E-3,-1.0317667E-2,-2.252913E-3,-1.3692337E-2,-1.02917785E-2,-2.0728146E-3,-5.9805866E-3,-9.314227E-3,-5.9949416E-3],"split_indices":[26,30,26,29,26,30,24,24,30,30,24,24,29,29,29,0,30,24,5,24,9,18,20,24,29,23,24,24,24,26,24,0,0,0,0,0,0,0,0,0,0,0,0,0,0,0,0,0,0,0,0,0,0,0,0,0,0,0,0,0,0,0,0],"split_type":[0,0,0,0,0,0,0,0,0,0,0,0,0,0,0,0,0,0,0,0,0,0,0,0,0,0,0,0,0,0,0,0,0,0,0,0,0,0,0,0,0,0,0,0,0,0,0,0,0,0,0,0,0,0,0,0,0,0,0,0,0,0,0],"sum_hessian":[1.1227301E5,2.868087E4,8.359214E4,2.1118576E4,7.562292E3,4.1996562E4,4.159558E4,1.0767207E4,1.035137E4,1.5623589E3,5.999933E3,2.1391842E4,2.060472E4,5.0494487E3,3.654613E4,9.742466E3,1.0247411E3,3.3415469E3,7.0098228E3,9.207818E2,6.41577E2,1.6306749E3,4.3692583E3,1.6173087E4,5.218754E3,1.2534514E3,1.935127E4,7.395957E2,4.309853E3,1.496122E4,2.1584908E4,8.405847E2,8.901881E3,2.0791847E1,1.0039492E3,2.789078E3,5.524691E2,6.9147744E3,9.504845E1,7.336552E2,1.8712663E2,1.3366188E2,5.0791513E2,6.2375543E2,1.0069195E3,1.5237454E3,2.845513E3,4.853411E3,1.1319676E4,5.1563784E3,6.237554E1,1.0544437E3,1.9900769E2,1.2873124E4,6.4781455E3,4.693017E2,2.70294E2,2.3762112E3,1.9336418E3,9.201878E3,5.759342E3,6.288049E3,1.5296859E4],"tree_param":{"num_deleted":"0","num_feature":"31","num_nodes":"63","size_leaf_vector":"1"}},{"base_weights":[-3.7583095E-4,1.9493046E-1,-6.965401E-2,1.1919489E-1,3.3776227E-1,-1.1168074E-2,-1.1962802E-1,4.6373703E-2,1.552639E-1,5.676326E-1,2.928486E-1,-4.8666805E-2,2.462179E-2,-9.0858884E-2,-1.7632142E-1,-6.040728E-3,7.660902E-2,1.3219872E-1,2.1439783E-1,5.221055E-1,7E-1,3.803158E-1,2.6705694E-1,-1.4748753E-2,-6.896204E-2,2.0957056E-2,2.4002345E-1,-1.1882492E-1,-3.6041383E-2,-1.4795157E-1,-2.2560963E-1,9.033422E-3,-8.084125E-4,8.338683E-3,3.1039033E-3,7.6802517E-3,5.192919E-3,1.1806581E-2,5.654196E-3,2.454833E-2,3.5E-2,3.5E-2,2.2260886E-2,1.9567257E-2,6.3447314E-3,1.1328906E-2,1.52182905E-2,-9.7192964E-4,5.3722714E-3,-2.530371E-3,-4.195619E-3,2.0215483E-3,-4.9551827E-4,2.667581E-2,9.387547E-3,-7.664464E-3,-5.251791E-3,-2.6035202E-3,3.8340662E-3,-9.030267E-3,-5.5482346E-3,1.4162675E-2,-1.1364517E-2],"categories":[],"categories_nodes":[],"categories_segments":[],"categories_sizes":[],"default_left":[0,0,0,0,0,0,0,0,0,0,0,0,0,0,0,0,0,0,0,0,0,0,0,0,0,0,0,0,0,0,0,0,0,0,0,0,0,0,0,0,0,0,0,0,0,0,0,0,0,0,0,0,0,0,0,0,0,0,0,0,0,0,0],"id":1,"left_children":[1,3,5,7,9,11,13,15,17,19,21,23,25,27,29,31,33,35,37,39,41,43,45,47,49,51,53,55,57,59,61,-1,-1,-1,-1,-1,-1,-1,-1,-1,-1,-1,-1,-1,-1,-1,-1,-1,-1,-1,-1,-1,-1,-1,-1,-1,-1,-1,-1,-1,-1,-1,-1],"loss_changes":[1.5240978E3,3.1900842E2,2.4302188E2,5.0621735E1,1.05341675E2,5.1419277E1,7.31134E1,1.0121255E1,1.75531E1,1.1532837E1,1.9188904E1,1.2878399E1,1.546979E1,4.55963E1,2.1070038E1,4.422319E0,5.2960052E0,5.611374E0,7.934189E0,9.365051E0,5.7474976E0,5.3865356E0,9.90921E0,4.0167255E0,3.2077904E0,1.1587791E1,4.9295673E0,9.344177E0,1.81628E1,1.1552353E1,4.7781677E0,0E0,0E0,0E0,0E0,0E0,0E0,0E0,0E0,0E0,0E0,0E0,0E0,0E0,0E0,0E0,0E0,0E0,0E0,0E0,0E0,0E0,0E0,0E0,0E0,0E0,0E0,0E0,0E0,0E0,0E0,0E0,0E0],"parents":[2147483647,0,0,1,1,2,2,3,3,4,4,5,5,6,6,7,7,8,8,9,9,10,10,11,11,12,12,13,13,14,14,15,15,16,16,17,17,18,18,19,19,20,20,21,21,22,22,23,23,24,24,25,25,26,26,27,27,28,28,29,29,30,30],"right_children":[2,4,6,8,10,12,14,16,18,20,22,24,26,28,30,32,34,36,38,40,42,44,46,48,50,52,54,56,58,60,62,-1,-1,-1,-1,-1,-1,-1,-1,-1,-1,-1,-1,-1,-1,-1,-1,-1,-1,-1,-1,-1,-1,-1,-1,-1,-1,-1,-1,-1,-1,-1,-1],"split_conditions":[-5E-1,4.59E0,2.39E0,1.8E0,-2E0,1.71E0,3.6E0,1.65E0,2.2E0,4.03E0,-1.75E0,2.04E0,3.9E0,1.83E0,5.75E0,1.45E0,4.37E-1,2E0,1.75E0,2.07E0,1.33E0,1.279E0,2.34E0,2.338E0,1.225E0,2.14E0,1E0,1.56E0,2.29E0,1.94E0,1.7E-1,9.033422E-3,-8.084125E-4,8.338683E-3,3.1039033E-3,7.6802517E-3,5.192919E-3,1.1806581E-2,5.654196E-3,2.454833E-2,3.5E-2,3.5E-2,2.2260886E-2,1.9567257E-2,6.3447314E-3,1.1328906E-2,1.52182905E-2,-9.7192964E-4,5.3722714E-3,-2.530371E-3,-4.195619E-3,2.0215483E-3,-4.9551827E-4,2.667581E-2,9.387547E-3,-7.664464E-3,-5.251791E-3,-2.6035202E-3,3.8340662E-3,-9.030267E-3,-5.5482346E-3,1.4162675E-2,-1.1364517E-2],"split_indices":[26,23,22,30,26,30,22,30,30,30,26,22,23,30,22,22,16,10,8,27,8,16,30,19,19,22,10,30,30,30,4,0,0,0,0,0,0,0,0,0,0,0,0,0,0,0,0,0,0,0,0,0,0,0,0,0,0,0,0,0,0,0,0],"split_type":[0,0,0,0,0,0,0,0,0,0,0,0,0,0,0,0,0,0,0,0,0,0,0,0,0,0,0,0,0,0,0,0,0,0,0,0,0,0,0,0,0,0,0,0,0,0,0,0,0,0,0,0,0,0,0,0,0,0,0,0,0,0,0],"sum_hessian":[1.1263993E5,2.9492898E4,8.314703E4,1.9274541E4,1.0218357E4,3.8311395E4,4.4835637E4,6.3852954E3,1.2889246E4,1.6682979E3,8.55006E3,1.870887E4,1.9602525E4,2.9744406E4,1.509123E4,2.3361917E3,4.049104E3,9.274834E3,3.6144114E3,1.3031215E3,3.651763E2,1.9439132E3,6.6061465E3,7.0044805E3,1.1704388E4,1.9275676E4,3.2684918E2,1.969534E4,1.0049065E4,9.580679E3,5.510552E3,1.1933389E2,2.2168577E3,5.6053094E2,3.488573E3,5.281294E3,3.9935403E3,2.9749058E3,6.395056E2,1.1690616E3,1.3405984E2,2.7008765E2,9.508866E1,1.8623177E3,8.159541E1,3.1718604E3,3.4342864E3,6.746393E3,2.5808713E2,5.255979E3,6.4484087E3,1.1818933E4,7.4567427E3,4.802098E1,2.7882822E2,5.62533E3,1.407001E4,8.798473E3,1.2505931E3,5.0863364E3,4.4943423E3,1.7589207E1,5.4929624E3],"tree_param":{"num_deleted":"0","num_feature":"31","num_nodes":"63","size_leaf_vector":"1"}},{"base_weights":[-6.508087E-4,1.8743098E-1,-6.576666E-2,3.138258E-1,1.069768E-1,-9.171191E-3,-1.1547929E-1,5.260897E-1,2.7447948E-1,7.4483655E-2,1.9260854E-1,3.241187E-2,-4.843435E-2,-9.563538E-2,-2.0118769E-1,4.511896E-1,6.3249123E-1,2.268583E-1,3.167928E-1,1.7280003E-2,9.540273E-2,2.0176314E-1,8.266279E-2,2.5398878E-2,1.4591502E-1,-4.301969E-2,-1.3714164E-1,-4.4834215E-2,-1.2406908E-1,-1.718142E-1,-2.3743412E-1,3.5E-2,2.1041473E-2,3.482547E-2,2.3533149E-2,1.0221817E-2,1.5015884E-2,1.4714989E-2,1.8394148E-2,7.993369E-3,3.1002495E-4,5.126006E-3,1.7711058E-3,5.1977993E-3,1.0719805E-2,-1.0760336E-2,5.7590036E-3,4.222116E-4,2.9419437E-3,8.476314E-3,-3.5396342E-3,-2.8066118E-3,-4.8086705E-4,-8.996717E-3,-3.8204466E-3,-1.2790055E-3,-4.848126E-3,-5.3965473E-3,-8.282623E-3,-7.714207E-3,-1.13827465E-2,3.3146556E-2,-1.1988124E-2],"categories":[],"categories_nodes":[],"categories_segments":[],"categories_sizes":[],"default_left":[0,0,0,0,0,0,0,0,0,0,0,0,0,0,0,0,0,0,0,0,0,0,0,0,0,0,0,0,0,0,0,0,0,0,0,0,0,0,0,0,0,0,0,0,0,0,0,0,0,0,0,0,0,0,0,0,0,0,0,0,0,0,0],"id":2,"left_children":[1,3,5,7,9,11,13,15,17,19,21,23,25,27,29,31,33,35,37,39,41,43,45,47,49,51,53,55,57,59,61,-1,-1,-1,-1,-1,-1,-1,-1,-1,-1,-1,-1,-1,-1,-1,-1,-1,-1,-1,-1,-1,-1,-1,-1,-1,-1,-1,-1,-1,-1,-1,-1],"loss_changes":[1.3778333E3,2.941836E2,2.3512384E2,9.383777E1,4.9181656E1,6.3807983E1,7.564935E1,1.372998E1,1.906128E1,1.53381195E1,4.8779297E0,1.5104496E1,9.649231E0,5.217993E1,8.863495E0,8.076889E0,7.1731567E0,7.3027496E0,5.6667786E0,5.4236727E0,4.003357E0,5.5236206E0,3.6616595E0,1.0135092E1,5.6622925E0,8.297855E0,2.990446E0,1.301149E1,1.5526154E1,4.49057E0,8.00148E0,0E0,0E0,0E0,0E0,0E0,0E0,0E0,0E0,0E0,0E0,0E0,0E0,0E0,0E0,0E0,0E0,0E0,0E0,0E0,0E0,0E0,0E0,0E0,0E0,0E0,0E0,0E0,0E0,0E0,0E0,0E0,0E0],"parents":[2147483647,0,0,1,1,2,2,3,3,4,4,5,5,6,6,7,7,8,8,9,9,10,10,11,11,12,12,13,13,14,14,15,15,16,16,17,17,18,18,19,19,20,20,21,21,22,22,23,23,24,24,25,25,26,26,27,27,28,28,29,29,30,30],"right_children":[2,4,6,8,10,12,14,16,18,20,22,24,26,28,30,32,34,36,38,40,42,44,46,48,50,52,54,56,58,60,62,-1,-1,-1,-1,-1,-1,-1,-1,-1,-1,-1,-1,-1,-1,-1,-1,-1,-1,-1,-1,-1,-1,-1,-1,-1,-1,-1,-1,-1,-1,-1,-1],"split_conditions":[1.8E0,-1E0,2.39E0,-2E0,2.1E0,2.09E0,4.59E0,3.6E0,2.34E0,1.69E0,2.25E0,3.79E0,2.64E0,1.96E0,7E0,1.33E0,1.33E0,1.2E1,2.76E0,4.8E0,1.4E1,7.22E-1,3.49E-1,3.8E0,2.4E0,4.1E0,1.366E0,3.6E0,3.2E0,2E0,1.37E-1,3.5E-2,2.1041473E-2,3.482547E-2,2.3533149E-2,1.0221817E-2,1.5015884E-2,1.4714989E-2,1.8394148E-2,7.993369E-3,3.1002495E-4,5.126006E-3,1.7711058E-3,5.1977993E-3,1.0719805E-2,-1.0760336E-2,5.7590036E-3,4.222116E-4,2.9419437E-3,8.476314E-3,-3.5396342E-3,-2.8066118E-3,-4.8086705E-4,-8.996717E-3,-3.8204466E-3,-1.2790055E-3,-4.848126E-3,-5.3965473E-3,-8.282623E-3,-7.714207E-3,-1.13827465E-2,3.3146556E-2,-1.1988124E-2],"split_indices":[22,26,22,26,30,29,22,30,30,30,8,23,29,29,22,2,8,24,30,24,0,14,16,24,7,24,18,22,22,29,16,0,0,0,0,0,0,0,0,0,0,0,0,0,0,0,0,0,0,0,0,0,0,0,0,0,0,0,0,0,0,0,0],"split_type":[0,0,0,0,0,0,0,0,0,0,0,0,0,0,0,0,0,0,0,0,0,0,0,0,0,0,0,0,0,0,0,0,0,0,0,0,0,0,0,0,0,0,0,0,0,0,0,0,0,0,0,0,0,0,0,0,0,0,0,0,0,0,0],"sum_hessian":[1.1250074E5,2.8931785E4,8.356896E4,1.1251927E4,1.767986E4,3.9079723E4,4.4489234E4,1.7576199E3,9.494307E3,1.2817936E4,4.861923E3,1.8979246E4,2.0100477E4,3.6126945E4,8.362291E3,1.0345798E3,7.2304E2,4.4699727E3,5.024334E3,3.4327725E3,9.385163E3,4.487442E3,3.7448087E2,1.7875973E4,1.1032743E3,1.8945533E4,1.1549435E3,1.2965203E4,2.316174E4,4.6222456E3,3.7400457E3,1.0307184E2,9.31508E2,5.157206E2,2.0731941E2,3.4275627E3,1.04241E3,3.4931821E3,1.5311519E3,2.4653738E2,3.186235E3,8.389004E3,9.961601E2,5.143627E2,3.9730793E3,3.630414E1,3.3817673E2,1.1862656E4,6.013316E3,9.950742E2,1.08200066E2,1.3604301E4,5.3412334E3,6.763912E2,4.7855237E2,9.469164E3,3.4960393E3,1.6688627E4,6.473113E3,3.5207424E3,1.101503E3,8.914984E0,3.7311309E3],"tree_param":{"num_deleted":"0","num_feature":"31","num_nodes":"63","size_leaf_vector":"1"}},{"base_weights":[1.7430012E-3,1.8907128E-1,-6.385785E-2,1.1385466E-1,3.251185E-1,-5.788705E-3,-1.1254264E-1,6.41492E-2,1.6630465E-1,4.9419466E-1,2.7688393E-1,-4.49003E-2,3.188608E-2,-9.79155E-2,-2.0840658E-1,3.8317114E-2,1.09322615E-1,1.7749788E-1,9.722945E-2,4.423169E-1,6.1039233E-1,2.4499157E-1,3.3505994E-1,-6.0198504E-2,-8.214244E-3,2.4700021E-2,1.525121E-1,-1.2170258E-1,-6.428786E-2,-1.9362219E-1,-2.4800682E-1,-1.086037E-3,2.8197507E-3,4.9186745E-3,1.1929183E-2,7.4787573E-3,1.0674602E-2,1.2183556E-2,3.836152E-3,2.1040298E-2,3.3394188E-2,3.3061672E-2,1.7021952E-2,8.160311E-3,1.311856E-2,1.7119396E-2,4.1538845E-3,-5.308898E-3,-2.711394E-3,-2.33521E-3,5.3663825E-4,1.9338664E-3,-4.1450906E-4,8.578645E-3,-4.4820127E-3,-5.161548E-3,-8.474389E-3,-1.9900985E-3,-5.040615E-3,-1.006135E-2,-5.4172995E-3,3.4640443E-2,-1.26004815E-2],"categories":[],"categories_nodes":[],"categories_segments":[],"categories_sizes":[],"default_left":[0,0,0,0,0,0,0,0,0,0,0,0,0,0,0,0,0,0,0,0,0,0,0,0,0,0,0,0,0,0,0,0,0,0,0,0,0,0,0,0,0,0,0,0,0,0,0,0,0,0,0,0,0,0,0,0,0,0,0,0,0,0,0],"id":3,"left_children":[1,3,5,7,9,11,13,15,17,19,21,23,25,27,29,31,33,35,37,39,41,43,45,47,49,51,53,55,57,59,61,-1,-1,-1,-1,-1,-1,-1,-1,-1,-1,-1,-1,-1,-1,-1,-1,-1,-1,-1,-1,-1,-1,-1,-1,-1,-1,-1,-1,-1,-1,-1,-1],"loss_changes":[1.3790497E3,2.9780164E2,2.3496808E2,4.8857666E1,8.4368774E1,5.5854794E1,6.3373535E1,1.12283325E1,7.034088E0,1.3586609E1,1.4880005E1,1.0437351E1,1.673252E1,3.136972E1,3.4554749E0,6.6494894E0,4.931988E0,7.8546295E0,3.8070002E0,7.447571E0,9.476593E0,7.3662415E0,5.239258E0,3.5973473E0,3.9927514E0,8.403308E0,5.024931E0,2.0260895E1,1.4532341E1,2.806961E0,6.2874603E0,0E0,0E0,0E0,0E0,0E0,0E0,0E0,0E0,0E0,0E0,0E0,0E0,0E0,0E0,0E0,0E0,0E0,0E0,0E0,0E0,0E0,0E0,0E0,0E0,0E0,0E0,0E0,0E0,0E0,0E0,0E0,0E0],"parents":[2147483647,0,0,1,1,2,2,3,3,4,4,5,5,6,6,7,7,8,8,9,9,10,10,11,11,12,12,13,13,14,14,15,15,16,16,17,17,18,18,19,19,20,20,21,21,22,22,23,23,24,24,25,25,26,26,27,27,28,28,29,29,30,30],"right_children":[2,4,6,8,10,12,14,16,18,20,22,24,26,28,30,32,34,36,38,40,42,44,46,48,50,52,54,56,58,60,62,-1,-1,-1,-1,-1,-1,-1,-1,-1,-1,-1,-1,-1,-1,-1,-1,-1,-1,-1,-1,-1,-1,-1,-1,-1,-1,-1,-1,-1,-1,-1,-1],"split_conditions":[1.8E0,4.59E0,2.38E0,1.93E0,1.17E0,1.72E0,5.5E0,3.79E0,1.75E0,3.6E0,6E0,4.2E0,3.79E0,1.81E0,9.5E0,1.61E0,1.311E0,2.15E0,8.66E-1,2E-1,9E0,2.07E0,3.6E0,1.5E0,1.55E0,2.2E0,2.6E0,3.2E0,3.39E0,2.7E0,1.7E-1,-1.086037E-3,2.8197507E-3,4.9186745E-3,1.1929183E-2,7.4787573E-3,1.0674602E-2,1.2183556E-2,3.836152E-3,2.1040298E-2,3.3394188E-2,3.3061672E-2,1.7021952E-2,8.160311E-3,1.311856E-2,1.7119396E-2,4.1538845E-3,-5.308898E-3,-2.711394E-3,-2.33521E-3,5.3663825E-4,1.9338664E-3,-4.1450906E-4,8.578645E-3,-4.4820127E-3,-5.161548E-3,-8.474389E-3,-1.9900985E-3,-5.040615E-3,-1.006135E-2,-5.4172995E-3,3.4640443E-2,-1.26004815E-2],"split_indices":[22,23,22,30,22,30,22,23,8,30,23,24,23,30,22,30,15,30,15,12,1,30,11,30,30,22,2,22,22,30,4,0,0,0,0,0,0,0,0,0,0,0,0,0,0,0,0,0,0,0,0,0,0,0,0,0,0,0,0,0,0,0,0],"split_type":[0,0,0,0,0,0,0,0,0,0,0,0,0,0,0,0,0,0,0,0,0,0,0,0,0,0,0,0,0,0,0,0,0,0,0,0,0,0,0,0,0,0,0,0,0,0,0,0,0,0,0,0,0,0,0,0,0,0,0,0,0,0,0],"sum_hessian":[1.1221718E5,2.9104674E4,8.311251E4,1.8743672E4,1.0361002E4,3.7903695E4,4.5208812E4,9.624762E3,9.11891E3,2.2976907E3,8.063311E3,1.859713E4,1.9306566E4,3.922569E4,5.9831216E3,6.12441E3,3.5003513E3,7.845949E3,1.2729606E3,1.591814E3,7.058766E2,5.2115366E3,2.8517747E3,1.3123816E4,5.473314E3,1.8222219E4,1.084348E3,2.2972842E4,1.6252848E4,4.360906E3,1.6222161E3,1.417292E3,4.707118E3,3.2286296E3,2.7172177E2,4.421271E3,3.4246785E3,1.550224E2,1.1179381E3,1.4558446E3,1.3596936E2,5.92786E2,1.13090576E2,9.1519336E2,4.2963433E3,2.7708364E3,8.093827E1,1.5063912E3,1.1617425E4,1.805025E3,3.6682888E3,1.2799252E4,5.422967E3,1.00549304E3,7.8854965E1,1.6570564E4,6.4022783E3,9.731178E3,6.5216694E3,4.0026E3,3.5830566E2,6.143625E0,1.6160725E3],"tree_param":{"num_deleted":"0","num_feature":"31","num_nodes":"63","size_leaf_vector":"1"}},{"base_weights":[-2.3626368E-3,1.7585924E-1,-6.7654505E-2,1.13129094E-1,3.276796E-1,-1.212559E-2,-1.16110295E-1,7.278812E-2,1.7594582E-1,4.783545E-1,2.718984E-1,1.7988201E-2,-4.9473617E-2,-1.0198878E-1,-2.1831767E-1,1.02258414E-1,3.4436055E-2,1.5493704E-1,2.235503E-1,6.993405E-1,4.5448583E-1,3.53091E-1,2.4963742E-1,1.1000746E-1,1.2403169E-2,-1.5994562E-2,-6.854083E-2,-6.2129863E-2,-1.2685674E-1,-1.1797289E-1,-2.3298319E-1,5.4331226E-3,-2.1769095E-3,1.4400527E-4,2.8697643E-3,5.8431257E-3,8.7759085E-3,1.3701349E-2,7.8490935E-3,3.5E-2,1.4885622E-2,2.1808933E-2,3.1991396E-2,1.946547E-2,1.1056538E-2,1.3292623E-2,8.516583E-3,5.834138E-3,-1.568815E-2,2.3714446E-3,5.180472E-5,-4.1725682E-4,-6.0244715E-3,-6.289421E-3,-3.0887066E-3,-1.7593803E-3,-5.4136585E-3,-5.306357E-3,-8.678109E-3,7.1770593E-4,-8.78761E-3,-1.333034E-2,-1.0043256E-2],"categories":[],"categories_nodes":[],"categories_segments":[],"categories_sizes":[],"default_left":[0,0,0,0,0,0,0,0,0,0,0,0,0,0,0,0,0,0,0,0,0,0,0,0,0,0,0,0,0,0,0,0,0,0,0,0,0,0,0,0,0,0,0,0,0,0,0,0,0,0,0,0,0,0,0,0,0,0,0,0,0,0,0],"id":4,"left_children":[1,3,5,7,9,11,13,15,17,19,21,23,25,27,29,31,33,35,37,39,41,43,45,47,49,51,53,55,57,59,61,-1,-1,-1,-1,-1,-1,-1,-1,-1,-1,-1,-1,-1,-1,-1,-1,-1,-1,-1,-1,-1,-1,-1,-1,-1,-1,-1,-1,-1,-1,-1,-1],"loss_changes":[1.3095457E3,2.8733368E2,2.2161542E2,5.4098694E1,7.4015625E1,4.3168682E1,6.3459656E1,1.4694916E1,8.316101E0,1.22473755E1,1.1552795E1,1.091947E1,1.0935982E1,3.8298218E1,7.828537E0,6.8704453E0,4.094934E0,4.5216675E0,8.54007E0,4.500992E0,7.0256653E0,6.526016E0,6.4592285E0,3.4758654E0,7.976616E0,4.9695067E0,4.220806E0,1.8457306E1,2.3021729E1,5.2226458E0,4.9752655E0,0E0,0E0,0E0,0E0,0E0,0E0,0E0,0E0,0E0,0E0,0E0,0E0,0E0,0E0,0E0,0E0,0E0,0E0,0E0,0E0,0E0,0E0,0E0,0E0,0E0,0E0,0E0,0E0,0E0,0E0,0E0,0E0],"parents":[2147483647,0,0,1,1,2,2,3,3,4,4,5,5,6,6,7,7,8,8,9,9,10,10,11,11,12,12,13,13,14,14,15,15,16,16,17,17,18,18,19,19,20,20,21,21,22,22,23,23,24,24,25,25,26,26,27,27,28,28,29,29,30,30],"right_children":[2,4,6,8,10,12,14,16,18,20,22,24,26,28,30,32,34,36,38,40,42,44,46,48,50,52,54,56,58,60,62,-1,-1,-1,-1,-1,-1,-1,-1,-1,-1,-1,-1,-1,-1,-1,-1,-1,-1,-1,-1,-1,-1,-1,-1,-1,-1,-1,-1,-1,-1,-1,-1],"split_conditions":[-5E-1,4.8E0,2.4E0,2.02E0,1.17E0,2.14E0,5.75E0,2.05E0,4.5E0,-2.75E0,1.43E0,1.6E0,2.04E0,1.96E0,1.43E0,1.514E0,1.65E0,2.11E0,1.133E0,8E0,2E-1,2.082E0,1.72E0,2.811E0,1.95E0,1.654E0,2E-1,3.6E0,3.2E0,5.75E0,1.44E0,5.4331226E-3,-2.1769095E-3,1.4400527E-4,2.8697643E-3,5.8431257E-3,8.7759085E-3,1.3701349E-2,7.8490935E-3,3.5E-2,1.4885622E-2,2.1808933E-2,3.1991396E-2,1.946547E-2,1.1056538E-2,1.3292623E-2,8.516583E-3,5.834138E-3,-1.568815E-2,2.3714446E-3,5.180472E-5,-4.1725682E-4,-6.0244715E-3,-6.289421E-3,-3.0887066E-3,-1.7593803E-3,-5.4136585E-3,-5.306357E-3,-8.678109E-3,7.1770593E-4,-8.78761E-3,-1.333034E-2,-1.0043256E-2],"split_indices":[26,23,22,30,22,29,22,29,23,26,29,29,22,29,29,16,30,30,17,1,12,18,29,18,22,17,8,22,22,23,24,0,0,0,0,0,0,0,0,0,0,0,0,0,0,0,0,0,0,0,0,0,0,0,0,0,0,0,0,0,0,0,0],"split_type":[0,0,0,0,0,0,0,0,0,0,0,0,0,0,0,0,0,0,0,0,0,0,0,0,0,0,0,0,0,0,0,0,0,0,0,0,0,0,0,0,0,0,0,0,0,0,0,0,0,0,0,0,0,0,0,0,0,0,0,0,0,0,0],"sum_hessian":[1.1253632E5,3.017323E4,8.236309E4,2.1352434E4,8.820796E3,3.8380926E4,4.3982168E4,1.3003641E4,8.348794E3,2.3811948E3,6.4396006E3,2.1248629E4,1.7132295E4,3.8644793E4,5.3373735E3,7.352332E3,5.6513086E3,5.795419E3,2.5533752E3,2.2936261E2,2.1518323E3,1.382464E3,5.0571367E3,1.2148018E3,2.0033828E4,6.2173813E3,1.0914914E4,1.4848616E4,2.3796178E4,6.817472E2,4.655626E3,7.0432173E3,3.0911472E2,2.3805393E3,3.270769E3,2.0358424E3,3.7595764E3,1.4504388E3,1.1029364E3,1.9952205E2,2.9840557E1,1.9614436E3,1.9038864E2,1.0832108E3,2.9925327E2,4.1967153E3,8.6042145E2,1.1966763E3,1.8125591E1,4.907873E3,1.5125955E4,5.7942964E3,4.230849E2,1.1519132E3,9.763001E3,9.375937E3,5.47268E3,1.648347E4,7.312707E3,2.0743288E2,4.743143E2,2.2709365E3,2.3846897E3],"tree_param":{"num_deleted":"0","num_feature":"31","num_nodes":"63","size_leaf_vector":"1"}},{"base_weights":[1.5018518E-4,1.7350055E-1,-6.36915E-2,1.0173105E-1,3.0590376E-1,-1.5741365E-2,-1.1346726E-1,1.5406571E-1,5.9178766E-2,4.9615917E-1,2.6592577E-1,1.9851996E-2,-5.7046853E-2,-2.0134471E-1,-9.823135E-2,1.342245E-1,1.987433E-1,7.648523E-2,-1.1575993E-2,6.586375E-1,4.4801575E-1,3.5170168E-1,2.4145374E-1,1.2687846E-1,1.3522143E-2,-2.3675758E-2,-7.5623356E-2,-1.0329864E-1,-2.1112566E-1,-5.151936E-2,-1.2605092E-1,4.921522E-3,8.369994E-3,7.3214434E-3,1.237012E-2,2.2332321E-3,4.891664E-3,-3.3804846E-3,5.31498E-4,3.5E-2,1.8629247E-2,3.5E-2,2.1497268E-2,1.3336978E-2,1.8894082E-2,7.840629E-3,1.2880899E-2,7.7397684E-3,-1.4610187E-3,-9.329188E-4,1.5535722E-3,-1.7565702E-3,2.6108671E-3,-5.827302E-3,-3.319901E-3,3.5244876E-3,-8.068556E-3,-1.0046809E-2,-1.6968926E-2,-3.989794E-3,-7.92477E-4,-8.618649E-3,-5.396788E-3],"categories":[],"categories_nodes":[],"categories_segments":[],"categories_sizes":[],"default_left":[0,0,0,0,0,0,0,0,0,0,0,0,0,0,0,0,0,0,0,0,0,0,0,0,0,0,0,0,0,0,0,0,0,0,0,0,0,0,0,0,0,0,0,0,0,0,0,0,0,0,0,0,0,0,0,0,0,0,0,0,0,0,0],"id":5,"left_children":[1,3,5,7,9,11,13,15,17,19,21,23,25,27,29,31,33,35,37,39,41,43,45,47,49,51,53,55,57,59,61,-1,-1,-1,-1,-1,-1,-1,-1,-1,-1,-1,-1,-1,-1,-1,-1,-1,-1,-1,-1,-1,-1,-1,-1,-1,-1,-1,-1,-1,-1,-1,-1],"loss_changes":[1.2456644E3,2.8785107E2,1.963364E2,4.3745285E1,8.086273E1,6.1602978E1,5.4020752E1,7.7834015E0,1.3272457E1,1.41597595E1,1.8391113E1,1.524597E1,1.2021019E1,5.6965027E0,4.469696E1,7.231964E0,6.85553E0,5.91127E0,2.6521325E0,6.1290894E0,8.328491E0,4.2400513E0,9.33316E0,5.480898E0,1.2002215E1,6.0327516E0,4.6956177E0,5.4900155E0,7.016266E0,1.2951321E1,1.8072632E1,0E0,0E0,0E0,0E0,0E0,0E0,0E0,0E0,0E0,0E0,0E0,0E0,0E0,0E0,0E0,0E0,0E0,0E0,0E0,0E0,0E0,0E0,0E0,0E0,0E0,0E0,0E0,0E0,0E0,0E0,0E0,0E0],"parents":[2147483647,0,0,1,1,2,2,3,3,4,4,5,5,6,6,7,7,8,8,9,9,10,10,11,11,12,12,13,13,14,14,15,15,16,16,17,17,18,18,19,19,20,20,21,21,22,22,23,23,24,24,25,25,26,26,27,27,28,28,29,29,30,30],"right_children":[2,4,6,8,10,12,14,16,18,20,22,24,26,28,30,32,34,36,38,40,42,44,46,48,50,52,54,56,58,60,62,-1,-1,-1,-1,-1,-1,-1,-1,-1,-1,-1,-1,-1,-1,-1,-1,-1,-1,-1,-1,-1,-1,-1,-1,-1,-1,-1,-1,-1,-1,-1,-1],"split_conditions":[-5E-1,4.59E0,0E0,1.85E0,-2E0,2.14E0,1.64E0,6.2E0,2.22E0,1.24E0,-1.75E0,1.6E0,-2.5E-1,1.4E0,1.94E0,2.15E0,7E0,3.7E0,1.033E0,9E0,8.16E-1,2.38E0,2.07E0,2.25E0,3.4E0,3.5E0,1.8E0,5.4E0,6.25E0,2.3E0,2.29E0,4.921522E-3,8.369994E-3,7.3214434E-3,1.237012E-2,2.2332321E-3,4.891664E-3,-3.3804846E-3,5.31498E-4,3.5E-2,1.8629247E-2,3.5E-2,2.1497268E-2,1.3336978E-2,1.8894082E-2,7.840629E-3,1.2880899E-2,7.7397684E-3,-1.4610187E-3,-9.329188E-4,1.5535722E-3,-1.7565702E-3,2.6108671E-3,-5.827302E-3,-3.319901E-3,3.5244876E-3,-8.068556E-3,-1.0046809E-2,-1.6968926E-2,-3.989794E-3,-7.92477E-4,-8.618649E-3,-5.396788E-3],"split_indices":[26,23,26,29,26,29,24,24,29,29,26,29,26,29,29,30,1,23,18,1,18,30,30,7,24,23,28,23,23,24,24,0,0,0,0,0,0,0,0,0,0,0,0,0,0,0,0,0,0,0,0,0,0,0,0,0,0,0,0,0,0,0,0],"split_type":[0,0,0,0,0,0,0,0,0,0,0,0,0,0,0,0,0,0,0,0,0,0,0,0,0,0,0,0,0,0,0,0,0,0,0,0,0,0,0,0,0,0,0,0,0,0,0,0,0,0,0,0,0,0,0,0,0,0,0,0,0,0,0],"sum_hessian":[1.12554875E5,3.0294365E4,8.226051E4,1.9646627E4,1.0647739E4,4.189928E4,4.0361223E4,8.809401E3,1.0837226E4,1.846904E3,8.800835E3,2.250608E4,1.9393201E4,5.9619214E3,3.4399305E4,6.103053E3,2.7063481E3,8.707346E3,2.12988E3,4.1926227E2,1.4276418E3,1.950576E3,6.850259E3,1.2556835E3,2.1250398E4,6.9358374E3,1.2457363E4,5.4185236E2,5.4200693E3,1.2840909E4,2.1558395E4,2.937572E3,3.1654812E3,1.3061199E3,1.4002283E3,3.4973774E3,5.2099688E3,6.039215E2,1.5259583E3,3.5181012E2,6.745216E1,6.387684E1,1.363765E3,4.621011E2,1.488475E3,1.1001615E3,5.750097E3,1.0651915E3,1.9049187E2,7.499093E3,1.3751305E4,6.02668E3,9.0915704E2,2.2895437E3,1.0167819E4,1.3566019E2,4.0619217E2,5.0235254E3,3.9654376E2,7.162081E3,5.678828E3,6.0582905E3,1.5500103E4],"tree_param":{"num_deleted":"0","num_feature":"31","num_nodes":"63","size_leaf_vector":"1"}},{"base_weights":[7.1256375E-4,1.7024066E-1,-6.039576E-2,3.3996165E-1,1.2695786E-1,-8.363534E-3,-1.0796751E-1,4.535867E-1,2.845836E-1,1.7469424E-1,6.853589E-2,2.3263857E-2,-4.8723094E-2,-8.1507854E-2,-1.6087487E-1,6.0485256E-1,4.1289505E-1,2.9120395E-1,4.1512415E-2,1.341217E-1,2.1017814E-1,9.629484E-3,8.5724056E-2,1.1966538E-1,1.7017923E-2,-6.729932E-2,-2.1924343E-2,-4.2730883E-2,-1.17940366E-1,-1.3550055E-1,-2.0665884E-1,1.8788647E-2,3.361077E-2,3.5E-2,1.9643558E-2,1.2456871E-2,1.6722554E-2,3.0968565E-2,-1.2297828E-3,7.982515E-3,5.347599E-3,1.8085321E-2,1.0001919E-2,7.32304E-3,-3.5126777E-5,4.212175E-3,3.5E-2,1.8250873E-2,4.9118856E-3,2.5669385E-3,2.3180235E-4,-3.6209398E-3,-1.9954785E-4,-7.0394427E-3,-8.7186805E-4,-2.7254124E-3,3.9003768E-3,-5.127285E-3,-7.89854E-3,-4.2562434E-3,-8.281286E-3,3.5E-2,-1.0424471E-2],"categories":[],"categories_nodes":[],"categories_segments":[],"categories_sizes":[],"default_left":[0,0,0,0,0,0,0,0,0,0,0,0,0,0,0,0,0,0,0,0,0,0,0,0,0,0,0,0,0,0,0,0,0,0,0,0,0,0,0,0,0,0,0,0,0,0,0,0,0,0,0,0,0,0,0,0,0,0,0,0,0,0,0],"id":6,"left_children":[1,3,5,7,9,11,13,15,17,19,21,23,25,27,29,31,33,35,37,39,41,43,45,47,49,51,53,55,57,59,61,-1,-1,-1,-1,-1,-1,-1,-1,-1,-1,-1,-1,-1,-1,-1,-1,-1,-1,-1,-1,-1,-1,-1,-1,-1,-1,-1,-1,-1,-1,-1,-1],"loss_changes":[1.1601816E3,2.1793225E2,2.0375919E2,3.7806946E1,6.592966E1,5.0188225E1,6.0186493E1,1.1899811E1,6.515045E0,1.8704376E1,1.0766018E1,1.3270972E1,8.598E0,4.049565E1,1.6625763E1,6.171051E0,1.0547882E1,7.0998535E0,4.1680775E0,4.195442E0,1.0589691E1,3.3975039E0,7.443241E0,7.0151043E0,8.797943E0,3.3061714E0,3.7701266E0,1.975386E1,9.09227E0,1.3987579E1,8.909073E0,0E0,0E0,0E0,0E0,0E0,0E0,0E0,0E0,0E0,0E0,0E0,0E0,0E0,0E0,0E0,0E0,0E0,0E0,0E0,0E0,0E0,0E0,0E0,0E0,0E0,0E0,0E0,0E0,0E0,0E0,0E0,0E0],"parents":[2147483647,0,0,1,1,2,2,3,3,4,4,5,5,6,6,7,7,8,8,9,9,10,10,11,11,12,12,13,13,14,14,15,15,16,16,17,17,18,18,19,19,20,20,21,21,22,22,23,23,24,24,25,25,26,26,27,27,28,28,29,29,30,30],"right_children":[2,4,6,8,10,12,14,16,18,20,22,24,26,28,30,32,34,36,38,40,42,44,46,48,50,52,54,56,58,60,62,-1,-1,-1,-1,-1,-1,-1,-1,-1,-1,-1,-1,-1,-1,-1,-1,-1,-1,-1,-1,-1,-1,-1,-1,-1,-1,-1,-1,-1,-1,-1,-1],"split_conditions":[1.8E0,1.29E0,2.4E0,1.15E0,1.85E0,2.14E0,3.6E0,1.24E0,2E0,6.2E0,1.65E0,1.6E0,3.9E0,2.1E0,5.75E0,1.2E0,8.16E-1,2.51E0,1.17E0,1.67E0,1.42E0,4.8E0,1.3E1,2.3E0,1.95E0,2.25E0,2.5E-1,2.29E0,2.42E0,1.8E0,1.7E-1,1.8788647E-2,3.361077E-2,3.5E-2,1.9643558E-2,1.2456871E-2,1.6722554E-2,3.0968565E-2,-1.2297828E-3,7.982515E-3,5.347599E-3,1.8085321E-2,1.0001919E-2,7.32304E-3,-3.5126777E-5,4.212175E-3,3.5E-2,1.8250873E-2,4.9118856E-3,2.5669385E-3,2.3180235E-4,-3.6209398E-3,-1.9954785E-4,-7.0394427E-3,-8.7186805E-4,-2.7254124E-3,3.9003768E-3,-5.127285E-3,-7.89854E-3,-4.2562434E-3,-8.281286E-3,3.5E-2,-1.0424471E-2],"split_indices":[22,22,22,22,29,29,22,29,4,24,30,29,24,29,22,9,18,30,22,29,29,24,24,30,22,6,15,30,29,29,4,0,0,0,0,0,0,0,0,0,0,0,0,0,0,0,0,0,0,0,0,0,0,0,0,0,0,0,0,0,0,0,0],"split_type":[0,0,0,0,0,0,0,0,0,0,0,0,0,0,0,0,0,0,0,0,0,0,0,0,0,0,0,0,0,0,0,0,0,0,0,0,0,0,0,0,0,0,0,0,0,0,0,0,0,0,0,0,0,0,0,0,0,0,0,0,0,0,0],"sum_hessian":[1.1198922E5,2.9671654E4,8.231756E4,6.0279463E3,2.3643709E4,3.9316164E4,4.3001395E4,1.9728495E3,4.0550964E3,1.3010713E4,1.0632996E4,2.2042887E4,1.727328E4,2.8667135E4,1.4334261E4,4.1527097E2,1.5575786E3,3.9473865E3,1.0770997E2,6.072338E3,6.938375E3,2.4021233E3,8.230873E3,1.3401694E3,2.0702717E4,1.0200815E4,7.0724624E3,1.3887807E4,1.4779328E4,9.225356E3,5.1089043E3,9.585996E1,3.1941098E2,7.958924E1,1.4779894E3,2.0044325E3,1.9429541E3,1.0198092E1,9.751187E1,3.1282063E3,2.9441313E3,4.3299765E2,6.5053774E3,1.6772287E2,2.2344004E3,8.212258E3,1.8615223E1,1.06354095E2,1.2338153E3,5.487893E3,1.5214824E4,9.437502E3,7.6331366E2,2.561599E2,6.8163027E3,1.2654025E4,1.2337814E3,1.0676852E4,4.102476E3,3.4537588E3,5.771597E3,9.184007E0,5.0997207E3],"tree_param":{"num_deleted":"0","num_feature":"31","num_nodes":"63","size_leaf_vector":"1"}},{"base_weights":[2.2226614E-4,1.6011907E-1,-6.0287643E-2,1.1023738E-1,2.9120368E-1,-1.2769238E-2,-1.09860934E-1,4.649045E-2,1.4202704E-1,4.1584545E-1,2.5543034E-1,-4.747961E-2,2.224484E-2,-1.8781863E-1,-9.2738375E-2,1.9089986E-2,8.693491E-2,1.3164265E-1,2.550183E-1,3.7556005E-1,5.34015E-1,2.2256106E-1,2.9730472E-1,-1.4739595E-2,-6.632072E-2,1.9084882E-2,2.0790313E-1,-2.2892742E-1,-1.6122243E-1,-1.1448986E-1,-2.66488E-2,8.879754E-4,3.5E-2,3.8419717E-3,1.0457626E-2,5.5738664E-3,7.837946E-3,1.2297019E-2,3.264136E-2,3.5E-2,1.7872173E-2,2.2263676E-2,3.4872916E-2,1.0896749E-2,3.2105442E-2,1.3983059E-2,2.0592628E-2,-4.2142996E-4,-5.755227E-3,-2.6087638E-3,-4.5433077E-3,-4.138282E-4,1.7340154E-3,3.2490328E-2,8.791545E-3,-1.235768E-2,-7.3910295E-3,-1.0337264E-2,-7.02153E-3,-7.524119E-3,-4.977596E-3,-3.911393E-3,-5.657638E-4],"categories":[],"categories_nodes":[],"categories_segments":[],"categories_sizes":[],"default_left":[0,0,0,0,0,0,0,0,0,0,0,0,0,0,0,0,0,0,0,0,0,0,0,0,0,0,0,0,0,0,0,0,0,0,0,0,0,0,0,0,0,0,0,0,0,0,0,0,0,0,0,0,0,0,0,0,0,0,0,0,0,0,0],"id":7,"left_children":[1,3,5,7,9,11,13,15,17,19,21,23,25,27,29,31,33,35,37,39,41,43,45,47,49,51,53,55,57,59,61,-1,-1,-1,-1,-1,-1,-1,-1,-1,-1,-1,-1,-1,-1,-1,-1,-1,-1,-1,-1,-1,-1,-1,-1,-1,-1,-1,-1,-1,-1,-1,-1],"loss_changes":[1.0883619E3,2.0189807E2,1.9223325E2,4.532898E1,3.7846558E1,5.0641953E1,5.329492E1,8.2494755E0,1.7480835E1,8.828064E0,9.040314E0,1.2906723E1,1.2165838E1,7.8258514E0,4.70748E1,4.763295E0,3.6937866E0,6.907364E0,4.372696E0,9.865906E0,6.648773E0,7.0619507E0,5.759094E0,4.841114E0,4.606632E0,8.7042675E0,4.8045044E0,4.136032E0,4.1070786E0,1.3232391E1,6.4137473E0,0E0,0E0,0E0,0E0,0E0,0E0,0E0,0E0,0E0,0E0,0E0,0E0,0E0,0E0,0E0,0E0,0E0,0E0,0E0,0E0,0E0,0E0,0E0,0E0,0E0,0E0,0E0,0E0,0E0,0E0,0E0,0E0],"parents":[2147483647,0,0,1,1,2,2,3,3,4,4,5,5,6,6,7,7,8,8,9,9,10,10,11,11,12,12,13,13,14,14,15,15,16,16,17,17,18,18,19,19,20,20,21,21,22,22,23,23,24,24,25,25,26,26,27,27,28,28,29,29,30,30],"right_children":[2,4,6,8,10,12,14,16,18,20,22,24,26,28,30,32,34,36,38,40,42,44,46,48,50,52,54,56,58,60,62,-1,-1,-1,-1,-1,-1,-1,-1,-1,-1,-1,-1,-1,-1,-1,-1,-1,-1,-1,-1,-1,-1,-1,-1,-1,-1,-1,-1,-1,-1,-1,-1],"split_conditions":[-5E-1,2.37E0,0E0,1.82E0,-2E0,1.71E0,1.72E0,3.7E0,1.2E1,4.03E0,5.75E0,-2.5E-1,3.89E0,1.44E0,1.99E0,7.5E-1,1.67E0,6.2E0,4.5E0,8.16E-1,2.01E0,3.6E0,1.2E1,2.1E0,1.083E0,3.39E0,2E-1,2.86E0,1.94E0,2.3E0,1.91E0,8.879754E-4,3.5E-2,3.8419717E-3,1.0457626E-2,5.5738664E-3,7.837946E-3,1.2297019E-2,3.264136E-2,3.5E-2,1.7872173E-2,2.2263676E-2,3.4872916E-2,1.0896749E-2,3.2105442E-2,1.3983059E-2,2.0592628E-2,-4.2142996E-4,-5.755227E-3,-2.6087638E-3,-4.5433077E-3,-4.138282E-4,1.7340154E-3,3.2490328E-2,8.791545E-3,-1.235768E-2,-7.3910295E-3,-1.0337264E-2,-7.02153E-3,-7.524119E-3,-4.977596E-3,-3.911393E-3,-5.657638E-4],"split_indices":[26,30,26,30,26,30,24,23,24,30,23,26,23,24,30,13,3,24,6,18,28,11,21,27,16,24,7,30,30,24,24,0,0,0,0,0,0,0,0,0,0,0,0,0,0,0,0,0,0,0,0,0,0,0,0,0,0,0,0,0,0,0,0],"split_type":[0,0,0,0,0,0,0,0,0,0,0,0,0,0,0,0,0,0,0,0,0,0,0,0,0,0,0,0,0,0,0,0,0,0,0,0,0,0,0,0,0,0,0,0,0,0,0,0,0,0,0,0,0,0,0,0,0,0,0,0,0,0,0],"sum_hessian":[1.1248621E5,3.088123E4,8.160498E4,2.237044E4,8.510793E3,4.1666688E4,3.993829E4,7.444548E3,1.4925891E4,1.8955785E3,6.6152144E3,2.092391E4,2.0742777E4,7.1905034E3,3.2747785E4,4.4388027E3,3.005745E3,1.3671579E4,1.2543114E3,1.4167644E3,4.7881412E2,3.7096445E3,2.9055696E3,7.643556E3,1.32803545E4,2.039672E4,3.460555E2,2.8216204E3,4.3688833E3,2.4638123E4,8.1096626E3,4.4327896E3,6.013347E0,2.7779114E3,2.278337E2,7.586206E3,6.085373E3,1.227909E3,2.6402336E1,5.77439E1,1.3590205E3,3.1273767E2,1.6607646E2,3.6706895E3,3.8955055E1,2.520746E3,3.848234E2,7.19238E3,4.5117636E2,8.42702E3,4.853335E3,7.405168E3,1.2991553E4,2.2113026E1,3.2394247E2,2.3022222E3,5.193983E2,1.3669843E3,3.001899E3,7.2237197E3,1.7414402E4,1.8574506E3,6.2522124E3],"tree_param":{"num_deleted":"0","num_feature":"31","num_nodes":"63","size_leaf_vector":"1"}},{"base_weights":[4.961234E-4,1.5621157E-1,-5.872032E-2,9.2202745E-2,2.4667816E-1,-1.5504665E-2,-1.0385005E-1,1.2414591E-1,4.2393766E-2,3.9325637E-1,2.1974654E-1,1.8600272E-2,-5.5383384E-2,-1.9673453E-1,-9.1540776E-2,1.1187233E-1,1.6338563E-1,6.0064856E-2,-1.599232E-2,6.6138756E-1,3.7473828E-1,2.3761019E-1,1.4554143E-1,1.36077795E-2,1.255717E-1,-1.948499E-2,-7.585066E-2,-1.0994333E-1,-2.1023124E-1,-5.544674E-2,-1.1488269E-1,7.7725113E-3,4.477357E-3,1.5050905E-2,7.195823E-3,3.5E-2,2.940017E-3,-1.3671949E-3,8.685753E-3,3.5E-2,6.4992714E-3,3.290054E-2,1.8069696E-2,1.4233899E-2,1.1162251E-2,7.0003825E-3,3.1499915E-2,-5.5218063E-4,1.3915676E-3,2.0713147E-2,5.3905644E-3,-3.4718658E-4,-4.043718E-3,-3.528698E-3,-9.345389E-3,1.5668546E-4,-8.36891E-3,-1.6319826E-2,-1.0047897E-2,-4.703078E-3,-1.040568E-3,-7.994024E-3,-4.829682E-3],"categories":[],"categories_nodes":[],"categories_segments":[],"categories_sizes":[],"default_left":[0,0,0,0,0,0,0,0,0,0,0,0,0,0,0,0,0,0,0,0,0,0,0,0,0,0,0,0,0,0,0,0,0,0,0,0,0,0,0,0,0,0,0,0,0,0,0,0,0,0,0,0,0,0,0,0,0,0,0,0,0,0,0],"id":8,"left_children":[1,3,5,7,9,11,13,15,17,19,21,23,25,27,29,31,33,35,37,39,41,43,45,47,49,51,53,55,57,59,61,-1,-1,-1,-1,-1,-1,-1,-1,-1,-1,-1,-1,-1,-1,-1,-1,-1,-1,-1,-1,-1,-1,-1,-1,-1,-1,-1,-1,-1,-1,-1,-1],"loss_changes":[1.0372478E3,1.7944153E2,1.5894211E2,2.8875092E1,5.0605896E1,5.6623516E1,4.5561523E1,5.307724E0,7.320122E0,9.642609E0,1.4348328E1,1.1983225E1,1.4099602E1,5.440277E0,2.9651733E1,8.184624E0,7.0111923E0,4.5471573E0,3.5558305E0,6.83749E0,6.8141785E0,5.8483276E0,5.562641E0,7.51849E0,5.085409E0,5.365814E0,7.14946E0,4.090622E0,4.2812805E0,1.8490433E1,1.7576721E1,0E0,0E0,0E0,0E0,0E0,0E0,0E0,0E0,0E0,0E0,0E0,0E0,0E0,0E0,0E0,0E0,0E0,0E0,0E0,0E0,0E0,0E0,0E0,0E0,0E0,0E0,0E0,0E0,0E0,0E0,0E0,0E0],"parents":[2147483647,0,0,1,1,2,2,3,3,4,4,5,5,6,6,7,7,8,8,9,9,10,10,11,11,12,12,13,13,14,14,15,15,16,16,17,17,18,18,19,19,20,20,21,21,22,22,23,23,24,24,25,25,26,26,27,27,28,28,29,29,30,30],"right_children":[2,4,6,8,10,12,14,16,18,20,22,24,26,28,30,32,34,36,38,40,42,44,46,48,50,52,54,56,58,60,62,-1,-1,-1,-1,-1,-1,-1,-1,-1,-1,-1,-1,-1,-1,-1,-1,-1,-1,-1,-1,-1,-1,-1,-1,-1,-1,-1,-1,-1,-1,-1,-1],"split_conditions":[-5E-1,4.5E0,0E0,2E0,-2E0,2.14E0,1.57E0,6.2E0,2.26E0,1.17E0,1.72E0,3.79E0,-2.5E-1,1.41E0,1.94E0,1.68E0,1E0,4.08E-1,2.17E0,1.2E0,8.16E-1,-1.75E0,2.31E0,3.39E0,2E-1,2.05E0,2.73E0,5.75E0,1.22E0,2.15E0,2.29E0,7.7725113E-3,4.477357E-3,1.5050905E-2,7.195823E-3,3.5E-2,2.940017E-3,-1.3671949E-3,8.685753E-3,3.5E-2,6.4992714E-3,3.290054E-2,1.8069696E-2,1.4233899E-2,1.1162251E-2,7.0003825E-3,3.1499915E-2,-5.5218063E-4,1.3915676E-3,2.0713147E-2,5.3905644E-3,-3.4718658E-4,-4.043718E-3,-3.528698E-3,-9.345389E-3,1.5668546E-4,-8.36891E-3,-1.6319826E-2,-1.0047897E-2,-4.703078E-3,-1.040568E-3,-7.994024E-3,-4.829682E-3],"split_indices":[26,23,26,29,26,29,24,24,29,29,29,23,26,29,29,29,9,18,5,8,18,26,27,24,7,27,29,23,24,24,24,0,0,0,0,0,0,0,0,0,0,0,0,0,0,0,0,0,0,0,0,0,0,0,0,0,0,0,0,0,0,0,0],"split_type":[0,0,0,0,0,0,0,0,0,0,0,0,0,0,0,0,0,0,0,0,0,0,0,0,0,0,0,0,0,0,0,0,0,0,0,0,0,0,0,0,0,0,0,0,0,0,0,0,0,0,0,0,0,0,0,0,0,0,0,0,0,0,0],"sum_hessian":[1.124866E5,3.0991023E4,8.149557E4,1.8150688E4,1.2840337E4,4.1631305E4,3.9864266E4,1.1057727E4,7.092961E3,1.9909235E3,1.0849413E4,2.2440422E4,1.9190885E4,4.662975E3,3.5201293E4,8.42604E3,2.6316865E3,5.444964E3,1.6479973E3,1.2637482E2,1.8645487E3,8.742579E3,2.106834E3,2.1440875E4,9.9954584E2,6.969225E3,1.222166E4,6.2877277E2,4.0342024E3,1.3825713E4,2.1375578E4,2.852367E3,5.573673E3,3.2434537E2,2.307341E3,9.207109E0,5.435757E3,1.5557606E3,9.223669E1,1.04238434E2,2.213639E1,8.170995E1,1.7828387E3,2.0399209E3,6.702658E3,2.0843147E3,2.2519413E1,7.844869E3,1.3596006E4,5.663483E1,9.42911E2,5.7879214E3,1.1813036E3,1.1668869E4,5.5279083E2,2.1211293E2,4.1665982E2,2.9570926E2,3.7384932E3,6.5364937E3,7.2892197E3,6.1750225E3,1.5200557E4],"tree_param":{"num_deleted":"0","num_feature":"31","num_nodes":"63","size_leaf_vector":"1"}},{"base_weights":[1.7737683E-4,1.518043E-1,-5.6783833E-2,3.1811872E-1,1.1498827E-1,-4.758066E-3,-1.0458205E-1,2.8958386E-1,4.548852E-1,1.5858383E-1,6.1136853E-2,2.4623284E-2,-4.291308E-2,-8.7808125E-2,-1.8042333E-1,2.3412506E-1,3.1773797E-1,2.9510543E-1,5.03307E-1,1.199406E-1,1.8902E-1,7.3855005E-2,2.6895243E-3,3.607953E-2,-1.6424775E-2,-1.5269986E-2,-6.253285E-2,-4.4375747E-2,-1.12456694E-1,-1.5446657E-1,-2.1345836E-1,1.0821475E-2,2.0347618E-2,1.6050816E-2,-7.6393113E-3,3.439575E-2,1.2068513E-2,2.7695594E-2,1.99617E-2,-2.8705623E-3,6.2138154E-3,1.135644E-2,8.172702E-3,-7.0710303E-3,3.8605183E-3,8.963002E-3,-5.697968E-4,4.0444E-3,1.1198869E-3,1.0340108E-3,-2.236006E-3,-4.947432E-4,-6.1160824E-3,-2.387261E-3,-4.471171E-3,-2.6624198E-3,2.0520652E-3,-4.6427744E-3,-7.1879956E-3,-5.7666604E-3,-9.398664E-3,1.959165E-2,-1.0815986E-2],"categories":[],"categories_nodes":[],"categories_segments":[],"categories_sizes":[],"default_left":[0,0,0,0,0,0,0,0,0,0,0,0,0,0,0,0,0,0,0,0,0,0,0,0,0,0,0,0,0,0,0,0,0,0,0,0,0,0,0,0,0,0,0,0,0,0,0,0,0,0,0,0,0,0,0,0,0,0,0,0,0,0,0],"id":9,"left_children":[1,3,5,7,9,11,13,15,17,19,21,23,25,27,29,31,33,35,37,39,41,43,45,47,49,51,53,55,57,59,61,-1,-1,-1,-1,-1,-1,-1,-1,-1,-1,-1,-1,-1,-1,-1,-1,-1,-1,-1,-1,-1,-1,-1,-1,-1,-1,-1,-1,-1,-1,-1,-1],"loss_changes":[9.7135376E2,1.8801556E2,2.0330011E2,2.1589478E1,5.9028473E1,4.388649E1,5.418817E1,7.1201477E0,7.271393E0,1.6321594E1,8.363892E0,1.0401192E1,9.235842E0,3.734967E1,6.583374E0,4.668556E0,4.7591553E0,4.592951E0,3.6475525E0,4.71727E0,7.5350647E0,6.686043E0,5.00582E0,1.0598825E1,5.068264E0,4.067694E0,3.956604E0,9.577654E0,1.3644653E1,5.6487503E0,5.960388E0,0E0,0E0,0E0,0E0,0E0,0E0,0E0,0E0,0E0,0E0,0E0,0E0,0E0,0E0,0E0,0E0,0E0,0E0,0E0,0E0,0E0,0E0,0E0,0E0,0E0,0E0,0E0,0E0,0E0,0E0,0E0,0E0],"parents":[2147483647,0,0,1,1,2,2,3,3,4,4,5,5,6,6,7,7,8,8,9,9,10,10,11,11,12,12,13,13,14,14,15,15,16,16,17,17,18,18,19,19,20,20,21,21,22,22,23,23,24,24,25,25,26,26,27,27,28,28,29,29,30,30],"right_children":[2,4,6,8,10,12,14,16,18,20,22,24,26,28,30,32,34,36,38,40,42,44,46,48,50,52,54,56,58,60,62,-1,-1,-1,-1,-1,-1,-1,-1,-1,-1,-1,-1,-1,-1,-1,-1,-1,-1,-1,-1,-1,-1,-1,-1,-1,-1,-1,-1,-1,-1,-1,-1],"split_conditions":[1.8E0,-1.5E0,2.39E0,3.6E0,1.84E0,2.14E0,4.59E0,7E0,1.2E0,6.5E0,2.24E0,2.25E0,-2.5E-1,1.96E0,6.75E0,2.07E0,4.2E0,2.17E0,1.33E0,5E-1,1.58E0,1.62E0,4.8E0,1.75E0,1.33E0,1.757E0,1.083E0,2.37E0,2.95E0,1.74E0,1.37E-1,1.0821475E-2,2.0347618E-2,1.6050816E-2,-7.6393113E-3,3.439575E-2,1.2068513E-2,2.7695594E-2,1.99617E-2,-2.8705623E-3,6.2138154E-3,1.135644E-2,8.172702E-3,-7.0710303E-3,3.8605183E-3,8.963002E-3,-5.697968E-4,4.0444E-3,1.1198869E-3,1.0340108E-3,-2.236006E-3,-4.947432E-4,-6.1160824E-3,-2.387261E-3,-4.471171E-3,-2.6624198E-3,2.0520652E-3,-4.6427744E-3,-7.1879956E-3,-5.7666604E-3,-9.398664E-3,1.959165E-2,-1.0815986E-2],"split_indices":[22,26,22,30,29,29,22,21,9,24,29,22,26,29,22,27,2,2,8,3,29,28,24,29,5,17,16,30,22,29,16,0,0,0,0,0,0,0,0,0,0,0,0,0,0,0,0,0,0,0,0,0,0,0,0,0,0,0,0,0,0,0,0],"split_type":[0,0,0,0,0,0,0,0,0,0,0,0,0,0,0,0,0,0,0,0,0,0,0,0,0,0,0,0,0,0,0,0,0,0,0,0,0,0,0,0,0,0,0,0,0,0,0,0,0,0,0,0,0,0,0,0,0,0,0,0,0,0,0],"sum_hessian":[1.12464164E5,3.0711238E4,8.175292E4,5.564821E3,2.5146418E4,3.9145867E4,4.2607055E4,4.6067827E3,9.580382E2,1.3895406E4,1.1251012E4,2.211586E4,1.703001E4,3.4892086E4,7.714971E3,1.554331E3,3.0524514E3,2.2446251E2,7.335757E2,6.124447E3,7.7709595E3,9.240102E3,2.010911E3,1.7290355E4,4.825504E3,7.0702407E3,9.95977E3,1.2633621E4,2.2258463E4,4.3235117E3,3.3914592E3,1.4120094E3,1.4232173E2,3.0316462E3,2.0805134E1,2.559061E1,1.988719E2,4.906687E2,2.4290698E2,1.4585883E2,5.978588E3,3.1169392E3,4.6540205E3,1.4117793E2,9.098923E3,1.4769762E2,1.8632134E3,4.043337E3,1.3247018E4,2.0878625E3,2.7376414E3,6.733253E3,3.3698788E2,6.427785E3,3.5319844E3,1.1445141E4,1.188481E3,1.3690078E4,8.568385E3,1.996357E3,2.3271548E3,1.5317297E1,3.3761418E3],"tree_param":{"num_deleted":"0","num_feature":"31","num_nodes":"63","size_leaf_vector":"1"}},{"base_weights":[-1.3185118E-3,1.5016761E-1,-5.799525E-2,3.020916E-1,1.1373372E-1,-2.5596373E-2,-1.2227025E-1,3.7524652E-1,2.4356885E-1,6.7919716E-2,1.6441631E-1,1.3266941E-2,-6.014067E-2,-1.03452064E-1,-1.966773E-1,7E-1,3.6092404E-1,2.5032777E-1,-7.898877E-2,8.174241E-2,2.9366952E-3,1.4480458E-1,2.0114729E-1,1.3084419E-1,5.027554E-3,-3.0180758E-2,-8.116321E-2,-6.253981E-2,-1.2301911E-1,2.866038E-1,-1.9837771E-1,3.5E-2,-9.483289E-3,2.373535E-2,1.6505603E-2,1.3498398E-2,9.60925E-3,-8.0674365E-3,1.801831E-2,-6.632735E-3,4.227802E-3,-9.203281E-3,4.946769E-4,4.6687885E-3,8.271108E-3,7.1561667E-3,1.1461841E-2,7.873738E-3,1.4136045E-4,-6.224475E-4,2.6072501E-3,-9.202432E-4,-3.2617066E-3,-3.7667917E-3,-8.244836E-3,-4.911902E-3,-2.0736868E-3,-5.4456736E-3,-7.6905163E-3,-4.4871042E-3,3.5E-2,-5.7324925E-3,-1.0397048E-2],"categories":[],"categories_nodes":[],"categories_segments":[],"categories_sizes":[],"default_left":[0,0,0,0,0,0,0,0,0,0,0,0,0,0,0,0,0,0,0,0,0,0,0,0,0,0,0,0,0,0,0,0,0,0,0,0,0,0,0,0,0,0,0,0,0,0,0,0,0,0,0,0,0,0,0,0,0,0,0,0,0,0,0],"id":10,"left_children":[1,3,5,7,9,11,13,15,17,19,21,23,25,27,29,31,33,35,37,39,41,43,45,47,49,51,53,55,57,59,61,-1,-1,-1,-1,-1,-1,-1,-1,-1,-1,-1,-1,-1,-1,-1,-1,-1,-1,-1,-1,-1,-1,-1,-1,-1,-1,-1,-1,-1,-1,-1,-1],"loss_changes":[9.640492E2,1.6918689E2,1.7015903E2,2.5223083E1,5.724878E1,7.29382E1,3.8323822E1,1.2358917E1,7.187668E0,1.163541E1,8.404236E0,2.4767942E1,1.8113518E1,1.749112E1,4.598572E0,3.3694992E0,8.68045E0,3.6257935E0,2.527409E0,6.4547424E0,2.959087E0,8.081009E0,6.6047974E0,5.70747E0,1.9676054E1,4.89526E0,8.234879E0,5.315819E0,6.405182E0,4.5548463E0,4.3863373E0,0E0,0E0,0E0,0E0,0E0,0E0,0E0,0E0,0E0,0E0,0E0,0E0,0E0,0E0,0E0,0E0,0E0,0E0,0E0,0E0,0E0,0E0,0E0,0E0,0E0,0E0,0E0,0E0,0E0,0E0,0E0,0E0],"parents":[2147483647,0,0,1,1,2,2,3,3,4,4,5,5,6,6,7,7,8,8,9,9,10,10,11,11,12,12,13,13,14,14,15,15,16,16,17,17,18,18,19,19,20,20,21,21,22,22,23,23,24,24,25,25,26,26,27,27,28,28,29,29,30,30],"right_children":[2,4,6,8,10,12,14,16,18,20,22,24,26,28,30,32,34,36,38,40,42,44,46,48,50,52,54,56,58,60,62,-1,-1,-1,-1,-1,-1,-1,-1,-1,-1,-1,-1,-1,-1,-1,-1,-1,-1,-1,-1,-1,-1,-1,-1,-1,-1,-1,-1,-1,-1,-1,-1],"split_conditions":[1.8E0,1.28E0,2.8E0,1.17E0,2.02E0,2.09E0,5.5E0,1.17E0,2E0,2.21E0,2.37E0,1.6E0,2.15E0,1.84E0,1.7E-1,2.302E0,1.033E0,1.61E0,1.1E1,1.62E0,2E-1,5E0,6.2E0,2.25E0,3.8E0,2.4E0,2.68E0,1.9E0,3.6E0,2.75E0,1.41E0,3.5E-2,-9.483289E-3,2.373535E-2,1.6505603E-2,1.3498398E-2,9.60925E-3,-8.0674365E-3,1.801831E-2,-6.632735E-3,4.227802E-3,-9.203281E-3,4.946769E-4,4.6687885E-3,8.271108E-3,7.1561667E-3,1.1461841E-2,7.873738E-3,1.4136045E-4,-6.224475E-4,2.6072501E-3,-9.202432E-4,-3.2617066E-3,-3.7667917E-3,-8.244836E-3,-4.911902E-3,-2.0736868E-3,-5.4456736E-3,-7.6905163E-3,-4.4871042E-3,3.5E-2,-5.7324925E-3,-1.0397048E-2],"split_indices":[22,22,22,22,30,29,22,29,4,29,30,29,22,29,4,19,18,29,0,28,3,1,24,7,24,29,29,24,22,3,29,0,0,0,0,0,0,0,0,0,0,0,0,0,0,0,0,0,0,0,0,0,0,0,0,0,0,0,0,0,0,0,0],"split_type":[0,0,0,0,0,0,0,0,0,0,0,0,0,0,0,0,0,0,0,0,0,0,0,0,0,0,0,0,0,0,0,0,0,0,0,0,0,0,0,0,0,0,0,0,0,0,0,0,0,0,0,0,0,0,0,0,0,0,0,0,0,0,0],"sum_hessian":[1.1228292E5,3.0570947E4,8.171197E4,5.9119E3,2.4659049E4,5.4328293E4,2.7383676E4,2.625076E3,3.286824E3,1.295282E4,1.1706228E4,2.5566203E4,2.876209E4,2.1857992E4,5.525683E3,1.0540771E2,2.5196682E3,3.2195845E3,6.723952E1,1.0680654E4,2.2721663E3,7.634756E3,4.0714722E3,1.6732863E3,2.3892918E4,1.1861013E4,1.6901078E4,7.0731353E3,1.4784857E4,1.8786518E1,5.506897E3,1.0153156E2,3.8761482E0,5.3385095E2,1.9858173E3,2.4039165E3,8.156679E2,5.7157692E1,1.0081823E1,1.3775333E2,1.05429E4,8.058394E1,2.1915823E3,2.1864265E3,5.448329E3,1.3300693E3,2.7414028E3,1.3849531E3,2.8833313E2,1.7429E4,6.4639185E3,8.879531E3,2.9814807E3,1.5803166E4,1.097912E3,2.6235857E3,4.4495493E3,1.014288E4,4.6419775E3,1.2510328E1,6.27619E0,5.6584076E2,4.941056E3],"tree_param":{"num_deleted":"0","num_feature":"31","num_nodes":"63","size_leaf_vector":"1"}},{"base_weights":[8.82911E-4,1.4576332E-1,-5.6174792E-2,9.000461E-2,2.43848E-1,-2.3751494E-2,-1.19477205E-1,1.17078915E-1,4.1478757E-2,3.6327165E-1,2.1683122E-1,7.55147E-3,-6.1020426E-2,-1.0289571E-1,-1.9550763E-1,1.509263E-1,9.9239886E-2,2.2393815E-2,7.1184516E-2,3.3588848E-1,5.535303E-1,2.3298244E-1,1.2956744E-1,3.3604942E-2,-1.976229E-2,-1.5254918E-2,-7.70631E-2,-4.931309E-2,-1.2625627E-1,2.8603905E-1,-1.9743381E-1,7.4107423E-3,2.713622E-2,1.34262545E-2,4.7493814E-3,8.145037E-4,5.705286E-3,2.9290551E-3,9.463339E-3,2.8470507E-2,1.6091887E-2,3.5E-2,2.0356966E-2,1.3525155E-2,1.0952085E-2,7.0079877E-3,-4.803071E-3,1.3819019E-3,5.8363504E-3,3.7953604E-3,-1.2412508E-3,-7.545575E-5,-2.4863817E-3,-3.0549772E-3,-4.710554E-3,-1.2821694E-3,-3.9411183E-3,-5.17099E-3,-7.7740806E-3,3.5E-2,-4.1670427E-3,-9.977609E-3,7.252054E-3],"categories":[],"categories_nodes":[],"categories_segments":[],"categories_sizes":[],"default_left":[0,0,0,0,0,0,0,0,0,0,0,0,0,0,0,0,0,0,0,0,0,0,0,0,0,0,0,0,0,0,0,0,0,0,0,0,0,0,0,0,0,0,0,0,0,0,0,0,0,0,0,0,0,0,0,0,0,0,0,0,0,0,0],"id":11,"left_children":[1,3,5,7,9,11,13,15,17,19,21,23,25,27,29,31,33,35,37,39,41,43,45,47,49,51,53,55,57,59,61,-1,-1,-1,-1,-1,-1,-1,-1,-1,-1,-1,-1,-1,-1,-1,-1,-1,-1,-1,-1,-1,-1,-1,-1,-1,-1,-1,-1,-1,-1,-1,-1],"loss_changes":[9.250311E2,1.7289685E2,1.6477597E2,2.6481064E1,3.689264E1,6.1938595E1,3.4261353E1,7.7979584E0,4.092368E0,1.0820251E1,1.3144012E1,2.0535297E1,1.7793167E1,2.7939667E1,4.57135E0,4.6618423E0,6.0762253E0,2.460107E0,4.1920033E0,5.884598E0,6.7000732E0,4.065735E0,3.507784E0,7.3220367E0,6.825401E0,2.9813876E0,4.9066696E0,4.733631E0,1.0360016E1,4.2786913E0,3.5465698E0,0E0,0E0,0E0,0E0,0E0,0E0,0E0,0E0,0E0,0E0,0E0,0E0,0E0,0E0,0E0,0E0,0E0,0E0,0E0,0E0,0E0,0E0,0E0,0E0,0E0,0E0,0E0,0E0,0E0,0E0,0E0,0E0],"parents":[2147483647,0,0,1,1,2,2,3,3,4,4,5,5,6,6,7,7,8,8,9,9,10,10,11,11,12,12,13,13,14,14,15,15,16,16,17,17,18,18,19,19,20,20,21,21,22,22,23,23,24,24,25,25,26,26,27,27,28,28,29,29,30,30],"right_children":[2,4,6,8,10,12,14,16,18,20,22,24,26,28,30,32,34,36,38,40,42,44,46,48,50,52,54,56,58,60,62,-1,-1,-1,-1,-1,-1,-1,-1,-1,-1,-1,-1,-1,-1,-1,-1,-1,-1,-1,-1,-1,-1,-1,-1,-1,-1,-1,-1,-1,-1,-1,-1],"split_conditions":[-5E-1,4.59E0,2.8E0,2E0,-2E0,2.14E0,5.75E0,1.68E0,3.7E0,2.04E0,1.72E0,2.2E0,2.04E0,1.81E0,1.7E-1,4E0,1.4E0,1.709E0,1.202E0,1.06E0,1.304E0,-1.75E0,2.16E0,3.79E0,1.6E0,2.4E0,2.35E0,3.79E0,3.4E0,1.67E0,1.788E0,7.4107423E-3,2.713622E-2,1.34262545E-2,4.7493814E-3,8.145037E-4,5.705286E-3,2.9290551E-3,9.463339E-3,2.8470507E-2,1.6091887E-2,3.5E-2,2.0356966E-2,1.3525155E-2,1.0952085E-2,7.0079877E-3,-4.803071E-3,1.3819019E-3,5.8363504E-3,3.7953604E-3,-1.2412508E-3,-7.545575E-5,-2.4863817E-3,-3.0549772E-3,-4.710554E-3,-1.2821694E-3,-3.9411183E-3,-5.17099E-3,-7.7740806E-3,3.5E-2,-4.1670427E-3,-9.977609E-3,7.252054E-3],"split_indices":[26,23,22,29,26,29,22,29,23,28,29,22,22,29,4,10,22,14,15,22,19,26,28,23,29,29,22,22,22,29,14,0,0,0,0,0,0,0,0,0,0,0,0,0,0,0,0,0,0,0,0,0,0,0,0,0,0,0,0,0,0,0,0],"split_type":[0,0,0,0,0,0,0,0,0,0,0,0,0,0,0,0,0,0,0,0,0,0,0,0,0,0,0,0,0,0,0,0,0,0,0,0,0,0,0,0,0,0,0,0,0,0,0,0,0,0,0,0,0,0,0,0,0,0,0,0,0,0,0],"sum_hessian":[1.118986E5,3.161656E4,8.028205E4,2.0158734E4,1.1457826E4,5.3090586E4,2.7191459E4,1.2938481E4,7.2202524E3,2.1115566E3,9.34627E3,2.885525E4,2.4235336E4,2.2324955E4,4.866503E3,4.4630073E3,8.475474E3,4.397051E3,2.823202E3,1.8483033E3,2.6325336E2,7.885172E3,1.4610979E3,1.476822E4,1.4087029E4,6.2909287E3,1.7944406E4,6.7789795E3,1.5545976E4,1.8800797E1,4.847702E3,4.433702E3,2.9305294E1,2.0615518E2,8.269318E3,4.123777E3,2.7327386E2,2.5522822E3,2.7091953E2,1.0265578E2,1.7456476E3,1.143221E2,1.4893127E2,2.1310835E3,5.7540884E3,1.395943E3,6.5154816E1,1.3780333E4,9.87887E2,7.0730023E2,1.3379729E4,4.498301E3,1.7926284E3,9.295508E3,8.648899E3,3.7627263E3,3.0162534E3,8.729411E3,6.8165645E3,6.499746E0,1.230105E1,4.818316E3,2.9386196E1],"tree_param":{"num_deleted":"0","num_feature":"31","num_nodes":"63","size_leaf_vector":"1"}},{"base_weights":[5.770427E-4,1.3868785E-1,-5.443725E-2,7.589968E-2,2.1565947E-1,-2.4870731E-2,-1.1691294E-1,4.0767394E-2,1.0645872E-1,2.9801902E-1,1.813198E-1,1.1295609E-2,-5.693528E-2,-9.864306E-2,-1.936717E-1,6.218029E-1,3.933578E-2,1.6585232E-1,9.58379E-2,3.6767986E-1,2.6096687E-1,1.5096098E-1,2.0680845E-1,9.9623576E-2,5.141348E-3,-3.624916E-2,-9.176477E-2,-6.4539164E-2,-1.3224348E-1,-1.1302534E-1,-2.0577769E-1,3.5E-2,1.3144738E-2,-9.7619754E-4,2.5758557E-3,2.920021E-2,7.6673366E-3,5.8988677E-3,3.3665285E-3,3.5E-2,1.782102E-2,1.5422957E-2,1.1164423E-2,7.281979E-3,1.6903508E-2,1.0493389E-2,5.252227E-4,1.43776005E-2,4.2566126E-3,-7.7880104E-4,1.6093396E-3,-2.0626688E-3,1.001118E-3,-3.7605863E-3,-6.2803286E-3,-1.8484453E-3,-4.4355704E-3,-9.862741E-3,-6.13615E-3,-9.186851E-3,1.7058464E-3,-9.785405E-3,-1.6513038E-2],"categories":[],"categories_nodes":[],"categories_segments":[],"categories_sizes":[],"default_left":[0,0,0,0,0,0,0,0,0,0,0,0,0,0,0,0,0,0,0,0,0,0,0,0,0,0,0,0,0,0,0,0,0,0,0,0,0,0,0,0,0,0,0,0,0,0,0,0,0,0,0,0,0,0,0,0,0,0,0,0,0,0,0],"id":12,"left_children":[1,3,5,7,9,11,13,15,17,19,21,23,25,27,29,31,33,35,37,39,41,43,45,47,49,51,53,55,57,59,61,-1,-1,-1,-1,-1,-1,-1,-1,-1,-1,-1,-1,-1,-1,-1,-1,-1,-1,-1,-1,-1,-1,-1,-1,-1,-1,-1,-1,-1,-1,-1,-1],"loss_changes":[8.546485E2,1.5484021E2,1.485854E2,1.8943245E1,4.065686E1,6.33201E1,3.6217377E1,6.806059E0,5.937645E0,1.0832855E1,7.831787E0,1.3948387E1,2.084925E1,2.391066E1,4.825836E0,7.6976776E-1,5.874902E0,7.389923E0,5.046608E0,5.3552704E0,4.8833313E0,4.5720673E0,3.3135529E0,4.5272655E0,1.34424305E1,5.114458E0,6.031456E0,6.9017563E0,6.482971E0,6.7742624E0,5.3470306E0,0E0,0E0,0E0,0E0,0E0,0E0,0E0,0E0,0E0,0E0,0E0,0E0,0E0,0E0,0E0,0E0,0E0,0E0,0E0,0E0,0E0,0E0,0E0,0E0,0E0,0E0,0E0,0E0,0E0,0E0,0E0,0E0],"parents":[2147483647,0,0,1,1,2,2,3,3,4,4,5,5,6,6,7,7,8,8,9,9,10,10,11,11,12,12,13,13,14,14,15,15,16,16,17,17,18,18,19,19,20,20,21,21,22,22,23,23,24,24,25,25,26,26,27,27,28,28,29,29,30,30],"right_children":[2,4,6,8,10,12,14,16,18,20,22,24,26,28,30,32,34,36,38,40,42,44,46,48,50,52,54,56,58,60,62,-1,-1,-1,-1,-1,-1,-1,-1,-1,-1,-1,-1,-1,-1,-1,-1,-1,-1,-1,-1,-1,-1,-1,-1,-1,-1,-1,-1,-1,-1,-1,-1],"split_conditions":[-5E-1,2.15E0,2.87E0,3.79E0,-1.75E0,2.09E0,5.75E0,1.45E0,-1.25E0,-2.25E0,4.59E0,1.6E0,2.35E0,2E0,1.43E0,2E0,1.61E0,1.65E0,2E0,8.16E-1,1.472E0,2.13E0,2.13E0,2.3E0,3.5E0,3.5E0,2.4E0,3.6E0,1.52E0,1.3E0,6.25E0,3.5E-2,1.3144738E-2,-9.7619754E-4,2.5758557E-3,2.920021E-2,7.6673366E-3,5.8988677E-3,3.3665285E-3,3.5E-2,1.782102E-2,1.5422957E-2,1.1164423E-2,7.281979E-3,1.6903508E-2,1.0493389E-2,5.252227E-4,1.43776005E-2,4.2566126E-3,-7.7880104E-4,1.6093396E-3,-2.0626688E-3,1.001118E-3,-3.7605863E-3,-6.2803286E-3,-1.8484453E-3,-4.4355704E-3,-9.862741E-3,-6.13615E-3,-9.186851E-3,1.7058464E-3,-9.785405E-3,-1.6513038E-2],"split_indices":[26,30,22,23,26,29,22,22,26,26,23,29,22,29,29,10,30,28,10,18,18,28,27,30,24,23,29,22,30,24,23,0,0,0,0,0,0,0,0,0,0,0,0,0,0,0,0,0,0,0,0,0,0,0,0,0,0,0,0,0,0,0,0],"split_type":[0,0,0,0,0,0,0,0,0,0,0,0,0,0,0,0,0,0,0,0,0,0,0,0,0,0,0,0,0,0,0,0,0,0,0,0,0,0,0,0,0,0,0,0,0,0,0,0,0,0,0,0,0,0,0,0,0,0,0,0,0,0,0],"sum_hessian":[1.1248036E5,3.2041117E4,8.043924E4,1.7647492E4,1.4393625E4,5.4600867E4,2.5838375E4,8.210546E3,9.436945E3,4.2331787E3,1.0160446E4,2.5659535E4,2.894133E4,2.0872623E4,4.9657515E3,1.9115185E1,8.191431E3,1.4293181E3,8.007627E3,1.4667169E3,2.7664617E3,4.640362E3,5.520085E3,1.6703883E3,2.3989146E4,1.8158549E4,1.0782782E4,1.0360154E4,1.0512469E4,6.494761E2,4.3162754E3,1.2877884E1,6.2373E0,1.4044724E3,6.7869585E3,4.0178066E1,1.3891401E3,4.505451E3,3.502176E3,4.5104378E1,1.4216125E3,1.2206675E3,1.5457942E3,4.513768E3,1.2659347E2,5.435308E3,8.477689E1,1.1823496E2,1.5521534E3,1.358397E4,1.0405178E4,1.6675838E4,1.4827112E3,7.2431577E3,3.5396248E3,4.841074E3,5.51908E3,1.3403153E3,9.172154E3,4.3849927E2,2.1097684E2,3.9956357E3,3.206397E2],"tree_param":{"num_deleted":"0","num_feature":"31","num_nodes":"63","size_leaf_vector":"1"}},{"base_weights":[-7.030294E-4,1.3318834E-1,-5.2534677E-2,8.255732E-2,2.177675E-1,-2.1500831E-2,-1.1401439E-1,3.0099666E-2,1.0725654E-1,3.1630987E-1,1.8837072E-1,1.4299445E-2,-5.5195406E-2,-9.7248636E-2,-1.901549E-1,2.3969643E-2,1.517442E-1,9.643023E-2,1.6825594E-1,4.1627657E-1,2.8134435E-1,2.571193E-1,1.7223616E-1,1.0158319E-1,8.092686E-3,-3.1414613E-2,-8.825159E-2,-5.8100197E-2,-1.2837401E-1,-1.708472E-1,-2.3683436E-1,2.1272947E-3,-8.960059E-4,2.1059118E-2,2.84891E-3,-5.2927784E-3,4.9241725E-3,1.9238027E-2,7.850419E-3,3.1243602E-2,1.7329384E-2,2.3504604E-2,1.3254605E-2,1.3392105E-2,-3.2259966E-6,9.288444E-3,6.023514E-3,1.3932164E-2,4.4494416E-3,-2.807475E-4,2.2237606E-3,-1.9141186E-3,1.9122548E-3,-4.0809596E-3,-7.899552E-3,-1.3108699E-3,-4.4282177E-3,-5.620304E-3,-7.847885E-3,-3.007693E-3,-9.421377E-3,2.4476279E-2,-1.2106234E-2],"categories":[],"categories_nodes":[],"categories_segments":[],"categories_sizes":[],"default_left":[0,0,0,0,0,0,0,0,0,0,0,0,0,0,0,0,0,0,0,0,0,0,0,0,0,0,0,0,0,0,0,0,0,0,0,0,0,0,0,0,0,0,0,0,0,0,0,0,0,0,0,0,0,0,0,0,0,0,0,0,0,0,0],"id":13,"left_children":[1,3,5,7,9,11,13,15,17,19,21,23,25,27,29,31,33,35,37,39,41,43,45,47,49,51,53,55,57,59,61,-1,-1,-1,-1,-1,-1,-1,-1,-1,-1,-1,-1,-1,-1,-1,-1,-1,-1,-1,-1,-1,-1,-1,-1,-1,-1,-1,-1,-1,-1,-1,-1],"loss_changes":[7.767715E2,1.3375073E2,1.5395471E2,2.5316406E1,3.3823547E1,6.4687515E1,3.453543E1,4.662148E0,8.757645E0,9.27179E0,9.951477E0,1.4085181E1,2.171347E1,2.7025818E1,4.361038E0,4.637054E0,7.635986E0,4.6977615E0,4.812866E0,9.871483E0,5.9893646E0,4.7181625E0,5.092697E0,3.8243256E0,1.2107073E1,7.6886272E0,5.3331375E0,9.543587E0,5.623001E0,6.718567E0,5.599556E0,0E0,0E0,0E0,0E0,0E0,0E0,0E0,0E0,0E0,0E0,0E0,0E0,0E0,0E0,0E0,0E0,0E0,0E0,0E0,0E0,0E0,0E0,0E0,0E0,0E0,0E0,0E0,0E0,0E0,0E0,0E0,0E0],"parents":[2147483647,0,0,1,1,2,2,3,3,4,4,5,5,6,6,7,7,8,8,9,9,10,10,11,11,12,12,13,13,14,14,15,15,16,16,17,17,18,18,19,19,20,20,21,21,22,22,23,23,24,24,25,25,26,26,27,27,28,28,29,29,30,30],"right_children":[2,4,6,8,10,12,14,16,18,20,22,24,26,28,30,32,34,36,38,40,42,44,46,48,50,52,54,56,58,60,62,-1,-1,-1,-1,-1,-1,-1,-1,-1,-1,-1,-1,-1,-1,-1,-1,-1,-1,-1,-1,-1,-1,-1,-1,-1,-1,-1,-1,-1,-1,-1,-1],"split_conditions":[1.8E0,4.59E0,2.79E0,1.8E0,1.17E0,2.1E0,5.75E0,1.39E0,2.32E0,1.26E0,1.43E0,1.6E0,2.29E0,1.95E0,9.5E0,2.25E0,8E0,1.62E0,6E-1,1.1E1,1.25E0,3E0,1.72E0,2.3E0,3.8E0,3.5E0,2.64E0,3.6E0,3.5E0,1.5E0,1.37E-1,2.1272947E-3,-8.960059E-4,2.1059118E-2,2.84891E-3,-5.2927784E-3,4.9241725E-3,1.9238027E-2,7.850419E-3,3.1243602E-2,1.7329384E-2,2.3504604E-2,1.3254605E-2,1.3392105E-2,-3.2259966E-6,9.288444E-3,6.023514E-3,1.3932164E-2,4.4494416E-3,-2.807475E-4,2.2237606E-3,-1.9141186E-3,1.9122548E-3,-4.0809596E-3,-7.899552E-3,-1.3108699E-3,-4.4282177E-3,-5.620304E-3,-7.847885E-3,-3.007693E-3,-9.421377E-3,2.4476279E-2,-1.2106234E-2],"split_indices":[22,23,22,30,22,29,22,15,30,29,29,29,22,29,22,29,0,28,3,0,6,5,29,30,24,23,29,22,22,29,16,0,0,0,0,0,0,0,0,0,0,0,0,0,0,0,0,0,0,0,0,0,0,0,0,0,0,0,0,0,0,0,0],"split_type":[0,0,0,0,0,0,0,0,0,0,0,0,0,0,0,0,0,0,0,0,0,0,0,0,0,0,0,0,0,0,0,0,0,0,0,0,0,0,0,0,0,0,0,0,0,0,0,0,0,0,0,0,0,0,0,0,0,0,0,0,0,0,0],"sum_hessian":[1.1192777E5,3.1236408E4,8.069137E4,1.9540812E4,1.1695597E4,5.362419E4,2.7067174E4,6.2560547E3,1.3284758E4,2.685074E3,9.010522E3,2.5999965E4,2.7624229E4,2.2184531E4,4.8826426E3,5.957058E3,2.989965E2,1.1284533E4,2.0002245E3,6.929676E2,1.9921063E3,1.7098779E3,7.3006445E3,1.7250966E3,2.427487E4,1.6067288E4,1.155694E4,9.827148E3,1.2357384E4,3.4572893E3,1.4253533E3,4.126931E3,1.8301266E3,7.69027E1,2.220938E2,1.1288072E2,1.1171652E4,9.714148E1,1.903083E3,1.715403E2,5.214273E2,1.5571887E2,1.8363875E3,1.6414014E3,6.8476616E1,5.785579E3,1.5150653E3,1.1315547E2,1.6119412E3,1.7632441E4,6.642428E3,1.4625781E4,1.441507E3,1.0555275E4,1.0016648E3,4.802679E3,5.0244688E3,7.931487E3,4.4258975E3,4.7443912E2,2.98285E3,9.644427E0,1.4157089E3],"tree_param":{"num_deleted":"0","num_feature":"31","num_nodes":"63","size_leaf_vector":"1"}},{"base_weights":[-4.888589E-4,1.2481899E-1,-5.151026E-2,6.4382285E-2,1.9217394E-1,-7.3027676E-3,-8.978832E-2,7.4951634E-2,-1.0434278E-2,2.814677E-1,1.5623297E-1,1.6809914E-2,-3.818104E-2,-7.760926E-2,-1.7640077E-1,1.1557114E-1,6.6972256E-2,-2.1614376E-3,-1.9094844E-1,4.238554E-1,2.5899652E-1,1.2670211E-1,1.7263609E-1,4.254601E-2,-4.5290835E-5,-1.1255988E-2,-5.5451233E-2,-5.1074143E-2,-1.08938046E-1,-1.6489767E-1,-2.523346E-1,4.7796466E-3,1.1171034E-2,2.770305E-3,4.8831776E-3,-9.610538E-4,3.8398944E-3,-3.8938262E-3,-1.6091285E-2,2.7342228E-2,1.8020835E-2,1.7331457E-2,1.2247107E-2,-6.282667E-4,6.7668497E-3,1.4702394E-2,8.242691E-3,-6.0941526E-3,2.3159352E-3,1.9927535E-4,-4.259136E-3,-3.8098282E-4,-1.0198521E-2,-2.6139629E-3,-8.797164E-3,-1.6323648E-3,-4.708038E-3,-4.901113E-3,-8.011963E-3,-6.03053E-3,-9.212288E-3,-7.423068E-3,-1.4813093E-2],"categories":[],"categories_nodes":[],"categories_segments":[],"categories_sizes":[],"default_left":[0,0,0,0,0,0,0,0,0,0,0,0,0,0,0,0,0,0,0,0,0,0,0,0,0,0,0,0,0,0,0,0,0,0,0,0,0,0,0,0,0,0,0,0,0,0,0,0,0,0,0,0,0,0,0,0,0,0,0,0,0,0,0],"id":14,"left_children":[1,3,5,7,9,11,13,15,17,19,21,23,25,27,29,31,33,35,37,39,41,43,45,47,49,51,53,55,57,59,61,-1,-1,-1,-1,-1,-1,-1,-1,-1,-1,-1,-1,-1,-1,-1,-1,-1,-1,-1,-1,-1,-1,-1,-1,-1,-1,-1,-1,-1,-1,-1,-1],"loss_changes":[7.203012E2,1.3269101E2,1.354818E2,1.35890045E1,4.943341E1,2.7665003E1,4.5249847E1,4.872429E0,3.1773674E0,1.4042847E1,5.303955E0,9.050553E0,7.575344E0,3.1269638E1,4.578308E0,5.3022575E0,4.462715E0,2.7435942E0,1.3547051E0,4.49469E0,4.6234436E0,4.7276993E0,6.627548E0,5.1276627E0,4.327131E0,4.4608564E0,3.7843246E0,1.6170479E1,9.64502E0,3.916092E0,3.1223984E0,0E0,0E0,0E0,0E0,0E0,0E0,0E0,0E0,0E0,0E0,0E0,0E0,0E0,0E0,0E0,0E0,0E0,0E0,0E0,0E0,0E0,0E0,0E0,0E0,0E0,0E0,0E0,0E0,0E0,0E0,0E0,0E0],"parents":[2147483647,0,0,1,1,2,2,3,3,4,4,5,5,6,6,7,7,8,8,9,9,10,10,11,11,12,12,13,13,14,14,15,15,16,16,17,17,18,18,19,19,20,20,21,21,22,22,23,23,24,24,25,25,26,26,27,27,28,28,29,29,30,30],"right_children":[2,4,6,8,10,12,14,16,18,20,22,24,26,28,30,32,34,36,38,40,42,44,46,48,50,52,54,56,58,60,62,-1,-1,-1,-1,-1,-1,-1,-1,-1,-1,-1,-1,-1,-1,-1,-1,-1,-1,-1,-1,-1,-1,-1,-1,-1,-1,-1,-1,-1,-1,-1,-1],"split_conditions":[-5E-1,2.11E0,2.38E0,2.23E0,-1.75E0,2.14E0,5.5E0,-1E0,3.6E0,1.24E0,6.2E0,1.86E0,2.04E0,2.1E0,1.2E1,1E1,1.007E0,6.75E0,1.88E0,6.13E-1,1.33E0,2E-1,8E-1,3.3E-1,2.4E0,2.4E0,1.4E1,3.6E0,3.4E0,1.59E0,1.39E0,4.7796466E-3,1.1171034E-2,2.770305E-3,4.8831776E-3,-9.610538E-4,3.8398944E-3,-3.8938262E-3,-1.6091285E-2,2.7342228E-2,1.8020835E-2,1.7331457E-2,1.2247107E-2,-6.282667E-4,6.7668497E-3,1.4702394E-2,8.242691E-3,-6.0941526E-3,2.3159352E-3,1.9927535E-4,-4.259136E-3,-3.8098282E-4,-1.0198521E-2,-2.6139629E-3,-8.797164E-3,-1.6323648E-3,-4.708038E-3,-4.901113E-3,-8.011963E-3,-6.03053E-3,-9.212288E-3,-7.423068E-3,-1.4813093E-2],"split_indices":[26,30,22,29,26,29,22,26,10,29,24,29,22,29,22,21,15,24,28,15,6,8,5,6,7,7,1,22,22,29,29,0,0,0,0,0,0,0,0,0,0,0,0,0,0,0,0,0,0,0,0,0,0,0,0,0,0,0,0,0,0,0,0],"split_type":[0,0,0,0,0,0,0,0,0,0,0,0,0,0,0,0,0,0,0,0,0,0,0,0,0,0,0,0,0,0,0,0,0,0,0,0,0,0,0,0,0,0,0,0,0,0,0,0,0,0,0,0,0,0,0,0,0,0,0,0,0,0,0],"sum_hessian":[1.1266156E5,3.2598543E4,8.0063016E4,1.7182695E4,1.5415848E4,3.7154418E4,4.29086E4,1.5055764E4,2.1269326E3,4.422216E3,1.0993632E4,2.0863035E4,1.629138E4,3.7620473E4,5.2881265E3,2.469768E3,1.2585995E4,2.0346958E3,9.223674E1,6.003387E2,3.8218772E3,3.9289631E3,7.0646685E3,8.255795E3,1.2607241E4,6.366834E3,9.924546E3,2.0369975E4,1.72505E4,4.5951816E3,6.929451E2,2.0853594E3,3.8440872E2,9.143158E3,3.4428376E3,1.6738146E3,3.6088116E2,5.0340183E1,4.189656E1,2.0169363E2,3.9864502E2,5.249594E2,3.296918E3,2.2935533E2,3.699608E3,4.233391E2,6.6413296E3,1.8447148E2,8.071323E3,1.2038248E4,5.68993E2,6.2499434E3,1.1689074E2,9.671379E3,2.5316689E2,1.4269218E4,6.1007563E3,1.4226352E4,3.0241482E3,1.3993511E3,3.1958303E3,2.0724934E2,4.8569577E2],"tree_param":{"num_deleted":"0","num_feature":"31","num_nodes":"63","size_leaf_vector":"1"}},{"base_weights":[-1.724809E-4,1.24452695E-1,-5.1098883E-2,2.4617356E-1,9.753759E-2,-1.3697548E-2,-9.157544E-2,3.181835E-1,2.0325322E-1,1.511476E-1,7.774705E-2,1.2127369E-2,-3.158443E-2,-7.989653E-2,-1.6184159E-1,3.3083487E-1,1.16111636E-1,-1.8500723E-1,2.0676155E-1,-3.741478E-2,1.5452166E-1,-2.7376568E-2,8.172912E-2,-8.71024E-2,1.574353E-2,-3.87229E-2,-5.3146346E-3,-8.837584E-2,-5.175105E-2,-1.6639017E-1,1.1283128E-2,1.5956135E-2,2.9431049E-2,7.2492547E-3,-7.72861E-3,8.602715E-3,-1.4445776E-2,1.0610232E-2,3.2855568E-3,5.172725E-4,-1.406838E-2,7.37828E-3,1.2857183E-2,-6.6569396E-3,3.4715465E-4,5.074548E-3,3.1341047E-3,-5.0293203E-3,2.0408994E-2,1.0358812E-3,-1.9972976E-3,-2.5108107E-3,-1.117445E-3,-5.9308666E-3,1.6693052E-4,-4.104977E-3,-6.1234436E-3,-2.8689166E-3,1.6908565E-3,-1.0296313E-2,-7.484892E-3,2.593041E-2,-2.2812563E-3],"categories":[],"categories_nodes":[],"categories_segments":[],"categories_sizes":[],"default_left":[0,0,0,0,0,0,0,0,0,0,0,0,0,0,0,0,0,0,0,0,0,0,0,0,0,0,0,0,0,0,0,0,0,0,0,0,0,0,0,0,0,0,0,0,0,0,0,0,0,0,0,0,0,0,0,0,0,0,0,0,0,0,0],"id":15,"left_children":[1,3,5,7,9,11,13,15,17,19,21,23,25,27,29,31,33,35,37,39,41,43,45,47,49,51,53,55,57,59,61,-1,-1,-1,-1,-1,-1,-1,-1,-1,-1,-1,-1,-1,-1,-1,-1,-1,-1,-1,-1,-1,-1,-1,-1,-1,-1,-1,-1,-1,-1,-1,-1],"loss_changes":[7.1360297E2,1.06834076E2,1.208356E2,1.8187927E1,2.8329407E1,1.9164293E1,3.1444885E1,5.5953217E0,5.08226E0,4.5874023E0,8.170265E0,6.093298E0,4.5961895E0,7.8405457E0,4.30336E0,6.071945E0,1.0492274E0,1.2996063E0,2.803955E0,1.4872353E0,5.0124054E0,2.5885363E0,7.0701523E0,4.028631E0,4.5384636E0,3.6259403E0,5.1363606E0,5.3950806E0,3.667694E0,3.4818115E0,4.088054E0,0E0,0E0,0E0,0E0,0E0,0E0,0E0,0E0,0E0,0E0,0E0,0E0,0E0,0E0,0E0,0E0,0E0,0E0,0E0,0E0,0E0,0E0,0E0,0E0,0E0,0E0,0E0,0E0,0E0,0E0,0E0,0E0],"parents":[2147483647,0,0,1,1,2,2,3,3,4,4,5,5,6,6,7,7,8,8,9,9,10,10,11,11,12,12,13,13,14,14,15,15,16,16,17,17,18,18,19,19,20,20,21,21,22,22,23,23,24,24,25,25,26,26,27,27,28,28,29,29,30,30],"right_children":[2,4,6,8,10,12,14,16,18,20,22,24,26,28,30,32,34,36,38,40,42,44,46,48,50,52,54,56,58,60,62,-1,-1,-1,-1,-1,-1,-1,-1,-1,-1,-1,-1,-1,-1,-1,-1,-1,-1,-1,-1,-1,-1,-1,-1,-1,-1,-1,-1,-1,-1,-1,-1],"split_conditions":[-5E-1,-1.5E0,0E0,-2E0,-1E0,-2.5E-1,1E0,2.408E0,5.83E-1,5.19E-1,1.65E0,3.3E-1,2.02E0,1.4E0,2.32E0,2.236E0,3.2E0,1E0,1.246E0,4.97E-1,1.5E1,1.14E0,-7.5E-1,1.3E1,2.07E0,1.33E0,6.7E-1,1E0,2E0,8.3E-1,1.4E0,1.5956135E-2,2.9431049E-2,7.2492547E-3,-7.72861E-3,8.602715E-3,-1.4445776E-2,1.0610232E-2,3.2855568E-3,5.172725E-4,-1.406838E-2,7.37828E-3,1.2857183E-2,-6.6569396E-3,3.4715465E-4,5.074548E-3,3.1341047E-3,-5.0293203E-3,2.0408994E-2,1.0358812E-3,-1.9972976E-3,-2.5108107E-3,-1.117445E-3,-5.9308666E-3,1.6693052E-4,-4.104977E-3,-6.1234436E-3,-2.8689166E-3,1.6908565E-3,-1.0296313E-2,-7.484892E-3,2.593041E-2,-2.2812563E-3],"split_indices":[26,26,26,26,26,26,26,19,14,14,28,6,28,2,28,19,11,5,16,14,21,19,26,1,27,3,4,14,5,6,10,0,0,0,0,0,0,0,0,0,0,0,0,0,0,0,0,0,0,0,0,0,0,0,0,0,0,0,0,0,0,0,0],"split_type":[0,0,0,0,0,0,0,0,0,0,0,0,0,0,0,0,0,0,0,0,0,0,0,0,0,0,0,0,0,0,0,0,0,0,0,0,0,0,0,0,0,0,0,0,0,0,0,0,0,0,0,0,0,0,0,0,0,0,0,0,0,0,0],"sum_hessian":[1.1243465E5,3.261616E4,7.9818484E4,5.9046807E3,2.671148E4,4.148586E4,3.8332625E4,2.2026885E3,3.7019922E3,7.200265E3,1.9511215E4,1.697616E4,2.45097E4,3.2871246E4,5.4613774E3,2.0723076E3,1.3038075E2,3.2688457E1,3.6693037E3,1.2639621E2,7.073869E3,7.11895E2,1.879932E4,5.960862E2,1.6380074E4,1.927225E4,5.237449E3,2.5259307E4,7.61194E3,5.3215996E3,1.3977777E2,1.9843876E3,8.792004E1,1.18233345E2,1.2147406E1,7.22055E0,2.5467907E1,3.5324822E3,1.3682158E2,1.0650301E2,1.9893196E1,6.6271E3,4.4676917E2,1.7370682E2,5.3818823E2,9.224406E3,9.574914E3,5.810637E2,1.5022484E1,1.503757E4,1.3425035E3,1.1322581E4,7.9496685E3,3.7071558E2,4.866734E3,2.1335068E4,3.9242393E3,7.142549E3,4.6939108E2,1.5764379E3,3.7451619E3,1.3279627E1,1.2649814E2],"tree_param":{"num_deleted":"0","num_feature":"31","num_nodes":"63","size_leaf_vector":"1"}},{"base_weights":[-5.878764E-4,-5.3734407E-2,1.0106139E-1,-9.4575495E-2,-2.2316514E-2,1.7036048E-1,4.106912E-2,-1.79335E-1,-8.14089E-2,1.4003691E-2,-6.0898513E-2,1.3861986E-1,2.4178262E-1,6.989193E-2,3.484193E-3,-9.321455E-2,-1.9251087E-1,-4.9091756E-2,-1.107235E-1,4.0194552E-2,-4.979477E-3,-8.338212E-2,-4.519177E-2,1.110554E-1,1.5985152E-1,3.3457467E-1,2.1973777E-1,4.103363E-2,8.142247E-2,1.5532584E-2,-4.174548E-2,-7.899665E-3,1.3733424E-3,-9.011946E-3,-1.581757E-2,3.884801E-4,-2.9092098E-3,-7.2332653E-3,-4.4892067E-3,1.5097735E-3,5.547871E-3,-1.0716742E-3,1.1768986E-3,-4.2095557E-3,3.5E-2,-1.3053715E-3,-3.3918475E-3,5.712627E-3,-6.107011E-3,-1.9750675E-2,8.049975E-3,1.8475045E-2,6.5152417E-3,1.1211891E-2,-1.0414381E-2,3.1236783E-4,3.5334167E-3,4.272982E-3,-1.5752094E-3,2.3465905E-4,2.9016852E-3,-2.2467577E-3,2.8663492E-2],"categories":[],"categories_nodes":[],"categories_segments":[],"categories_sizes":[],"default_left":[0,0,0,0,0,0,0,0,0,0,0,0,0,0,0,0,0,0,0,0,0,0,0,0,0,0,0,0,0,0,0,0,0,0,0,0,0,0,0,0,0,0,0,0,0,0,0,0,0,0,0,0,0,0,0,0,0,0,0,0,0,0,0],"id":16,"left_children":[1,3,5,7,9,11,13,15,17,19,21,23,25,27,29,31,33,35,37,39,41,43,45,47,49,51,53,55,57,59,61,-1,-1,-1,-1,-1,-1,-1,-1,-1,-1,-1,-1,-1,-1,-1,-1,-1,-1,-1,-1,-1,-1,-1,-1,-1,-1,-1,-1,-1,-1,-1,-1],"loss_changes":[6.067169E2,9.462727E1,1.6029736E2,3.5769928E1,5.841313E1,4.0525635E1,2.238998E1,4.8732147E0,2.6289307E1,1.0675894E1,7.1343E0,7.232727E0,1.11840515E1,3.8890953E0,4.8897552E0,4.4908957E0,5.6231995E0,6.8267937E0,1.033017E1,6.381175E0,5.8423753E0,6.657173E0,5.141899E0,4.0353394E0,4.5199585E0,7.47538E0,8.617676E0,3.4443293E0,3.8127556E0,3.2638202E0,3.7284045E0,0E0,0E0,0E0,0E0,0E0,0E0,0E0,0E0,0E0,0E0,0E0,0E0,0E0,0E0,0E0,0E0,0E0,0E0,0E0,0E0,0E0,0E0,0E0,0E0,0E0,0E0,0E0,0E0,0E0,0E0,0E0,0E0],"parents":[2147483647,0,0,1,1,2,2,3,3,4,4,5,5,6,6,7,7,8,8,9,9,10,10,11,11,12,12,13,13,14,14,15,15,16,16,17,17,18,18,19,19,20,20,21,21,22,22,23,23,24,24,25,25,26,26,27,27,28,28,29,29,30,30],"right_children":[2,4,6,8,10,12,14,16,18,20,22,24,26,28,30,32,34,36,38,40,42,44,46,48,50,52,54,56,58,60,62,-1,-1,-1,-1,-1,-1,-1,-1,-1,-1,-1,-1,-1,-1,-1,-1,-1,-1,-1,-1,-1,-1,-1,-1,-1,-1,-1,-1,-1,-1,-1,-1],"split_conditions":[4.33E0,2.8E0,1.75E0,1.57E0,2.11E0,1.2E1,2.08E0,1.41E0,1.96E0,1.86E0,3.3E0,4.4E0,1.29E0,1.095E0,2.4E0,1.3E0,6.25E0,1.58E0,2.3E0,3.79E0,1.6E0,1E0,1.25E0,1.5E1,4.59E0,1E1,2E0,3.79E0,2.4E0,3.7E0,2.665E0,-7.899665E-3,1.3733424E-3,-9.011946E-3,-1.581757E-2,3.884801E-4,-2.9092098E-3,-7.2332653E-3,-4.4892067E-3,1.5097735E-3,5.547871E-3,-1.0716742E-3,1.1768986E-3,-4.2095557E-3,3.5E-2,-1.3053715E-3,-3.3918475E-3,5.712627E-3,-6.107011E-3,-1.9750675E-2,8.049975E-3,1.8475045E-2,6.5152417E-3,1.1211891E-2,-1.0414381E-2,3.1236783E-4,3.5334167E-3,4.272982E-3,-1.5752094E-3,2.3465905E-4,2.9016852E-3,-2.2467577E-3,2.8663492E-2],"split_indices":[24,24,29,24,29,24,29,29,29,29,24,23,29,18,29,24,23,29,24,23,6,12,4,1,24,1,4,23,7,23,19,0,0,0,0,0,0,0,0,0,0,0,0,0,0,0,0,0,0,0,0,0,0,0,0,0,0,0,0,0,0,0,0],"split_type":[0,0,0,0,0,0,0,0,0,0,0,0,0,0,0,0,0,0,0,0,0,0,0,0,0,0,0,0,0,0,0,0,0,0,0,0,0,0,0,0,0,0,0,0,0,0,0,0,0,0,0,0,0,0,0,0,0,0,0,0,0,0,0],"sum_hessian":[1.12305016E5,7.374729E4,3.8557727E4,3.2064129E4,4.168316E4,1.7890254E4,2.0667475E4,4.309466E3,2.7754664E4,2.1471254E4,2.0211906E4,1.2387905E4,5.502349E3,1.1696728E4,8.970746E3,5.729052E2,3.7365605E3,1.3202534E4,1.4552129E4,9.022246E3,1.2449008E4,8.310883E3,1.1901023E4,5.3928066E3,6.995098E3,1.0535461E3,4.448803E3,3.3405798E3,8.356148E3,7.084276E3,1.8864701E3,3.725959E2,2.0030933E2,3.4019045E3,3.3465594E2,1.8201315E3,1.1382403E4,5.549968E3,9.002161E3,7.9064575E3,1.1157882E3,7.894364E3,4.554644E3,8.305364E3,5.5184E0,6.4594453E3,5.4415786E3,5.320374E3,7.243289E1,1.3734256E1,6.9813643E3,8.99022E2,1.545242E2,4.4029883E3,4.581475E1,1.5372783E3,1.8033015E3,8.0679585E3,2.881895E2,5.645555E3,1.438721E3,1.8776589E3,8.81122E0],"tree_param":{"num_deleted":"0","num_feature":"31","num_nodes":"63","size_leaf_vector":"1"}},{"base_weights":[4.7288265E-4,9.97307E-2,-5.555922E-2,4.796037E-2,1.6359198E-1,-3.569512E-2,-1.3397408E-1,6.0781818E-2,-2.464966E-2,2.4633668E-1,1.3542251E-1,-5.4141423E-3,-6.3423954E-2,-1.10951364E-1,-1.8304522E-1,3.7239194E-2,7.969746E-2,-1.544427E-2,-1.3771352E-1,3.919088E-1,2.3566477E-1,1.1428859E-1,1.5871346E-1,3.274611E-2,-2.0176547E-2,-3.6773548E-2,-9.476558E-2,-6.206909E-2,-1.4457671E-1,-9.6239135E-2,-1.95233E-1,7.6813786E-4,3.3154234E-3,3.530518E-3,7.36791E-3,-9.851194E-4,1.455991E-2,6.951076E-3,-9.219691E-3,2.6504505E-2,1.4955503E-2,2.3463186E-2,1.1548719E-2,7.0598363E-3,4.5562265E-3,3.0502162E-3,8.270476E-3,-4.2834287E-3,1.8354564E-3,3.826699E-3,-1.3868633E-3,-4.773942E-3,-1.5944074E-3,-4.0714587E-3,-6.536731E-3,-6.1748554E-3,-2.4774582E-3,-7.0201606E-3,-1.311938E-2,2.5392796E-3,-7.0572332E-3,-1.0175817E-2,-4.1255835E-3],"categories":[],"categories_nodes":[],"categories_segments":[],"categories_sizes":[],"default_left":[0,0,0,0,0,0,0,0,0,0,0,0,0,0,0,0,0,0,0,0,0,0,0,0,0,0,0,0,0,0,0,0,0,0,0,0,0,0,0,0,0,0,0,0,0,0,0,0,0,0,0,0,0,0,0,0,0,0,0,0,0,0,0],"id":17,"left_children":[1,3,5,7,9,11,13,15,17,19,21,23,25,27,29,31,33,35,37,39,41,43,45,47,49,51,53,55,57,59,61,-1,-1,-1,-1,-1,-1,-1,-1,-1,-1,-1,-1,-1,-1,-1,-1,-1,-1,-1,-1,-1,-1,-1,-1,-1,-1,-1,-1,-1,-1,-1,-1],"loss_changes":[6.23008E2,1.3362222E2,1.1152234E2,2.0784481E1,4.2145844E1,4.7968933E1,1.6328766E1,8.446617E0,3.4856722E0,7.0456543E0,6.6280365E0,1.538495E1,2.490538E1,1.6185562E1,4.8688507E0,5.3758E0,6.4577103E0,4.053357E0,3.2831802E0,3.846367E0,4.584778E0,4.401657E0,4.1907806E0,3.5781584E0,1.4401019E1,4.6197357E0,6.563072E0,3.083332E0,2.8328857E0,3.7753701E0,3.7647858E0,0E0,0E0,0E0,0E0,0E0,0E0,0E0,0E0,0E0,0E0,0E0,0E0,0E0,0E0,0E0,0E0,0E0,0E0,0E0,0E0,0E0,0E0,0E0,0E0,0E0,0E0,0E0,0E0,0E0,0E0,0E0,0E0],"parents":[2147483647,0,0,1,1,2,2,3,3,4,4,5,5,6,6,7,7,8,8,9,9,10,10,11,11,12,12,13,13,14,14,15,15,16,16,17,17,18,18,19,19,20,20,21,21,22,22,23,23,24,24,25,25,26,26,27,27,28,28,29,29,30,30],"right_children":[2,4,6,8,10,12,14,16,18,20,22,24,26,28,30,32,34,36,38,40,42,44,46,48,50,52,54,56,58,60,62,-1,-1,-1,-1,-1,-1,-1,-1,-1,-1,-1,-1,-1,-1,-1,-1,-1,-1,-1,-1,-1,-1,-1,-1,-1,-1,-1,-1,-1,-1,-1,-1],"split_conditions":[1.91E0,2.09E0,3.5E0,2.26E0,-1.75E0,2.09E0,5.75E0,3.7E0,1.67E0,-2.75E0,4.59E0,2.14E0,2.39E0,1.81E0,1.41E0,9.3E-1,1.206E0,1.628E0,1.77E0,1.166E0,6.32E-1,1.042E0,7.49E-1,4.29E-1,1.6E0,1.47E0,2.42E0,5E0,2.58E0,5.4E0,2.401E0,7.6813786E-4,3.3154234E-3,3.530518E-3,7.36791E-3,-9.851194E-4,1.455991E-2,6.951076E-3,-9.219691E-3,2.6504505E-2,1.4955503E-2,2.3463186E-2,1.1548719E-2,7.0598363E-3,4.5562265E-3,3.0502162E-3,8.270476E-3,-4.2834287E-3,1.8354564E-3,3.826699E-3,-1.3868633E-3,-4.773942E-3,-1.5944074E-3,-4.0714587E-3,-6.536731E-3,-6.1748554E-3,-2.4774582E-3,-7.0201606E-3,-1.311938E-2,2.5392796E-3,-7.0572332E-3,-1.0175817E-2,-4.1255835E-3],"split_indices":[22,30,22,29,26,29,22,23,17,26,23,22,22,29,29,15,15,15,28,17,18,17,14,17,29,30,29,20,29,23,19,0,0,0,0,0,0,0,0,0,0,0,0,0,0,0,0,0,0,0,0,0,0,0,0,0,0,0,0,0,0,0,0],"split_type":[0,0,0,0,0,0,0,0,0,0,0,0,0,0,0,0,0,0,0,0,0,0,0,0,0,0,0,0,0,0,0,0,0,0,0,0,0,0,0,0,0,0,0,0,0,0,0,0,0,0,0,0,0,0,0,0,0,0,0,0,0,0,0],"sum_hessian":[1.1201706E5,4.0418E4,7.159906E4,2.2323107E4,1.809489E4,5.7128652E4,1.4470412E4,1.8973023E4,3.3500852E3,4.5936904E3,1.3501201E4,2.730821E4,2.9820443E4,9.851599E3,4.618813E3,8.45402E3,1.0519003E4,3.0989155E3,2.5116968E2,3.113224E2,4.282368E3,7.0814707E3,6.41973E3,7.617094E3,1.9691115E4,1.6117545E4,1.3702897E4,4.0161033E3,5.8354956E3,5.697475E2,4.0490654E3,4.824678E3,3.6293413E3,9.275334E3,1.2436691E3,3.0573955E3,4.152004E1,3.596717E1,2.1520251E2,1.2318393E2,1.8813844E2,8.234283E1,4.2000254E3,3.2736243E3,3.8078467E3,4.1238034E2,6.00735E3,2.4600037E2,7.3710938E3,1.4271434E3,1.8263973E4,1.2368174E3,1.4880728E4,9.998844E3,3.7040542E3,6.7845483E2,3.3376484E3,5.63796E3,1.975356E2,1.33272E2,4.3647552E2,3.771138E3,2.7792764E2],"tree_param":{"num_deleted":"0","num_feature":"31","num_nodes":"63","size_leaf_vector":"1"}},{"base_weights":[-4.9466314E-4,1.1156103E-1,-4.8051972E-2,7.493207E-2,1.9356419E-1,-1.1553814E-2,-8.76501E-2,9.454918E-2,1.7463563E-2,1.7883395E-1,3.1076503E-1,2.1700423E-2,-4.100461E-2,-1.5590099E-1,-7.5050995E-2,8.8109575E-2,1.7525709E-1,-1.6160335E-1,2.1672504E-2,1.4796431E-1,2.0800911E-1,-3.3587557E-1,3.1929138E-1,1.3606666E-2,6.9410324E-2,-2.7425392E-2,-7.2737E-2,-1.8956867E-1,-1.3125996E-1,-7.5234906E-3,-9.032873E-2,3.7228502E-3,5.5169086E-3,4.3580523E-3,1.0483114E-2,-9.193159E-3,1.2710606E-2,-5.3368596E-4,2.2525548E-3,1.5601511E-2,6.9588707E-3,1.4217381E-2,9.692846E-3,-2.1843325E-2,-9.642043E-3,1.7813673E-2,1.0937988E-2,-8.2223566E-4,1.3113657E-3,-2.1921084E-3,4.311453E-3,-1.9478754E-3,3.390588E-4,-7.5275602E-6,-4.2538336E-3,2.5754327E-2,-9.621597E-3,-5.4955496E-3,-9.298641E-3,-2.692737E-3,4.867673E-4,-6.6500767E-3,-3.917917E-3],"categories":[],"categories_nodes":[],"categories_segments":[],"categories_sizes":[],"default_left":[0,0,0,0,0,0,0,0,0,0,0,0,0,0,0,0,0,0,0,0,0,0,0,0,0,0,0,0,0,0,0,0,0,0,0,0,0,0,0,0,0,0,0,0,0,0,0,0,0,0,0,0,0,0,0,0,0,0,0,0,0,0,0],"id":18,"left_children":[1,3,5,7,9,11,13,15,17,19,21,23,25,27,29,31,33,35,37,39,41,43,45,47,49,51,53,55,57,59,61,-1,-1,-1,-1,-1,-1,-1,-1,-1,-1,-1,-1,-1,-1,-1,-1,-1,-1,-1,-1,-1,-1,-1,-1,-1,-1,-1,-1,-1,-1,-1,-1],"loss_changes":[6.006243E2,1.0085416E2,1.1435603E2,2.6169601E1,1.784375E1,4.0326847E1,3.2622314E1,8.979218E0,4.4569845E0,8.26651E0,6.4821854E0,7.4671307E0,9.40757E0,4.8806458E0,3.305278E1,4.856453E0,3.854763E0,1.3038692E0,4.3669424E0,6.4148636E0,5.059189E0,1.4015698E-1,4.166794E0,6.2719765E0,5.3462334E0,6.033493E0,5.8610497E0,5.1362915E0,3.9714012E0,4.728164E0,1.3335861E1,0E0,0E0,0E0,0E0,0E0,0E0,0E0,0E0,0E0,0E0,0E0,0E0,0E0,0E0,0E0,0E0,0E0,0E0,0E0,0E0,0E0,0E0,0E0,0E0,0E0,0E0,0E0,0E0,0E0,0E0,0E0,0E0],"parents":[2147483647,0,0,1,1,2,2,3,3,4,4,5,5,6,6,7,7,8,8,9,9,10,10,11,11,12,12,13,13,14,14,15,15,16,16,17,17,18,18,19,19,20,20,21,21,22,22,23,23,24,24,25,25,26,26,27,27,28,28,29,29,30,30],"right_children":[2,4,6,8,10,12,14,16,18,20,22,24,26,28,30,32,34,36,38,40,42,44,46,48,50,52,54,56,58,60,62,-1,-1,-1,-1,-1,-1,-1,-1,-1,-1,-1,-1,-1,-1,-1,-1,-1,-1,-1,-1,-1,-1,-1,-1,-1,-1,-1,-1,-1,-1,-1,-1],"split_conditions":[-5E-1,2.35E0,0E0,2.05E0,3.6E0,2.09E0,1.67E0,1.2E1,3.7E-1,1E1,6.75E0,2.04E0,2.39E0,1.44E0,1.75E0,2.09E0,1.124E0,1.789E0,1.65E0,1.75E0,1.02E0,2.25E0,8E0,6E0,6.16E-1,4.09E0,5.51E-1,1.7E-1,1.87E0,1.91E0,2.15E0,3.7228502E-3,5.5169086E-3,4.3580523E-3,1.0483114E-2,-9.193159E-3,1.2710606E-2,-5.3368596E-4,2.2525548E-3,1.5601511E-2,6.9588707E-3,1.4217381E-2,9.692846E-3,-2.1843325E-2,-9.642043E-3,1.7813673E-2,1.0937988E-2,-8.2223566E-4,1.3113657E-3,-2.1921084E-3,4.311453E-3,-1.9478754E-3,3.390588E-4,-7.5275602E-6,-4.2538336E-3,2.5754327E-2,-9.621597E-3,-5.4955496E-3,-9.298641E-3,-2.692737E-3,4.867673E-4,-6.6500767E-3,-3.917917E-3],"split_indices":[26,30,26,29,30,29,24,24,17,24,24,28,29,24,29,30,14,19,30,27,14,8,1,1,14,24,16,4,29,24,24,0,0,0,0,0,0,0,0,0,0,0,0,0,0,0,0,0,0,0,0,0,0,0,0,0,0,0,0,0,0,0,0],"split_type":[0,0,0,0,0,0,0,0,0,0,0,0,0,0,0,0,0,0,0,0,0,0,0,0,0,0,0,0,0,0,0,0,0,0,0,0,0,0,0,0,0,0,0,0,0,0,0,0,0,0,0,0,0,0,0,0,0,0,0,0,0,0,0],"sum_hessian":[1.1270521E5,3.358055E4,7.9124664E4,2.3213512E4,1.0367038E4,4.1174668E4,3.7949992E4,1.7305547E4,5.907965E3,9.211791E3,1.1552472E3,1.933871E4,2.1835957E4,5.912089E3,3.2037902E4,1.6028723E4,1.2768243E3,1.3481802E2,5.7731465E3,4.478867E3,4.7329243E3,1.4534746E1,1.1407125E3,1.6534926E4,2.803786E3,1.5293352E4,6.5426064E3,2.4955962E3,3.4164924E3,5.9113335E3,2.6126568E4,9.932584E3,6.0961387E3,3.5959598E2,9.172284E2,1.2849702E2,6.3209963E0,2.4222734E3,3.3508733E3,2.2592686E2,4.2529404E3,7.372152E2,3.995709E3,7.315386E0,7.2193604E0,8.320765E2,3.08636E2,4.8902686E3,1.1644657E4,3.6233313E2,2.441453E3,1.1437327E4,3.856024E3,9.5077985E2,5.5918267E3,9.375484E0,2.4862207E3,2.4597183E3,9.5677405E2,1.6038058E3,4.307528E3,5.7211934E3,2.0405375E4],"tree_param":{"num_deleted":"0","num_feature":"31","num_nodes":"63","size_leaf_vector":"1"}},{"base_weights":[-8.545094E-4,9.265125E-2,-5.4545842E-2,5.0925057E-2,1.6808572E-1,-3.4580037E-2,-1.2620303E-1,1.907115E-2,7.740468E-2,2.7039504E-1,1.480435E-1,-5.9628505E-2,-8.470867E-3,-1.1039493E-1,-1.8848056E-1,1.8398104E-2,5.084043E-1,7.2314456E-2,1.1385922E-1,3.2910073E-1,2.3220974E-1,1.8256432E-1,1.2848142E-1,-3.3937514E-2,-8.4009215E-2,-1.2395004E-4,-4.342084E-2,-1.5139674E-1,-9.732296E-2,3.509089E-1,-1.9075508E-1,-3.4960953E-3,1.082634E-3,3.5E-2,-1.8717749E-2,3.8643682E-3,1.3673465E-3,9.118344E-3,3.1611465E-3,2.2599425E-2,1.4425963E-2,2.1823298E-2,1.062286E-2,9.491845E-3,5.1625752E-6,5.3880448E-3,8.505737E-3,-1.7569E-3,1.1159083E-2,-8.449622E-3,-4.0613194E-3,-3.2442582E-3,2.7198586E-4,-2.2462797E-3,3.0348161E-2,-6.9988505E-3,-1.1617541E-2,-3.9017133E-3,-6.2082284E-3,-2.5175903E-3,3.5E-2,-9.61927E-3,9.605757E-3],"categories":[],"categories_nodes":[],"categories_segments":[],"categories_sizes":[],"default_left":[0,0,0,0,0,0,0,0,0,0,0,0,0,0,0,0,0,0,0,0,0,0,0,0,0,0,0,0,0,0,0,0,0,0,0,0,0,0,0,0,0,0,0,0,0,0,0,0,0,0,0,0,0,0,0,0,0,0,0,0,0,0,0],"id":19,"left_children":[1,3,5,7,9,11,13,15,17,19,21,23,25,27,29,31,33,35,37,39,41,43,45,47,49,51,53,55,57,59,61,-1,-1,-1,-1,-1,-1,-1,-1,-1,-1,-1,-1,-1,-1,-1,-1,-1,-1,-1,-1,-1,-1,-1,-1,-1,-1,-1,-1,-1,-1,-1,-1],"loss_changes":[5.6398303E2,1.2896689E2,1.02091736E2,2.2252869E1,2.9882904E1,3.6500328E1,1.5288162E1,3.9355016E0,2.6651688E0,5.27948E0,8.218323E0,1.7838821E1,7.9724236E0,6.6337433E0,3.9274063E0,3.4400663E0,3.5967603E0,2.8254395E0,6.105877E0,4.5534286E0,5.761528E0,5.8547516E0,6.704895E0,4.2894363E0,3.442459E0,7.9491935E0,5.1833715E0,2.738037E0,4.861511E0,3.530353E0,1.9932632E0,0E0,0E0,0E0,0E0,0E0,0E0,0E0,0E0,0E0,0E0,0E0,0E0,0E0,0E0,0E0,0E0,0E0,0E0,0E0,0E0,0E0,0E0,0E0,0E0,0E0,0E0,0E0,0E0,0E0,0E0,0E0,0E0],"parents":[2147483647,0,0,1,1,2,2,3,3,4,4,5,5,6,6,7,7,8,8,9,9,10,10,11,11,12,12,13,13,14,14,15,15,16,16,17,17,18,18,19,19,20,20,21,21,22,22,23,23,24,24,25,25,26,26,27,27,28,28,29,29,30,30],"right_children":[2,4,6,8,10,12,14,16,18,20,22,24,26,28,30,32,34,36,38,40,42,44,46,48,50,52,54,56,58,60,62,-1,-1,-1,-1,-1,-1,-1,-1,-1,-1,-1,-1,-1,-1,-1,-1,-1,-1,-1,-1,-1,-1,-1,-1,-1,-1,-1,-1,-1,-1,-1,-1],"split_conditions":[1.91E0,4.5E0,3.39E0,3.7E0,-2E0,3.29E0,7E0,3.67E0,2.16E0,1.472E0,1.28E0,2.39E0,2.79E0,3.4E0,1.7E-1,3.2E0,2.6E0,1.646E0,1.83E0,1.011E0,1.06E0,1.246E0,1.3E0,4.59E0,2.87E0,4E-1,2.28E0,2E-1,4.59E0,1.17E0,1.788E0,-3.4960953E-3,1.082634E-3,3.5E-2,-1.8717749E-2,3.8643682E-3,1.3673465E-3,9.118344E-3,3.1611465E-3,2.2599425E-2,1.4425963E-2,2.1823298E-2,1.062286E-2,9.491845E-3,5.1625752E-6,5.3880448E-3,8.505737E-3,-1.7569E-3,1.1159083E-2,-8.449622E-3,-4.0613194E-3,-3.2442582E-3,2.7198586E-4,-2.2462797E-3,3.0348161E-2,-6.9988505E-3,-1.1617541E-2,-3.9017133E-3,-6.2082284E-3,-2.5175903E-3,3.5E-2,-9.61927E-3,9.605757E-3],"split_indices":[22,23,22,23,26,23,22,8,18,18,22,22,22,23,4,23,2,14,11,14,22,16,7,24,23,6,28,13,22,2,14,0,0,0,0,0,0,0,0,0,0,0,0,0,0,0,0,0,0,0,0,0,0,0,0,0,0,0,0,0,0,0,0],"split_type":[0,0,0,0,0,0,0,0,0,0,0,0,0,0,0,0,0,0,0,0,0,0,0,0,0,0,0,0,0,0,0,0,0,0,0,0,0,0,0,0,0,0,0,0,0,0,0,0,0,0,0,0,0,0,0,0,0,0,0,0,0,0,0],"sum_hessian":[1.12335164E5,4.09749E4,7.1360266E4,2.6382969E4,1.4591928E4,5.5811125E4,1.5549141E4,1.1976929E4,1.440604E4,2.3882354E3,1.2203692E4,2.84835E4,2.7327625E4,1.2403495E4,3.145646E3,1.1961515E4,1.5414682E1,1.2643576E4,1.7624634E3,9.3821484E2,1.4500205E3,4.4111304E3,7.7925625E3,1.3870235E4,1.4613266E4,2.2060125E4,5.267499E3,2.9959028E3,9.407592E3,1.2565385E1,3.1330806E3,4.2438586E2,1.1537129E4,1.2351982E1,3.0627E0,1.1383924E4,1.2596527E3,7.479432E2,1.0145202E3,2.3039642E2,7.078184E2,1.2599901E2,1.3240215E3,4.2420103E3,1.6911986E2,5.2054473E3,2.5871152E3,1.3806636E4,6.35995E1,4.6145386E2,1.4151812E4,1.7444165E3,2.0315709E4,5.256269E3,1.1230169E1,2.6279253E3,3.6797754E2,5.476221E3,3.931371E3,9.076754E0,3.4886308E0,3.1202915E3,1.2789138E1],"tree_param":{"num_deleted":"0","num_feature":"31","num_nodes":"63","size_leaf_vector":"1"}},{"base_weights":[3.1774578E-4,9.5097266E-2,-5.0107844E-2,4.8018634E-2,1.6289437E-1,-2.8096242E-2,-1.1607705E-1,6.169922E-2,-2.3374837E-2,2.695513E-1,1.4416702E-1,-3.5315605E-3,-5.6815535E-2,-1.0240167E-1,-1.8366867E-1,1.1146112E-1,5.3001776E-2,-1.71575E-1,-1.780692E-2,5.117839E-1,2.5743505E-1,1.835206E-1,1.2642777E-1,7.73337E-2,-8.736725E-3,-3.4774426E-2,-8.148881E-2,-5.8506336E-2,-1.274275E-1,3.291055E-1,-1.8593495E-1,5.2488325E-3,2.2126405E-2,2.0637203E-3,4.1100965E-3,2.258608E-3,-1.165804E-2,-9.397898E-4,3.5E-2,1.0511178E-2,3.26836E-2,2.175975E-2,1.221504E-2,9.310509E-3,-2.2605713E-3,6.014016E-3,1.1622931E-2,1.6404929E-2,3.2641217E-3,-1.8501654E-3,3.141886E-4,-3.81971E-4,-2.356896E-3,-4.3104035E-3,1.0520506E-3,2.7508957E-2,-3.016928E-3,-5.6133233E-3,-8.34746E-3,-3.023838E-3,3.5E-2,-6.1715804E-3,-1.0153999E-2],"categories":[],"categories_nodes":[],"categories_segments":[],"categories_sizes":[],"default_left":[0,0,0,0,0,0,0,0,0,0,0,0,0,0,0,0,0,0,0,0,0,0,0,0,0,0,0,0,0,0,0,0,0,0,0,0,0,0,0,0,0,0,0,0,0,0,0,0,0,0,0,0,0,0,0,0,0,0,0,0,0,0,0],"id":20,"left_children":[1,3,5,7,9,11,13,15,17,19,21,23,25,27,29,31,33,35,37,39,41,43,45,47,49,51,53,55,57,59,61,-1,-1,-1,-1,-1,-1,-1,-1,-1,-1,-1,-1,-1,-1,-1,-1,-1,-1,-1,-1,-1,-1,-1,-1,-1,-1,-1,-1,-1,-1,-1,-1],"loss_changes":[5.362915E2,1.2436902E2,1.0635249E2,2.2464935E1,3.185849E1,3.8744904E1,1.6918976E1,8.347633E0,3.0493934E0,6.8652496E0,9.461456E0,1.2460763E1,1.3766251E1,1.6737106E1,3.6430588E0,6.1162643E0,5.6234016E0,1.7969873E0,2.983273E0,4.678547E0,5.199356E0,2.6040497E0,6.0783997E0,5.388978E0,1.1808992E1,4.4865685E0,5.781769E0,6.2079544E0,5.7977295E0,3.5575676E0,3.2641144E0,0E0,0E0,0E0,0E0,0E0,0E0,0E0,0E0,0E0,0E0,0E0,0E0,0E0,0E0,0E0,0E0,0E0,0E0,0E0,0E0,0E0,0E0,0E0,0E0,0E0,0E0,0E0,0E0,0E0,0E0,0E0,0E0],"parents":[2147483647,0,0,1,1,2,2,3,3,4,4,5,5,6,6,7,7,8,8,9,9,10,10,11,11,12,12,13,13,14,14,15,15,16,16,17,17,18,18,19,19,20,20,21,21,22,22,23,23,24,24,25,25,26,26,27,27,28,28,29,29,30,30],"right_children":[2,4,6,8,10,12,14,16,18,20,22,24,26,28,30,32,34,36,38,40,42,44,46,48,50,52,54,56,58,60,62,-1,-1,-1,-1,-1,-1,-1,-1,-1,-1,-1,-1,-1,-1,-1,-1,-1,-1,-1,-1,-1,-1,-1,-1,-1,-1,-1,-1,-1,-1,-1,-1],"split_conditions":[1.9E0,2.15E0,3.2E0,2.23E0,-2E0,2.13E0,7E0,-1E0,3.99E-1,8.16E-1,1.29E0,1.6E0,2.35E0,1.8E0,1.7E-1,2.29E0,1.007E0,1.79E0,2.75E0,6E-1,1.17E0,3.4E0,2.94E0,1.75E0,2.9E0,2.04E0,1.594E0,1.7E0,2.21E0,1.2E0,1.441E0,5.2488325E-3,2.2126405E-2,2.0637203E-3,4.1100965E-3,2.258608E-3,-1.165804E-2,-9.397898E-4,3.5E-2,1.0511178E-2,3.26836E-2,2.175975E-2,1.221504E-2,9.310509E-3,-2.2605713E-3,6.014016E-3,1.1622931E-2,1.6404929E-2,3.2641217E-3,-1.8501654E-3,3.141886E-4,-3.81971E-4,-2.356896E-3,-4.3104035E-3,1.0520506E-3,2.7508957E-2,-3.016928E-3,-5.6133233E-3,-8.34746E-3,-3.023838E-3,3.5E-2,-6.1715804E-3,-1.0153999E-2],"split_indices":[22,30,22,29,26,29,22,26,17,18,22,29,22,29,4,27,15,27,8,4,29,10,30,28,24,22,17,30,29,2,29,0,0,0,0,0,0,0,0,0,0,0,0,0,0,0,0,0,0,0,0,0,0,0,0,0,0,0,0,0,0,0,0],"split_type":[0,0,0,0,0,0,0,0,0,0,0,0,0,0,0,0,0,0,0,0,0,0,0,0,0,0,0,0,0,0,0,0,0,0,0,0,0,0,0,0,0,0,0,0,0,0,0,0,0,0,0,0,0,0,0,0,0,0,0,0,0,0,0],"sum_hessian":[1.1220901E5,3.896668E4,7.324233E4,2.2998275E4,1.5968402E4,5.4919164E4,1.8323166E4,1.9300084E4,3.6981924E3,2.3830352E3,1.3585367E4,2.9601242E4,2.5317922E4,1.5241887E4,3.0812795E3,2.8696633E3,1.643042E4,1.328314E2,3.565361E3,1.11554596E2,2.2714805E3,4.218191E3,9.367177E3,1.7893163E3,2.7811926E4,1.3373515E4,1.1944407E4,5.535665E3,9.706222E3,1.2923596E1,3.068356E3,2.8158281E3,5.383532E1,1.172417E4,4.7062505E3,2.945013E1,1.0338127E2,3.5622773E3,3.0835843E0,3.6487625E1,7.506697E1,1.540758E2,2.1174048E3,4.1693506E3,4.8840244E1,8.855866E3,5.1131012E2,8.0845406E1,1.708471E3,9.650153E3,1.8161771E4,4.1865728E3,9.186942E3,1.1418972E4,5.2543494E2,1.5714921E1,5.51995E3,7.017903E3,2.6883188E3,9.310701E0,3.6128948E0,6.622564E2,2.4060996E3],"tree_param":{"num_deleted":"0","num_feature":"31","num_nodes":"63","size_leaf_vector":"1"}},{"base_weights":[1.1455689E-3,8.9398496E-2,-5.010515E-2,3.9413758E-2,1.492816E-1,-3.3938073E-2,-1.225982E-1,-8.9924375E-4,5.4980066E-2,2.193151E-1,1.2499934E-1,-5.161257E-3,-6.1648604E-2,-1.05065465E-1,-1.7852475E-1,1.0181616E-2,-7.151398E-2,1.18086435E-1,5.0619066E-2,3.191987E-1,2.039091E-1,1.4527488E-1,1.0259866E-1,7.2876215E-2,-1.1017187E-2,-3.815545E-2,-8.800335E-2,-7.372602E-2,-1.3755706E-1,2.732081E-1,-1.8142587E-1,3.1630695E-3,-3.1431066E-4,-4.3430016E-3,8.257978E-3,1.0787397E-2,4.487176E-3,2.205987E-3,4.4086133E-3,2.5624467E-2,1.3220084E-2,7.6768883E-3,1.1465988E-2,7.0998752E-3,1.8029919E-2,5.5335765E-3,1.0979833E-3,1.37709975E-2,3.133454E-3,-6.027572E-6,-2.2554619E-3,-8.194069E-4,-2.5151137E-3,-3.7189596E-3,-6.1510606E-3,1.6404027E-2,-3.7658222E-3,-6.968437E-3,1.159482E-2,-4.0271776E-3,3.5E-2,-4.677867E-3,-9.826793E-3],"categories":[],"categories_nodes":[],"categories_segments":[],"categories_sizes":[],"default_left":[0,0,0,0,0,0,0,0,0,0,0,0,0,0,0,0,0,0,0,0,0,0,0,0,0,0,0,0,0,0,0,0,0,0,0,0,0,0,0,0,0,0,0,0,0,0,0,0,0,0,0,0,0,0,0,0,0,0,0,0,0,0,0],"id":21,"left_children":[1,3,5,7,9,11,13,15,17,19,21,23,25,27,29,31,33,35,37,39,41,43,45,47,49,51,53,55,57,59,61,-1,-1,-1,-1,-1,-1,-1,-1,-1,-1,-1,-1,-1,-1,-1,-1,-1,-1,-1,-1,-1,-1,-1,-1,-1,-1,-1,-1,-1,-1,-1,-1],"loss_changes":[5.0822498E2,1.2355551E2,8.330609E1,1.4119953E1,3.1909698E1,4.6348267E1,1.2690765E1,4.9061093E0,4.4614296E0,7.373123E0,6.319809E0,1.3031215E1,1.8329895E1,1.0040695E1,4.101921E0,4.7377563E0,3.1031375E0,2.8829603E0,3.702404E0,6.687294E0,5.3286285E0,5.1134644E0,4.313507E0,4.097825E0,9.853579E0,4.1388607E0,6.6483E0,3.2368374E0,3.275238E0,3.8922977E0,4.0616684E0,0E0,0E0,0E0,0E0,0E0,0E0,0E0,0E0,0E0,0E0,0E0,0E0,0E0,0E0,0E0,0E0,0E0,0E0,0E0,0E0,0E0,0E0,0E0,0E0,0E0,0E0,0E0,0E0,0E0,0E0,0E0,0E0],"parents":[2147483647,0,0,1,1,2,2,3,3,4,4,5,5,6,6,7,7,8,8,9,9,10,10,11,11,12,12,13,13,14,14,15,15,16,16,17,17,18,18,19,19,20,20,21,21,22,22,23,23,24,24,25,25,26,26,27,27,28,28,29,29,30,30],"right_children":[2,4,6,8,10,12,14,16,18,20,22,24,26,28,30,32,34,36,38,40,42,44,46,48,50,52,54,56,58,60,62,-1,-1,-1,-1,-1,-1,-1,-1,-1,-1,-1,-1,-1,-1,-1,-1,-1,-1,-1,-1,-1,-1,-1,-1,-1,-1,-1,-1,-1,-1,-1,-1],"split_conditions":[1.91E0,2.09E0,3.6E0,1.68E0,-1.75E0,2.1E0,7E0,1.4E0,-1.25E0,-2.5E0,1.45E0,1.6E0,2.39E0,1.86E0,1.7E-1,7E0,1.784E0,5E-1,1.202E0,1.1E1,5E-1,4.67E0,2.25E0,2.29E0,2.79E0,1.87E0,2.41E0,1.31E0,3.17E0,4E-1,1.41E0,3.1630695E-3,-3.1431066E-4,-4.3430016E-3,8.257978E-3,1.0787397E-2,4.487176E-3,2.205987E-3,4.4086133E-3,2.5624467E-2,1.3220084E-2,7.6768883E-3,1.1465988E-2,7.0998752E-3,1.8029919E-2,5.5335765E-3,1.0979833E-3,1.37709975E-2,3.133454E-3,-6.027572E-6,-2.2554619E-3,-8.194069E-4,-2.5151137E-3,-3.7189596E-3,-6.1510606E-3,1.6404027E-2,-3.7658222E-3,-6.968437E-3,1.159482E-2,-4.0271776E-3,3.5E-2,-4.677867E-3,-9.826793E-3],"split_indices":[22,30,22,30,26,29,22,7,26,26,22,29,22,29,4,0,17,8,15,0,7,6,8,30,22,28,29,29,4,6,29,0,0,0,0,0,0,0,0,0,0,0,0,0,0,0,0,0,0,0,0,0,0,0,0,0,0,0,0,0,0,0,0],"split_type":[0,0,0,0,0,0,0,0,0,0,0,0,0,0,0,0,0,0,0,0,0,0,0,0,0,0,0,0,0,0,0,0,0,0,0,0,0,0,0,0,0,0,0,0,0,0,0,0,0,0,0,0,0,0,0,0,0,0,0,0,0,0,0],"sum_hessian":[1.1236192E5,4.1279145E4,7.108278E4,2.2499965E4,1.877918E4,5.812211E4,1.2960668E4,6.268082E3,1.6231884E4,4.832768E3,1.3946411E4,2.8513062E4,2.9609047E4,9.8695E3,3.0911677E3,5.4186445E3,8.494375E2,1.0475216E3,1.5184362E4,6.4316144E2,4.1896064E3,7.3175664E3,6.6288447E3,1.9894708E3,2.6523592E4,1.5655695E4,1.3953353E4,5.025487E3,4.844013E3,1.9130836E1,3.0720369E3,1.282381E3,4.1362637E3,7.9830774E2,5.1129738E1,2.3413795E2,8.133836E2,1.2945979E4,2.2383838E3,1.4021512E2,5.0294632E2,1.4071897E3,2.782417E3,7.2094927E3,1.0807416E2,6.025275E3,6.035697E2,9.420219E1,1.8952687E3,2.0100117E4,6.4234746E3,5.608147E3,1.0047548E4,1.0047401E4,3.9059507E3,1.9003963E1,5.006483E3,4.820995E3,2.301788E1,1.2211618E1,6.919217E0,4.518137E2,2.6202231E3],"tree_param":{"num_deleted":"0","num_feature":"31","num_nodes":"63","size_leaf_vector":"1"}},{"base_weights":[1.0271461E-3,1.02249384E-1,-4.2451084E-2,1.4301577E-1,5.1963713E-2,-2.5201274E-2,-1.21005476E-1,2.078272E-1,1.19567335E-1,6.947859E-2,2.3445098E-2,1.5333093E-3,-5.0445553E-2,-1.8723163E-1,-1.07093625E-1,2.9988435E-1,1.8942551E-1,1.2569542E-1,5.810252E-2,7.340457E-2,-1.0724008E-1,7.5025097E-3,5.5386562E-2,2.5249077E-2,-1.9348543E-2,-2.8279293E-2,-8.204728E-2,-9.324591E-2,-2.094768E-1,-7.253424E-2,-1.4032887E-1,6.4182505E-3,1.717671E-2,8.962106E-3,1.6985906E-2,5.7369233E-3,8.071309E-3,3.2824778E-3,-1.3384168E-2,5.1466892E-3,2.512422E-3,2.4061035E-3,-9.244731E-3,4.234825E-3,-3.1876945E-4,1.2822755E-2,2.088093E-3,1.9213576E-3,-1.9747263E-4,3.6222376E-3,-1.3277665E-3,-1.2934292E-3,-5.9907613E-3,-3.3761829E-3,-5.9523843E-3,-1.1803082E-2,-2.8796669E-3,-1.084004E-2,1.5126369E-3,-2.4640893E-3,-5.2597267E-3,-6.7058825E-3,-1.1156175E-2],"categories":[],"categories_nodes":[],"categories_segments":[],"categories_sizes":[],"default_left":[0,0,0,0,0,0,0,0,0,0,0,0,0,0,0,0,0,0,0,0,0,0,0,0,0,0,0,0,0,0,0,0,0,0,0,0,0,0,0,0,0,0,0,0,0,0,0,0,0,0,0,0,0,0,0,0,0,0,0,0,0,0,0],"id":22,"left_children":[1,3,5,7,9,11,13,15,17,19,21,23,25,27,29,31,33,35,37,39,41,43,45,47,49,51,53,55,57,59,61,-1,-1,-1,-1,-1,-1,-1,-1,-1,-1,-1,-1,-1,-1,-1,-1,-1,-1,-1,-1,-1,-1,-1,-1,-1,-1,-1,-1,-1,-1,-1,-1],"loss_changes":[4.9508707E2,6.9284454E1,1.0663069E2,2.8344025E1,7.558502E0,4.354833E1,1.3034058E1,8.342102E0,5.1567535E0,6.5129967E0,2.9328644E0,1.5520433E1,2.3245628E1,5.120178E0,1.3441406E1,6.126953E0,6.267334E0,4.862015E0,3.078281E0,6.2671432E0,2.472244E0,4.118119E0,5.242732E0,5.646493E0,1.1026878E1,4.3015604E0,7.344116E0,2.3912296E0,3.4953766E0,4.3565407E0,3.0396652E0,0E0,0E0,0E0,0E0,0E0,0E0,0E0,0E0,0E0,0E0,0E0,0E0,0E0,0E0,0E0,0E0,0E0,0E0,0E0,0E0,0E0,0E0,0E0,0E0,0E0,0E0,0E0,0E0,0E0,0E0,0E0,0E0],"parents":[2147483647,0,0,1,1,2,2,3,3,4,4,5,5,6,6,7,7,8,8,9,9,10,10,11,11,12,12,13,13,14,14,15,15,16,16,17,17,18,18,19,19,20,20,21,21,22,22,23,23,24,24,25,25,26,26,27,27,28,28,29,29,30,30],"right_children":[2,4,6,8,10,12,14,16,18,20,22,24,26,28,30,32,34,36,38,40,42,44,46,48,50,52,54,56,58,60,62,-1,-1,-1,-1,-1,-1,-1,-1,-1,-1,-1,-1,-1,-1,-1,-1,-1,-1,-1,-1,-1,-1,-1,-1,-1,-1,-1,-1,-1,-1,-1,-1],"split_conditions":[-5E-1,1.75E0,3.5E0,-1.75E0,2.05E0,2.09E0,1.44E0,1.25E0,2.83E0,1.628E0,3.7E0,2.25E0,2.39E0,1.41E0,1.86E0,1.2E0,3.3E-1,1.4E0,1.683E0,1.8E0,5.28E-1,7.5E-1,4E-1,1.98E0,1.6E0,2.74E0,2.41E0,3.64E-1,3.75E0,4.8E0,2.49E0,6.4182505E-3,1.717671E-2,8.962106E-3,1.6985906E-2,5.7369233E-3,8.071309E-3,3.2824778E-3,-1.3384168E-2,5.1466892E-3,2.512422E-3,2.4061035E-3,-9.244731E-3,4.234825E-3,-3.1876945E-4,1.2822755E-2,2.088093E-3,1.9213576E-3,-1.9747263E-4,3.6222376E-3,-1.3277665E-3,-1.2934292E-3,-5.9907613E-3,-3.3761829E-3,-5.9523843E-3,-1.1803082E-2,-2.8796669E-3,-1.084004E-2,1.5126369E-3,-2.4640893E-3,-5.2597267E-3,-6.7058825E-3,-1.1156175E-2],"split_indices":[26,29,22,26,29,29,24,29,10,16,23,22,22,29,29,9,12,7,15,10,15,9,6,29,29,29,29,17,3,22,29,0,0,0,0,0,0,0,0,0,0,0,0,0,0,0,0,0,0,0,0,0,0,0,0,0,0,0,0,0,0,0,0],"split_type":[0,0,0,0,0,0,0,0,0,0,0,0,0,0,0,0,0,0,0,0,0,0,0,0,0,0,0,0,0,0,0,0,0,0,0,0,0,0,0,0,0,0,0,0,0,0,0,0,0,0,0,0,0,0,0,0,0,0,0,0,0,0,0],"sum_hessian":[1.12493164E5,3.3800477E4,7.869269E4,1.8666098E4,1.5134378E4,6.4524938E4,1.4167749E4,4.9570273E3,1.3709071E4,9.375144E3,5.7592334E3,3.1337914E4,3.3187023E4,2.45734E3,1.1710409E4,8.232581E2,4.1337695E3,1.2465232E4,1.2438381E3,9.171964E3,2.0318019E2,3.8425696E3,1.916664E3,1.4673189E4,1.6664725E4,1.9506537E4,1.3680487E4,4.712985E2,1.9860416E3,5.742404E3,5.9680054E3,1.6780795E2,6.554502E2,3.8735046E3,2.602647E2,9.543037E3,2.922196E3,1.2164567E3,2.7381517E1,4.0297249E3,5.142239E3,6.7838036E1,1.3534216E2,5.847685E2,3.257801E3,1.20502884E2,1.7961611E3,1.0109973E4,4.5632163E3,1.2124624E3,1.5452263E4,1.900724E4,4.9929605E2,9.826251E3,3.8542358E3,9.302826E1,3.7827023E2,1.9272574E3,5.878419E1,3.3557734E3,2.3866306E3,5.5539688E3,4.1403635E2],"tree_param":{"num_deleted":"0","num_feature":"31","num_nodes":"63","size_leaf_vector":"1"}},{"base_weights":[4.873493E-5,9.7885825E-2,-4.2935975E-2,5.659749E-2,1.515355E-1,-1.9539157E-2,-9.528836E-2,2.4062376E-2,7.1643636E-2,2.207428E-1,1.3248596E-1,-4.4159714E-2,1.7473252E-3,-8.169481E-2,-1.551409E-1,1.0287865E-1,1.6102234E-2,1.4886282E-1,6.811799E-2,1.9657154E-1,2.733064E-1,1.205052E-1,1.653365E-1,-2.7619127E-2,-6.365207E-2,-1.7724737E-3,8.763332E-2,-1.0409494E-1,-6.40141E-2,-1.573151E-1,1.5786798E-1,4.2217243E-3,2.1620855E-2,3.155153E-4,4.6761087E-3,1.3662085E-2,2.2530688E-3,3.4762613E-2,3.3859385E-3,9.03534E-3,1.7264279E-2,2.2444606E-2,1.2598656E-2,-6.1001465E-5,6.2400363E-3,8.4206E-3,-1.0408721E-2,-3.6977006E-3,-1.125618E-3,-4.066951E-3,-2.3412572E-3,1.9184934E-4,-1.6368348E-3,-2.8807935E-3,5.4118023E-3,-4.911514E-3,-1.0750365E-2,-2.6898792E-3,-5.0167064E-3,-6.878432E-3,-9.535793E-3,-5.030276E-3,2.5580406E-2],"categories":[],"categories_nodes":[],"categories_segments":[],"categories_sizes":[],"default_left":[0,0,0,0,0,0,0,0,0,0,0,0,0,0,0,0,0,0,0,0,0,0,0,0,0,0,0,0,0,0,0,0,0,0,0,0,0,0,0,0,0,0,0,0,0,0,0,0,0,0,0,0,0,0,0,0,0,0,0,0,0,0,0],"id":23,"left_children":[1,3,5,7,9,11,13,15,17,19,21,23,25,27,29,31,33,35,37,39,41,43,45,47,49,51,53,55,57,59,61,-1,-1,-1,-1,-1,-1,-1,-1,-1,-1,-1,-1,-1,-1,-1,-1,-1,-1,-1,-1,-1,-1,-1,-1,-1,-1,-1,-1,-1,-1,-1,-1],"loss_changes":[4.732004E2,7.607068E1,9.57516E1,9.500214E0,1.9662231E1,2.8316048E1,1.9632309E1,3.8501728E0,3.6031036E0,4.04039E0,4.590744E0,8.075626E0,8.760134E0,7.787079E0,3.0653305E0,3.3854213E0,4.2276335E0,7.4586315E0,3.1311836E0,5.1537933E0,3.6794357E0,4.4905396E0,3.6282654E0,3.2055683E0,3.418621E0,4.835343E0,3.4202137E0,5.624359E0,4.0764923E0,2.900467E0,2.915011E0,0E0,0E0,0E0,0E0,0E0,0E0,0E0,0E0,0E0,0E0,0E0,0E0,0E0,0E0,0E0,0E0,0E0,0E0,0E0,0E0,0E0,0E0,0E0,0E0,0E0,0E0,0E0,0E0,0E0,0E0,0E0,0E0],"parents":[2147483647,0,0,1,1,2,2,3,3,4,4,5,5,6,6,7,7,8,8,9,9,10,10,11,11,12,12,13,13,14,14,15,15,16,16,17,17,18,18,19,19,20,20,21,21,22,22,23,23,24,24,25,25,26,26,27,27,28,28,29,29,30,30],"right_children":[2,4,6,8,10,12,14,16,18,20,22,24,26,28,30,32,34,36,38,40,42,44,46,48,50,52,54,56,58,60,62,-1,-1,-1,-1,-1,-1,-1,-1,-1,-1,-1,-1,-1,-1,-1,-1,-1,-1,-1,-1,-1,-1,-1,-1,-1,-1,-1,-1,-1,-1,-1,-1],"split_conditions":[-5E-1,4.5E0,2.87E0,3.7E0,1.17E0,3.29E0,5.75E0,6E-1,4.97E-1,1E-1,1.2E1,2.37E0,3.79E0,3.4E0,1.788E0,2.16E0,2.5E-1,3.89E0,1.3E0,2.9E1,7.5E0,6.28E-1,3.75E0,2E-1,1.33E0,2.67E0,7.5E-1,1.5E1,4.59E0,9E0,1.633E0,4.2217243E-3,2.1620855E-2,3.155153E-4,4.6761087E-3,1.3662085E-2,2.2530688E-3,3.4762613E-2,3.3859385E-3,9.03534E-3,1.7264279E-2,2.2444606E-2,1.2598656E-2,-6.1001465E-5,6.2400363E-3,8.4206E-3,-1.0408721E-2,-3.6977006E-3,-1.125618E-3,-4.066951E-3,-2.3412572E-3,1.9184934E-4,-1.6368348E-3,-2.8807935E-3,5.4118023E-3,-4.911514E-3,-1.0750365E-2,-2.6898792E-3,-5.0167064E-3,-6.878432E-3,-9.535793E-3,-5.030276E-3,2.5580406E-2],"split_indices":[26,23,22,23,22,23,22,9,14,12,24,22,23,23,14,19,12,23,22,24,23,14,2,8,4,11,6,20,22,22,19,0,0,0,0,0,0,0,0,0,0,0,0,0,0,0,0,0,0,0,0,0,0,0,0,0,0,0,0,0,0,0,0],"split_type":[0,0,0,0,0,0,0,0,0,0,0,0,0,0,0,0,0,0,0,0,0,0,0,0,0,0,0,0,0,0,0,0,0,0,0,0,0,0,0,0,0,0,0,0,0,0,0,0,0,0,0,0,0,0,0,0,0,0,0,0,0,0,0],"sum_hessian":[1.1251746E5,3.434465E4,7.817281E4,1.9409395E4,1.4935254E4,5.4028355E4,2.4144453E4,6.138462E3,1.3270934E4,3.2213699E3,1.1713884E4,2.505173E4,2.8976625E4,1.9677678E4,4.4667744E3,5.619973E2,5.5764644E3,5.776624E2,1.26932705E4,2.2098943E3,1.0114756E3,8.586876E3,3.1270078E3,1.3553275E4,1.1498456E4,2.7836791E4,1.1398342E3,8.678186E3,1.0999493E4,4.436456E3,3.0318638E1,5.333993E2,2.859797E1,4.951313E3,6.251513E2,2.6204166E2,3.1562076E2,6.96802E0,1.2686303E4,1.9988706E3,2.1102371E2,1.0740723E2,9.040684E2,2.9271576E2,8.29416E3,3.1020151E3,2.4992725E1,1.344136E3,1.2209139E4,5.604099E3,5.894357E3,2.3568086E4,4.2687046E3,1.4137115E2,9.98463E2,8.244149E3,4.3403607E2,8.586629E3,2.4128643E3,2.79134E3,1.645116E3,1.7931736E1,1.2386901E1],"tree_param":{"num_deleted":"0","num_feature":"31","num_nodes":"63","size_leaf_vector":"1"}},{"base_weights":[6.5228465E-4,8.302029E-2,-5.0632752E-2,3.65719E-2,1.3554187E-1,-3.448456E-2,-1.21542685E-1,-1.33431945E-2,5.0975952E-2,1.9795913E-1,1.15232885E-1,-8.317245E-3,-5.949256E-2,-1.05787486E-1,-1.7402746E-1,-1.7099683E-1,-8.22881E-3,1.307397E-1,4.665101E-2,2.3332159E-1,1.7090723E-1,1.3061486E-1,8.058825E-2,5.9483856E-2,-1.360385E-2,-3.588424E-2,-8.30794E-2,-7.537378E-2,-1.364448E-1,4.6829018E-1,-1.770086E-1,1.4837874E-3,-1.0710451E-2,-4.4602333E-4,3.5E-2,6.0025617E-3,2.179251E-2,2.3050713E-3,2.4519239E-2,1.8886143E-2,1.0978344E-2,1.3045453E-2,7.6624737E-3,2.7982977E-3,6.8883426E-3,4.812272E-3,-1.2024666E-4,2.7219076E-3,1.852319E-2,2.8048505E-4,-1.8263961E-3,-1.5194016E-3,-5.2485806E-3,-3.2918693E-3,-5.601385E-3,8.440309E-3,-3.911686E-3,-4.3164277E-3,-7.846651E-3,2.9647214E-4,3.5E-2,-4.679058E-3,-9.616069E-3],"categories":[],"categories_nodes":[],"categories_segments":[],"categories_sizes":[],"default_left":[0,0,0,0,0,0,0,0,0,0,0,0,0,0,0,0,0,0,0,0,0,0,0,0,0,0,0,0,0,0,0,0,0,0,0,0,0,0,0,0,0,0,0,0,0,0,0,0,0,0,0,0,0,0,0,0,0,0,0,0,0,0,0],"id":24,"left_children":[1,3,5,7,9,11,13,15,17,19,21,23,25,27,29,31,33,35,37,39,41,43,45,47,49,51,53,55,57,59,61,-1,-1,-1,-1,-1,-1,-1,-1,-1,-1,-1,-1,-1,-1,-1,-1,-1,-1,-1,-1,-1,-1,-1,-1,-1,-1,-1,-1,-1,-1,-1,-1],"loss_changes":[4.753786E2,1.0533923E2,7.941049E1,1.6477713E1,2.5666595E1,3.6966713E1,1.0618851E1,4.1373625E0,6.129318E0,4.71817E0,8.139175E0,9.896111E0,1.6081596E1,9.217148E0,5.7669907E0,1.4045157E0,2.7760153E0,2.9290113E0,4.0919647E0,4.193344E0,4.4444275E0,5.6456757E0,6.113859E0,3.1134243E0,1.1280512E1,5.479101E0,7.204193E0,3.4840794E0,