{"learner":{"attributes":{"scikit_learn":"{\"_estimator_type\": \"regressor\"}"},"feature_names":["home_forma_pts","away_forma_pts","home_avg_scored","away_avg_scored","home_avg_conceded","away_avg_conceded","home_avg_scored_home","home_avg_conceded_home","away_avg_scored_away","away_avg_conceded_away","home_avg_yellow","away_avg_yellow","home_avg_red","away_avg_red","home_attack_strength","away_attack_strength","home_defense_strength","away_defense_strength","home_volatility","away_volatility","home_rest_days","away_rest_days","odd_home","odd_draw","odd_away","tipi_ndeshjes","ah_line","ah_home_odd","ah_away_odd","ou25_over","ou25_under"],"feature_types":["float","float","float","float","float","float","float","float","float","float","float","float","float","float","float","float","float","float","float","float","float","float","float","float","float","float","float","float","float","float","float"],"gradient_booster":{"model":{"cats":{"enc":[],"feature_segments":[],"sorted_idx":[]},"gbtree_model_param":{"num_parallel_tree":"1","num_trees":"400"},"iteration_indptr":[0,1,2,3,4,5,6,7,8,9,10,11,12,13,14,15,16,17,18,19,20,21,22,23,24,25,26,27,28,29,30,31,32,33,34,35,36,37,38,39,40,41,42,43,44,45,46,47,48,49,50,51,52,53,54,55,56,57,58,59,60,61,62,63,64,65,66,67,68,69,70,71,72,73,74,75,76,77,78,79,80,81,82,83,84,85,86,87,88,89,90,91,92,93,94,95,96,97,98,99,100,101,102,103,104,105,106,107,108,109,110,111,112,113,114,115,116,117,118,119,120,121,122,123,124,125,126,127,128,129,130,131,132,133,134,135,136,137,138,139,140,141,142,143,144,145,146,147,148,149,150,151,152,153,154,155,156,157,158,159,160,161,162,163,164,165,166,167,168,169,170,171,172,173,174,175,176,177,178,179,180,181,182,183,184,185,186,187,188,189,190,191,192,193,194,195,196,197,198,199,200,201,202,203,204,205,206,207,208,209,210,211,212,213,214,215,216,217,218,219,220,221,222,223,224,225,226,227,228,229,230,231,232,233,234,235,236,237,238,239,240,241,242,243,244,245,246,247,248,249,250,251,252,253,254,255,256,257,258,259,260,261,262,263,264,265,266,267,268,269,270,271,272,273,274,275,276,277,278,279,280,281,282,283,284,285,286,287,288,289,290,291,292,293,294,295,296,297,298,299,300,301,302,303,304,305,306,307,308,309,310,311,312,313,314,315,316,317,318,319,320,321,322,323,324,325,326,327,328,329,330,331,332,333,334,335,336,337,338,339,340,341,342,343,344,345,346,347,348,349,350,351,352,353,354,355,356,357,358,359,360,361,362,363,364,365,366,367,368,369,370,371,372,373,374,375,376,377,378,379,380,381,382,383,384,385,386,387,388,389,390,391,392,393,394,395,396,397,398,399,400],"tree_info":[0,0,0,0,0,0,0,0,0,0,0,0,0,0,0,0,0,0,0,0,0,0,0,0,0,0,0,0,0,0,0,0,0,0,0,0,0,0,0,0,0,0,0,0,0,0,0,0,0,0,0,0,0,0,0,0,0,0,0,0,0,0,0,0,0,0,0,0,0,0,0,0,0,0,0,0,0,0,0,0,0,0,0,0,0,0,0,0,0,0,0,0,0,0,0,0,0,0,0,0,0,0,0,0,0,0,0,0,0,0,0,0,0,0,0,0,0,0,0,0,0,0,0,0,0,0,0,0,0,0,0,0,0,0,0,0,0,0,0,0,0,0,0,0,0,0,0,0,0,0,0,0,0,0,0,0,0,0,0,0,0,0,0,0,0,0,0,0,0,0,0,0,0,0,0,0,0,0,0,0,0,0,0,0,0,0,0,0,0,0,0,0,0,0,0,0,0,0,0,0,0,0,0,0,0,0,0,0,0,0,0,0,0,0,0,0,0,0,0,0,0,0,0,0,0,0,0,0,0,0,0,0,0,0,0,0,0,0,0,0,0,0,0,0,0,0,0,0,0,0,0,0,0,0,0,0,0,0,0,0,0,0,0,0,0,0,0,0,0,0,0,0,0,0,0,0,0,0,0,0,0,0,0,0,0,0,0,0,0,0,0,0,0,0,0,0,0,0,0,0,0,0,0,0,0,0,0,0,0,0,0,0,0,0,0,0,0,0,0,0,0,0,0,0,0,0,0,0,0,0,0,0,0,0,0,0,0,0,0,0,0,0,0,0,0,0,0,0,0,0,0,0,0,0,0,0,0,0,0,0,0,0,0,0,0,0,0,0,0,0,0,0,0,0,0,0,0,0,0,0,0,0,0,0,0,0,0,0,0,0,0,0,0,0,0,0,0,0,0,0],"trees":[{"base_weights":[-1.4036184E-3,2.8069103E-1,-6.2195837E-2,5.043805E-1,2.0890974E-1,7.0074387E-4,-1.3021284E-1,7E-1,4.4935912E-1,1.4654426E-1,3.1938526E-1,-3.6427006E-2,7.205527E-2,-8.87625E-2,-1.7562325E-1,1.3481356E-1,7E-1,5.26804E-1,3.9058977E-1,9.45544E-2,2.0988576E-1,3.9202034E-1,2.6743144E-1,1.11034096E-4,-5.660972E-2,1.1654396E-1,4.379982E-2,-5.0177E-2,-1.3862501E-1,-1.5492623E-1,-2.2583829E-1,2.7361602E-2,-1.2482377E-2,-1.1978593E-4,3.5E-2,1.9161662E-2,3.1197278E-2,3.357973E-2,1.7734496E-2,4.43127E-3,3.5E-2,1.1747987E-2,1.1466808E-3,3.5E-2,1.8297901E-2,1.2759504E-2,3.5E-2,-2.3632783E-3,2.2158101E-3,4.1794297E-4,-3.3495792E-3,7.5609633E-3,2.2325243E-3,1.5039815E-3,1.1676784E-2,-2.906813E-3,4.117101E-3,-8.266094E-3,-5.181464E-3,-8.432554E-3,-4.287095E-3,-8.067059E-3,-1.2538197E-2],"categories":[],"categories_nodes":[],"categories_segments":[],"categories_sizes":[],"default_left":[0,0,0,0,0,0,0,0,0,0,0,0,0,0,0,0,0,0,0,0,0,0,0,0,0,0,0,0,0,0,0,0,0,0,0,0,0,0,0,0,0,0,0,0,0,0,0,0,0,0,0,0,0,0,0,0,0,0,0,0,0,0,0],"id":0,"left_children":[1,3,5,7,9,11,13,15,17,19,21,23,25,27,29,31,33,35,37,39,41,43,45,47,49,51,53,55,57,59,61,-1,-1,-1,-1,-1,-1,-1,-1,-1,-1,-1,-1,-1,-1,-1,-1,-1,-1,-1,-1,-1,-1,-1,-1,-1,-1,-1,-1,-1,-1,-1,-1],"loss_changes":[6.560004E2,1.08791565E2,1.3463245E2,2.1061707E1,3.5340225E1,4.3322227E1,2.8444244E1,5.3262787E0,5.921631E0,1.0797104E1,6.8854523E0,7.9319334E0,7.03018E0,1.5205143E1,7.4627533E0,3.023673E0,4.9973755E0,7.8217773E0,7.5224304E0,7.2412205E0,6.9317703E0,7.881172E0,6.7365875E0,8.019642E0,4.673992E0,5.4110603E0,8.907425E0,4.707843E0,3.204895E0,4.839424E0,3.3410797E0,0E0,0E0,0E0,0E0,0E0,0E0,0E0,0E0,0E0,0E0,0E0,0E0,0E0,0E0,0E0,0E0,0E0,0E0,0E0,0E0,0E0,0E0,0E0,0E0,0E0,0E0,0E0,0E0,0E0,0E0,0E0,0E0],"parents":[2147483647,0,0,1,1,2,2,3,3,4,4,5,5,6,6,7,7,8,8,9,9,10,10,11,11,12,12,13,13,14,14,15,15,16,16,17,17,18,18,19,19,20,20,21,21,22,22,23,23,24,24,25,25,26,26,27,27,28,28,29,29,30,30],"right_children":[2,4,6,8,10,12,14,16,18,20,22,24,26,28,30,32,34,36,38,40,42,44,46,48,50,52,54,56,58,60,62,-1,-1,-1,-1,-1,-1,-1,-1,-1,-1,-1,-1,-1,-1,-1,-1,-1,-1,-1,-1,-1,-1,-1,-1,-1,-1,-1,-1,-1,-1,-1,-1],"split_conditions":[2.29E0,1.64E0,3.8E0,1.44E0,3.7E0,1.82E0,5.5E0,2.5E-1,1.53E0,1.83E0,1.55E0,2.88E0,2.87E0,2.11E0,1E1,1.2E0,9.06E-1,1.013E0,3.6E0,3.75E0,1.618E0,8.63E-1,2.75E0,1.63E0,5.28E-1,1.255E0,2.449E0,1.5E1,1.61E0,2.38E0,1.38E0,2.7361602E-2,-1.2482377E-2,-1.1978593E-4,3.5E-2,1.9161662E-2,3.1197278E-2,3.357973E-2,1.7734496E-2,4.43127E-3,3.5E-2,1.1747987E-2,1.1466808E-3,3.5E-2,1.8297901E-2,1.2759504E-2,3.5E-2,-2.3632783E-3,2.2158101E-3,4.1794297E-4,-3.3495792E-3,7.5609633E-3,2.2325243E-3,1.5039815E-3,1.1676784E-2,-2.906813E-3,4.117101E-3,-8.266094E-3,-5.181464E-3,-8.432554E-3,-4.287095E-3,-8.067059E-3,-1.2538197E-2],"split_indices":[24,29,24,29,23,30,24,6,24,30,24,24,24,29,24,24,15,16,23,8,16,15,9,30,15,15,18,21,30,30,29,0,0,0,0,0,0,0,0,0,0,0,0,0,0,0,0,0,0,0,0,0,0,0,0,0,0,0,0,0,0,0,0],"split_type":[0,0,0,0,0,0,0,0,0,0,0,0,0,0,0,0,0,0,0,0,0,0,0,0,0,0,0,0,0,0,0,0,0,0,0,0,0,0,0,0,0,0,0,0,0,0,0,0,0,0,0,0,0,0,0,0,0,0,0,0,0,0,0],"sum_hessian":[3.8250613E4,6.781011E3,3.1469602E4,1.645906E3,5.1351055E3,1.635075E4,1.5118852E4,3.0063596E2,1.34527E3,3.283714E3,1.8513912E3,1.0755074E4,5.5956753E3,7.9056123E3,7.213239E3,1.7208118E1,2.8342786E2,5.7697815E2,7.6829193E2,1.804828E3,1.478886E3,7.6930414E2,1.082087E3,3.827288E3,6.9277866E3,2.172272E3,3.4234036E3,4.457915E3,3.4476973E3,5.1108115E3,2.1024272E3,8.097939E0,9.110181E0,1.0122423E1,2.7330542E2,2.3484021E2,3.421379E2,8.502835E1,6.8326355E2,1.7906566E3,1.4171392E1,1.3037681E3,1.7511792E2,4.0489693E1,7.2881445E2,1.0598177E3,2.2269331E1,1.8473423E3,1.9799459E3,9.545445E2,5.9732417E3,1.4647146E3,7.075574E2,3.1936245E3,2.29779E2,4.2058667E3,2.5204834E2,1.9536277E3,1.4940697E3,4.2635645E3,8.472468E2,5.881128E2,1.5143145E3],"tree_param":{"num_deleted":"0","num_feature":"31","num_nodes":"63","size_leaf_vector":"1"}},{"base_weights":[2.5257505E-3,-6.688204E-2,2.4097002E-1,-1.4192002E-1,-2.396646E-2,1.86972E-1,5.4871637E-1,-1.909664E-1,-1.1318753E-1,-6.4322285E-2,4.3130517E-2,1.2086652E-1,2.8161508E-1,5.031422E-1,7E-1,-2.3916624E-1,-1.6542418E-1,-2.0384254E-1,-9.486608E-2,-8.292474E-2,-2.8482754E-2,-5.5478816E-3,7.554177E-2,1.7150631E-2,1.5961523E-1,2.264562E-1,3.1780094E-1,3.948661E-1,5.827671E-1,3.527849E-1,7E-1,-1.39691E-2,-9.1838855E-3,-1.1719826E-2,-6.759278E-3,-9.359231E-3,-1.6597783E-2,-5.3683394E-3,-1.0652334E-3,-6.467181E-3,-3.06571E-3,-2.2326796E-3,1.2305878E-3,-2.2019434E-3,4.7070486E-3,3.2946744E-3,1.3390099E-2,1.5714797E-4,1.3499587E-2,7.2327703E-3,2.0199198E-2,9.380781E-3,1.7938113E-2,3.5E-2,1.557937E-2,2.6370421E-2,1.5577339E-2,3.3361554E-2,1.708485E-2,3.5E-2,2.2784134E-3,3.5E-2,5.644533E-3],"categories":[],"categories_nodes":[],"categories_segments":[],"categories_sizes":[],"default_left":[0,0,0,0,0,0,0,0,0,0,0,0,0,0,0,0,0,0,0,0,0,0,0,0,0,0,0,0,0,0,0,0,0,0,0,0,0,0,0,0,0,0,0,0,0,0,0,0,0,0,0,0,0,0,0,0,0,0,0,0,0,0,0],"id":1,"left_children":[1,3,5,7,9,11,13,15,17,19,21,23,25,27,29,31,33,35,37,39,41,43,45,47,49,51,53,55,57,59,61,-1,-1,-1,-1,-1,-1,-1,-1,-1,-1,-1,-1,-1,-1,-1,-1,-1,-1,-1,-1,-1,-1,-1,-1,-1,-1,-1,-1,-1,-1,-1,-1],"loss_changes":[6.3512177E2,9.571672E1,1.4367737E2,1.5218353E1,5.120796E1,4.602713E1,1.4560364E1,4.8769836E0,1.1311348E1,7.87059E0,1.1206717E1,1.7424492E1,5.9695587E0,9.691528E0,1.1418152E0,3.0304184E0,5.4191437E0,2.3836403E0,5.217949E0,7.7897263E0,3.4667687E0,1.0901185E1,7.8918266E0,4.180362E0,1.1481926E1,6.1124344E0,5.140259E0,5.255417E0,1.3231934E1,1.4303254E0,9.219818E-1,0E0,0E0,0E0,0E0,0E0,0E0,0E0,0E0,0E0,0E0,0E0,0E0,0E0,0E0,0E0,0E0,0E0,0E0,0E0,0E0,0E0,0E0,0E0,0E0,0E0,0E0,0E0,0E0,0E0,0E0,0E0,0E0],"parents":[2147483647,0,0,1,1,2,2,3,3,4,4,5,5,6,6,7,7,8,8,9,9,10,10,11,11,12,12,13,13,14,14,15,15,16,16,17,17,18,18,19,19,20,20,21,21,22,22,23,23,24,24,25,25,26,26,27,27,28,28,29,29,30,30],"right_children":[2,4,6,8,10,12,14,16,18,20,22,24,26,28,30,32,34,36,38,40,42,44,46,48,50,52,54,56,58,60,62,-1,-1,-1,-1,-1,-1,-1,-1,-1,-1,-1,-1,-1,-1,-1,-1,-1,-1,-1,-1,-1,-1,-1,-1,-1,-1,-1,-1,-1,-1,-1,-1],"split_conditions":[2.5E-1,1.85E0,4.4E0,1.45E0,1.78E0,3.6E0,3.15E0,1.25E0,1.65E0,2.45E0,2.14E0,1.81E0,7.5E-1,1.007E0,1.332E0,2.94E0,2.09E0,1.567E0,2.67E0,1.57E0,1.68E0,2.09E0,2.15E0,1.5E1,2.12E0,2.4E0,1.7E-1,7.49E-1,1.6E1,1.414E0,2.14E0,-1.39691E-2,-9.1838855E-3,-1.1719826E-2,-6.759278E-3,-9.359231E-3,-1.6597783E-2,-5.3683394E-3,-1.0652334E-3,-6.467181E-3,-3.06571E-3,-2.2326796E-3,1.2305878E-3,-2.2019434E-3,4.7070486E-3,3.2946744E-3,1.3390099E-2,1.5714797E-4,1.3499587E-2,7.2327703E-3,2.0199198E-2,9.380781E-3,1.7938113E-2,3.5E-2,1.557937E-2,2.6370421E-2,1.5577339E-2,3.3361554E-2,1.708485E-2,3.5E-2,2.2784134E-3,3.5E-2,5.644533E-3],"split_indices":[26,22,23,22,30,23,30,22,30,22,22,27,26,16,15,30,30,17,9,30,30,30,27,20,30,10,2,16,1,18,28,0,0,0,0,0,0,0,0,0,0,0,0,0,0,0,0,0,0,0,0,0,0,0,0,0,0,0,0,0,0,0,0],"split_type":[0,0,0,0,0,0,0,0,0,0,0,0,0,0,0,0,0,0,0,0,0,0,0,0,0,0,0,0,0,0,0,0,0,0,0,0,0,0,0,0,0,0,0,0,0,0,0,0,0,0,0,0,0,0,0,0,0,0,0,0,0,0,0],"sum_hessian":[3.837422E4,2.9722992E4,8.651228E3,1.0813412E4,1.890958E4,7.361216E3,1.2900116E3,3.9925242E3,6.8208877E3,1.1807774E4,7.1018057E3,4.335365E3,3.0258508E3,1.1498102E3,1.4020143E2,1.3800033E3,2.612521E3,1.1450457E3,5.675842E3,7.7722734E3,4.0355012E3,2.838899E3,4.2629067E3,1.1795609E3,3.1558042E3,1.2015542E3,1.8242968E3,4.8976886E2,6.600413E2,1.2535423E1,1.27666016E2,7.9777496E2,5.822284E2,7.9421545E2,1.8183055E3,1.0154702E3,1.2957544E2,4.8510215E3,8.248207E2,2.4673926E3,5.304881E3,3.0934863E3,9.420149E2,2.0485059E3,7.9039294E2,4.0604805E3,2.0242644E2,1.1186016E3,6.095931E1,2.975256E3,1.8054803E2,9.3073883E2,2.7081534E2,2.0612452E1,1.8036843E3,1.869861E2,3.0278275E2,4.874762E2,1.7256514E2,5.2414904E0,7.293933E0,1.2456973E2,3.0962818E0],"tree_param":{"num_deleted":"0","num_feature":"31","num_nodes":"63","size_leaf_vector":"1"}},{"base_weights":[-1.0512298E-3,2.4518895E-1,-6.5015756E-2,1.4337882E-1,3.736334E-1,-2.7135413E-2,-1.5797828E-1,8.663308E-2,1.9469132E-1,2.9770744E-1,4.978709E-1,-6.322422E-2,2.7466457E-2,-1.2269881E-1,-2.0368084E-1,8.178591E-2,7E-1,3.6401224E-1,1.772256E-1,3.8319966E-1,2.6002502E-1,4.5984054E-1,7E-1,1.0014388E-3,-8.221534E-2,8.93987E-2,-1.4782294E-2,-8.442321E-2,-1.6201209E-1,-1.8336627E-1,-2.6236096E-1,4.398776E-3,-1.613342E-2,3.5E-2,-6.038913E-4,1.3924201E-2,3.5E-2,8.631772E-3,3.5E-2,3.5E-2,1.80043E-2,2.2386387E-2,1.2110463E-2,2.1709008E-2,3.45185E-2,5.6654755E-3,3.5E-2,2.4179316E-3,-1.7452637E-3,-5.810609E-3,-3.2774266E-3,4.1425894E-3,1.7138515E-2,-2.108407E-3,2.360833E-3,-3.910988E-3,-1.3759811E-2,-3.5494033E-3,-8.712969E-3,-1.0770783E-2,-7.938407E-3,-9.9831475E-3,-1.5550585E-2],"categories":[],"categories_nodes":[],"categories_segments":[],"categories_sizes":[],"default_left":[0,0,0,0,0,0,0,0,0,0,0,0,0,0,0,0,0,0,0,0,0,0,0,0,0,0,0,0,0,0,0,0,0,0,0,0,0,0,0,0,0,0,0,0,0,0,0,0,0,0,0,0,0,0,0,0,0,0,0,0,0,0,0],"id":2,"left_children":[1,3,5,7,9,11,13,15,17,19,21,23,25,27,29,31,33,35,37,39,41,43,45,47,49,51,53,55,57,59,61,-1,-1,-1,-1,-1,-1,-1,-1,-1,-1,-1,-1,-1,-1,-1,-1,-1,-1,-1,-1,-1,-1,-1,-1,-1,-1,-1,-1,-1,-1,-1,-1],"loss_changes":[6.0369574E2,1.03298035E2,1.071358E2,1.2825172E1,3.280966E1,4.2600067E1,1.4176926E1,6.8426676E0,6.782486E0,6.8947296E0,1.504422E1,1.5875561E1,2.251198E1,7.470024E0,4.5243073E0,5.2419176E0,2.1227665E0,7.1557083E0,5.331917E0,6.9033585E0,4.941147E0,6.840744E0,2.04776E0,5.0542674E0,5.684265E0,5.759144E0,8.686977E0,2.9632072E0,2.721527E0,2.2146835E0,2.939659E0,0E0,0E0,0E0,0E0,0E0,0E0,0E0,0E0,0E0,0E0,0E0,0E0,0E0,0E0,0E0,0E0,0E0,0E0,0E0,0E0,0E0,0E0,0E0,0E0,0E0,0E0,0E0,0E0,0E0,0E0,0E0,0E0],"parents":[2147483647,0,0,1,1,2,2,3,3,4,4,5,5,6,6,7,7,8,8,9,9,10,10,11,11,12,12,13,13,14,14,15,15,16,16,17,17,18,18,19,19,20,20,21,21,22,22,23,23,24,24,25,25,26,26,27,27,28,28,29,29,30,30],"right_children":[2,4,6,8,10,12,14,16,18,20,22,24,26,28,30,32,34,36,38,40,42,44,46,48,50,52,54,56,58,60,62,-1,-1,-1,-1,-1,-1,-1,-1,-1,-1,-1,-1,-1,-1,-1,-1,-1,-1,-1,-1,-1,-1,-1,-1,-1,-1,-1,-1,-1,-1,-1,-1],"split_conditions":[2.38E0,3.7E0,4.8E0,1.8E0,4.4E0,1.78E0,7.5E0,3.5E0,1.62E0,1.624E0,3.22E0,2.88E0,3.2E0,1.91E0,1.5E1,2.73E0,1.3E0,2.6E0,4E0,4.44E-1,1.73E0,2.08E0,1.149E0,2.21E0,1.57E0,2.19E0,2.08E0,2.13E0,4.02E-1,6.75E-1,1.38E0,4.398776E-3,-1.613342E-2,3.5E-2,-6.038913E-4,1.3924201E-2,3.5E-2,8.631772E-3,3.5E-2,3.5E-2,1.80043E-2,2.2386387E-2,1.2110463E-2,2.1709008E-2,3.45185E-2,5.6654755E-3,3.5E-2,2.4179316E-3,-1.7452637E-3,-5.810609E-3,-3.2774266E-3,4.1425894E-3,1.7138515E-2,-2.108407E-3,2.360833E-3,-3.910988E-3,-1.3759811E-2,-3.5494033E-3,-8.712969E-3,-1.0770783E-2,-7.938407E-3,-9.9831475E-3,-1.5550585E-2],"split_indices":[24,23,24,30,23,30,24,8,29,29,30,24,24,29,24,29,7,8,10,16,30,27,15,29,30,27,30,28,15,16,29,0,0,0,0,0,0,0,0,0,0,0,0,0,0,0,0,0,0,0,0,0,0,0,0,0,0,0,0,0,0,0,0],"split_type":[0,0,0,0,0,0,0,0,0,0,0,0,0,0,0,0,0,0,0,0,0,0,0,0,0,0,0,0,0,0,0,0,0,0,0,0,0,0,0,0,0,0,0,0,0,0,0,0,0,0,0,0,0,0,0,0,0,0,0,0,0,0,0],"sum_hessian":[3.832633E4,7.9023433E3,3.0423982E4,4.409398E3,3.4929453E3,2.1616848E4,8.807136E3,2.0951213E3,2.3142766E3,2.1701096E3,1.3228357E3,1.3014697E4,8.602151E3,4.9724253E3,3.83471E3,2.0815664E3,1.355486E1,2.1454395E2,2.0997327E3,6.610897E2,1.5090198E3,1.2060947E3,1.1674095E2,2.9703342E3,1.0044362E4,3.4879973E3,5.114154E3,2.5210576E3,2.4513677E3,2.8516252E3,9.8308466E2,2.050962E3,3.0604658E1,9.402029E0,4.152831E0,1.7897949E2,3.5564445E1,2.084256E3,1.54766445E1,2.299212E1,6.380976E2,1.2872032E2,1.3802994E3,1.087885E3,1.182097E2,6.3727226E0,1.10368225E2,1.2807769E3,1.6895575E3,3.3023264E3,6.742036E3,3.401434E3,8.656311E1,3.547494E3,1.56666E3,2.4430266E3,7.803093E1,2.9152206E2,2.1598457E3,1.2348965E3,1.6167289E3,4.3176157E2,5.5132306E2],"tree_param":{"num_deleted":"0","num_feature":"31","num_nodes":"63","size_leaf_vector":"1"}},{"base_weights":[1.9594114E-3,2.3674218E-1,-6.1635815E-2,4.551188E-1,1.7625462E-1,-1.1225659E-2,-1.3330832E-1,4.2904958E-1,7E-1,1.359112E-1,2.8441516E-1,-4.6706457E-2,6.6991165E-2,-9.7346835E-2,-1.8676123E-1,3.5621324E-1,4.8654327E-1,2.4363661E-1,7E-1,1.1105853E-1,2.0277297E-1,2.509834E-1,4.0677723E-1,-6.685436E-2,-8.669074E-3,1.0120287E-1,2.0127146E-2,-1.5621376E-1,-7.0406444E-2,-2.4138884E-1,-1.7052028E-1,1.3130109E-2,2.178956E-2,1.981897E-2,2.895766E-2,-2.1717204E-3,2.3364052E-2,3.5E-2,1.4285857E-2,5.9157554E-3,-3.3327795E-3,6.925769E-3,1.4703566E-2,1.4062104E-2,3.5042826E-3,-4.6923623E-4,2.2228597E-2,-7.675642E-4,-3.9473874E-3,2.7063296E-3,-1.8123295E-3,3.091414E-3,6.972016E-3,-1.1271039E-3,4.7852895E-3,-5.2828724E-3,-1.0095567E-2,-4.0360163E-3,9.901932E-4,-1.6180461E-2,-9.513718E-3,-9.747122E-3,-5.8523356E-3],"categories":[],"categories_nodes":[],"categories_segments":[],"categories_sizes":[],"default_left":[0,0,0,0,0,0,0,0,0,0,0,0,0,0,0,0,0,0,0,0,0,0,0,0,0,0,0,0,0,0,0,0,0,0,0,0,0,0,0,0,0,0,0,0,0,0,0,0,0,0,0,0,0,0,0,0,0,0,0,0,0,0,0],"id":3,"left_children":[1,3,5,7,9,11,13,15,17,19,21,23,25,27,29,31,33,35,37,39,41,43,45,47,49,51,53,55,57,59,61,-1,-1,-1,-1,-1,-1,-1,-1,-1,-1,-1,-1,-1,-1,-1,-1,-1,-1,-1,-1,-1,-1,-1,-1,-1,-1,-1,-1,-1,-1,-1,-1],"loss_changes":[5.7083307E2,1.075535E2,1.086883E2,1.3439178E1,2.7812393E1,4.9019054E1,2.3859283E1,6.6647644E0,2.7446442E0,7.705368E0,6.9873657E0,9.311657E0,8.835516E0,1.1768875E1,4.390213E0,5.2795334E0,7.367737E0,1.017432E0,1.3740845E0,4.3829803E0,7.345375E0,7.445076E0,5.8281975E0,4.9462624E0,7.290385E0,4.7880325E0,7.507124E0,5.3645897E0,4.7445087E0,4.7388763E0,5.009636E0,0E0,0E0,0E0,0E0,0E0,0E0,0E0,0E0,0E0,0E0,0E0,0E0,0E0,0E0,0E0,0E0,0E0,0E0,0E0,0E0,0E0,0E0,0E0,0E0,0E0,0E0,0E0,0E0,0E0,0E0,0E0,0E0],"parents":[2147483647,0,0,1,1,2,2,3,3,4,4,5,5,6,6,7,7,8,8,9,9,10,10,11,11,12,12,13,13,14,14,15,15,16,16,17,17,18,18,19,19,20,20,21,21,22,22,23,23,24,24,25,25,26,26,27,27,28,28,29,29,30,30],"right_children":[2,4,6,8,10,12,14,16,18,20,22,24,26,28,30,32,34,36,38,40,42,44,46,48,50,52,54,56,58,60,62,-1,-1,-1,-1,-1,-1,-1,-1,-1,-1,-1,-1,-1,-1,-1,-1,-1,-1,-1,-1,-1,-1,-1,-1,-1,-1,-1,-1,-1,-1,-1,-1],"split_conditions":[2.39E0,1.55E0,4.2E0,3.15E0,2.08E0,1.85E0,6.5E0,2.18E0,6.7E-1,3.6E0,2.4E0,1.68E0,3.3E0,1.67E0,1.22E0,7.41E-1,1.528E0,1.2E0,2.2E0,5E-1,1.99E0,2.4E0,6E0,5.35E-1,2.9E0,1.483E0,2.09E0,7E0,1.654E0,2.7E0,2.34E0,1.3130109E-2,2.178956E-2,1.981897E-2,2.895766E-2,-2.1717204E-3,2.3364052E-2,3.5E-2,1.4285857E-2,5.9157554E-3,-3.3327795E-3,6.925769E-3,1.4703566E-2,1.4062104E-2,3.5042826E-3,-4.6923623E-4,2.2228597E-2,-7.675642E-4,-3.9473874E-3,2.7063296E-3,-1.8123295E-3,3.091414E-3,6.972016E-3,-1.1271039E-3,4.7852895E-3,-5.2828724E-3,-1.0095567E-2,-4.0360163E-3,9.901932E-4,-1.6180461E-2,-9.513718E-3,-9.747122E-3,-5.8523356E-3],"split_indices":[24,24,24,30,30,30,24,30,7,23,30,30,24,30,22,14,19,4,11,12,28,11,1,14,24,19,30,1,17,30,30,0,0,0,0,0,0,0,0,0,0,0,0,0,0,0,0,0,0,0,0,0,0,0,0,0,0,0,0,0,0,0,0],"split_type":[0,0,0,0,0,0,0,0,0,0,0,0,0,0,0,0,0,0,0,0,0,0,0,0,0,0,0,0,0,0,0,0,0,0,0,0,0,0,0,0,0,0,0,0,0,0,0,0,0,0,0,0,0,0,0,0,0,0,0,0,0,0,0],"sum_hessian":[3.8229266E4,8.147469E3,3.0081795E4,1.765827E3,6.381642E3,1.7661154E4,1.2420642E4,1.6319296E3,1.3389748E2,4.6496133E3,1.7320292E3,1.2150042E4,5.511112E3,7.426883E3,4.993759E3,7.2308264E2,9.08847E2,1.4531269E1,1.1936621E2,3.3916067E3,1.2580065E3,1.3627498E3,3.6927945E2,7.9423345E3,4.207707E3,3.1849055E3,2.3262065E3,2.3302659E3,5.0966167E3,1.1412438E3,3.8525151E3,3.3422232E2,3.888603E2,4.6318027E2,4.4566672E2,6.7161617E0,7.8151073E0,1.0950521E2,9.860998E0,3.2588718E3,1.3273485E2,7.39822E2,5.181844E2,1.1669926E3,1.9575719E2,3.0807404E1,3.3847205E2,1.5107314E3,6.431603E3,1.2836946E3,2.9240127E3,1.5704098E3,1.6144956E3,1.4872537E3,8.389528E2,1.1078915E3,1.2223744E3,4.573794E3,5.228231E2,4.3545685E2,7.05787E2,2.6428438E3,1.2096715E3],"tree_param":{"num_deleted":"0","num_feature":"31","num_nodes":"63","size_leaf_vector":"1"}},{"base_weights":[2.1310172E-3,2.3731332E-1,-5.728906E-2,4.3232906E-1,1.8166056E-1,-2.2206297E-3,-1.2328134E-1,7E-1,4.0234062E-1,1.2774993E-1,2.7470046E-1,-4.2219065E-2,5.7693318E-2,-9.781665E-2,-1.951106E-1,-4.2926118E-2,7E-1,2.566337E-1,4.4343957E-1,1.4316066E-1,-9.324232E-2,1.8978657E-1,3.1345204E-1,-4.513659E-3,-5.974848E-2,1.1054169E-1,2.9638281E-2,-1.7496026E-1,-7.9422064E-2,-2.4530642E-1,-1.7665468E-1,2.6021516E-2,-2.1003766E-2,-7.818435E-3,3.5E-2,5.420518E-3,1.8205618E-2,2.4265826E-2,1.4132387E-2,8.698118E-3,3.0730027E-3,-5.6204456E-3,2.0398075E-2,1.8352192E-2,7.5398795E-3,1.2266725E-2,2.1277318E-2,2.0867316E-3,-2.0713732E-3,-1.8366536E-5,-3.7739433E-3,7.1655116E-3,2.0485097E-3,-3.3325443E-4,3.371747E-3,-8.934165E-3,1.1226049E-2,-2.3739485E-3,-5.4508033E-3,-1.0009637E-2,-1.5323082E-2,-7.1840608E-3,-1.1035809E-2],"categories":[],"categories_nodes":[],"categories_segments":[],"categories_sizes":[],"default_left":[0,0,0,0,0,0,0,0,0,0,0,0,0,0,0,0,0,0,0,0,0,0,0,0,0,0,0,0,0,0,0,0,0,0,0,0,0,0,0,0,0,0,0,0,0,0,0,0,0,0,0,0,0,0,0,0,0,0,0,0,0,0,0],"id":4,"left_children":[1,3,5,7,9,11,13,15,17,19,21,23,25,27,29,31,33,35,37,39,41,43,45,47,49,51,53,55,57,59,61,-1,-1,-1,-1,-1,-1,-1,-1,-1,-1,-1,-1,-1,-1,-1,-1,-1,-1,-1,-1,-1,-1,-1,-1,-1,-1,-1,-1,-1,-1,-1,-1],"loss_changes":[5.359019E2,8.386755E1,1.1125281E2,1.7519928E1,3.0156235E1,3.999724E1,2.5452438E1,4.980713E0,9.4157715E0,1.2998581E1,7.203888E0,6.6148434E0,9.903357E0,1.4577782E1,3.3322754E0,2.324577E0,2.736023E0,5.5758743E0,8.211395E0,8.959923E0,2.4393742E0,4.7424965E0,1.1456818E1,5.426146E0,6.3817234E0,5.275511E0,5.9912505E0,2.9834633E0,7.8456345E0,2.6340904E0,3.8441544E0,0E0,0E0,0E0,0E0,0E0,0E0,0E0,0E0,0E0,0E0,0E0,0E0,0E0,0E0,0E0,0E0,0E0,0E0,0E0,0E0,0E0,0E0,0E0,0E0,0E0,0E0,0E0,0E0,0E0,0E0,0E0,0E0],"parents":[2147483647,0,0,1,1,2,2,3,3,4,4,5,5,6,6,7,7,8,8,9,9,10,10,11,11,12,12,13,13,14,14,15,15,16,16,17,17,18,18,19,19,20,20,21,21,22,22,23,23,24,24,25,25,26,26,27,27,28,28,29,29,30,30],"right_children":[2,4,6,8,10,12,14,16,18,20,22,24,26,28,30,32,34,36,38,40,42,44,46,48,50,52,54,56,58,60,62,-1,-1,-1,-1,-1,-1,-1,-1,-1,-1,-1,-1,-1,-1,-1,-1,-1,-1,-1,-1,-1,-1,-1,-1,-1,-1,-1,-1,-1,-1,-1,-1],"split_conditions":[2.35E0,1.62E0,3.9E0,1.34E0,4.4E0,1.78E0,7.5E0,2.5E-1,1.06E0,1.784E0,9.32E-1,2.88E0,2.87E0,1.61E0,2.09E0,5E0,3.88E-1,4E0,1.6E1,2.13E0,2.25E0,5E-1,1.33E0,2.21E0,6.13E-1,1.242E0,1.98E0,1.5E1,5E0,9E0,1.3E1,2.6021516E-2,-2.1003766E-2,-7.818435E-3,3.5E-2,5.420518E-3,1.8205618E-2,2.4265826E-2,1.4132387E-2,8.698118E-3,3.0730027E-3,-5.6204456E-3,2.0398075E-2,1.8352192E-2,7.5398795E-3,1.2266725E-2,2.1277318E-2,2.0867316E-3,-2.0713732E-3,-1.8366536E-5,-3.7739433E-3,7.1655116E-3,2.0485097E-3,-3.3325443E-4,3.371747E-3,-8.934165E-3,1.1226049E-2,-2.3739485E-3,-5.4508033E-3,-1.0009637E-2,-1.5323082E-2,-7.1840608E-3,-1.1035809E-2],"split_indices":[24,29,24,29,22,30,24,6,15,16,16,24,24,30,30,21,16,22,1,29,6,16,6,29,15,15,30,1,24,24,24,0,0,0,0,0,0,0,0,0,0,0,0,0,0,0,0,0,0,0,0,0,0,0,0,0,0,0,0,0,0,0,0],"split_type":[0,0,0,0,0,0,0,0,0,0,0,0,0,0,0,0,0,0,0,0,0,0,0,0,0,0,0,0,0,0,0,0,0,0,0,0,0,0,0,0,0,0,0,0,0,0,0,0,0,0,0,0,0,0,0,0,0,0,0,0,0,0,0],"sum_hessian":[3.8346445E4,7.733715E3,3.0612729E4,1.7155162E3,6.0181987E3,1.668809E4,1.392464E4,1.2517648E2,1.5903397E3,3.8118499E3,2.2063486E3,1.0007438E4,6.6806514E3,1.02818955E4,3.6427437E3,8.911814E0,1.1626467E2,3.5148257E2,1.2388572E3,3.5636907E3,2.4815912E2,6.932251E2,1.5131235E3,3.1763757E3,6.8310625E3,2.315643E3,4.3650083E3,1.978002E3,8.303895E3,9.759886E2,2.6667551E3,3.4213533E0,5.49046E0,3.3989189E0,1.1286575E2,1.4858221E2,2.0290038E2,9.81274E2,2.5758322E2,2.5871777E3,9.76513E2,2.3976591E2,8.393196E0,1.2347077E2,5.6975433E2,9.4316754E2,5.69956E2,1.4098646E3,1.7665112E3,1.4308235E3,5.400239E3,1.5734703E3,7.421727E2,2.2269067E3,2.1381016E3,1.9602854E3,1.77165E1,3.9947053E3,4.309189E3,5.641174E2,4.118712E2,1.5277343E3,1.139021E3],"tree_param":{"num_deleted":"0","num_feature":"31","num_nodes":"63","size_leaf_vector":"1"}},{"base_weights":[3.315201E-4,2.1451716E-1,-5.9409097E-2,3.933665E-1,1.6122195E-1,-2.2926401E-2,-1.5121758E-1,7E-1,3.6379713E-1,2.1796767E-1,9.497629E-2,-5.7796404E-2,2.9460019E-2,-1.2413458E-1,-1.8715517E-1,-3.930919E-2,7E-1,3.88769E-1,1.9419366E-1,2.1047883E-1,6.583394E-1,8.36754E-2,2.6072675E-1,-3.819665E-2,-9.737748E-2,7.204091E-2,-7.2846245E-3,-2.1565676E-1,-1.0688793E-1,-1.7210487E-1,-2.3010783E-1,1.5829405E-2,-2.01478E-2,1.377917E-2,3.5E-2,2.5005683E-2,1.711716E-2,-3.9205137E-3,1.3087287E-2,1.4993088E-2,9.08695E-3,-2.0199737E-2,3.5E-2,4.3878257E-3,-1.6597915E-2,1.6080065E-2,-1.5512193E-2,-2.1951378E-4,-2.9653062E-3,-3.654719E-3,-7.5557865E-3,8.5963943E-4,4.8425975E-3,-1.7910994E-3,2.4745397E-3,8.4406306E-4,-1.1178396E-2,-5.6658457E-3,3.3785745E-3,-6.9952644E-3,-9.767499E-3,-8.308696E-3,-1.436087E-2],"categories":[],"categories_nodes":[],"categories_segments":[],"categories_sizes":[],"default_left":[0,0,0,0,0,0,0,0,0,0,0,0,0,0,0,0,0,0,0,0,0,0,0,0,0,0,0,0,0,0,0,0,0,0,0,0,0,0,0,0,0,0,0,0,0,0,0,0,0,0,0,0,0,0,0,0,0,0,0,0,0,0,0],"id":5,"left_children":[1,3,5,7,9,11,13,15,17,19,21,23,25,27,29,31,33,35,37,39,41,43,45,47,49,51,53,55,57,59,61,-1,-1,-1,-1,-1,-1,-1,-1,-1,-1,-1,-1,-1,-1,-1,-1,-1,-1,-1,-1,-1,-1,-1,-1,-1,-1,-1,-1,-1,-1,-1,-1],"loss_changes":[4.907938E2,7.9671814E1,1.0045012E2,2.0599854E1,2.4212372E1,3.9209846E1,8.277664E0,4.8847275E0,7.47818E0,1.1309692E1,5.552637E0,9.993435E0,1.3422066E1,7.6583176E0,2.3284454E0,1.4002204E0,5.5895233E-1,7.8598175E0,4.272423E0,8.717667E0,5.946806E0,4.757477E0,6.68569E0,6.151561E0,5.557354E0,5.4057693E0,7.463774E0,1.4214897E0,4.602566E0,2.0060349E0,3.4119492E0,0E0,0E0,0E0,0E0,0E0,0E0,0E0,0E0,0E0,0E0,0E0,0E0,0E0,0E0,0E0,0E0,0E0,0E0,0E0,0E0,0E0,0E0,0E0,0E0,0E0,0E0,0E0,0E0,0E0,0E0,0E0,0E0],"parents":[2147483647,0,0,1,1,2,2,3,3,4,4,5,5,6,6,7,7,8,8,9,9,10,10,11,11,12,12,13,13,14,14,15,15,16,16,17,17,18,18,19,19,20,20,21,21,22,22,23,23,24,24,25,25,26,26,27,27,28,28,29,29,30,30],"right_children":[2,4,6,8,10,12,14,16,18,20,22,24,26,28,30,32,34,36,38,40,42,44,46,48,50,52,54,56,58,60,62,-1,-1,-1,-1,-1,-1,-1,-1,-1,-1,-1,-1,-1,-1,-1,-1,-1,-1,-1,-1,-1,-1,-1,-1,-1,-1,-1,-1,-1,-1,-1,-1],"split_conditions":[2.39E0,1.64E0,4.8E0,1.34E0,2.05E0,1.78E0,7.5E0,2.5E-1,1.326E0,3.75E0,1.5E1,3.7E0,3.29E0,1.64E0,1.5E1,1.4E0,2E-1,1.5E0,1.371E0,1.55E0,1.66E0,2.72E0,2.4E0,1E0,2.35E0,7E0,2.07E0,3.63E-1,2.68E0,1.58E0,1.4E0,1.5829405E-2,-2.01478E-2,1.377917E-2,3.5E-2,2.5005683E-2,1.711716E-2,-3.9205137E-3,1.3087287E-2,1.4993088E-2,9.08695E-3,-2.0199737E-2,3.5E-2,4.3878257E-3,-1.6597915E-2,1.6080065E-2,-1.5512193E-2,-2.1951378E-4,-2.9653062E-3,-3.654719E-3,-7.5557865E-3,8.5963943E-4,4.8425975E-3,-1.7910994E-3,2.4745397E-3,8.4406306E-4,-1.1178396E-2,-5.6658457E-3,3.3785745E-3,-6.9952644E-3,-9.767499E-3,-8.308696E-3,-1.436087E-2],"split_indices":[24,29,24,29,24,30,24,6,14,8,20,24,24,30,24,9,5,29,14,24,29,29,7,8,29,1,30,14,30,29,29,0,0,0,0,0,0,0,0,0,0,0,0,0,0,0,0,0,0,0,0,0,0,0,0,0,0,0,0,0,0,0,0],"split_type":[0,0,0,0,0,0,0,0,0,0,0,0,0,0,0,0,0,0,0,0,0,0,0,0,0,0,0,0,0,0,0,0,0,0,0,0,0,0,0,0,0,0,0,0,0,0,0,0,0,0,0,0,0,0,0,0,0,0,0,0,0,0,0],"sum_hessian":[3.8354508E4,8.364175E3,2.9990332E4,1.9187631E3,6.445412E3,2.146275E4,8.527581E3,1.3625783E2,1.7825052E3,3.4703962E3,2.9750156E3,1.2885599E4,8.577151E3,4.8654062E3,3.6621746E3,8.833414E0,1.27424416E2,1.5526115E3,2.2989381E2,3.4138198E3,5.6576557E1,2.7865342E3,1.8848145E2,8.619406E3,4.2661924E3,3.9726062E3,4.6045454E3,7.696464E2,4.0957598E3,2.7156401E3,9.465344E2,4.529676E0,4.3037376E0,4.82332E0,1.226011E2,4.5399854E2,1.0986129E3,4.5623024E1,1.8427078E2,8.2830383E2,2.5855159E3,4.3632364E0,5.2213318E1,2.7602205E3,2.6313776E1,1.7071706E2,1.7764399E1,3.313736E3,5.3056704E3,2.940023E3,1.3261692E3,1.2378551E3,2.7347512E3,3.0645579E3,1.5399878E3,2.5285227E1,7.443612E2,3.95053E3,1.4522989E2,1.141471E3,1.5741691E3,4.4842935E2,4.9810507E2],"tree_param":{"num_deleted":"0","num_feature":"31","num_nodes":"63","size_leaf_vector":"1"}},{"base_weights":[-7.6697196E-4,2.055723E-1,-5.9408188E-2,1.4713249E-1,3.610217E-1,-2.3431625E-2,-1.5019755E-1,2.780905E-1,1.1981013E-1,7E-1,3.3656102E-1,1.9141914E-2,-7.08454E-2,-1.1543067E-1,-1.9664694E-1,3.1096944E-1,1.0630314E-1,6.679109E-2,1.6400243E-1,7E-1,9.9755906E-2,1.006801E-1,3.5514066E-1,6.1012052E-2,-1.3811186E-2,-4.815857E-2,-1.17891006E-1,-2.162423E-1,-9.7868554E-2,-2.3543318E-1,-1.7503512E-1,3.5E-2,1.4982665E-2,-7.148415E-4,1.2168091E-2,3.054316E-3,2.6872892E-2,8.599708E-3,-5.526152E-3,7.841216E-3,3.5E-2,-8.416393E-3,1.490726E-2,2.88437E-3,3.1163126E-2,1.8867424E-2,9.427317E-3,5.7300245E-3,1.3842608E-3,-1.5907759E-3,2.1867976E-3,-8.096839E-5,-2.977005E-3,-9.402024E-3,-5.1249317E-3,-9.597053E-3,-1.7607268E-2,-5.1470227E-3,1.8997313E-3,-1.1888251E-2,2.1565678E-2,-7.222549E-3,-1.0443323E-2],"categories":[],"categories_nodes":[],"categories_segments":[],"categories_sizes":[],"default_left":[0,0,0,0,0,0,0,0,0,0,0,0,0,0,0,0,0,0,0,0,0,0,0,0,0,0,0,0,0,0,0,0,0,0,0,0,0,0,0,0,0,0,0,0,0,0,0,0,0,0,0,0,0,0,0,0,0,0,0,0,0,0,0],"id":6,"left_children":[1,3,5,7,9,11,13,15,17,19,21,23,25,27,29,31,33,35,37,39,41,43,45,47,49,51,53,55,57,59,61,-1,-1,-1,-1,-1,-1,-1,-1,-1,-1,-1,-1,-1,-1,-1,-1,-1,-1,-1,-1,-1,-1,-1,-1,-1,-1,-1,-1,-1,-1,-1,-1],"loss_changes":[4.6179822E2,7.6674866E1,9.706757E1,2.1936493E1,2.1142517E1,4.2968464E1,1.3597626E1,5.949211E0,1.1896248E1,2.8308792E0,9.477463E0,1.5476394E1,1.074292E1,8.523308E0,2.9840698E0,5.6457977E0,2.8410244E0,6.1748543E0,6.0984116E0,1.5403824E0,5.4040146E-1,3.556324E0,7.3718567E0,8.819231E0,6.5052404E0,3.5996418E0,3.5177422E0,2.294384E0,2.8373833E0,2.1058502E0,2.3719482E0,0E0,0E0,0E0,0E0,0E0,0E0,0E0,0E0,0E0,0E0,0E0,0E0,0E0,0E0,0E0,0E0,0E0,0E0,0E0,0E0,0E0,0E0,0E0,0E0,0E0,0E0,0E0,0E0,0E0,0E0,0E0,0E0],"parents":[2147483647,0,0,1,1,2,2,3,3,4,4,5,5,6,6,7,7,8,8,9,9,10,10,11,11,12,12,13,13,14,14,15,15,16,16,17,17,18,18,19,19,20,20,21,21,22,22,23,23,24,24,25,25,26,26,27,27,28,28,29,29,30,30],"right_children":[2,4,6,8,10,12,14,16,18,20,22,24,26,28,30,32,34,36,38,40,42,44,46,48,50,52,54,56,58,60,62,-1,-1,-1,-1,-1,-1,-1,-1,-1,-1,-1,-1,-1,-1,-1,-1,-1,-1,-1,-1,-1,-1,-1,-1,-1,-1,-1,-1,-1,-1,-1,-1],"split_conditions":[2.39E0,2.18E0,4.8E0,1.64E0,1.34E0,2.11E0,7.5E0,1.915E0,1.8E0,1.66E0,3.1E0,3.25E0,3.7E0,1.63E0,7.5E-1,5.28E-1,1.3E0,3E0,2.75E0,1.103E0,1.2E0,3E0,1.331E0,1.84E0,2.08E0,6.2E-1,1.51E0,6.5E0,2.68E0,5.33E0,1.58E0,3.5E-2,1.4982665E-2,-7.148415E-4,1.2168091E-2,3.054316E-3,2.6872892E-2,8.599708E-3,-5.526152E-3,7.841216E-3,3.5E-2,-8.416393E-3,1.490726E-2,2.88437E-3,3.1163126E-2,1.8867424E-2,9.427317E-3,5.7300245E-3,1.3842608E-3,-1.5907759E-3,2.1867976E-3,-8.096839E-5,-2.977005E-3,-9.402024E-3,-5.1249317E-3,-9.597053E-3,-1.7607268E-2,-5.1470227E-3,1.8997313E-3,-1.1888251E-2,2.1565678E-2,-7.222549E-3,-1.0443323E-2],"split_indices":[24,30,24,24,29,29,24,18,30,24,22,24,24,30,4,15,6,3,4,15,5,3,14,29,30,15,30,24,30,9,29,0,0,0,0,0,0,0,0,0,0,0,0,0,0,0,0,0,0,0,0,0,0,0,0,0,0,0,0,0,0,0,0],"split_type":[0,0,0,0,0,0,0,0,0,0,0,0,0,0,0,0,0,0,0,0,0,0,0,0,0,0,0,0,0,0,0,0,0,0,0,0,0,0,0,0,0,0,0,0,0,0,0,0,0,0,0,0,0,0,0,0,0,0,0,0,0,0,0],"sum_hessian":[3.816317E4,8.4451045E3,2.9718068E4,6.139108E3,2.3059968E3,2.1284889E4,8.43318E3,1.0581483E3,5.0809595E3,1.3631375E2,2.169683E3,1.1215194E4,1.0069694E4,4.825116E3,3.6080635E3,8.874804E2,1.706679E2,2.3109473E3,2.770012E3,1.2809657E2,8.217182E0,1.588897E2,2.0107933E3,4.9389385E3,6.276256E3,6.794974E3,3.2747202E3,7.141831E2,4.110933E3,1.2875079E3,2.3205554E3,1.1235109E1,8.762453E2,9.126135E1,7.940654E1,2.284389E3,2.655841E1,2.692018E3,7.799395E1,5.881725E0,1.2221485E2,3.5591817E0,4.658E0,1.4783754E2,1.105216E1,1.7731581E3,2.3763528E2,1.8928538E3,3.0460845E3,4.78093E3,1.4953257E3,1.3354487E3,5.4595254E3,5.872341E2,2.687486E3,6.0789575E2,1.0628738E2,3.9632246E3,1.4770851E2,1.283662E3,3.8459864E0,1.2215352E3,1.0990204E3],"tree_param":{"num_deleted":"0","num_feature":"31","num_nodes":"63","size_leaf_vector":"1"}},{"base_weights":[-1.5997504E-3,1.9636081E-1,-5.8287084E-2,3.6671656E-1,1.4732559E-1,-2.635309E-2,-1.3921024E-1,3.3829114E-1,6.648433E-1,1.1950714E-1,2.4886653E-1,-6.1829694E-2,2.5959097E-2,-1.1031831E-1,-1.7792103E-1,3.6442974E-1,1.7922461E-1,3.8193032E-2,7E-1,5.349445E-2,1.4514562E-1,2.0982555E-1,3.5151812E-1,-8.712261E-3,-7.701732E-2,1.0421835E-1,1.3868896E-3,-2.0672412E-1,-9.265874E-2,-1.9525667E-1,-1.2759499E-1,1.6268445E-2,2.5195032E-2,1.6122637E-2,-6.3358904E-3,2.186964E-2,-2.0225385E-2,2.2149209E-2,3.5E-2,-6.965072E-3,3.44195E-3,7.857132E-3,-2.2691404E-3,7.566543E-3,1.5507318E-2,4.151096E-3,1.9606207E-2,-1.1047889E-2,-1.4935073E-4,-2.0728416E-3,-4.6161124E-3,6.8555214E-3,1.4490779E-3,-3.5689407E-4,7.7340896E-3,-1.5059707E-2,-8.379818E-3,-4.930988E-3,3.3043672E-3,-8.446547E-3,-1.3351227E-2,-3.298436E-3,-8.667217E-3],"categories":[],"categories_nodes":[],"categories_segments":[],"categories_sizes":[],"default_left":[0,0,0,0,0,0,0,0,0,0,0,0,0,0,0,0,0,0,0,0,0,0,0,0,0,0,0,0,0,0,0,0,0,0,0,0,0,0,0,0,0,0,0,0,0,0,0,0,0,0,0,0,0,0,0,0,0,0,0,0,0,0,0],"id":7,"left_children":[1,3,5,7,9,11,13,15,17,19,21,23,25,27,29,31,33,35,37,39,41,43,45,47,49,51,53,55,57,59,61,-1,-1,-1,-1,-1,-1,-1,-1,-1,-1,-1,-1,-1,-1,-1,-1,-1,-1,-1,-1,-1,-1,-1,-1,-1,-1,-1,-1,-1,-1,-1,-1],"loss_changes":[4.3004773E2,7.120868E1,7.698316E1,1.5927765E1,1.8686554E1,3.9648018E1,9.408173E0,7.178192E0,3.8079758E0,8.798035E0,5.63295E0,1.0269081E1,1.6602503E1,8.203079E0,3.1166763E0,7.982361E0,1.0901346E1,1.9933631E0,2.1462173E0,4.320092E0,8.571648E0,6.021385E0,4.2288857E0,3.4402685E0,5.3839607E0,5.1014786E0,8.588956E0,2.71035E0,3.8708344E0,5.01165E0,2.5978527E0,0E0,0E0,0E0,0E0,0E0,0E0,0E0,0E0,0E0,0E0,0E0,0E0,0E0,0E0,0E0,0E0,0E0,0E0,0E0,0E0,0E0,0E0,0E0,0E0,0E0,0E0,0E0,0E0,0E0,0E0,0E0,0E0],"parents":[2147483647,0,0,1,1,2,2,3,3,4,4,5,5,6,6,7,7,8,8,9,9,10,10,11,11,12,12,13,13,14,14,15,15,16,16,17,17,18,18,19,19,20,20,21,21,22,22,23,23,24,24,25,25,26,26,27,27,28,28,29,29,30,30],"right_children":[2,4,6,8,10,12,14,16,18,20,22,24,26,28,30,32,34,36,38,40,42,44,46,48,50,52,54,56,58,60,62,-1,-1,-1,-1,-1,-1,-1,-1,-1,-1,-1,-1,-1,-1,-1,-1,-1,-1,-1,-1,-1,-1,-1,-1,-1,-1,-1,-1,-1,-1,-1,-1],"split_conditions":[2.39E0,1.55E0,4.8E0,3.15E0,2.11E0,1.78E0,7.5E0,1E1,2.5E-1,1.7E0,2.4E0,2.88E0,2.87E0,1.64E0,2.75E0,1.6E0,1.45E0,2.25E0,5E0,8.16E-1,1.815E0,1E-1,1E0,3.3E-1,6E0,1.8E0,2.11E0,1.84E0,2.53E0,6E0,7.5E0,1.6268445E-2,2.5195032E-2,1.6122637E-2,-6.3358904E-3,2.186964E-2,-2.0225385E-2,2.2149209E-2,3.5E-2,-6.965072E-3,3.44195E-3,7.857132E-3,-2.2691404E-3,7.566543E-3,1.5507318E-2,4.151096E-3,1.9606207E-2,-1.1047889E-2,-1.4935073E-4,-2.0728416E-3,-4.6161124E-3,6.8555214E-3,1.4490779E-3,-3.5689407E-4,7.7340896E-3,-1.5059707E-2,-8.379818E-3,-4.930988E-3,3.3043672E-3,-8.446547E-3,-1.3351227E-2,-3.298436E-3,-8.667217E-3],"split_indices":[24,24,24,30,30,30,24,0,6,30,30,24,24,30,30,6,24,7,21,18,16,13,2,5,1,3,27,28,19,23,23,0,0,0,0,0,0,0,0,0,0,0,0,0,0,0,0,0,0,0,0,0,0,0,0,0,0,0,0,0,0,0,0],"split_type":[0,0,0,0,0,0,0,0,0,0,0,0,0,0,0,0,0,0,0,0,0,0,0,0,0,0,0,0,0,0,0,0,0,0,0,0,0,0,0,0,0,0,0,0,0,0,0,0,0,0,0,0,0,0,0,0,0,0,0,0,0,0,0],"sum_hessian":[3.8320312E4,8.529961E3,2.9790352E4,1.90505E3,6.624911E3,2.1361842E4,8.42851E3,1.7411698E3,1.638802E2,5.2019473E3,1.422964E3,1.2729133E4,8.632709E3,4.8285522E3,3.5999578E3,1.4943241E3,2.468457E2,9.27825E0,1.5460194E2,1.4560552E3,3.745892E3,1.033096E3,3.898681E2,2.8306724E3,9.89846E3,2.0620642E3,6.570645E3,7.4589746E2,4.0826545E3,2.6754683E3,9.244893E2,1.1699857E3,3.243385E2,1.6809665E2,7.8749054E1,4.885133E0,4.393117E0,3.8908264E1,1.1569369E2,1.06747894E2,1.3493073E3,3.5241616E3,2.2173056E2,6.5417206E2,3.7892383E2,5.161595E1,3.3825217E2,7.336334E1,2.7573088E3,2.9794695E3,6.9189907E3,1.434226E3,6.278383E2,6.2254023E3,3.4524286E2,2.164949E2,5.294025E2,3.9352617E3,1.4739282E2,1.9598973E3,7.1557104E2,3.9493594E2,5.2955334E2],"tree_param":{"num_deleted":"0","num_feature":"31","num_nodes":"63","size_leaf_vector":"1"}},{"base_weights":[1.750902E-4,2.160453E-1,-5.2214045E-2,1.2943098E-1,3.0202132E-1,-7.312811E-3,-1.21863894E-1,1.8295658E-1,7.728912E-2,7E-1,2.8499535E-1,3.1075072E-2,-5.49674E-2,-8.879455E-2,-1.7032912E-1,1.5586673E-1,4.0566042E-1,1.7218244E-1,3.795618E-2,-6.28925E-4,7E-1,3.4360847E-1,2.4282214E-1,7.553754E-2,5.5882214E-3,-6.5425456E-2,6.924482E-3,-5.310241E-2,-1.2037864E-1,-2.0463583E-1,-1.5385279E-1,6.730299E-3,2.000081E-2,3.450225E-2,1.2965421E-2,-2.2768655E-3,9.990018E-3,-1.2932786E-3,4.8942454E-3,2.0261826E-3,3.5E-2,8.344202E-3,1.8851487E-2,3.3371534E-2,1.1885585E-2,3.4619651E-3,1.4182627E-2,3.0110541E-3,-1.2744374E-3,-3.6875226E-3,9.0265414E-4,-8.2412874E-4,6.8967105E-3,-3.1594017E-3,5.021333E-3,-4.2815665E-3,-7.6785707E-3,-9.7617E-3,-1.7913744E-2,-6.802087E-3,-9.922493E-3],"categories":[],"categories_nodes":[],"categories_segments":[],"categories_sizes":[],"default_left":[0,0,0,0,0,0,0,0,0,0,0,0,0,0,0,0,0,0,0,0,0,0,0,0,0,0,0,0,0,0,0,0,0,0,0,0,0,0,0,0,0,0,0,0,0,0,0,0,0,0,0,0,0,0,0,0,0,0,0,0,0],"id":8,"left_children":[1,3,5,7,9,11,13,15,17,19,21,23,25,27,29,31,33,35,37,-1,39,41,43,45,47,49,51,53,55,57,59,-1,-1,-1,-1,-1,-1,-1,-1,-1,-1,-1,-1,-1,-1,-1,-1,-1,-1,-1,-1,-1,-1,-1,-1,-1,-1,-1,-1,-1,-1],"loss_changes":[4.3348743E2,5.5704712E1,9.646174E1,1.0398037E1,2.7027405E1,3.4312046E1,1.9362137E1,1.10387535E1,7.053444E0,3.1782608E0,8.849548E0,1.17716875E1,5.416851E0,8.097492E0,2.7397156E0,8.470806E0,8.101173E0,3.3402805E0,5.1220593E0,0E0,1.531517E0,8.854294E0,4.4091644E0,4.941601E0,1.1214443E1,4.9762554E0,3.7143228E0,5.234906E0,4.3846817E0,2.2233124E0,2.606964E0,0E0,0E0,0E0,0E0,0E0,0E0,0E0,0E0,0E0,0E0,0E0,0E0,0E0,0E0,0E0,0E0,0E0,0E0,0E0,0E0,0E0,0E0,0E0,0E0,0E0,0E0,0E0,0E0,0E0,0E0],"parents":[2147483647,0,0,1,1,2,2,3,3,4,4,5,5,6,6,7,7,8,8,9,9,10,10,11,11,12,12,13,13,14,14,15,15,16,16,17,17,18,18,20,20,21,21,22,22,23,23,24,24,25,25,26,26,27,27,28,28,29,29,30,30],"right_children":[2,4,6,8,10,12,14,16,18,20,22,24,26,28,30,32,34,36,38,-1,40,42,44,46,48,50,52,54,56,58,60,-1,-1,-1,-1,-1,-1,-1,-1,-1,-1,-1,-1,-1,-1,-1,-1,-1,-1,-1,-1,-1,-1,-1,-1,-1,-1,-1,-1,-1,-1],"split_conditions":[2.29E0,3.7E0,4.2E0,2E0,1.34E0,2.14E0,6.25E0,1.4E1,8E0,1.149E0,1.624E0,1.84E0,1E1,2E0,8E-1,1.331E0,1.74E0,1.85E0,1.93E0,-6.28925E-4,4.09E0,1.011E0,1.22E0,2.15E0,2.89E0,2.5E-1,2E-1,1.5E1,7E0,5.59E-1,1.78E0,6.730299E-3,2.000081E-2,3.450225E-2,1.2965421E-2,-2.2768655E-3,9.990018E-3,-1.2932786E-3,4.8942454E-3,2.0261826E-3,3.5E-2,8.344202E-3,1.8851487E-2,3.3371534E-2,1.1885585E-2,3.4619651E-3,1.4182627E-2,3.0110541E-3,-1.2744374E-3,-3.6875226E-3,9.0265414E-4,-8.2412874E-4,6.8967105E-3,-3.1594017E-3,5.021333E-3,-4.2815665E-3,-7.6785707E-3,-9.7617E-3,-1.7913744E-2,-6.802087E-3,-9.922493E-3],"split_indices":[24,23,24,29,29,29,24,21,1,15,29,29,20,29,4,17,29,24,28,0,23,15,24,27,24,26,12,21,1,16,29,0,0,0,0,0,0,0,0,0,0,0,0,0,0,0,0,0,0,0,0,0,0,0,0,0,0,0,0,0,0],"split_type":[0,0,0,0,0,0,0,0,0,0,0,0,0,0,0,0,0,0,0,0,0,0,0,0,0,0,0,0,0,0,0,0,0,0,0,0,0,0,0,0,0,0,0,0,0,0,0,0,0,0,0,0,0,0,0,0,0,0,0,0,0],"sum_hessian":[3.8328336E4,7.4846406E3,3.0843695E4,3.729728E3,3.7549124E3,1.875439E4,1.2089306E4,1.8392053E3,1.8905228E3,1.420863E2,3.6128262E3,1.0387305E4,8.367086E3,7.1877275E3,4.9015786E3,1.6412611E3,1.9794423E2,5.529989E2,1.3375239E3,6.224248E0,1.3586205E2,1.5087667E3,2.1040593E3,3.7840203E3,6.603284E3,7.15759E3,1.209496E3,3.3756726E3,3.8120547E3,1.5865917E3,3.3149868E3,1.5112145E3,1.3004662E2,6.599355E1,1.3195068E2,6.2178608E1,4.9082028E2,6.479989E2,6.895251E2,3.6481915E0,1.3221387E2,2.4090504E2,1.2678617E3,2.3481266E1,2.0805781E3,3.6741611E3,1.0985925E2,2.3939019E3,4.2093823E3,6.5086255E3,6.489643E2,1.0268978E3,1.8259811E2,3.16814E3,2.075328E2,1.8641641E3,1.9478906E3,1.49724E3,8.935172E1,2.3717966E3,9.4319025E2],"tree_param":{"num_deleted":"0","num_feature":"31","num_nodes":"61","size_leaf_vector":"1"}},{"base_weights":[-3.4687083E-4,1.8375432E-1,-5.4559305E-2,3.3295828E-1,1.3937816E-1,-2.8394347E-3,-1.089144E-1,6.594373E-1,3.0675632E-1,7.137234E-2,1.864407E-1,-4.066303E-2,5.591742E-2,-7.8533106E-2,-1.5690795E-1,-1.2095935E-1,7E-1,2.9725623E-1,6.4709413E-1,6.6990174E-2,5.321564E-1,3.041725E-1,1.7119151E-1,-6.0184363E-2,-1.0587818E-2,4.9448285E-2,2.744489E-1,-1.5451552E-1,-5.890075E-2,-3.001103E-1,-1.5237667E-1,1.12166405E-2,-2.0280538E-2,2.4596784E-2,3.5E-2,1.3240791E-2,1.94936E-2,3.5E-2,1.1360815E-2,-1.0966736E-2,3.6282693E-3,3.476637E-2,-1.0881553E-2,7.363806E-3,1.8186238E-2,7.959384E-3,1.6554475E-2,-1.5744452E-3,-4.0268674E-3,-5.188124E-3,1.1537565E-4,4.8497426E-3,1.3176169E-3,2.2471549E-2,7.967524E-3,1.131589E-2,-8.068669E-3,-2.8235319E-3,-1.4705355E-2,1.9959686E-3,-1.7333357E-2,-3.6801074E-3,-8.0487495E-3],"categories":[],"categories_nodes":[],"categories_segments":[],"categories_sizes":[],"default_left":[0,0,0,0,0,0,0,0,0,0,0,0,0,0,0,0,0,0,0,0,0,0,0,0,0,0,0,0,0,0,0,0,0,0,0,0,0,0,0,0,0,0,0,0,0,0,0,0,0,0,0,0,0,0,0,0,0,0,0,0,0,0,0],"id":9,"left_children":[1,3,5,7,9,11,13,15,17,19,21,23,25,27,29,31,33,35,37,39,41,43,45,47,49,51,53,55,57,59,61,-1,-1,-1,-1,-1,-1,-1,-1,-1,-1,-1,-1,-1,-1,-1,-1,-1,-1,-1,-1,-1,-1,-1,-1,-1,-1,-1,-1,-1,-1,-1,-1],"loss_changes":[3.823176E2,5.7650024E1,8.319028E1,1.6879791E1,2.1488297E1,3.370418E1,2.102591E1,5.5411606E0,5.79039E0,5.515856E0,7.075012E0,5.4162254E0,8.382925E0,1.3173782E1,3.582901E0,1.0059233E0,2.334526E0,5.310837E0,4.4662037E0,4.3651905E0,3.302442E0,4.1878395E0,6.6975937E0,3.2649326E0,4.3650274E0,6.333438E0,3.3632002E0,4.774006E0,3.9984207E0,2.712781E0,3.661003E0,0E0,0E0,0E0,0E0,0E0,0E0,0E0,0E0,0E0,0E0,0E0,0E0,0E0,0E0,0E0,0E0,0E0,0E0,0E0,0E0,0E0,0E0,0E0,0E0,0E0,0E0,0E0,0E0,0E0,0E0,0E0,0E0],"parents":[2147483647,0,0,1,1,2,2,3,3,4,4,5,5,6,6,7,7,8,8,9,9,10,10,11,11,12,12,13,13,14,14,15,15,16,16,17,17,18,18,19,19,20,20,21,21,22,22,23,23,24,24,25,25,26,26,27,27,28,28,29,29,30,30],"right_children":[2,4,6,8,10,12,14,16,18,20,22,24,26,28,30,32,34,36,38,40,42,44,46,48,50,52,54,56,58,60,62,-1,-1,-1,-1,-1,-1,-1,-1,-1,-1,-1,-1,-1,-1,-1,-1,-1,-1,-1,-1,-1,-1,-1,-1,-1,-1,-1,-1,-1,-1,-1,-1],"split_conditions":[2.39E0,1.55E0,3.8E0,1.34E0,1.83E0,1.79E0,6E0,2.5E-1,2.072E0,3.5E0,1.57E0,1.65E0,2.15E0,1.6E0,1.59E0,2.25E0,1.21E0,1.7E-1,2.35E0,1.68E0,1.3E0,1.5E0,1.5E1,1E0,6E-1,2.87E0,1.472E0,2.48E-1,3.83E0,8.16E-1,7.76E-1,1.12166405E-2,-2.0280538E-2,2.4596784E-2,3.5E-2,1.3240791E-2,1.94936E-2,3.5E-2,1.1360815E-2,-1.0966736E-2,3.6282693E-3,3.476637E-2,-1.0881553E-2,7.363806E-3,1.8186238E-2,7.959384E-3,1.6554475E-2,-1.5744452E-3,-4.0268674E-3,-5.188124E-3,1.1537565E-4,4.8497426E-3,1.3176169E-3,2.2471549E-2,7.967524E-3,1.131589E-2,-8.068669E-3,-2.8235319E-3,-1.4705355E-2,1.9959686E-3,-1.7333357E-2,-3.6801074E-3,-8.0487495E-3],"split_indices":[24,24,24,29,30,30,24,6,16,8,29,30,27,30,30,7,16,13,16,28,7,10,20,8,9,24,19,17,10,19,14,0,0,0,0,0,0,0,0,0,0,0,0,0,0,0,0,0,0,0,0,0,0,0,0,0,0,0,0,0,0,0,0],"split_type":[0,0,0,0,0,0,0,0,0,0,0,0,0,0,0,0,0,0,0,0,0,0,0,0,0,0,0,0,0,0,0,0,0,0,0,0,0,0,0,0,0,0,0,0,0,0,0,0,0,0,0,0,0,0,0,0,0,0,0,0,0,0,0],"sum_hessian":[3.8304168E4,8.713025E3,2.9591143E4,1.9958771E3,6.717148E3,1.5163677E4,1.4427466E4,1.464855E2,1.8493916E3,2.7483188E3,3.968829E3,9.225346E3,5.938331E3,8.836405E3,5.591061E3,8.308689E0,1.3817682E2,1.8009927E3,4.8398968E1,2.7235625E3,2.4756306E1,4.5294073E2,3.5158884E3,5.593618E3,3.6317278E3,5.768785E3,1.6954572E2,1.8129473E3,7.0234575E3,1.6948776E2,5.421573E3,3.8501837E0,4.458505E0,6.424554E1,7.393128E1,1.336661E3,4.6433157E2,2.6607384E1,2.1791584E1,5.1286938E1,2.6722754E3,2.0391321E1,4.3649845E0,1.2557473E2,3.2736603E2,3.2722312E3,2.4365718E2,2.322167E3,3.2714512E3,4.4066626E2,3.1910615E3,1.8850074E3,3.8837778E3,6.611997E1,1.0342575E2,3.1503092E1,1.7814442E3,6.952862E3,7.059578E1,2.0428677E1,1.490591E2,5.3447424E2,4.887099E3],"tree_param":{"num_deleted":"0","num_feature":"31","num_nodes":"63","size_leaf_vector":"1"}},{"base_weights":[1.1894213E-3,1.855818E-1,-5.4509815E-2,1.457512E-1,3.7240064E-1,-2.1984527E-2,-1.3831781E-1,1.10727824E-1,2.1595329E-1,6.0412645E-1,3.4627303E-1,1.1679153E-2,-6.38717E-2,-1.1084815E-1,-1.8548964E-1,1.2083026E-1,-5.8909215E-2,7E-1,2.1160847E-1,2.204253E-2,6.419538E-1,7E-1,3.3468297E-1,6.2211517E-2,-4.8377626E-3,-1.0040881E-1,-4.6242017E-2,-1.9835457E-1,-9.5771074E-2,-1.2847845E-1,-2.009559E-1,5.446605E-3,1.0731552E-2,-4.341751E-3,2.9395869E-2,3.5E-2,8.310318E-3,8.21717E-3,1.3363396E-2,1.928934E-2,-2.02047E-2,7.4972967E-3,3.3655606E-2,3.5E-2,3.723943E-3,1.5884003E-2,3.0604614E-2,2.3124109E-3,1.2066845E-2,-1.0805082E-3,2.3968432E-3,-4.6305233E-3,-1.2614003E-2,-3.5517828E-3,-7.385304E-4,1.8482713E-2,-1.0186237E-2,-4.068461E-3,-8.229108E-3,2.4622118E-2,-6.8304264E-3,-1.3824306E-2,-8.912401E-3],"categories":[],"categories_nodes":[],"categories_segments":[],"categories_sizes":[],"default_left":[0,0,0,0,0,0,0,0,0,0,0,0,0,0,0,0,0,0,0,0,0,0,0,0,0,0,0,0,0,0,0,0,0,0,0,0,0,0,0,0,0,0,0,0,0,0,0,0,0,0,0,0,0,0,0,0,0,0,0,0,0,0,0],"id":10,"left_children":[1,3,5,7,9,11,13,15,17,19,21,23,25,27,29,31,33,35,37,39,41,43,45,47,49,51,53,55,57,59,61,-1,-1,-1,-1,-1,-1,-1,-1,-1,-1,-1,-1,-1,-1,-1,-1,-1,-1,-1,-1,-1,-1,-1,-1,-1,-1,-1,-1,-1,-1,-1,-1],"loss_changes":[3.9311752E2,6.602118E1,8.012842E1,1.7976181E1,9.234863E0,2.9864529E1,1.0629227E1,8.380955E0,5.9552383E0,3.4364815E0,6.6000214E0,9.801377E0,6.0740547E0,6.837002E0,2.6398544E0,5.123825E0,5.024017E0,1.4430914E0,6.321274E0,1.7986842E0,2.1543655E0,3.276102E0,6.2655945E0,8.26065E0,7.835632E0,3.6132774E0,4.9673405E0,2.4021397E0,4.381439E0,3.3379555E0,4.0263367E0,0E0,0E0,0E0,0E0,0E0,0E0,0E0,0E0,0E0,0E0,0E0,0E0,0E0,0E0,0E0,0E0,0E0,0E0,0E0,0E0,0E0,0E0,0E0,0E0,0E0,0E0,0E0,0E0,0E0,0E0,0E0,0E0],"parents":[2147483647,0,0,1,1,2,2,3,3,4,4,5,5,6,6,7,7,8,8,9,9,10,10,11,11,12,12,13,13,14,14,15,15,16,16,17,17,18,18,19,19,20,20,21,21,22,22,23,23,24,24,25,25,26,26,27,27,28,28,29,29,30,30],"right_children":[2,4,6,8,10,12,14,16,18,20,22,24,26,28,30,32,34,36,38,40,42,44,46,48,50,52,54,56,58,60,62,-1,-1,-1,-1,-1,-1,-1,-1,-1,-1,-1,-1,-1,-1,-1,-1,-1,-1,-1,-1,-1,-1,-1,-1,-1,-1,-1,-1,-1,-1,-1,-1],"split_conditions":[2.39E0,4.4E0,5E0,3.7E0,1.34E0,2.14E0,8E0,2.45E0,2E0,2.5E-1,1.17E0,2.88E0,1.33E0,1.64E0,1.4E0,2.11E0,2.503E0,1.169E0,1.506E0,2.25E0,1.75E0,1E1,3.67E0,1.2E1,2.07E0,2.33E0,2.38E0,4.47E-1,1.6E0,5.1E0,1.22E0,5.446605E-3,1.0731552E-2,-4.341751E-3,2.9395869E-2,3.5E-2,8.310318E-3,8.21717E-3,1.3363396E-2,1.928934E-2,-2.02047E-2,7.4972967E-3,3.3655606E-2,3.5E-2,3.723943E-3,1.5884003E-2,3.0604614E-2,2.3124109E-3,1.2066845E-2,-1.0805082E-3,2.3968432E-3,-4.6305233E-3,-1.2614003E-2,-3.5517828E-3,-7.385304E-4,1.8482713E-2,-1.0186237E-2,-4.068461E-3,-8.229108E-3,2.4622118E-2,-6.8304264E-3,-1.3824306E-2,-8.912401E-3],"split_indices":[24,23,24,23,29,29,24,29,1,6,3,24,11,30,29,30,18,19,18,7,3,22,8,0,30,7,22,19,7,23,22,0,0,0,0,0,0,0,0,0,0,0,0,0,0,0,0,0,0,0,0,0,0,0,0,0,0,0,0,0,0,0,0],"split_type":[0,0,0,0,0,0,0,0,0,0,0,0,0,0,0,0,0,0,0,0,0,0,0,0,0,0,0,0,0,0,0,0,0,0,0,0,0,0,0,0,0,0,0,0,0,0,0,0,0,0,0,0,0,0,0,0,0,0,0,0,0,0,0],"sum_hessian":[3.827434E4,8.878784E3,2.9395555E4,7.319924E3,1.5588602E3,2.1177846E4,8.21771E3,4.885271E3,2.4346528E3,1.5571367E2,1.4031465E3,1.17418955E4,9.435949E3,5.1955347E3,3.0221748E3,4.610961E3,2.7430994E2,1.6122051E1,2.4185308E3,9.598323E0,1.4611536E2,3.45567E1,1.3685898E3,2.8918164E3,8.850079E3,3.0695925E3,6.366357E3,7.618207E2,4.4337144E3,6.4690045E2,2.3752744E3,4.0938394E3,5.1712164E2,2.6378708E2,1.0522871E1,1.033774E1,5.784312E0,1.3100288E3,1.1085018E3,5.229328E0,4.368995E0,9.04837E0,1.3706699E2,2.5931538E1,8.625162E0,1.291572E3,7.70178E1,2.6563462E3,2.3547017E2,6.7161865E3,2.133893E3,2.9212031E3,1.4838928E2,3.5602686E3,2.8060886E3,6.499756E0,7.553209E2,3.6681655E3,7.655487E2,7.590847E0,6.393096E2,5.4646497E2,1.8288094E3],"tree_param":{"num_deleted":"0","num_feature":"31","num_nodes":"63","size_leaf_vector":"1"}},{"base_weights":[2.4864732E-3,1.6883174E-1,-5.169055E-2,9.976545E-2,2.6236328E-1,-1.8128691E-2,-1.3686539E-1,1.5923046E-1,6.815302E-2,4.3159118E-1,2.3594639E-1,1.5989553E-2,-5.6450248E-2,-2.0741023E-1,-1.2407094E-1,1.3817582E-1,3.2792854E-1,-2.2291566E-1,7.32016E-2,-1.699561E-1,4.5022252E-1,2.8525025E-1,1.9427724E-1,7.778426E-2,-2.9932645E-3,-9.4090104E-2,-3.314764E-2,-1.3244294E-1,-2.602862E-1,-1.0101527E-1,-1.6210435E-1,3.5E-2,6.737716E-3,2.6997909E-2,4.854131E-3,-1.3006893E-2,1.6811665E-2,3.8454828E-3,-1.3449706E-2,-1.5399488E-2,1.3256261E-2,2.0448007E-2,3.2298505E-2,3.5E-2,1.39661655E-2,2.3201963E-2,9.181996E-3,2.979589E-3,1.4564869E-2,3.8130977E-3,-6.395745E-4,-3.5053517E-3,-6.7151114E-3,2.1735292E-3,-2.3627847E-3,-1.0230399E-2,-2.0383948E-3,-1.2466489E-2,-2.4084704E-2,-4.3230774E-3,-7.679362E-3,-1.424444E-2,-7.4538174E-3],"categories":[],"categories_nodes":[],"categories_segments":[],"categories_sizes":[],"default_left":[0,0,0,0,0,0,0,0,0,0,0,0,0,0,0,0,0,0,0,0,0,0,0,0,0,0,0,0,0,0,0,0,0,0,0,0,0,0,0,0,0,0,0,0,0,0,0,0,0,0,0,0,0,0,0,0,0,0,0,0,0,0,0],"id":11,"left_children":[1,3,5,7,9,11,13,15,17,19,21,23,25,27,29,31,33,35,37,39,41,43,45,47,49,51,53,55,57,59,61,-1,-1,-1,-1,-1,-1,-1,-1,-1,-1,-1,-1,-1,-1,-1,-1,-1,-1,-1,-1,-1,-1,-1,-1,-1,-1,-1,-1,-1,-1,-1,-1],"loss_changes":[3.4363773E2,6.048871E1,8.222011E1,1.01219635E1,1.7684021E1,2.6979183E1,7.31221E0,6.5973663E0,5.190506E0,6.08374E0,7.019165E0,1.2805635E1,8.521135E0,4.9071503E0,6.0203705E0,3.749586E0,1.0068884E1,1.3420429E0,4.413313E0,1.0922885E0,3.9371948E0,4.1927643E0,5.279106E0,9.947571E0,6.4868336E0,3.5739136E0,6.4920206E0,3.4162626E0,1.6507416E0,3.2681122E0,4.1110687E0,0E0,0E0,0E0,0E0,0E0,0E0,0E0,0E0,0E0,0E0,0E0,0E0,0E0,0E0,0E0,0E0,0E0,0E0,0E0,0E0,0E0,0E0,0E0,0E0,0E0,0E0,0E0,0E0,0E0,0E0,0E0,0E0],"parents":[2147483647,0,0,1,1,2,2,3,3,4,4,5,5,6,6,7,7,8,8,9,9,10,10,11,11,12,12,13,13,14,14,15,15,16,16,17,17,18,18,19,19,20,20,21,21,22,22,23,23,24,24,25,25,26,26,27,27,28,28,29,29,30,30],"right_children":[2,4,6,8,10,12,14,16,18,20,22,24,26,28,30,32,34,36,38,40,42,44,46,48,50,52,54,56,58,60,62,-1,-1,-1,-1,-1,-1,-1,-1,-1,-1,-1,-1,-1,-1,-1,-1,-1,-1,-1,-1,-1,-1,-1,-1,-1,-1,-1,-1,-1,-1,-1,-1],"split_conditions":[2.45E0,3.7E0,4.8E0,1.9E0,1.45E0,2.11E0,1.25E0,1.4E1,1.69E0,9.09E-1,1.55E0,2.88E0,2.2E0,1.38E0,1.93E0,3E0,8.67E-1,2.4E1,2.73E0,2.4E0,2.67E0,5.36E-1,4.53E-1,1.2E1,1.8E0,2.35E0,5E0,1.14E0,2.429E0,1.4E0,1.45E0,3.5E-2,6.737716E-3,2.6997909E-2,4.854131E-3,-1.3006893E-2,1.6811665E-2,3.8454828E-3,-1.3449706E-2,-1.5399488E-2,1.3256261E-2,2.0448007E-2,3.2298505E-2,3.5E-2,1.39661655E-2,2.3201963E-2,9.181996E-3,2.979589E-3,1.4564869E-2,3.8130977E-3,-6.395745E-4,-3.5053517E-3,-6.7151114E-3,2.1735292E-3,-2.3627847E-3,-1.0230399E-2,-2.0383948E-3,-1.2466489E-2,-2.4084704E-2,-4.3230774E-3,-7.679362E-3,-1.424444E-2,-7.4538174E-3],"split_indices":[24,23,24,29,29,29,22,21,28,15,24,24,22,29,29,21,17,21,29,7,10,15,16,0,28,29,1,22,19,7,22,0,0,0,0,0,0,0,0,0,0,0,0,0,0,0,0,0,0,0,0,0,0,0,0,0,0,0,0,0,0,0,0],"split_type":[0,0,0,0,0,0,0,0,0,0,0,0,0,0,0,0,0,0,0,0,0,0,0,0,0,0,0,0,0,0,0,0,0,0,0,0,0,0,0,0,0,0,0,0,0,0,0,0,0,0,0,0,0,0,0,0,0,0,0,0,0,0,0],"sum_hessian":[3.8128777E4,9.366805E3,2.8761975E4,5.3892783E3,3.977526E3,2.0633047E4,8.128927E3,1.8691847E3,3.5200938E3,5.349935E2,3.4425325E3,1.0915447E4,9.7176E3,1.2456378E3,6.883289E3,1.6634003E3,2.0578438E2,5.927919E1,3.4608145E3,1.5828211E1,5.191653E2,1.5741351E3,1.8683973E3,2.5644155E3,8.351032E3,3.7145637E3,6.003036E3,5.166453E2,7.2899255E2,4.287739E3,2.5955503E3,6.819266E0,1.656581E3,1.0656576E2,9.921863E1,5.6080696E1,3.1984959E0,3.424482E3,3.633266E1,1.2237772E1,3.5904384E0,4.3133234E2,8.783296E1,1.7610687E1,1.5565244E3,6.926323E1,1.799134E3,2.3642478E3,2.0016776E2,9.180872E2,7.432945E3,2.3285361E3,1.3860275E3,9.3315625E2,5.06988E3,2.8839435E2,2.2825098E2,6.966451E2,3.2347485E1,3.360172E3,9.275667E2,2.469804E2,2.3485698E3],"tree_param":{"num_deleted":"0","num_feature":"31","num_nodes":"63","size_leaf_vector":"1"}},{"base_weights":[3.7302912E-4,1.7910163E-1,-4.9792122E-2,1.4489046E-1,3.2310548E-1,-3.2123947E-3,-1.0709053E-1,1.1308677E-1,2.0294932E-1,5.751426E-1,2.962042E-1,-6.2118668E-2,2.9851366E-2,-7.688208E-2,-1.5080364E-1,1.4014956E-1,4.588293E-2,1.4762798E-1,2.570243E-1,3.969768E-1,7E-1,2.2945398E-1,3.46545E-1,-7.0371605E-2,7.2523993E-3,9.101672E-3,7.656934E-2,-1.2201788E-1,-5.2941076E-2,-2.0802066E-1,-1.3741823E-1,6.2194685E-3,1.324826E-2,-5.9685855E-5,6.9773532E-3,8.466967E-3,-5.610866E-3,1.0980981E-2,1.6834816E-2,3.5E-2,1.4115919E-2,3.161804E-3,3.5E-2,9.968097E-3,2.2348745E-2,1.6407313E-2,3.5E-2,-3.946313E-3,1.1113064E-4,-4.5317944E-4,2.0217607E-2,2.6007167E-3,-8.8543183E-4,4.6268823E-3,-3.2526471E-3,-7.9625165E-3,-4.601914E-3,-2.7647705E-3,1.6277371E-2,-1.4513153E-2,-7.8622755E-3,-3.7855895E-3,-7.7542984E-3],"categories":[],"categories_nodes":[],"categories_segments":[],"categories_sizes":[],"default_left":[0,0,0,0,0,0,0,0,0,0,0,0,0,0,0,0,0,0,0,0,0,0,0,0,0,0,0,0,0,0,0,0,0,0,0,0,0,0,0,0,0,0,0,0,0,0,0,0,0,0,0,0,0,0,0,0,0,0,0,0,0,0,0],"id":12,"left_children":[1,3,5,7,9,11,13,15,17,19,21,23,25,27,29,31,33,35,37,39,41,43,45,47,49,51,53,55,57,59,61,-1,-1,-1,-1,-1,-1,-1,-1,-1,-1,-1,-1,-1,-1,-1,-1,-1,-1,-1,-1,-1,-1,-1,-1,-1,-1,-1,-1,-1,-1,-1,-1],"loss_changes":[3.4374738E2,4.1348724E1,7.989892E1,1.2517212E1,1.0760468E1,3.216531E1,1.7714615E1,7.977867E0,7.148567E0,4.038681E0,4.822342E0,3.39962E0,1.0253163E1,8.573601E0,4.171982E0,6.1226387E0,5.564022E0,6.731474E0,3.5423737E0,3.2122364E0,2.7667923E0,4.035469E0,5.2605743E0,3.295311E0,4.0993547E0,8.429118E0,7.362667E0,3.0562325E0,4.642724E0,4.288418E0,4.8372955E0,0E0,0E0,0E0,0E0,0E0,0E0,0E0,0E0,0E0,0E0,0E0,0E0,0E0,0E0,0E0,0E0,0E0,0E0,0E0,0E0,0E0,0E0,0E0,0E0,0E0,0E0,0E0,0E0,0E0,0E0,0E0,0E0],"parents":[2147483647,0,0,1,1,2,2,3,3,4,4,5,5,6,6,7,7,8,8,9,9,10,10,11,11,12,12,13,13,14,14,15,15,16,16,17,17,18,18,19,19,20,20,21,21,22,22,23,23,24,24,25,25,26,26,27,27,28,28,29,29,30,30],"right_children":[2,4,6,8,10,12,14,16,18,20,22,24,26,28,30,32,34,36,38,40,42,44,46,48,50,52,54,56,58,60,62,-1,-1,-1,-1,-1,-1,-1,-1,-1,-1,-1,-1,-1,-1,-1,-1,-1,-1,-1,-1,-1,-1,-1,-1,-1,-1,-1,-1,-1,-1,-1,-1],"split_conditions":[2.35E0,4.4E0,3.9E0,3.7E0,1.34E0,1.65E0,6E0,2.13E0,1.472E0,1.225E0,1.011E0,2.95E0,1.98E0,1.67E0,1.22E0,1.4E1,1.33E0,1.351E0,1.045E0,1.86E0,1.2E0,2.76E0,2.75E0,3.3E-1,2.363E0,2.9E0,2.83E0,7.5E-1,4E0,2.7E0,1.54E0,6.2194685E-3,1.324826E-2,-5.9685855E-5,6.9773532E-3,8.466967E-3,-5.610866E-3,1.0980981E-2,1.6834816E-2,3.5E-2,1.4115919E-2,3.161804E-3,3.5E-2,9.968097E-3,2.2348745E-2,1.6407313E-2,3.5E-2,-3.946313E-3,1.1113064E-4,-4.5317944E-4,2.0217607E-2,2.6007167E-3,-8.8543183E-4,4.6268823E-3,-3.2526471E-3,-7.9625165E-3,-4.601914E-3,-2.7647705E-3,1.6277371E-2,-1.4513153E-2,-7.8622755E-3,-3.7855895E-3,-7.7542984E-3],"split_indices":[24,23,24,23,29,30,24,29,18,16,16,22,30,30,22,21,9,14,14,28,8,30,11,13,19,24,10,7,11,30,29,0,0,0,0,0,0,0,0,0,0,0,0,0,0,0,0,0,0,0,0,0,0,0,0,0,0,0,0,0,0,0,0],"split_type":[0,0,0,0,0,0,0,0,0,0,0,0,0,0,0,0,0,0,0,0,0,0,0,0,0,0,0,0,0,0,0,0,0,0,0,0,0,0,0,0,0,0,0,0,0,0,0,0,0,0,0,0,0,0,0,0,0,0,0,0,0,0,0],"sum_hessian":[3.833722E4,8.401555E3,2.9935662E4,6.7903657E3,1.6111891E3,1.6512871E4,1.3422791E4,4.389059E3,2.4013064E3,1.5342033E2,1.4577688E3,5.9361567E3,1.0576714E4,7.939126E3,5.483665E3,3.1282405E3,1.2608187E3,1.188818E3,1.2124885E3,7.453654E1,7.88838E1,6.2912646E2,8.286423E2,5.3050156E3,6.3114124E2,7.3246714E3,3.2520427E3,2.7501646E3,5.188962E3,1.0368838E3,4.4467812E3,2.779301E3,3.4893945E2,8.397421E2,4.210766E2,1.0974675E3,9.1350525E1,8.2766864E2,3.8481985E2,1.4557771E1,5.9978764E1,7.0321784E0,7.1851616E1,5.543533E2,7.477321E1,7.901624E2,3.8479908E1,4.7456865E3,5.593291E2,6.07171E2,2.3970198E1,2.8161665E3,4.508505E3,2.922832E3,3.2921066E2,1.2247744E3,1.5253901E3,5.1577324E3,3.1229084E1,3.9399658E2,6.4288727E2,9.909764E2,3.455805E3],"tree_param":{"num_deleted":"0","num_feature":"31","num_nodes":"63","size_leaf_vector":"1"}},{"base_weights":[1.986698E-3,1.775234E-1,-4.2809084E-2,1.3982148E-1,3.2028797E-1,5.492492E-3,-9.8515905E-2,4.429692E-3,1.6101167E-1,5.5019987E-1,2.945359E-1,-2.7717588E-2,5.5914547E-2,-7.638565E-2,-1.6737251E-1,-9.376387E-3,4.5658827E-1,2.7242294E-1,1.5083492E-1,4.060425E-1,7E-1,7E-1,2.8669217E-1,9.954676E-4,-4.400418E-2,5.1503528E-2,1.9857295E-1,-5.4076098E-2,-1.1747039E-1,-2.1067707E-1,-1.5148973E-1,-2.6212875E-3,5.2156807E-3,3.5E-2,-2.2247857E-3,1.20493295E-2,2.696528E-2,5.7908134E-3,9.344678E-3,1.2051028E-2,2.7109155E-2,4.5923298E-4,3.5E-2,3.5E-2,1.0649408E-2,9.159081E-3,1.5803026E-2,-1.6321505E-3,1.9271197E-3,2.3423745E-3,-2.7598827E-3,2.7731913E-3,-4.353843E-3,8.085894E-3,3.216102E-2,-1.2963432E-3,-4.069762E-3,-4.165133E-3,-7.3951646E-3,-3.3315492E-3,-1.1481292E-2,-9.7173825E-3,-5.715519E-3],"categories":[],"categories_nodes":[],"categories_segments":[],"categories_sizes":[],"default_left":[0,0,0,0,0,0,0,0,0,0,0,0,0,0,0,0,0,0,0,0,0,0,0,0,0,0,0,0,0,0,0,0,0,0,0,0,0,0,0,0,0,0,0,0,0,0,0,0,0,0,0,0,0,0,0,0,0,0,0,0,0,0,0],"id":13,"left_children":[1,3,5,7,9,11,13,15,17,19,21,23,25,27,29,31,33,35,37,39,41,43,45,47,49,51,53,55,57,59,61,-1,-1,-1,-1,-1,-1,-1,-1,-1,-1,-1,-1,-1,-1,-1,-1,-1,-1,-1,-1,-1,-1,-1,-1,-1,-1,-1,-1,-1,-1,-1,-1],"loss_changes":[2.998661E2,4.16868E1,8.174944E1,1.7601112E1,9.423431E0,2.7251642E1,2.1487213E1,5.193737E0,5.9736176E0,4.7314224E0,5.2616425E0,4.5884705E0,4.0563793E0,9.782238E0,2.3278427E0,3.9583588E0,3.5623856E0,3.5848274E0,6.1191864E0,2.1715412E0,1.8656883E0,1.0130167E0,4.310196E0,4.4877377E0,6.3694305E0,3.4459095E0,3.0665717E0,5.3217754E0,3.894741E0,2.490696E0,3.9833183E0,0E0,0E0,0E0,0E0,0E0,0E0,0E0,0E0,0E0,0E0,0E0,0E0,0E0,0E0,0E0,0E0,0E0,0E0,0E0,0E0,0E0,0E0,0E0,0E0,0E0,0E0,0E0,0E0,0E0,0E0,0E0,0E0],"parents":[2147483647,0,0,1,1,2,2,3,3,4,4,5,5,6,6,7,7,8,8,9,9,10,10,11,11,12,12,13,13,14,14,15,15,16,16,17,17,18,18,19,19,20,20,21,21,22,22,23,23,24,24,25,25,26,26,27,27,28,28,29,29,30,30],"right_children":[2,4,6,8,10,12,14,16,18,20,22,24,26,28,30,32,34,36,38,40,42,44,46,48,50,52,54,56,58,60,62,-1,-1,-1,-1,-1,-1,-1,-1,-1,-1,-1,-1,-1,-1,-1,-1,-1,-1,-1,-1,-1,-1,-1,-1,-1,-1,-1,-1,-1,-1,-1,-1],"split_conditions":[2.29E0,4.4E0,3.8E0,3.29E0,1.34E0,1.8E0,7.5E0,1.99E0,1.57E0,2.33E0,6.72E-1,2.88E0,2.15E0,2.12E0,2.09E0,9.94E-1,1.6E0,2.4E0,4.1E0,1.21E0,2.5E-1,1.317E0,1.049E0,1.64E0,4E0,4E-1,2.95E0,5E0,7E0,1.78E0,1.25E0,-2.6212875E-3,5.2156807E-3,3.5E-2,-2.2247857E-3,1.20493295E-2,2.696528E-2,5.7908134E-3,9.344678E-3,1.2051028E-2,2.7109155E-2,4.5923298E-4,3.5E-2,3.5E-2,1.0649408E-2,9.159081E-3,1.5803026E-2,-1.6321505E-3,1.9271197E-3,2.3423745E-3,-2.7598827E-3,2.7731913E-3,-4.353843E-3,8.085894E-3,3.216102E-2,-1.2963432E-3,-4.069762E-3,-4.165133E-3,-7.3951646E-3,-3.3315492E-3,-1.1481292E-2,-9.7173825E-3,-5.715519E-3],"split_indices":[24,23,24,23,29,30,24,30,29,10,15,24,27,29,30,17,8,11,22,16,6,16,19,30,1,13,22,24,1,28,22,0,0,0,0,0,0,0,0,0,0,0,0,0,0,0,0,0,0,0,0,0,0,0,0,0,0,0,0,0,0,0,0],"split_type":[0,0,0,0,0,0,0,0,0,0,0,0,0,0,0,0,0,0,0,0,0,0,0,0,0,0,0,0,0,0,0,0,0,0,0,0,0,0,0,0,0,0,0,0,0,0,0,0,0,0,0,0,0,0,0,0,0,0,0,0,0,0,0],"sum_hessian":[3.8132902E4,7.7521953E3,3.0380707E4,6.134221E3,1.617974E3,1.6272367E4,1.410834E4,8.303056E2,5.3039155E3,1.6092108E2,1.4570529E3,9.810929E3,6.461439E3,1.0678438E4,3.4299014E3,8.066547E2,2.3650898E1,4.4177365E2,4.862142E3,1.0147478E2,5.9446297E1,2.1146317E1,1.4359066E3,3.5511802E3,6.2597485E3,6.268963E3,1.9247621E2,6.9220117E3,3.756427E3,9.171148E2,2.5127864E3,5.854932E2,2.2116147E2,1.4704673E1,8.946226E0,3.9692267E2,4.4850956E1,2.468779E3,2.393363E3,4.7124054E1,5.4350723E1,3.936207E0,5.551009E1,1.5809291E1,5.3370256E0,3.1895758E2,1.116949E3,1.8731481E3,1.6780321E3,6.862912E2,5.573457E3,6.0953716E3,1.7359123E2,1.7900305E2,1.3473156E1,3.4101714E3,3.5118406E3,1.7713865E3,1.9850404E3,1.0714308E2,8.0997174E2,1.1652894E3,1.347497E3],"tree_param":{"num_deleted":"0","num_feature":"31","num_nodes":"63","size_leaf_vector":"1"}},{"base_weights":[-9.91133E-4,1.6426967E-1,-5.239008E-2,1.3032745E-1,3.1931874E-1,-1.1523767E-2,-1.0144615E-1,9.838424E-2,1.9370234E-1,5.5719876E-1,2.9400057E-1,-4.1277975E-2,3.3454467E-2,-8.236188E-2,-1.5648445E-1,8.608513E-2,2.00994E-1,1.3902669E-1,2.2498026E-1,3.630675E-1,6.786664E-1,2.7347174E-1,5.138644E-1,-7.2602026E-2,-2.6376965E-2,1.3113381E-1,2.7270457E-2,-1.492732E-1,-6.667235E-2,-1.830595E-1,-1.2726282E-1,4.4583823E-3,-1.3654842E-2,8.398967E-3,2.2429252E-2,1.1960467E-2,3.5700274E-3,7.1833367E-3,1.2972007E-2,2.9799823E-2,5.964221E-3,3.5E-2,1.5928784E-2,1.6262105E-2,9.366304E-3,9.196899E-3,3.0597553E-2,-2.9790378E-3,-9.81359E-3,-1.1246017E-2,-1.1271744E-3,2.587314E-2,4.574004E-3,7.5235893E-4,3.7617243E-3,-1.2203961E-2,-6.60285E-3,-3.4633519E-3,5.8798604E-3,-1.4784533E-2,-8.185537E-3,-1.8886421E-3,-7.7756825E-3],"categories":[],"categories_nodes":[],"categories_segments":[],"categories_sizes":[],"default_left":[0,0,0,0,0,0,0,0,0,0,0,0,0,0,0,0,0,0,0,0,0,0,0,0,0,0,0,0,0,0,0,0,0,0,0,0,0,0,0,0,0,0,0,0,0,0,0,0,0,0,0,0,0,0,0,0,0,0,0,0,0,0,0],"id":14,"left_children":[1,3,5,7,9,11,13,15,17,19,21,23,25,27,29,31,33,35,37,39,41,43,45,47,49,51,53,55,57,59,61,-1,-1,-1,-1,-1,-1,-1,-1,-1,-1,-1,-1,-1,-1,-1,-1,-1,-1,-1,-1,-1,-1,-1,-1,-1,-1,-1,-1,-1,-1,-1,-1],"loss_changes":[3.2597595E2,4.787068E1,5.8681664E1,1.510466E1,9.679565E0,2.1374075E1,1.3959991E1,6.2538147E0,4.248459E0,3.4345589E0,6.5362396E0,4.4846706E0,3.8375473E0,1.0362068E1,2.6356506E0,4.9391823E0,4.2660713E0,6.170412E0,4.4188004E0,3.4626093E0,2.5894928E0,5.982506E0,3.9387054E0,4.9771156E0,4.953716E0,5.7487316E0,3.5057483E0,3.0294914E0,3.8355675E0,3.8544846E0,4.125309E0,0E0,0E0,0E0,0E0,0E0,0E0,0E0,0E0,0E0,0E0,0E0,0E0,0E0,0E0,0E0,0E0,0E0,0E0,0E0,0E0,0E0,0E0,0E0,0E0,0E0,0E0,0E0,0E0,0E0,0E0,0E0,0E0],"parents":[2147483647,0,0,1,1,2,2,3,3,4,4,5,5,6,6,7,7,8,8,9,9,10,10,11,11,12,12,13,13,14,14,15,15,16,16,17,17,18,18,19,19,20,20,21,21,22,22,23,23,24,24,25,25,26,26,27,27,28,28,29,29,30,30],"right_children":[2,4,6,8,10,12,14,16,18,20,22,24,26,28,30,32,34,36,38,40,42,44,46,48,50,52,54,56,58,60,62,-1,-1,-1,-1,-1,-1,-1,-1,-1,-1,-1,-1,-1,-1,-1,-1,-1,-1,-1,-1,-1,-1,-1,-1,-1,-1,-1,-1,-1,-1,-1,-1],"split_conditions":[2.39E0,4.4E0,3.9E0,3.7E0,1.34E0,1.79E0,7.5E0,2.11E0,1.158E0,1.33E0,2.67E0,1.57E0,4.66E-1,1.61E0,2.38E0,2.73E0,2.06E0,1.169E0,5.01E-1,1.5E1,2.67E0,1.5E1,1.049E0,1.373E0,2.64E-1,5.69E-1,2.14E0,1.73E0,2.76E0,1.25E0,5.75E0,4.4583823E-3,-1.3654842E-2,8.398967E-3,2.2429252E-2,1.1960467E-2,3.5700274E-3,7.1833367E-3,1.2972007E-2,2.9799823E-2,5.964221E-3,3.5E-2,1.5928784E-2,1.6262105E-2,9.366304E-3,9.196899E-3,3.0597553E-2,-2.9790378E-3,-9.81359E-3,-1.1246017E-2,-1.1271744E-3,2.587314E-2,4.574004E-3,7.5235893E-4,3.7617243E-3,-1.2203961E-2,-6.60285E-3,-3.4633519E-3,5.8798604E-3,-1.4784533E-2,-8.185537E-3,-1.8886421E-3,-7.7756825E-3],"split_indices":[24,23,24,23,29,30,24,30,15,7,7,30,17,30,30,29,27,19,17,1,7,1,19,15,17,15,30,22,30,22,23,0,0,0,0,0,0,0,0,0,0,0,0,0,0,0,0,0,0,0,0,0,0,0,0,0,0,0,0,0,0,0,0],"split_type":[0,0,0,0,0,0,0,0,0,0,0,0,0,0,0,0,0,0,0,0,0,0,0,0,0,0,0,0,0,0,0,0,0,0,0,0,0,0,0,0,0,0,0,0,0,0,0,0,0,0,0,0,0,0,0,0,0,0,0,0,0,0,0],"sum_hessian":[3.837414E4,9.10311E3,2.9271031E4,7.469731E3,1.6333792E3,1.5969132E4,1.3301899E4,4.9681562E3,2.501575E3,1.5510085E2,1.4782783E3,9.611182E3,6.35795E3,9.878926E3,3.4229744E3,4.4380386E3,5.301175E2,9.1228766E2,1.5892874E3,6.1230457E1,9.387039E1,1.35409E3,1.2418841E2,3.0969915E3,6.51419E3,3.7734848E2,5.9806016E3,1.8748246E3,8.004101E3,1.7899103E3,1.633064E3,4.4010205E3,3.7018E1,4.692275E2,6.088999E1,3.6662512E2,5.4566254E2,4.7458862E2,1.1146987E3,3.057346E1,3.0656996E1,7.3406425E1,2.0463963E1,8.4406384E2,5.1002612E2,2.911886E1,9.506954E1,2.8033108E3,2.9368066E2,1.2230109E2,6.3918887E3,3.4004833E1,3.4334366E2,4.7670645E3,1.2135375E3,2.8610828E2,1.5887163E3,7.893576E3,1.105248E2,2.60314E2,1.5295963E3,3.9239948E2,1.2406646E3],"tree_param":{"num_deleted":"0","num_feature":"31","num_nodes":"63","size_leaf_vector":"1"}},{"base_weights":[1.6595527E-3,-4.8654173E-2,1.4826208E-1,-1.15226455E-1,-1.7850183E-2,1.0504699E-1,2.5711823E-1,-1.8707196E-1,-1.0603189E-1,-4.9447108E-2,-5.697551E-3,3.3864114E-2,1.23114675E-1,2.3590104E-1,3.6264488E-1,-2.2394976E-1,-1.0717276E-1,-3.7390985E-2,-1.14013866E-1,-5.8862418E-2,2.3494871E-2,-3.1828094E-2,7.457268E-3,-6.505726E-2,6.4040355E-2,1.318324E-1,3.4760393E-2,1.7663449E-1,2.800778E-1,1.6150872E-1,4.3463725E-1,-1.4444637E-2,-8.190898E-3,6.5173255E-3,-7.2647706E-3,1.5862497E-4,-6.4876997E-3,-5.8967634E-3,3.4355868E-3,-4.416427E-3,-1.7297957E-3,5.816384E-4,3.091268E-2,-2.112197E-3,3.8840454E-3,-1.646188E-3,9.139475E-4,3.2723427E-2,-4.0571215E-3,1.8724112E-2,2.5429795E-3,4.0822853E-3,7.4290945E-3,1.2196374E-2,-3.2721562E-4,9.788751E-3,-1.5358089E-3,2.316539E-2,1.2783817E-2,3.1938408E-2,3.255772E-3,1.7095558E-2,3.5E-2],"categories":[],"categories_nodes":[],"categories_segments":[],"categories_sizes":[],"default_left":[0,0,0,0,0,0,0,0,0,0,0,0,0,0,0,0,0,0,0,0,0,0,0,0,0,0,0,0,0,0,0,0,0,0,0,0,0,0,0,0,0,0,0,0,0,0,0,0,0,0,0,0,0,0,0,0,0,0,0,0,0,0,0],"id":15,"left_children":[1,3,5,7,9,11,13,15,17,19,21,23,25,27,29,31,33,35,37,39,41,43,45,47,49,51,53,55,57,59,61,-1,-1,-1,-1,-1,-1,-1,-1,-1,-1,-1,-1,-1,-1,-1,-1,-1,-1,-1,-1,-1,-1,-1,-1,-1,-1,-1,-1,-1,-1,-1,-1],"loss_changes":[2.8264166E2,5.8499695E1,4.603061E1,5.9415207E0,7.4891753E0,9.011574E0,6.1423645E0,2.988987E0,4.380356E0,3.7221556E0,4.842792E0,4.2444267E0,4.3015747E0,6.021652E0,6.645504E0,2.6812782E0,2.9603171E0,3.1293592E0,5.1446915E0,3.4282036E0,4.367599E0,5.38421E0,4.0957394E0,3.901721E0,4.436811E0,4.264984E0,4.351043E0,3.946972E0,5.813881E0,5.6554914E0,8.150589E0,0E0,0E0,0E0,0E0,0E0,0E0,0E0,0E0,0E0,0E0,0E0,0E0,0E0,0E0,0E0,0E0,0E0,0E0,0E0,0E0,0E0,0E0,0E0,0E0,0E0,0E0,0E0,0E0,0E0,0E0,0E0,0E0],"parents":[2147483647,0,0,1,1,2,2,3,3,4,4,5,5,6,6,7,7,8,8,9,9,10,10,11,11,12,12,13,13,14,14,15,15,16,16,17,17,18,18,19,19,20,20,21,21,22,22,23,23,24,24,25,25,26,26,27,27,28,28,29,29,30,30],"right_children":[2,4,6,8,10,12,14,16,18,20,22,24,26,28,30,32,34,36,38,40,42,44,46,48,50,52,54,56,58,60,62,-1,-1,-1,-1,-1,-1,-1,-1,-1,-1,-1,-1,-1,-1,-1,-1,-1,-1,-1,-1,-1,-1,-1,-1,-1,-1,-1,-1,-1,-1,-1,-1],"split_conditions":[2.5E-1,-5E-1,1E0,-1.75E0,-2.5E-1,1.81E0,3E0,2.6E0,1.75E0,2E0,1.87E0,1.049E0,1.727E0,1.013E0,1.291E0,1.378E0,1.873E0,1.1E1,2.2E0,1.33E0,1.6E1,2.191E0,5E0,2.02E0,4.88E-1,8E-1,1E0,1.8E0,1.097E0,8.16E-1,2E0,-1.4444637E-2,-8.190898E-3,6.5173255E-3,-7.2647706E-3,1.5862497E-4,-6.4876997E-3,-5.8967634E-3,3.4355868E-3,-4.416427E-3,-1.7297957E-3,5.816384E-4,3.091268E-2,-2.112197E-3,3.8840454E-3,-1.646188E-3,9.139475E-4,3.2723427E-2,-4.0571215E-3,1.8724112E-2,2.5429795E-3,4.0822853E-3,7.4290945E-3,1.2196374E-2,-3.2721562E-4,9.788751E-3,-1.5358089E-3,2.316539E-2,1.2783817E-2,3.1938408E-2,3.255772E-3,1.7095558E-2,3.5E-2],"split_indices":[26,26,26,26,26,27,8,2,28,2,27,18,16,16,19,18,14,0,3,5,1,19,21,28,15,5,11,2,16,19,7,0,0,0,0,0,0,0,0,0,0,0,0,0,0,0,0,0,0,0,0,0,0,0,0,0,0,0,0,0,0,0,0],"split_type":[0,0,0,0,0,0,0,0,0,0,0,0,0,0,0,0,0,0,0,0,0,0,0,0,0,0,0,0,0,0,0,0,0,0,0,0,0,0,0,0,0,0,0,0,0,0,0,0,0,0,0,0,0,0,0,0,0,0,0,0,0,0,0],"sum_hessian":[3.83165E4,2.8526814E4,9.789684E3,9.0233E3,1.9503516E4,7.0090903E3,2.780593E3,1.021562E3,8.001738E3,5.4167803E3,1.4086735E4,1.4194872E3,5.589603E3,2.3178098E3,4.6278326E2,6.977225E2,3.238395E2,8.3415094E2,7.167587E3,4.7976904E3,6.1909015E2,4.7165093E3,9.370226E3,3.315313E2,1.0879558E3,5.087171E3,5.0243228E2,9.9198413E2,1.3258257E3,1.22837296E2,3.3994598E2,3.336128E2,3.6410968E2,4.445404E1,2.7938547E2,5.802747E2,2.5387624E2,7.0173447E3,1.5024188E2,2.1655203E3,2.63217E3,6.079838E2,1.110631E1,4.307427E3,4.090826E2,1.9799635E3,7.3902617E3,6.381571E0,3.2514972E2,4.319472E1,1.0447611E3,1.2744359E3,3.8127349E3,8.2045944E1,4.2038635E2,9.0820374E2,8.3780426E1,1.5370117E2,1.1721245E3,1.9695393E1,1.0314191E2,2.5361835E2,8.632763E1],"tree_param":{"num_deleted":"0","num_feature":"31","num_nodes":"63","size_leaf_vector":"1"}},{"base_weights":[-3.7437276E-5,1.4725791E-1,-4.678249E-2,8.647371E-2,2.1885256E-1,-7.2167995E-3,-1.07473485E-1,1.1154571E-1,4.4039298E-2,4.685092E-1,2.0739488E-1,5.9920624E-2,-2.9562041E-2,-8.418031E-2,-1.6348147E-1,1.0177248E-1,2.323269E-1,3.8356505E-2,6.6261756E-1,3.677815E-1,7E-1,2.4879935E-1,1.6670112E-1,5.1086407E-2,1.7914286E-1,-7.7559077E-3,-6.410939E-2,-7.213366E-2,-1.4590633E-1,-1.3656268E-1,-1.9293012E-1,1.5371985E-2,4.691072E-3,7.3665376E-3,2.5643049E-2,-5.2570463E-3,2.6953449E-3,3.5E-2,9.637267E-3,3.5E-2,1.2351299E-2,3.5E-2,1.2616704E-2,2.3576556E-2,1.1876511E-2,5.24231E-3,1.0236277E-2,5.2967615E-4,3.7913446E-3,4.357282E-3,1.5648313E-2,-4.7366935E-4,1.521493E-2,-3.4831844E-3,4.0976023E-3,2.8418679E-2,-3.670574E-3,-7.503005E-3,2.6708169E-2,-2.4912995E-3,-8.487218E-3,-7.7552437E-3,-1.2433386E-2],"categories":[],"categories_nodes":[],"categories_segments":[],"categories_sizes":[],"default_left":[0,0,0,0,0,0,0,0,0,0,0,0,0,0,0,0,0,0,0,0,0,0,0,0,0,0,0,0,0,0,0,0,0,0,0,0,0,0,0,0,0,0,0,0,0,0,0,0,0,0,0,0,0,0,0,0,0,0,0,0,0,0,0],"id":16,"left_children":[1,3,5,7,9,11,13,15,17,19,21,23,25,27,29,31,33,35,37,39,41,43,45,47,49,51,53,55,57,59,61,-1,-1,-1,-1,-1,-1,-1,-1,-1,-1,-1,-1,-1,-1,-1,-1,-1,-1,-1,-1,-1,-1,-1,-1,-1,-1,-1,-1,-1,-1,-1,-1],"loss_changes":[2.635307E2,4.010669E1,6.9765656E1,5.302269E0,1.2011459E1,2.6388805E1,1.4944626E1,3.6769829E0,6.493026E0,4.0909004E0,6.780899E0,4.6172647E0,9.941696E0,6.012596E0,2.642601E0,4.716875E0,5.5017586E0,4.108197E0,1.1649404E0,5.2978573E0,5.797495E0,4.920532E0,4.788639E0,4.0975657E0,3.698536E0,4.339646E0,4.1485596E0,5.5902977E0,3.8137913E0,5.063793E0,3.3461418E0,0E0,0E0,0E0,0E0,0E0,0E0,0E0,0E0,0E0,0E0,0E0,0E0,0E0,0E0,0E0,0E0,0E0,0E0,0E0,0E0,0E0,0E0,0E0,0E0,0E0,0E0,0E0,0E0,0E0,0E0,0E0,0E0],"parents":[2147483647,0,0,1,1,2,2,3,3,4,4,5,5,6,6,7,7,8,8,9,9,10,10,11,11,12,12,13,13,14,14,15,15,16,16,17,17,18,18,19,19,20,20,21,21,22,22,23,23,24,24,25,25,26,26,27,27,28,28,29,29,30,30],"right_children":[2,4,6,8,10,12,14,16,18,20,22,24,26,28,30,32,34,36,38,40,42,44,46,48,50,52,54,56,58,60,62,-1,-1,-1,-1,-1,-1,-1,-1,-1,-1,-1,-1,-1,-1,-1,-1,-1,-1,-1,-1,-1,-1,-1,-1,-1,-1,-1,-1,-1,-1,-1,-1],"split_conditions":[2.39E0,3.7E0,4.2E0,2.08E0,1.34E0,1.9E0,7.5E0,1.5E1,3E0,8E0,1.55E0,2.449E0,2.27E0,2.28E0,1.58E0,2E-1,1.3E1,8.37E-1,1.17E0,4.51E-1,1.549E0,6E-1,1.158E0,7E0,1.6E0,3.67E0,1.654E0,1.33E0,2.665E0,5.75E0,9.5E0,1.5371985E-2,4.691072E-3,7.3665376E-3,2.5643049E-2,-5.2570463E-3,2.6953449E-3,3.5E-2,9.637267E-3,3.5E-2,1.2351299E-2,3.5E-2,1.2616704E-2,2.3576556E-2,1.1876511E-2,5.24231E-3,1.0236277E-2,5.2967615E-4,3.7913446E-3,4.357282E-3,1.5648313E-2,-4.7366935E-4,1.521493E-2,-3.4831844E-3,4.0976023E-3,2.8418679E-2,-3.670574E-3,-7.503005E-3,2.6708169E-2,-2.4912995E-3,-8.487218E-3,-7.7552437E-3,-1.2433386E-2],"split_indices":[24,23,24,29,29,29,24,20,3,21,24,18,29,29,29,8,1,18,4,17,19,8,15,0,3,7,17,29,19,23,24,0,0,0,0,0,0,0,0,0,0,0,0,0,0,0,0,0,0,0,0,0,0,0,0,0,0,0,0,0,0,0,0],"split_type":[0,0,0,0,0,0,0,0,0,0,0,0,0,0,0,0,0,0,0,0,0,0,0,0,0,0,0,0,0,0,0,0,0,0,0,0,0,0,0,0,0,0,0,0,0,0,0,0,0,0,0,0,0,0,0,0,0,0,0,0,0,0,0],"sum_hessian":[3.8272242E4,9.219407E3,2.9052834E4,4.98734E3,4.2320674E3,1.7587988E4,1.1464847E4,3.1340095E3,1.8533303E3,1.8395244E2,4.0481147E3,4.3915796E3,1.3196408E4,8.099039E3,3.3658079E3,2.901104E3,2.3290552E2,1.8375114E3,1.5818958E1,1.3030605E2,5.3646393E1,2.0040005E3,2.0441143E3,4.089948E3,3.0163144E2,8.090773E3,5.105635E3,6.778327E3,1.3207119E3,1.7613796E3,1.6044281E3,1.06579475E2,2.7945247E3,1.799189E2,5.2986614E1,1.7909349E2,1.6584178E3,1.029584E1,5.523118E0,3.2468674E1,9.783737E1,2.327241E1,3.0373985E1,9.454283E1,1.9094576E3,7.7963184E2,1.2644824E3,1.5517001E3,2.538248E3,1.797281E2,1.21903336E2,8.047451E3,4.3321762E1,4.9190986E3,1.8653601E2,1.2612343E1,6.765715E3,1.3134688E3,7.24312E0,4.8807E2,1.2733097E3,9.580493E2,6.463788E2],"tree_param":{"num_deleted":"0","num_feature":"31","num_nodes":"63","size_leaf_vector":"1"}},{"base_weights":[1.945615E-3,1.5883873E-1,-4.0256213E-2,9.410056E-2,2.1992493E-1,-1.2621593E-2,-1.1852901E-1,8.865866E-2,5.155789E-1,2.9443455E-1,1.9046633E-1,-5.2191682E-2,2.2418117E-2,-1.0829305E-1,-2.0482934E-1,3.411243E-2,1.2892464E-1,6.842621E-1,1.3592191E-1,2.51819E-1,4.276203E-1,1.8761781E-1,3.5E-2,2.8866343E-3,-7.16391E-2,1.002513E-1,1.4383241E-2,-1.8678033E-1,-9.708014E-2,-1.2332797E-1,-2.5268173E-1,6.569153E-3,-1.8040974E-4,5.7997825E-3,1.3473593E-2,7.1875374E-3,3.5E-2,-2.044565E-2,1.9159092E-2,1.1103925E-2,2.0387841E-2,1.5260721E-2,2.8669104E-2,9.29237E-3,3.5E-2,-2.3667177E-3,1.594499E-3,-1.3328315E-3,-4.165202E-3,-9.80106E-4,6.90058E-3,-4.109117E-4,2.2614293E-3,-1.6861554E-3,-1.0364803E-2,-6.3401842E-3,-3.6301364E-3,1.5312441E-2,-7.3751747E-3,-5.136543E-3,-1.3856952E-2],"categories":[],"categories_nodes":[],"categories_segments":[],"categories_sizes":[],"default_left":[0,0,0,0,0,0,0,0,0,0,0,0,0,0,0,0,0,0,0,0,0,0,0,0,0,0,0,0,0,0,0,0,0,0,0,0,0,0,0,0,0,0,0,0,0,0,0,0,0,0,0,0,0,0,0,0,0,0,0,0,0],"id":17,"left_children":[1,3,5,7,9,11,13,15,17,19,21,23,25,27,29,31,33,35,37,39,41,43,-1,45,47,49,51,53,55,57,59,-1,-1,-1,-1,-1,-1,-1,-1,-1,-1,-1,-1,-1,-1,-1,-1,-1,-1,-1,-1,-1,-1,-1,-1,-1,-1,-1,-1,-1,-1],"loss_changes":[2.5275757E2,3.197879E1,6.5068016E1,8.9687E0,9.080505E0,3.0829287E1,6.911682E0,8.520281E0,3.1020193E0,6.57605E0,5.709961E0,1.1185295E1,7.373533E0,6.1592407E0,3.2103958E0,6.053435E0,4.0256233E0,3.12389E0,2.3923247E0,4.0581474E0,4.8925858E0,3.8617172E0,0E0,3.9719508E0,4.0472527E0,4.995961E0,7.4532404E0,2.744814E0,4.460781E0,3.2586665E0,1.8885956E0,0E0,0E0,0E0,0E0,0E0,0E0,0E0,0E0,0E0,0E0,0E0,0E0,0E0,0E0,0E0,0E0,0E0,0E0,0E0,0E0,0E0,0E0,0E0,0E0,0E0,0E0,0E0,0E0,0E0,0E0],"parents":[2147483647,0,0,1,1,2,2,3,3,4,4,5,5,6,6,7,7,8,8,9,9,10,10,11,11,12,12,13,13,14,14,15,15,16,16,17,17,18,18,19,19,20,20,21,21,23,23,24,24,25,25,26,26,27,27,28,28,29,29,30,30],"right_children":[2,4,6,8,10,12,14,16,18,20,22,24,26,28,30,32,34,36,38,40,42,44,-1,46,48,50,52,54,56,58,60,-1,-1,-1,-1,-1,-1,-1,-1,-1,-1,-1,-1,-1,-1,-1,-1,-1,-1,-1,-1,-1,-1,-1,-1,-1,-1,-1,-1,-1,-1],"split_conditions":[2.29E0,3.75E0,4.8E0,3.75E0,1.4E0,1.71E0,1.5E1,1.78E0,2.345E0,1.7E-1,4.33E0,2.88E0,1.78E0,1.66E0,1.36E0,8E0,1.331E0,5.59E-1,7.5E-1,1.2E1,7.92E-1,1E0,3.5E-2,1.169E0,5E0,8.06E-1,1.96E0,4.02E-1,1.48E0,3.15E0,2.67E-1,6.569153E-3,-1.8040974E-4,5.7997825E-3,1.3473593E-2,7.1875374E-3,3.5E-2,-2.044565E-2,1.9159092E-2,1.1103925E-2,2.0387841E-2,1.5260721E-2,2.8669104E-2,9.29237E-3,3.5E-2,-2.3667177E-3,1.594499E-3,-1.3328315E-3,-4.165202E-3,-9.80106E-4,6.90058E-3,-4.109117E-4,2.2614293E-3,-1.6861554E-3,-1.0364803E-2,-6.3401842E-3,-3.6301364E-3,1.5312441E-2,-7.3751747E-3,-5.136543E-3,-1.3856952E-2],"split_indices":[24,23,24,8,24,30,24,30,19,13,7,24,28,30,29,1,17,16,7,21,14,13,0,18,1,16,30,15,22,30,16,0,0,0,0,0,0,0,0,0,0,0,0,0,0,0,0,0,0,0,0,0,0,0,0,0,0,0,0,0,0],"split_type":[0,0,0,0,0,0,0,0,0,0,0,0,0,0,0,0,0,0,0,0,0,0,0,0,0,0,0,0,0,0,0,0,0,0,0,0,0,0,0,0,0,0,0,0,0,0,0,0,0,0,0,0,0,0,0,0,0,0,0,0,0],"sum_hessian":[3.8172152E4,8.090703E3,3.008145E4,3.9291711E3,4.1615317E3,2.2233098E4,7.848351E3,3.8802815E3,4.8889713E1,1.1765894E3,2.9849424E3,1.0441312E4,1.1791786E4,7.0181885E3,8.3016235E2,1.6487085E3,2.231573E3,3.329451E1,1.5595202E1,8.9356537E2,2.8302402E2,2.9754504E3,9.491984E0,2.724872E3,7.7164395E3,1.1023113E3,1.0689476E4,8.7534674E2,6.142842E3,3.0842883E2,5.217335E2,4.6000504E2,1.1887035E3,2.0452546E3,1.8631837E2,1.0707267E1,2.2587244E1,4.6641073E0,1.0931095E1,7.524769E2,1.4108847E2,1.5551862E2,1.275054E2,2.9714492E3,4.0010386E0,9.973208E2,1.7275511E3,1.5896597E3,6.12678E3,2.6420135E2,8.3811E2,6.1695566E3,4.519919E3,1.0377543E2,7.715713E2,2.7722493E3,3.3705928E3,1.5811175E1,2.9261765E2,7.38921E1,4.4784146E2],"tree_param":{"num_deleted":"0","num_feature":"31","num_nodes":"61","size_leaf_vector":"1"}},{"base_weights":[1.0621214E-3,1.3877699E-1,-4.6458144E-2,2.387123E-1,9.802477E-2,-2.3806315E-2,-1.3761467E-1,4.7664392E-1,2.2237791E-1,4.2393345E-2,1.4011504E-1,-5.0751098E-2,1.121316E-2,-1.258815E-1,-1.8692912E-1,-4.4343077E-2,5.108415E-1,7E-1,2.1935818E-1,3.857552E-2,3.7935865E-1,1.3113734E-1,2.5761145E-1,-2.9025571E-2,-8.6437926E-2,4.0778562E-2,-3.4121625E-2,-2.1938075E-1,-1.19038075E-1,-2.033365E-1,1.3931064E-2,1.3774275E-2,-2.0714916E-2,1.9938314E-2,3.5E-2,3.5E-2,1.03184525E-2,3.5E-2,1.0828054E-2,2.1354666E-3,-1.3121103E-2,-7.137743E-3,2.8608589E-2,1.1675093E-2,5.9837117E-3,3.3855345E-2,1.03173675E-2,-1.0778984E-3,-5.414622E-3,-1.9229088E-3,-5.625775E-3,1.5861815E-3,7.84156E-3,-2.291881E-3,3.831242E-3,-2.0329235E-2,-9.149671E-3,-1.0985642E-3,-6.258977E-3,-1.1472294E-2,-5.3561046E-3,2.9277047E-2,-2.2501897E-3],"categories":[],"categories_nodes":[],"categories_segments":[],"categories_sizes":[],"default_left":[0,0,0,0,0,0,0,0,0,0,0,0,0,0,0,0,0,0,0,0,0,0,0,0,0,0,0,0,0,0,0,0,0,0,0,0,0,0,0,0,0,0,0,0,0,0,0,0,0,0,0,0,0,0,0,0,0,0,0,0,0,0,0],"id":18,"left_children":[1,3,5,7,9,11,13,15,17,19,21,23,25,27,29,31,33,35,37,39,41,43,45,47,49,51,53,55,57,59,61,-1,-1,-1,-1,-1,-1,-1,-1,-1,-1,-1,-1,-1,-1,-1,-1,-1,-1,-1,-1,-1,-1,-1,-1,-1,-1,-1,-1,-1,-1,-1,-1],"loss_changes":[2.5127705E2,4.0092697E1,5.894103E1,1.09804535E1,1.6381805E1,2.1576612E1,3.2639008E0,3.272007E0,4.0343323E0,3.8652253E0,4.1685257E0,1.0016857E1,1.3329609E1,2.9124756E0,3.594715E0,1.5522304E0,3.7711906E0,1.4153309E0,3.868248E0,3.7231145E0,3.4716587E0,4.3172836E0,5.9193783E0,4.7534122E0,6.11364E0,6.320283E0,5.0971355E0,2.0511093E0,2.5496368E0,2.506775E0,2.830599E0,0E0,0E0,0E0,0E0,0E0,0E0,0E0,0E0,0E0,0E0,0E0,0E0,0E0,0E0,0E0,0E0,0E0,0E0,0E0,0E0,0E0,0E0,0E0,0E0,0E0,0E0,0E0,0E0,0E0,0E0,0E0,0E0],"parents":[2147483647,0,0,1,1,2,2,3,3,4,4,5,5,6,6,7,7,8,8,9,9,10,10,11,11,12,12,13,13,14,14,15,15,16,16,17,17,18,18,19,19,20,20,21,21,22,22,23,23,24,24,25,25,26,26,27,27,28,28,29,29,30,30],"right_children":[2,4,6,8,10,12,14,16,18,20,22,24,26,28,30,32,34,36,38,40,42,44,46,48,50,52,54,56,58,60,62,-1,-1,-1,-1,-1,-1,-1,-1,-1,-1,-1,-1,-1,-1,-1,-1,-1,-1,-1,-1,-1,-1,-1,-1,-1,-1,-1,-1,-1,-1,-1,-1],"split_conditions":[2.45E0,1.64E0,5.59E0,1.34E0,1.83E0,1.77E0,1.3E1,2.5E-1,1.66E0,2.6E1,1.5E1,3.7E0,3.79E0,1.63E0,4.25E0,1.4E0,8E0,6E0,4.5E-1,2.73E0,5.35E-1,1.57E0,6.24E-1,1.618E0,6E0,2.1E0,1.654E0,8E-1,6.23E-1,3.4E0,8.37E-1,1.3774275E-2,-2.0714916E-2,1.9938314E-2,3.5E-2,3.5E-2,1.03184525E-2,3.5E-2,1.0828054E-2,2.1354666E-3,-1.3121103E-2,-7.137743E-3,2.8608589E-2,1.1675093E-2,5.9837117E-3,3.3855345E-2,1.03173675E-2,-1.0778984E-3,-5.414622E-3,-1.9229088E-3,-5.625775E-3,1.5861815E-3,7.84156E-3,-2.291881E-3,3.831242E-3,-2.0329235E-2,-9.149671E-3,-1.0985642E-3,-6.258977E-3,-1.1472294E-2,-5.3561046E-3,2.9277047E-2,-2.2501897E-3],"split_indices":[24,24,24,29,30,30,24,6,27,20,20,24,24,30,6,9,21,20,15,29,17,29,16,16,1,27,17,9,14,30,19,0,0,0,0,0,0,0,0,0,0,0,0,0,0,0,0,0,0,0,0,0,0,0,0,0,0,0,0,0,0,0,0],"split_type":[0,0,0,0,0,0,0,0,0,0,0,0,0,0,0,0,0,0,0,0,0,0,0,0,0,0,0,0,0,0,0,0,0,0,0,0,0,0,0,0,0,0,0,0,0,0,0,0,0,0,0,0,0,0,0,0,0,0,0,0,0,0,0],"sum_hessian":[3.839465E4,9.84928E3,2.854537E4,2.8515818E3,6.997698E3,2.2864855E4,5.6805137E3,1.8137901E2,2.670203E3,3.014883E3,3.9828152E3,1.2921958E4,9.942898E3,4.591606E3,1.0889075E3,1.1154074E1,1.7022493E2,1.3874953E1,2.656328E3,2.982209E3,3.2674057E1,3.702063E3,2.807522E2,8.0332603E3,4.8886973E3,6.0181924E3,3.9247063E3,3.1103162E2,4.280574E3,1.0066651E3,8.2242355E1,6.1192765E0,5.034797E0,1.1347636E2,5.674858E1,7.0556893E0,6.8192635E0,1.2013178E1,2.6443147E3,2.9426536E3,3.95554E1,8.882092E0,2.3791964E1,3.708687E2,3.3311943E3,2.924352E1,2.5150867E2,7.342781E3,6.9047955E2,1.7223134E3,3.166384E3,5.583794E3,4.3439853E2,3.5497593E3,3.749469E2,4.896171E1,2.620699E2,2.549903E2,4.0255842E3,7.907086E2,2.1595651E2,6.8517504E0,7.53906E1],"tree_param":{"num_deleted":"0","num_feature":"31","num_nodes":"63","size_leaf_vector":"1"}},{"base_weights":[-1.9262538E-4,1.3160546E-1,-4.6218757E-2,2.3493001E-1,1.0101889E-1,-2.5132338E-2,-1.388027E-1,2.3068926E-1,6.525975E-1,3.4799617E-2,1.185606E-1,2.5941227E-2,-3.810421E-2,-2.0497026E-1,-1.23971716E-1,2.0510912E-1,3.032333E-1,3.5E-2,3.1378E-1,2.4245784E-2,2.9396808E-1,1.2692916E-1,-1.4739773E-3,-1.1586769E-2,5.9177045E-2,-6.017743E-2,-1.5143344E-2,-2.0886989E-1,2.6624903E-2,-5.2657984E-2,-1.3431174E-1,9.028531E-3,1.4391491E-2,1.5904654E-2,-1.1224425E-2,2.4635028E-3,3.2006573E-2,7.819339E-3,4.298229E-4,-8.081227E-3,2.435834E-2,6.2416075E-3,2.9330516E-2,5.603752E-3,-4.2058043E-3,3.481993E-2,-6.9404725E-4,3.7622422E-3,-2.9402187E-3,-7.016111E-3,-2.5172716E-3,1.1101608E-3,-1.8303646E-3,-1.1099724E-2,8.3916535E-4,-3.4783955E-3,1.4279139E-2,-6.2992196E-3,-1.1163822E-2],"categories":[],"categories_nodes":[],"categories_segments":[],"categories_sizes":[],"default_left":[0,0,0,0,0,0,0,0,0,0,0,0,0,0,0,0,0,0,0,0,0,0,0,0,0,0,0,0,0,0,0,0,0,0,0,0,0,0,0,0,0,0,0,0,0,0,0,0,0,0,0,0,0,0,0,0,0,0,0],"id":19,"left_children":[1,3,5,7,9,11,13,15,17,19,21,23,25,27,29,31,33,-1,35,37,39,41,43,45,47,49,51,53,-1,55,57,-1,-1,-1,-1,-1,-1,-1,-1,-1,-1,-1,-1,-1,-1,-1,-1,-1,-1,-1,-1,-1,-1,-1,-1,-1,-1,-1,-1],"loss_changes":[2.3215236E2,3.1280807E1,5.5371845E1,3.8555222E0,8.875923E0,1.5307913E1,5.137909E0,4.0955505E0,1.3922768E0,4.375818E0,6.070778E0,5.838101E0,9.337227E0,2.87743E0,3.164215E0,3.3166504E0,4.635372E0,0E0,1.0865971E0,3.1849027E0,5.58967E0,5.372566E0,3.7147074E0,3.581327E0,4.709879E0,7.3950424E0,7.2410927E0,2.8395615E0,0E0,3.1442308E0,2.7540436E0,0E0,0E0,0E0,0E0,0E0,0E0,0E0,0E0,0E0,0E0,0E0,0E0,0E0,0E0,0E0,0E0,0E0,0E0,0E0,0E0,0E0,0E0,0E0,0E0,0E0,0E0,0E0,0E0],"parents":[2147483647,0,0,1,1,2,2,3,3,4,4,5,5,6,6,7,7,8,8,9,9,10,10,11,11,12,12,13,13,14,14,15,15,16,16,18,18,19,19,20,20,21,21,22,22,23,23,24,24,25,25,26,26,27,27,29,29,30,30],"right_children":[2,4,6,8,10,12,14,16,18,20,22,24,26,28,30,32,34,-1,36,38,40,42,44,46,48,50,52,54,-1,56,58,-1,-1,-1,-1,-1,-1,-1,-1,-1,-1,-1,-1,-1,-1,-1,-1,-1,-1,-1,-1,-1,-1,-1,-1,-1,-1,-1,-1],"split_conditions":[2.45E0,1.55E0,6E0,5E0,3.29E0,2.88E0,1.22E0,1.7E-1,1.817E0,1.479E0,1.815E0,3.25E0,3.4E0,5E0,7.76E-1,1.436E0,2.158E0,3.5E-2,1.75E0,4E0,3.2E0,6.7E-1,1.91E0,2.35E0,1.4E1,1.95E0,3.8E0,2.08E0,2.6624903E-2,2.074E0,1.25E0,9.028531E-3,1.4391491E-2,1.5904654E-2,-1.1224425E-2,2.4635028E-3,3.2006573E-2,7.819339E-3,4.298229E-4,-8.081227E-3,2.435834E-2,6.2416075E-3,2.9330516E-2,5.603752E-3,-4.2058043E-3,3.481993E-2,-6.9404725E-4,3.7622422E-3,-2.9402187E-3,-7.016111E-3,-2.5172716E-3,1.1101608E-3,-1.8303646E-3,-1.1099724E-2,8.3916535E-4,-3.4783955E-3,1.4279139E-2,-6.2992196E-3,-1.1163822E-2],"split_indices":[24,24,24,8,23,24,22,13,19,14,16,23,23,2,14,16,16,0,4,20,23,13,24,22,20,22,24,27,0,18,16,0,0,0,0,0,0,0,0,0,0,0,0,0,0,0,0,0,0,0,0,0,0,0,0,0,0,0,0],"split_type":[0,0,0,0,0,0,0,0,0,0,0,0,0,0,0,0,0,0,0,0,0,0,0,0,0,0,0,0,0,0,0,0,0,0,0,0,0,0,0,0,0,0,0,0,0,0,0,0,0,0,0,0,0,0,0,0,0,0,0],"sum_hessian":[3.826809E4,9.904425E3,2.8363666E4,2.2607388E3,7.643686E3,2.31031E4,5.2605654E3,2.239552E3,2.118671E1,1.6014102E3,6.042276E3,4.6791387E3,1.842396E4,9.608728E2,4.299693E3,1.6585494E3,5.810027E2,9.233805E0,1.1952906E1,1.5398E3,6.1610046E1,5.6484224E3,3.938538E2,2.1979688E3,2.48117E3,9.392728E3,9.031234E3,9.5653156E2,4.341244E0,5.4525287E2,3.75444E3,1.2815652E3,3.7698428E2,5.6547705E2,1.5525682E1,7.237686E0,4.715219E0,1.6209515E2,1.377705E3,1.8395061E1,4.3214985E1,5.6240376E3,2.4384691E1,1.6575406E2,2.2809973E2,6.122129E0,2.1918464E3,2.1840835E3,2.970865E2,1.0249176E3,8.36781E3,3.296098E3,5.735136E3,9.0397046E2,5.2561096E1,5.2004803E2,2.5204834E1,3.4353018E3,3.191381E2],"tree_param":{"num_deleted":"0","num_feature":"31","num_nodes":"59","size_leaf_vector":"1"}},{"base_weights":[-4.273888E-3,1.380231E-1,-4.325105E-2,2.3512675E-1,1.0426825E-1,-5.502041E-3,-9.345142E-2,1.02699876E-1,2.6572832E-1,1.3819556E-1,7.148131E-2,-4.940193E-2,1.8031528E-2,-6.319837E-2,-1.378982E-1,1.3791333E-1,-1.656017E-1,2.333966E-1,3.8491517E-1,4.4322744E-1,1.347025E-1,1.3226788E-1,4.362681E-2,-6.0019504E-2,1.6436636E-2,4.664601E-2,-1.0603642E-3,-1.209334E-1,-4.701377E-2,-1.7759472E-1,-1.2015318E-1,3.3394955E-2,5.562929E-3,1.6335849E-2,-1.29374E-2,2.4178218E-2,1.078045E-2,2.1028293E-2,6.3143405E-3,-2.0115876E-3,3.5E-2,6.5284367E-3,1.948212E-2,6.0809324E-3,2.6920915E-2,-8.417526E-4,4.5112018E-3,-3.5419667E-3,6.895317E-4,1.184528E-2,-5.266966E-4,7.536653E-3,1.8422995E-3,1.5987101E-3,-1.0923563E-3,-6.2619047E-3,1.5942406E-2,-2.3903372E-3,3.5E-2,-5.439879E-3,-9.790008E-3,-4.2236145E-3,-7.156223E-3],"categories":[],"categories_nodes":[],"categories_segments":[],"categories_sizes":[],"default_left":[0,0,0,0,0,0,0,0,0,0,0,0,0,0,0,0,0,0,0,0,0,0,0,0,0,0,0,0,0,0,0,0,0,0,0,0,0,0,0,0,0,0,0,0,0,0,0,0,0,0,0,0,0,0,0,0,0,0,0,0,0,0,0],"id":20,"left_children":[1,3,5,7,9,11,13,15,17,19,21,23,25,27,29,31,33,35,37,39,41,43,45,47,49,51,53,55,57,59,61,-1,-1,-1,-1,-1,-1,-1,-1,-1,-1,-1,-1,-1,-1,-1,-1,-1,-1,-1,-1,-1,-1,-1,-1,-1,-1,-1,-1,-1,-1,-1,-1],"loss_changes":[2.1211472E2,2.6928741E1,5.688949E1,8.565422E0,6.7798386E0,1.7705072E1,1.731749E1,3.7985396E0,6.544876E0,3.1353493E0,5.2534885E0,4.1818123E0,6.0950813E0,7.1600475E0,3.6540604E0,4.9239388E0,2.2315836E0,5.933693E0,3.3201141E0,6.3015084E0,3.075035E0,4.154087E0,6.006891E0,4.11417E0,4.9457974E0,4.548933E0,4.596586E0,3.2173653E0,3.8092012E0,1.9948845E0,2.945877E0,0E0,0E0,0E0,0E0,0E0,0E0,0E0,0E0,0E0,0E0,0E0,0E0,0E0,0E0,0E0,0E0,0E0,0E0,0E0,0E0,0E0,0E0,0E0,0E0,0E0,0E0,0E0,0E0,0E0,0E0,0E0,0E0],"parents":[2147483647,0,0,1,1,2,2,3,3,4,4,5,5,6,6,7,7,8,8,9,9,10,10,11,11,12,12,13,13,14,14,15,15,16,16,17,17,18,18,19,19,20,20,21,21,22,22,23,23,24,24,25,25,26,26,27,27,28,28,29,29,30,30],"right_children":[2,4,6,8,10,12,14,16,18,20,22,24,26,28,30,32,34,36,38,40,42,44,46,48,50,52,54,56,58,60,62,-1,-1,-1,-1,-1,-1,-1,-1,-1,-1,-1,-1,-1,-1,-1,-1,-1,-1,-1,-1,-1,-1,-1,-1,-1,-1,-1,-1,-1,-1,-1,-1],"split_conditions":[2.29E0,1.62E0,3.9E0,1.06E0,1.9E0,1.65E0,6E0,1E1,2.17E0,1.22E0,8E0,1E1,2.88E0,1.61E0,7.5E-1,1.33E0,2.38E0,1.33E0,2.408E0,8E0,3.75E0,4.33E0,1.78E0,2.95E0,2E-1,0E0,1.89E0,1.5E1,3.4E0,7E0,1.58E0,3.3394955E-2,5.562929E-3,1.6335849E-2,-1.29374E-2,2.4178218E-2,1.078045E-2,2.1028293E-2,6.3143405E-3,-2.0115876E-3,3.5E-2,6.5284367E-3,1.948212E-2,6.0809324E-3,2.6920915E-2,-8.417526E-4,4.5112018E-3,-3.5419667E-3,6.895317E-4,1.184528E-2,-5.266966E-4,7.536653E-3,1.8422995E-3,1.5987101E-3,-1.0923563E-3,-6.2619047E-3,1.5942406E-2,-2.3903372E-3,3.5E-2,-5.439879E-3,-9.790008E-3,-4.2236145E-3,-7.156223E-3],"split_indices":[24,29,24,15,24,30,24,22,4,24,1,20,24,30,4,24,30,29,18,21,8,22,30,22,8,26,29,1,30,24,29,0,0,0,0,0,0,0,0,0,0,0,0,0,0,0,0,0,0,0,0,0,0,0,0,0,0,0,0,0,0,0,0],"split_type":[0,0,0,0,0,0,0,0,0,0,0,0,0,0,0,0,0,0,0,0,0,0,0,0,0,0,0,0,0,0,0,0,0,0,0,0,0,0,0,0,0,0,0,0,0,0,0,0,0,0,0,0,0,0,0,0,0,0,0,0,0,0,0],"sum_hessian":[3.8242062E4,8.222176E3,3.0019887E4,2.119365E3,6.102811E3,1.7135598E4,1.2884289E4,3.986371E2,1.7207279E3,2.9976672E3,3.1051438E3,5.9797603E3,1.1155838E4,7.6676587E3,5.21663E3,3.528173E2,4.5819798E1,1.3558783E3,3.6484958E2,3.2513683E1,2.9651536E3,9.7457996E2,2.1305637E3,5.1494185E3,8.303418E2,4.4639424E3,6.6918955E3,1.6774064E3,5.9902524E3,1.6087546E3,3.6078752E3,1.5742677E1,3.3707462E2,6.8908873E0,3.892891E1,8.82686E1,1.2676096E3,3.200993E2,4.4750298E1,1.5427144E1,1.7086538E1,2.9193298E3,4.582384E1,9.509457E2,2.3634296E1,9.27601E2,1.2029628E3,4.4911074E3,6.583112E2,8.9657684E1,7.4068414E2,3.828862E2,4.0810564E3,2.584322E3,4.107573E3,1.661855E3,1.5551425E1,5.9852407E3,5.0115857E0,3.3809424E2,1.2706604E3,1.4148655E3,2.1930098E3],"tree_param":{"num_deleted":"0","num_feature":"31","num_nodes":"63","size_leaf_vector":"1"}},{"base_weights":[-1.5646706E-3,-4.2146556E-2,1.2448972E-1,-1.18048705E-1,-2.1619495E-2,8.2922205E-2,2.1601936E-1,-1.8411224E-1,-1.055275E-1,8.6944075E-3,-6.516547E-2,4.5103367E-2,1.19399995E-1,3.986846E-1,2.0178492E-1,-1.07195534E-1,-2.5473493E-1,-8.838877E-2,-1.5737385E-1,-1.2987642E-2,4.573648E-2,-9.8708354E-2,-4.0491387E-2,3.5327487E-2,1.8580982E-1,1.1408115E-1,5.1527214E-1,3.1478155E-1,5.9914243E-1,1.6965193E-1,2.977458E-1,-2.4980804E-4,-7.7103935E-3,-1.3340338E-2,4.8335227E-3,1.553952E-3,-4.731368E-3,-8.004992E-3,2.5740111E-2,-1.6444514E-3,1.9268416E-3,8.7120476E-5,3.765E-3,-2.8609578E-3,-6.055161E-3,7.4691203E-4,-2.7165215E-3,2.7662273E-3,-2.6688816E-3,1.6670153E-2,1.9502854E-3,4.3239375E-3,8.079639E-3,3.0889729E-2,-1.9818086E-2,-2.0874262E-2,1.7221214E-2,1.0831345E-2,3.5E-2,9.98292E-3,4.4581504E-3,1.6745139E-2,2.803296E-3],"categories":[],"categories_nodes":[],"categories_segments":[],"categories_sizes":[],"default_left":[0,0,0,0,0,0,0,0,0,0,0,0,0,0,0,0,0,0,0,0,0,0,0,0,0,0,0,0,0,0,0,0,0,0,0,0,0,0,0,0,0,0,0,0,0,0,0,0,0,0,0,0,0,0,0,0,0,0,0,0,0,0,0],"id":21,"left_children":[1,3,5,7,9,11,13,15,17,19,21,23,25,27,29,31,33,35,37,39,41,43,45,47,49,51,53,55,57,59,61,-1,-1,-1,-1,-1,-1,-1,-1,-1,-1,-1,-1,-1,-1,-1,-1,-1,-1,-1,-1,-1,-1,-1,-1,-1,-1,-1,-1,-1,-1,-1,-1],"loss_changes":[1.9583894E2,4.5118336E1,3.545427E1,5.0798416E0,3.0092878E1,8.841919E0,7.488922E0,5.3008614E0,4.593067E0,1.0795755E1,7.7396545E0,4.3268027E0,6.8135757E0,3.333809E0,8.283356E0,2.263371E0,2.1919518E0,2.9087887E0,2.4402733E0,8.695857E0,6.4547358E0,3.6769257E0,4.137375E0,5.230296E0,4.416268E0,4.211315E0,4.2625494E0,3.3941717E0,5.279793E0,4.877903E0,6.057743E0,0E0,0E0,0E0,0E0,0E0,0E0,0E0,0E0,0E0,0E0,0E0,0E0,0E0,0E0,0E0,0E0,0E0,0E0,0E0,0E0,0E0,0E0,0E0,0E0,0E0,0E0,0E0,0E0,0E0,0E0,0E0,0E0],"parents":[2147483647,0,0,1,1,2,2,3,3,4,4,5,5,6,6,7,7,8,8,9,9,10,10,11,11,12,12,13,13,14,14,15,15,16,16,17,17,18,18,19,19,20,20,21,21,22,22,23,23,24,24,25,25,26,26,27,27,28,28,29,29,30,30],"right_children":[2,4,6,8,10,12,14,16,18,20,22,24,26,28,30,32,34,36,38,40,42,44,46,48,50,52,54,56,58,60,62,-1,-1,-1,-1,-1,-1,-1,-1,-1,-1,-1,-1,-1,-1,-1,-1,-1,-1,-1,-1,-1,-1,-1,-1,-1,-1,-1,-1,-1,-1,-1,-1],"split_conditions":[3.1E0,1.66E0,2.12E0,1.22E0,2.15E0,3.8E0,1.36E0,1.39E0,1.93E0,1.98E0,2.2E0,1.5E1,3.75E0,1.7E-1,1.966E0,9.46E-1,3E0,1.39E0,4.25E0,2.45E0,2.04E0,6E0,6.2E-1,2E0,2.03E0,1.528E0,2.09E0,2.5E-1,1.17E0,1.64E0,1.285E0,-2.4980804E-4,-7.7103935E-3,-1.3340338E-2,4.8335227E-3,1.553952E-3,-4.731368E-3,-8.004992E-3,2.5740111E-2,-1.6444514E-3,1.9268416E-3,8.7120476E-5,3.765E-3,-2.8609578E-3,-6.055161E-3,7.4691203E-4,-2.7165215E-3,2.7662273E-3,-2.6688816E-3,1.6670153E-2,1.9502854E-3,4.3239375E-3,8.079639E-3,3.0889729E-2,-1.9818086E-2,-2.0874262E-2,1.7221214E-2,1.0831345E-2,3.5E-2,9.98292E-3,4.4581504E-3,1.6745139E-2,2.803296E-3],"split_indices":[22,22,30,22,29,22,29,29,29,30,22,20,8,13,19,17,10,29,9,22,22,1,15,4,29,18,28,6,7,29,14,0,0,0,0,0,0,0,0,0,0,0,0,0,0,0,0,0,0,0,0,0,0,0,0,0,0,0,0,0,0,0,0],"split_type":[0,0,0,0,0,0,0,0,0,0,0,0,0,0,0,0,0,0,0,0,0,0,0,0,0,0,0,0,0,0,0,0,0,0,0,0,0,0,0,0,0,0,0,0,0,0,0,0,0,0,0,0,0,0,0,0,0,0,0,0,0,0,0],"sum_hessian":[3.8281234E4,2.895889E4,9.322345E3,6.1635205E3,2.2795371E4,6.412198E3,2.9101465E3,9.798736E2,5.1836465E3,1.3440063E4,9.355308E3,3.1493271E3,3.262871E3,2.0843024E2,2.7017163E3,4.702414E2,5.0963217E2,3.8978489E3,1.2857979E3,8.478148E3,4.9619146E3,3.963785E3,5.391522E3,2.9459053E3,2.0342201E2,3.220884E3,4.198687E1,1.487431E2,5.968714E1,2.0260505E3,6.7566565E2,1.4850815E2,3.2173325E2,4.92939E2,1.6693188E1,1.932458E2,3.704603E3,1.2813632E3,4.434697E0,6.116143E3,2.3620056E3,1.9946678E3,2.9672466E3,1.3907699E3,2.5730151E3,1.077145E3,4.314377E3,2.4042778E3,5.416273E2,1.0080454E2,1.0261747E2,2.0390787E3,1.1818054E3,3.8032097E1,3.954774E0,5.2779365E0,1.4346516E2,2.6336304E1,3.3350838E1,1.4747715E3,5.512792E2,5.852941E2,9.037152E1],"tree_param":{"num_deleted":"0","num_feature":"31","num_nodes":"63","size_leaf_vector":"1"}},{"base_weights":[-4.6130124E-4,8.925048E-2,-5.6849662E-2,5.061977E-2,1.7629504E-1,-3.3056907E-2,-1.23447396E-1,8.396466E-2,2.0332161E-2,3.914459E-1,1.6630572E-1,2.268859E-2,-5.1957343E-2,-1.8262629E-1,-1.0991484E-1,8.6982794E-2,-1.9816358E-1,3.1590275E-2,-3.9739404E-2,3.0782187E-1,7E-1,2.2887799E-1,1.4849149E-1,-8.151482E-2,3.2125838E-2,-3.210029E-2,-7.433998E-2,-1.1070383E-1,-2.3288332E-1,-1.00849435E-1,-1.6769516E-1,5.007594E-3,1.320604E-3,1.2535289E-2,-1.8840864E-2,2.0783718E-3,-2.2528048E-3,-2.2886537E-3,3.5E-2,-1.1429153E-2,1.6914397E-2,3.5E-2,3.3526707E-3,1.0873565E-2,3.3790182E-2,1.1902854E-2,6.6732066E-3,4.635098E-3,-7.3788166E-3,2.8812208E-3,-6.287599E-4,-5.1081623E-3,-1.1805407E-3,-3.767411E-3,3.5E-2,-1.2970899E-2,-3.462635E-3,-1.3072572E-2,-4.1753664E-3,-1.5610339E-3,-5.58757E-3,3.1986192E-3,-9.553804E-3],"categories":[],"categories_nodes":[],"categories_segments":[],"categories_sizes":[],"default_left":[0,0,0,0,0,0,0,0,0,0,0,0,0,0,0,0,0,0,0,0,0,0,0,0,0,0,0,0,0,0,0,0,0,0,0,0,0,0,0,0,0,0,0,0,0,0,0,0,0,0,0,0,0,0,0,0,0,0,0,0,0,0,0],"id":22,"left_children":[1,3,5,7,9,11,13,15,17,19,21,23,25,27,29,31,33,35,37,39,41,43,45,47,49,51,53,55,57,59,61,-1,-1,-1,-1,-1,-1,-1,-1,-1,-1,-1,-1,-1,-1,-1,-1,-1,-1,-1,-1,-1,-1,-1,-1,-1,-1,-1,-1,-1,-1,-1,-1],"loss_changes":[1.9389552E2,4.9735207E1,3.72893E1,1.0347639E1,9.707077E0,1.8272928E1,4.940933E0,4.1702423E0,3.633795E0,5.3245354E0,4.811363E0,4.321391E0,5.753845E0,4.136135E0,2.6253204E0,3.8471222E0,4.258727E0,3.4614782E0,4.7903233E0,2.7284641E0,1.9952946E0,4.754448E0,4.5261307E0,4.21436E0,4.591562E0,4.080628E0,4.9371376E0,2.913351E0,2.8667068E0,3.3082352E0,3.7095318E0,0E0,0E0,0E0,0E0,0E0,0E0,0E0,0E0,0E0,0E0,0E0,0E0,0E0,0E0,0E0,0E0,0E0,0E0,0E0,0E0,0E0,0E0,0E0,0E0,0E0,0E0,0E0,0E0,0E0,0E0,0E0,0E0],"parents":[2147483647,0,0,1,1,2,2,3,3,4,4,5,5,6,6,7,7,8,8,9,9,10,10,11,11,12,12,13,13,14,14,15,15,16,16,17,17,18,18,19,19,20,20,21,21,22,22,23,23,24,24,25,25,26,26,27,27,28,28,29,29,30,30],"right_children":[2,4,6,8,10,12,14,16,18,20,22,24,26,28,30,32,34,36,38,40,42,44,46,48,50,52,54,56,58,60,62,-1,-1,-1,-1,-1,-1,-1,-1,-1,-1,-1,-1,-1,-1,-1,-1,-1,-1,-1,-1,-1,-1,-1,-1,-1,-1,-1,-1,-1,-1,-1,-1],"split_conditions":[2.88E0,3.7E0,5.5E0,2.01E0,1.34E0,1.88E0,1.25E0,3.2E0,2.5E-1,2.6E0,1.86E0,5.66E-1,3.7E0,1.38E0,1.6E0,2.17E0,7E0,1.594E0,1.979E0,2.5E-1,3.6E0,2.75E0,1.5E0,3.53E-1,4.2E0,4E0,3.67E0,6E0,3.25E0,7.69E-1,4E0,5.007594E-3,1.320604E-3,1.2535289E-2,-1.8840864E-2,2.0783718E-3,-2.2528048E-3,-2.2886537E-3,3.5E-2,-1.1429153E-2,1.6914397E-2,3.5E-2,3.3526707E-3,1.0873565E-2,3.3790182E-2,1.1902854E-2,6.6732066E-3,4.635098E-3,-7.3788166E-3,2.8812208E-3,-6.287599E-4,-5.1081623E-3,-1.1805407E-3,-3.767411E-3,3.5E-2,-1.2970899E-2,-3.462635E-3,-1.3072572E-2,-4.1753664E-3,-1.5610339E-3,-5.58757E-3,3.1986192E-3,-9.553804E-3],"split_indices":[24,23,24,29,29,29,22,3,12,10,28,14,24,29,7,4,20,16,17,6,10,9,29,14,24,20,7,20,6,14,21,0,0,0,0,0,0,0,0,0,0,0,0,0,0,0,0,0,0,0,0,0,0,0,0,0,0,0,0,0,0,0,0],"split_type":[0,0,0,0,0,0,0,0,0,0,0,0,0,0,0,0,0,0,0,0,0,0,0,0,0,0,0,0,0,0,0,0,0,0,0,0,0,0,0,0,0,0,0,0,0,0,0,0,0,0,0,0,0,0,0,0,0,0,0,0,0,0,0],"sum_hessian":[3.8327113E4,1.4792389E4,2.3534723E4,1.0246522E4,4.5458657E3,1.7340973E4,6.1937515E3,4.876266E3,5.370257E3,2.000026E2,4.3458633E3,4.3907026E3,1.295027E4,1.1504133E3,5.043338E3,4.8253374E3,5.0928474E1,4.523057E3,8.4719977E2,1.6122702E2,3.8775574E1,9.604498E2,3.3854133E3,3.6399002E2,4.0267126E3,6.8635845E3,6.086685E3,4.7452576E2,6.758875E2,4.3617495E3,6.815884E2,3.963051E3,8.622865E2,1.4384346E1,3.654413E1,4.002504E3,5.2055334E2,8.4302454E2,4.175228E0,8.315539E0,1.5291148E2,3.357198E1,5.2035933E0,9.379964E2,2.2453468E1,4.8426547E2,2.9011477E3,9.996364E1,2.6402637E2,2.5639072E3,1.4628053E3,7.405827E2,6.1230015E3,6.0798906E3,6.7945676E0,1.022882E2,3.7223758E2,5.667471E2,1.0914043E2,5.910015E2,3.770748E3,6.2323696E1,6.1926465E2],"tree_param":{"num_deleted":"0","num_feature":"31","num_nodes":"63","size_leaf_vector":"1"}},{"base_weights":[7.4082904E-4,1.2562178E-1,-4.1422848E-2,2.2629927E-1,9.3361326E-2,-1.3960427E-2,-1.1615064E-1,3.5111523E-1,2.0737876E-1,2.9470125E-2,1.0882582E-1,1.1715416E-2,-3.4898195E-2,-9.122101E-2,-1.5081641E-1,-2.364551E-1,3.9312667E-1,1.7205983E-1,2.8133246E-1,2.5965784E-2,3.5E-2,1.1825641E-1,3.8251366E-2,-8.378819E-3,6.2097535E-2,-6.766749E-2,-1.3999245E-2,-1.832215E-1,-8.4104836E-2,-1.6527213E-1,-7.830613E-2,-2.1191847E-2,-6.8713403E-3,3.5E-2,1.8103737E-2,1.0307599E-2,4.34182E-3,1.1135184E-2,2.1974294E-2,8.0927287E-4,1.4207794E-2,1.5569635E-2,5.689533E-3,-3.5226115E-3,5.4614707E-3,-5.1341037E-4,1.5953897E-2,1.8893222E-4,5.3038616E-3,-4.918267E-3,-1.2479586E-3,-5.3828064E-4,-1.0730146E-2,-1.1479919E-2,-5.190399E-4,-1.4256122E-2,-4.02398E-3,-1.077243E-2,-7.182423E-3,4.923282E-3,-5.8017387E-3],"categories":[],"categories_nodes":[],"categories_segments":[],"categories_sizes":[],"default_left":[0,0,0,0,0,0,0,0,0,0,0,0,0,0,0,0,0,0,0,0,0,0,0,0,0,0,0,0,0,0,0,0,0,0,0,0,0,0,0,0,0,0,0,0,0,0,0,0,0,0,0,0,0,0,0,0,0,0,0,0,0],"id":23,"left_children":[1,3,5,7,9,11,13,15,17,19,21,23,25,27,29,31,33,35,37,39,-1,41,43,45,47,49,51,53,55,57,59,-1,-1,-1,-1,-1,-1,-1,-1,-1,-1,-1,-1,-1,-1,-1,-1,-1,-1,-1,-1,-1,-1,-1,-1,-1,-1,-1,-1,-1,-1],"loss_changes":[2.0168112E2,3.1379593E1,5.876293E1,5.466179E0,7.2327843E0,1.1258015E1,6.636421E0,7.678505E0,5.277809E0,3.6380932E0,3.9196014E0,9.523897E0,7.898634E0,2.9167404E0,3.3595734E0,3.338461E-1,4.5837593E0,3.9992905E0,5.9988823E0,3.5882845E0,0E0,4.4499893E0,5.3813405E0,4.164377E0,6.8790245E0,5.8861732E0,4.567197E0,2.5683079E0,3.0078526E0,2.8787231E0,3.590969E0,0E0,0E0,0E0,0E0,0E0,0E0,0E0,0E0,0E0,0E0,0E0,0E0,0E0,0E0,0E0,0E0,0E0,0E0,0E0,0E0,0E0,0E0,0E0,0E0,0E0,0E0,0E0,0E0,0E0,0E0],"parents":[2147483647,0,0,1,1,2,2,3,3,4,4,5,5,6,6,7,7,8,8,9,9,10,10,11,11,12,12,13,13,14,14,15,15,16,16,17,17,18,18,19,19,21,21,22,22,23,23,24,24,25,25,26,26,27,27,28,28,29,29,30,30],"right_children":[2,4,6,8,10,12,14,16,18,20,22,24,26,28,30,32,34,36,38,40,-1,42,44,46,48,50,52,54,56,58,60,-1,-1,-1,-1,-1,-1,-1,-1,-1,-1,-1,-1,-1,-1,-1,-1,-1,-1,-1,-1,-1,-1,-1,-1,-1,-1,-1,-1,-1,-1],"split_conditions":[2.39E0,1.55E0,4.8E0,1.22E0,3.29E0,3.25E0,7.5E0,1.072E0,1.4E0,2.5E0,2.33E0,3.4E0,3.3E0,3.39E0,2.6E0,5E0,6E0,1.823E0,7.58E-1,1.479E0,3.5E-2,4.67E-1,5E-1,3.077E0,7E0,2.2E0,3.6E0,1.751E0,3.38E-1,1.25E0,1.919E0,-2.1191847E-2,-6.8713403E-3,3.5E-2,1.8103737E-2,1.0307599E-2,4.34182E-3,1.1135184E-2,2.1974294E-2,8.0927287E-4,1.4207794E-2,1.5569635E-2,5.689533E-3,-3.5226115E-3,5.4614707E-3,-5.1341037E-4,1.5953897E-2,1.8893222E-4,5.3038616E-3,-4.918267E-3,-1.2479586E-3,-5.3828064E-4,-1.0730146E-2,-1.1479919E-2,-5.190399E-4,-1.4256122E-2,-4.02398E-3,-1.077243E-2,-7.182423E-3,4.923282E-3,-5.8017387E-3],"split_indices":[24,24,24,24,23,24,24,15,6,5,4,23,23,23,2,0,23,15,17,14,0,15,26,19,0,22,10,19,17,22,14,0,0,0,0,0,0,0,0,0,0,0,0,0,0,0,0,0,0,0,0,0,0,0,0,0,0,0,0,0,0],"split_type":[0,0,0,0,0,0,0,0,0,0,0,0,0,0,0,0,0,0,0,0,0,0,0,0,0,0,0,0,0,0,0,0,0,0,0,0,0,0,0,0,0,0,0,0,0,0,0,0,0,0,0,0,0,0,0,0,0,0,0,0,0],"sum_hessian":[3.830082E4,9.666997E3,2.8633822E4,2.3444597E3,7.322538E3,2.0939688E4,7.694136E3,3.0629788E2,2.0381617E3,1.4275502E3,5.894988E3,9.405826E3,1.153386E4,4.477679E3,3.216457E3,2.013013E1,2.8616776E2,1.3816416E3,6.5652014E2,1.4218208E3,5.7293396E0,5.19952E3,6.954679E2,6.724631E3,2.6811956E3,4.4905283E3,7.0433325E3,3.197026E2,4.1579766E3,2.6807424E3,5.357147E2,5.826065E0,1.4304066E1,5.9195614E0,2.802482E2,9.858504E2,3.9579117E2,4.8072098E2,1.7579915E2,1.3709514E3,5.086941E1,1.1595441E2,5.0835654E3,2.7472745E2,4.2074048E2,6.687016E3,3.7614693E1,1.1531531E3,1.5280424E3,2.611869E3,1.8786595E3,6.9326353E3,1.10697E2,2.5180856E2,6.789403E1,7.228276E1,4.0856936E3,8.0464575E2,1.8760967E3,9.3944115E1,4.417706E2],"tree_param":{"num_deleted":"0","num_feature":"31","num_nodes":"61","size_leaf_vector":"1"}},{"base_weights":[-1.0685594E-3,-4.363599E-2,1.13808766E-1,-8.945934E-2,-1.4465961E-2,9.013374E-2,2.205454E-1,-1.4571169E-1,-6.951099E-2,-5.3614564E-2,1.8178498E-2,4.2394433E-2,1.1710349E-1,3.4657815E-1,2.0554833E-1,-1.7091557E-1,-8.459976E-2,-1.3470738E-1,-5.502529E-2,2.2352305E-1,-5.557607E-2,1.195301E-2,1.2572332E-1,3.0220848E-2,2.6634857E-1,4.2052492E-2,1.2828097E-1,-1.6839635E-1,3.7377444E-1,1.467759E-1,2.4760073E-1,-7.7215843E-3,-1.4412132E-2,-3.0174542E-3,-1.0917873E-2,1.6796978E-2,-6.876625E-3,-3.1204342E-3,7.202401E-4,3.0625453E-2,-2.3079132E-4,-3.2376521E-3,2.384126E-5,1.0064234E-3,-3.900688E-3,-3.3239748E-3,9.67255E-3,1.6932198E-3,-1.8265894E-2,-1.807183E-2,1.5578109E-2,1.4519192E-3,1.943643E-2,9.928311E-3,5.427316E-3,1.6486596E-2,-2.14842E-2,1.6321937E-2,3.5E-2,3.4435114E-4,9.749854E-3,1.707799E-2,1.0058859E-2],"categories":[],"categories_nodes":[],"categories_segments":[],"categories_sizes":[],"default_left":[0,0,0,0,0,0,0,0,0,0,0,0,0,0,0,0,0,0,0,0,0,0,0,0,0,0,0,0,0,0,0,0,0,0,0,0,0,0,0,0,0,0,0,0,0,0,0,0,0,0,0,0,0,0,0,0,0,0,0,0,0,0,0],"id":24,"left_children":[1,3,5,7,9,11,13,15,17,19,21,23,25,27,29,31,33,35,37,39,41,43,45,47,49,51,53,55,57,59,61,-1,-1,-1,-1,-1,-1,-1,-1,-1,-1,-1,-1,-1,-1,-1,-1,-1,-1,-1,-1,-1,-1,-1,-1,-1,-1,-1,-1,-1,-1,-1,-1],"loss_changes":[1.8755182E2,3.7404503E1,2.6183853E1,1.2204208E1,2.1855196E1,1.09244E1,3.4855957E0,4.3731117E0,7.583069E0,4.239456E0,6.2421837E0,8.350783E0,4.5445023E0,2.845148E0,4.1260605E0,3.854126E0,2.6912975E0,1.9880505E0,3.3728771E0,4.870205E0,3.9722233E0,6.486232E0,6.654251E0,4.204764E0,4.595607E0,3.1674113E0,6.525627E0,1.5283732E0,3.0485783E0,4.753543E0,4.2071037E0,0E0,0E0,0E0,0E0,0E0,0E0,0E0,0E0,0E0,0E0,0E0,0E0,0E0,0E0,0E0,0E0,0E0,0E0,0E0,0E0,0E0,0E0,0E0,0E0,0E0,0E0,0E0,0E0,0E0,0E0,0E0,0E0],"parents":[2147483647,0,0,1,1,2,2,3,3,4,4,5,5,6,6,7,7,8,8,9,9,10,10,11,11,12,12,13,13,14,14,15,15,16,16,17,17,18,18,19,19,20,20,21,21,22,22,23,23,24,24,25,25,26,26,27,27,28,28,29,29,30,30],"right_children":[2,4,6,8,10,12,14,16,18,20,22,24,26,28,30,32,34,36,38,40,42,44,46,48,50,52,54,56,58,60,62,-1,-1,-1,-1,-1,-1,-1,-1,-1,-1,-1,-1,-1,-1,-1,-1,-1,-1,-1,-1,-1,-1,-1,-1,-1,-1,-1,-1,-1,-1,-1,-1],"split_conditions":[2.5E-1,1.91E0,4.4E0,1.44E0,1.68E0,1.79E0,1.34E0,1.33E0,1.66E0,1.7E-1,2.483E0,3.8E0,3.1E0,2.5E-1,1.013E0,1.81E0,2.5E0,1.51E0,2.25E0,3.1E0,1E1,2.33E0,1.33E0,6E-1,5.5E0,2.01E0,1.64E0,2E-1,2.83E0,5.93E-1,1.6E0,-7.7215843E-3,-1.4412132E-2,-3.0174542E-3,-1.0917873E-2,1.6796978E-2,-6.876625E-3,-3.1204342E-3,7.202401E-4,3.0625453E-2,-2.3079132E-4,-3.2376521E-3,2.384126E-5,1.0064234E-3,-3.900688E-3,-3.3239748E-3,