{"learner":{"attributes":{"scikit_learn":"{\"_estimator_type\": \"regressor\"}"},"feature_names":["home_forma_pts","away_forma_pts","home_avg_scored","away_avg_scored","home_avg_conceded","away_avg_conceded","home_avg_scored_home","home_avg_conceded_home","away_avg_scored_away","away_avg_conceded_away","home_avg_yellow","away_avg_yellow","home_avg_red","away_avg_red","home_attack_strength","away_attack_strength","home_defense_strength","away_defense_strength","home_volatility","away_volatility","home_rest_days","away_rest_days","odd_home","odd_draw","odd_away","tipi_ndeshjes"],"feature_types":["float","float","float","float","float","float","float","float","float","float","float","float","float","float","float","float","float","float","float","float","float","float","float","float","float","int"],"gradient_booster":{"model":{"cats":{"enc":[],"feature_segments":[],"sorted_idx":[]},"gbtree_model_param":{"num_parallel_tree":"1","num_trees":"500"},"iteration_indptr":[0,1,2,3,4,5,6,7,8,9,10,11,12,13,14,15,16,17,18,19,20,21,22,23,24,25,26,27,28,29,30,31,32,33,34,35,36,37,38,39,40,41,42,43,44,45,46,47,48,49,50,51,52,53,54,55,56,57,58,59,60,61,62,63,64,65,66,67,68,69,70,71,72,73,74,75,76,77,78,79,80,81,82,83,84,85,86,87,88,89,90,91,92,93,94,95,96,97,98,99,100,101,102,103,104,105,106,107,108,109,110,111,112,113,114,115,116,117,118,119,120,121,122,123,124,125,126,127,128,129,130,131,132,133,134,135,136,137,138,139,140,141,142,143,144,145,146,147,148,149,150,151,152,153,154,155,156,157,158,159,160,161,162,163,164,165,166,167,168,169,170,171,172,173,174,175,176,177,178,179,180,181,182,183,184,185,186,187,188,189,190,191,192,193,194,195,196,197,198,199,200,201,202,203,204,205,206,207,208,209,210,211,212,213,214,215,216,217,218,219,220,221,222,223,224,225,226,227,228,229,230,231,232,233,234,235,236,237,238,239,240,241,242,243,244,245,246,247,248,249,250,251,252,253,254,255,256,257,258,259,260,261,262,263,264,265,266,267,268,269,270,271,272,273,274,275,276,277,278,279,280,281,282,283,284,285,286,287,288,289,290,291,292,293,294,295,296,297,298,299,300,301,302,303,304,305,306,307,308,309,310,311,312,313,314,315,316,317,318,319,320,321,322,323,324,325,326,327,328,329,330,331,332,333,334,335,336,337,338,339,340,341,342,343,344,345,346,347,348,349,350,351,352,353,354,355,356,357,358,359,360,361,362,363,364,365,366,367,368,369,370,371,372,373,374,375,376,377,378,379,380,381,382,383,384,385,386,387,388,389,390,391,392,393,394,395,396,397,398,399,400,401,402,403,404,405,406,407,408,409,410,411,412,413,414,415,416,417,418,419,420,421,422,423,424,425,426,427,428,429,430,431,432,433,434,435,436,437,438,439,440,441,442,443,444,445,446,447,448,449,450,451,452,453,454,455,456,457,458,459,460,461,462,463,464,465,466,467,468,469,470,471,472,473,474,475,476,477,478,479,480,481,482,483,484,485,486,487,488,489,490,491,492,493,494,495,496,497,498,499,500],"tree_info":[0,0,0,0,0,0,0,0,0,0,0,0,0,0,0,0,0,0,0,0,0,0,0,0,0,0,0,0,0,0,0,0,0,0,0,0,0,0,0,0,0,0,0,0,0,0,0,0,0,0,0,0,0,0,0,0,0,0,0,0,0,0,0,0,0,0,0,0,0,0,0,0,0,0,0,0,0,0,0,0,0,0,0,0,0,0,0,0,0,0,0,0,0,0,0,0,0,0,0,0,0,0,0,0,0,0,0,0,0,0,0,0,0,0,0,0,0,0,0,0,0,0,0,0,0,0,0,0,0,0,0,0,0,0,0,0,0,0,0,0,0,0,0,0,0,0,0,0,0,0,0,0,0,0,0,0,0,0,0,0,0,0,0,0,0,0,0,0,0,0,0,0,0,0,0,0,0,0,0,0,0,0,0,0,0,0,0,0,0,0,0,0,0,0,0,0,0,0,0,0,0,0,0,0,0,0,0,0,0,0,0,0,0,0,0,0,0,0,0,0,0,0,0,0,0,0,0,0,0,0,0,0,0,0,0,0,0,0,0,0,0,0,0,0,0,0,0,0,0,0,0,0,0,0,0,0,0,0,0,0,0,0,0,0,0,0,0,0,0,0,0,0,0,0,0,0,0,0,0,0,0,0,0,0,0,0,0,0,0,0,0,0,0,0,0,0,0,0,0,0,0,0,0,0,0,0,0,0,0,0,0,0,0,0,0,0,0,0,0,0,0,0,0,0,0,0,0,0,0,0,0,0,0,0,0,0,0,0,0,0,0,0,0,0,0,0,0,0,0,0,0,0,0,0,0,0,0,0,0,0,0,0,0,0,0,0,0,0,0,0,0,0,0,0,0,0,0,0,0,0,0,0,0,0,0,0,0,0,0,0,0,0,0,0,0,0,0,0,0,0,0,0,0,0,0,0,0,0,0,0,0,0,0,0,0,0,0,0,0,0,0,0,0,0,0,0,0,0,0,0,0,0,0,0,0,0,0,0,0,0,0,0,0,0,0,0,0,0,0,0,0,0,0,0,0,0,0,0,0,0,0,0,0,0,0,0,0,0,0,0,0,0,0,0,0,0,0,0,0,0,0,0,0,0,0,0,0,0,0,0,0,0,0,0,0,0,0,0,0,0],"trees":[{"base_weights":[1.0553761E-3,6.0797274E-1,-1.687949E-1,1.268915E0,4.446291E-1,7.3221577E-3,-3.647486E-1,1.1803286E0,2.2811441E0,2.846815E-1,6.671053E-1,-7.142896E-2,1.1182888E-1,-2.7882788E-1,-5.486425E-1,1.4615955E0,1.0324111E0,3.1888475E0,1.9668375E0,1.3169049E-1,3.873781E-1,5.3560835E-1,7.3589236E-1,-9.168865E-2,1.6794668E-1,-1.00425035E-1,1.6874035E-1,-3.5509574E-1,-9.1316715E-2,-4.8185623E-1,-7.475175E-1,4.183072E-2,6.604729E-2,3.1720903E-2,5.2936934E-4,6.68352E-2,1.1827086E-1,8.225351E-2,5.076683E-2,1.9258786E-3,8.122859E-3,9.982488E-3,1.5803127E-2,1.1805881E-2,1.8594371E-2,1.1581704E-2,2.3105774E-2,-4.283436E-3,-8.607107E-4,3.793975E-3,2.4414636E-2,1.08787045E-2,-3.6569715E-3,4.3533575E-3,1.9399136E-2,-9.694184E-3,-1.3489789E-2,1.1706769E-4,-5.77037E-3,-1.8798824E-2,-1.3438701E-2,3.2956894E-2,-2.2662066E-2],"categories":[],"categories_nodes":[],"categories_segments":[],"categories_sizes":[],"default_left":[0,0,0,0,0,0,0,0,0,0,0,0,0,0,0,0,0,0,0,0,0,0,0,0,0,0,0,0,0,0,0,0,0,0,0,0,0,0,0,0,0,0,0,0,0,0,0,0,0,0,0,0,0,0,0,0,0,0,0,0,0,0,0],"id":0,"left_children":[1,3,5,7,9,11,13,15,17,19,21,23,25,27,29,31,33,35,37,39,41,43,45,47,49,51,53,55,57,59,61,-1,-1,-1,-1,-1,-1,-1,-1,-1,-1,-1,-1,-1,-1,-1,-1,-1,-1,-1,-1,-1,-1,-1,-1,-1,-1,-1,-1,-1,-1,-1,-1],"loss_changes":[4.5856367E3,1.0495701E3,1.199494E3,1.7010083E2,2.7740503E2,1.5066676E2,2.5979346E2,7.229712E1,3.766388E1,7.127991E1,2.9111572E1,5.0646E1,9.50478E1,1.6035425E2,6.921167E1,2.723108E1,2.9505371E1,1.87341E1,2.025879E1,1.71131E1,2.0506561E1,1.3203186E1,2.5369263E1,3.097953E1,2.1732079E1,1.6590212E1,6.99615E1,2.394519E1,3.1207617E1,1.897705E1,1.9970703E1,0E0,0E0,0E0,0E0,0E0,0E0,0E0,0E0,0E0,0E0,0E0,0E0,0E0,0E0,0E0,0E0,0E0,0E0,0E0,0E0,0E0,0E0,0E0,0E0,0E0,0E0,0E0,0E0,0E0,0E0,0E0,0E0],"parents":[2147483647,0,0,1,1,2,2,3,3,4,4,5,5,6,6,7,7,8,8,9,9,10,10,11,11,12,12,13,13,14,14,15,15,16,16,17,17,18,18,19,19,20,20,21,21,22,22,23,23,24,24,25,25,26,26,27,27,28,28,29,29,30,30],"right_children":[2,4,6,8,10,12,14,16,18,20,22,24,26,28,30,32,34,36,38,40,42,44,46,48,50,52,54,56,58,60,62,-1,-1,-1,-1,-1,-1,-1,-1,-1,-1,-1,-1,-1,-1,-1,-1,-1,-1,-1,-1,-1,-1,-1,-1,-1,-1,-1,-1,-1,-1,-1,-1],"split_conditions":[1.8E0,1.29E0,2.35E0,1.1E1,4.2E0,1.33E0,3.6E0,1.17E0,1.1E1,3.7E0,4.5E0,3.6E0,3.3E0,3.39E0,7E0,2E-1,2E0,1.08E0,1.06E0,1.2E0,1.4E0,7.5E-1,7.57E-1,1.25E0,3.25E0,9.9E-1,2.83E0,2.95E0,2.87E0,3.4E0,1.7E-1,4.183072E-2,6.604729E-2,3.1720903E-2,5.2936934E-4,6.68352E-2,1.1827086E-1,8.225351E-2,5.076683E-2,1.9258786E-3,8.122859E-3,9.982488E-3,1.5803127E-2,1.1805881E-2,1.8594371E-2,1.1581704E-2,2.3105774E-2,-4.283436E-3,-8.607107E-4,3.793975E-3,2.4414636E-2,1.08787045E-2,-3.6569715E-3,4.3533575E-3,1.9399136E-2,-9.694184E-3,-1.3489789E-2,1.1706769E-4,-5.77037E-3,-1.8798824E-2,-1.3438701E-2,3.2956894E-2,-2.2662066E-2],"split_indices":[22,22,22,23,23,2,22,22,0,23,23,23,23,23,22,12,4,22,22,3,4,8,14,6,9,14,2,22,22,23,4,0,0,0,0,0,0,0,0,0,0,0,0,0,0,0,0,0,0,0,0,0,0,0,0,0,0,0,0,0,0,0,0],"split_type":[0,0,0,0,0,0,0,0,0,0,0,0,0,0,0,0,0,0,0,0,0,0,0,0,0,0,0,0,0,0,0,0,0,0,0,0,0,0,0,0,0,0,0,0,0,0,0,0,0,0,0,0,0,0,0,0,0,0,0,0,0,0,0],"sum_hessian":[4.4482E4,9.726E3,3.4756E4,1.926E3,7.8E3,1.8305E4,1.6451E4,1.773E3,1.53E2,4.539E3,3.261E3,1.0439E4,7.866E3,1.1214E4,5.237E3,6.08E2,1.165E3,3.7E1,1.16E2,1.824E3,2.715E3,1.123E3,2.138E3,9.625E3,8.14E2,1.663E3,6.203E3,7.971E3,3.243E3,3.923E3,1.314E3,5.6E2,4.8E1,1.137E3,2.8E1,1.8E1,1.9E1,2.8E1,8.8E1,1.229E3,5.95E2,1.953E3,7.62E2,4.2E2,7.03E2,1.92E2,1.946E3,5.314E3,4.311E3,7.66E2,4.8E1,7.3E1,1.59E3,5.912E3,2.91E2,5.961E3,2.01E3,1.67E3,1.573E3,7.41E2,3.182E3,5E0,1.309E3],"tree_param":{"num_deleted":"0","num_feature":"26","num_nodes":"63","size_leaf_vector":"1"}},{"base_weights":[-2.0007601E-4,5.834702E-1,-1.6283546E-1,1.2861865E0,4.2925185E-1,-4.5247646E-3,-3.6084843E-1,1.1179101E0,1.7749622E0,2.7747524E-1,6.386083E-1,-1.5356922E-1,5.4128803E-2,-2.793972E-1,-5.21715E-1,1.3296567E0,1.0222776E0,2.4393466E0,1.5959123E0,1.8789357E-1,3.931159E-1,4.9099025E-1,7.11639E-1,-5.0908122E-2,-1.8612552E-1,-7.972668E-3,2.2365117E-1,-3.4799713E-1,-1.1259677E-1,-4.6229252E-1,-6.964862E-1,4.144898E-2,1.2325543E-2,3.147424E-2,2.242686E-3,8.754447E-2,5.1959388E-2,7.0941664E-2,4.4723354E-2,-1.970004E-3,6.4179064E-3,1.2435097E-2,-1.2018757E-3,-7.737827E-3,1.5189437E-2,1.9906312E-2,2.7351731E-2,-2.1328311E-3,1.5317593E-2,-5.0070076E-3,-8.955298E-3,-1.123989E-3,5.5683353E-3,5.2919663E-3,1.672212E-2,-9.825992E-3,-1.3897759E-2,-6.0369435E-4,-5.78621E-3,-1.8345892E-2,-1.2901481E-2,2.5336776E-2,-2.112462E-2],"categories":[],"categories_nodes":[],"categories_segments":[],"categories_sizes":[],"default_left":[0,0,0,0,0,0,0,0,0,0,0,0,0,0,0,0,0,0,0,0,0,0,0,0,0,0,0,0,0,0,0,0,0,0,0,0,0,0,0,0,0,0,0,0,0,0,0,0,0,0,0,0,0,0,0,0,0,0,0,0,0,0,0],"id":1,"left_children":[1,3,5,7,9,11,13,15,17,19,21,23,25,27,29,31,33,35,37,39,41,43,45,47,49,51,53,55,57,59,61,-1,-1,-1,-1,-1,-1,-1,-1,-1,-1,-1,-1,-1,-1,-1,-1,-1,-1,-1,-1,-1,-1,-1,-1,-1,-1,-1,-1,-1,-1,-1,-1],"loss_changes":[4.2418384E3,1.0547725E3,1.0955332E3,1.421167E2,2.5361304E2,1.6979524E2,2.0330127E2,2.5087158E1,4.9281128E1,4.791037E1,3.5830322E1,1.832286E1,1.4673529E2,1.1793298E2,5.3868652E1,1.8677979E1,2.2932068E1,2.6443909E1,2.516858E1,1.7258118E1,1.8740204E1,1.2915558E1,2.0979858E1,1.5020472E1,8.946991E0,5.8255188E1,5.883635E1,1.7078735E1,2.231115E1,1.8488892E1,1.6216064E1,0E0,0E0,0E0,0E0,0E0,0E0,0E0,0E0,0E0,0E0,0E0,0E0,0E0,0E0,0E0,0E0,0E0,0E0,0E0,0E0,0E0,0E0,0E0,0E0,0E0,0E0,0E0,0E0,0E0,0E0,0E0,0E0],"parents":[2147483647,0,0,1,1,2,2,3,3,4,4,5,5,6,6,7,7,8,8,9,9,10,10,11,11,12,12,13,13,14,14,15,15,16,16,17,17,18,18,19,19,20,20,21,21,22,22,23,23,24,24,25,25,26,26,27,27,28,28,29,29,30,30],"right_children":[2,4,6,8,10,12,14,16,18,20,22,24,26,28,30,32,34,36,38,40,42,44,46,48,50,52,54,56,58,60,62,-1,-1,-1,-1,-1,-1,-1,-1,-1,-1,-1,-1,-1,-1,-1,-1,-1,-1,-1,-1,-1,-1,-1,-1,-1,-1,-1,-1,-1,-1,-1,-1],"split_conditions":[1.8E0,1.28E0,2.39E0,8.5E0,4.2E0,3.29E0,3.6E0,1.18E0,1.1E1,3.79E0,4.5E0,2.04E0,1.67E0,3.39E0,7E0,2.575E0,2E0,1.11E0,1.07E0,3.39E0,3.33E0,4.38E-1,1.4E0,1.727E0,1.295E0,3.6E0,2.4E0,3.2E0,2.87E0,3.39E0,1.7E-1,4.144898E-2,1.2325543E-2,3.147424E-2,2.242686E-3,8.754447E-2,5.1959388E-2,7.0941664E-2,4.4723354E-2,-1.970004E-3,6.4179064E-3,1.2435097E-2,-1.2018757E-3,-7.737827E-3,1.5189437E-2,1.9906312E-2,2.7351731E-2,-2.1328311E-3,1.5317593E-2,-5.0070076E-3,-8.955298E-3,-1.123989E-3,5.5683353E-3,5.2919663E-3,1.672212E-2,-9.825992E-3,-1.3897759E-2,-6.0369435E-4,-5.78621E-3,-1.8345892E-2,-1.2901481E-2,2.5336776E-2,-2.112462E-2],"split_indices":[22,22,22,23,23,23,22,22,0,23,23,22,2,23,22,14,4,22,22,23,11,14,7,14,14,23,9,22,22,23,4,0,0,0,0,0,0,0,0,0,0,0,0,0,0,0,0,0,0,0,0,0,0,0,0,0,0,0,0,0,0,0,0],"split_type":[0,0,0,0,0,0,0,0,0,0,0,0,0,0,0,0,0,0,0,0,0,0,0,0,0,0,0,0,0,0,0,0,0,0,0,0,0,0,0,0,0,0,0,0,0,0,0,0,0,0,0,0,0,0,0,0,0,0,0,0,0,0,0],"sum_hessian":[4.4684E4,9.737E3,3.4947E4,1.751E3,7.986E3,1.9421E4,1.5526E4,1.305E3,4.46E2,4.631E3,3.355E3,5.484E3,1.3937E4,1.0309E4,5.217E3,4.02E2,9.03E2,9.2E1,3.54E2,2.611E3,2.02E3,1.113E3,2.242E3,1.321E3,4.163E3,1.0201E4,3.736E3,7.304E3,3.005E3,3.896E3,1.321E3,3.8E2,2.2E1,8.78E2,2.5E1,5.3E1,3.9E1,4E1,3.14E2,2.43E2,2.368E3,1.925E3,9.5E1,2.2E1,1.091E3,1.811E3,4.31E2,1.276E3,4.5E1,3.557E3,6.06E2,8.853E3,1.348E3,3.274E3,4.62E2,6.206E3,1.098E3,1.397E3,1.608E3,6.89E2,3.207E3,6E0,1.315E3],"tree_param":{"num_deleted":"0","num_feature":"26","num_nodes":"63","size_leaf_vector":"1"}},{"base_weights":[8.452681E-4,7.420934E-1,-1.2232117E-1,5.2915156E-1,1.2694936E0,3.2658786E-2,-3.4872654E-1,3.625899E-1,7.1337926E-1,1.6106666E0,1.034474E0,-2.5121363E-2,2.6367038E-1,-2.6879022E-1,-5.0304234E-1,2.0506243E-1,4.2988405E-1,6.8189293E-1,1.0757205E0,1.4705586E0,2.1369853E0,1.0640763E0,3.7339073E-1,-5.605921E-2,2.2294721E-1,1.8224531E-1,4.1580254E-1,-3.385689E-1,-9.785E-2,-4.5106488E-1,-6.609715E-1,3.642575E-2,5.4501076E-3,3.694849E-3,1.4043459E-2,1.0140534E-2,2.126082E-2,6.1053135E-2,2.8884878E-2,4.549691E-2,2.287091E-2,6.780078E-2,2.538416E-2,3.100341E-2,4.7176637E-2,1.5628066E-2,-2.9990448E-2,-4.4980342E-3,-3.094322E-4,2.1333424E-2,4.8058415E-3,3.386388E-3,8.186862E-3,1.3575454E-2,4.2846836E-3,-8.855569E-3,-1.1893873E-2,3.1549743E-4,-5.1858E-3,-1.850995E-2,-1.2459814E-2,2.4685258E-2,-2.0052895E-2],"categories":[],"categories_nodes":[],"categories_segments":[],"categories_sizes":[],"default_left":[0,0,0,0,0,0,0,0,0,0,0,0,0,0,0,0,0,0,0,0,0,0,0,0,0,0,0,0,0,0,0,0,0,0,0,0,0,0,0,0,0,0,0,0,0,0,0,0,0,0,0,0,0,0,0,0,0,0,0,0,0,0,0],"id":2,"left_children":[1,3,5,7,9,11,13,15,17,19,21,23,25,27,29,31,33,35,37,39,41,43,45,47,49,51,53,55,57,59,61,-1,-1,-1,-1,-1,-1,-1,-1,-1,-1,-1,-1,-1,-1,-1,-1,-1,-1,-1,-1,-1,-1,-1,-1,-1,-1,-1,-1,-1,-1,-1,-1],"loss_changes":[4.069376E3,7.1258105E2,1.3411561E3,1.3862292E2,1.4474683E2,3.0288345E2,1.9145886E2,2.513086E1,2.377246E1,5.1647583E1,2.0815918E1,1.393238E2,5.6162903E1,1.220379E2,4.3200195E1,1.6633905E1,1.9478485E1,1.799939E1,1.6452576E1,1.8066406E1,2.2546997E1,1.4525391E1,1.0245073E1,6.930853E1,6.1551697E1,1.8575409E1,1.5789825E1,1.8134766E1,2.4127436E1,2.3404724E1,1.5047546E1,0E0,0E0,0E0,0E0,0E0,0E0,0E0,0E0,0E0,0E0,0E0,0E0,0E0,0E0,0E0,0E0,0E0,0E0,0E0,0E0,0E0,0E0,0E0,0E0,0E0,0E0,0E0,0E0,0E0,0E0,0E0,0E0],"parents":[2147483647,0,0,1,1,2,2,3,3,4,4,5,5,6,6,7,7,8,8,9,9,10,10,11,11,12,12,13,13,14,14,15,15,16,16,17,17,18,18,19,19,20,20,21,21,22,22,23,23,24,24,25,25,26,26,27,27,28,28,29,29,30,30],"right_children":[2,4,6,8,10,12,14,16,18,20,22,24,26,28,30,32,34,36,38,40,42,44,46,48,50,52,54,56,58,60,62,-1,-1,-1,-1,-1,-1,-1,-1,-1,-1,-1,-1,-1,-1,-1,-1,-1,-1,-1,-1,-1,-1,-1,-1,-1,-1,-1,-1,-1,-1,-1,-1],"split_conditions":[1.61E0,5.75E0,2.39E0,4.5E0,1.17E0,3.6E0,3.6E0,3.89E0,3.5E0,1.1E1,1.261E0,2E0,3.79E0,3.39E0,7E0,1.45E0,9.57E-1,7.5E-1,4.75E-1,1.5E1,9E0,1.114E0,1.6E1,3.29E0,5.36E-1,1.33E0,1.644E0,2.8E0,2.79E0,3.39E0,1.7E-1,3.642575E-2,5.4501076E-3,3.694849E-3,1.4043459E-2,1.0140534E-2,2.126082E-2,6.1053135E-2,2.8884878E-2,4.549691E-2,2.287091E-2,6.780078E-2,2.538416E-2,3.100341E-2,4.7176637E-2,1.5628066E-2,-2.9990448E-2,-4.4980342E-3,-3.094322E-4,2.1333424E-2,4.8058415E-3,3.386388E-3,8.186862E-3,1.3575454E-2,4.2846836E-3,-8.855569E-3,-1.1893873E-2,3.1549743E-4,-5.1858E-3,-1.850995E-2,-1.2459814E-2,2.4685258E-2,-2.0052895E-2],"split_indices":[22,23,22,23,22,23,22,23,6,23,16,2,23,23,22,22,18,6,17,20,1,16,24,23,15,3,14,22,22,23,4,0,0,0,0,0,0,0,0,0,0,0,0,0,0,0,0,0,0,0,0,0,0,0,0,0,0,0,0,0,0,0,0],"split_type":[0,0,0,0,0,0,0,0,0,0,0,0,0,0,0,0,0,0,0,0,0,0,0,0,0,0,0,0,0,0,0,0,0,0,0,0,0,0,0,0,0,0,0,0,0,0,0,0,0,0,0,0,0,0,0,0,0,0,0,0,0,0,0],"sum_hessian":[4.4571E4,6.35E3,3.8221E4,4.525E3,1.825E3,2.269E4,1.5531E4,2.378E3,2.147E3,7.42E2,1.083E3,1.8151E4,4.539E3,1.0233E4,5.298E3,7.13E2,1.665E3,1.978E3,1.69E2,5.89E2,1.53E2,1.036E3,4.7E1,1.6139E4,2.012E3,2.958E3,1.581E3,7.266E3,2.967E3,3.989E3,1.309E3,1.5E1,6.98E2,1.85E2,1.48E3,1.44E2,1.834E3,1.6E1,1.53E2,5.52E2,3.7E1,1.39E2,1.4E1,9.8E2,5.6E1,4.3E1,4E0,5.287E3,1.0852E4,2.28E2,1.784E3,1.677E3,1.281E3,1.393E3,1.88E2,4.157E3,3.109E3,1.214E3,1.753E3,7.04E2,3.285E3,6E0,1.303E3],"tree_param":{"num_deleted":"0","num_feature":"26","num_nodes":"63","size_leaf_vector":"1"}},{"base_weights":[-3.5925065E-3,5.4297644E-1,-1.551601E-1,1.1391317E0,3.9933968E-1,-8.040932E-3,-3.3721447E-1,1.4375226E0,9.524588E-1,6.241321E-1,2.9997274E-1,-7.0271686E-2,1.0217226E-1,-2.62532E-1,-5.184322E-1,2.1666837E0,1.3703655E0,9.7168714E-1,1.7103724E-1,2.9684865E-1,6.532744E-1,3.9278498E-1,2.5623706E-1,-2.9225877E-1,-5.7016674E-2,1.3666894E-1,-1.0370149E-1,-2.1002935E-1,-3.14007E-1,-4.592342E-1,-6.5908206E-1,3.3970952E-2,7.220016E-2,5.5172797E-2,3.7767395E-2,2.8212652E-2,3.9794058E-2,-3.9385464E-3,3.4198426E-2,-2.2764904E-2,1.0542684E-2,1.7447766E-2,2.349702E-2,1.3177881E-2,-2.886675E-4,8.951124E-3,2.9595399E-3,-1.051843E-3,-1.2322994E-2,-2.2688347E-3,2.5313015E-3,2.1619406E-3,7.260015E-3,3.337668E-3,-5.896718E-3,-2.3355852E-3,-7.2478503E-3,-1.0641084E-2,-7.4380334E-3,-1.3985254E-2,-8.942696E-4,4.0447127E-2,-1.9982405E-2],"categories":[],"categories_nodes":[],"categories_segments":[],"categories_sizes":[],"default_left":[0,0,0,0,0,0,0,0,0,0,0,0,0,0,0,0,0,0,0,0,0,0,0,0,0,0,0,0,0,0,0,0,0,0,0,0,0,0,0,0,0,0,0,0,0,0,0,0,0,0,0,0,0,0,0,0,0,0,0,0,0,0,0],"id":3,"left_children":[1,3,5,7,9,11,13,15,17,19,21,23,25,27,29,31,33,35,37,39,41,43,45,47,49,51,53,55,57,59,61,-1,-1,-1,-1,-1,-1,-1,-1,-1,-1,-1,-1,-1,-1,-1,-1,-1,-1,-1,-1,-1,-1,-1,-1,-1,-1,-1,-1,-1,-1,-1,-1],"loss_changes":[3.6879678E3,8.271572E2,9.334891E2,1.0312695E2,1.738175E2,1.3222139E2,2.1067981E2,3.2287964E1,1.721814E1,2.2572815E1,2.1835266E1,3.6237167E1,4.942251E1,2.9751526E1,3.7539673E1,1.1920013E1,3.226819E1,1.1275879E1,8.644425E0,1.1616386E1,1.9955383E1,3.2341675E1,2.4378036E1,2.1138622E1,3.06054E1,4.053276E1,1.9961916E1,2.278247E1,1.4886414E1,9.530029E0,1.9777893E1,0E0,0E0,0E0,0E0,0E0,0E0,0E0,0E0,0E0,0E0,0E0,0E0,0E0,0E0,0E0,0E0,0E0,0E0,0E0,0E0,0E0,0E0,0E0,0E0,0E0,0E0,0E0,0E0,0E0,0E0,0E0,0E0],"parents":[2147483647,0,0,1,1,2,2,3,3,4,4,5,5,6,6,7,7,8,8,9,9,10,10,11,11,12,12,13,13,14,14,15,15,16,16,17,17,18,18,19,19,20,20,21,21,22,22,23,23,24,24,25,25,26,26,27,27,28,28,29,29,30,30],"right_children":[2,4,6,8,10,12,14,16,18,20,22,24,26,28,30,32,34,36,38,40,42,44,46,48,50,52,54,56,58,60,62,-1,-1,-1,-1,-1,-1,-1,-1,-1,-1,-1,-1,-1,-1,-1,-1,-1,-1,-1,-1,-1,-1,-1,-1,-1,-1,-1,-1,-1,-1,-1,-1],"split_conditions":[1.8E0,1.29E0,2.39E0,1.17E0,1.48E0,1.6E0,3.79E0,1.07E0,2E0,7.5E-1,1.6E0,2E0,2.25E0,2.8E0,7E0,2E-1,1E1,1.106E0,1.949E0,2.67E-1,1.2E0,7.5E0,5.59E0,2.2E0,2.4E0,1.4E0,3.1E0,2.64E0,1.6E0,1.698E0,1.7E-1,3.3970952E-2,7.220016E-2,5.5172797E-2,3.7767395E-2,2.8212652E-2,3.9794058E-2,-3.9385464E-3,3.4198426E-2,-2.2764904E-2,1.0542684E-2,1.7447766E-2,2.349702E-2,1.3177881E-2,-2.886675E-4,8.951124E-3,2.9595399E-3,-1.051843E-3,-1.2322994E-2,-2.2688347E-3,2.5313015E-3,2.1619406E-3,7.260015E-3,3.337668E-3,-5.896718E-3,-2.3355852E-3,-7.2478503E-3,-1.0641084E-2,-7.4380334E-3,-1.3985254E-2,-8.942696E-4,4.0447127E-2,-1.9982405E-2],"split_indices":[22,22,22,22,22,6,22,22,4,6,22,0,22,22,22,7,0,16,19,14,4,24,24,22,9,5,24,24,4,14,4,0,0,0,0,0,0,0,0,0,0,0,0,0,0,0,0,0,0,0,0,0,0,0,0,0,0,0,0,0,0,0,0],"split_type":[0,0,0,0,0,0,0,0,0,0,0,0,0,0,0,0,0,0,0,0,0,0,0,0,0,0,0,0,0,0,0,0,0,0,0,0,0,0,0,0,0,0,0,0,0,0,0,0,0,0,0,0,0,0,0,0,0,0,0,0,0,0,0],"sum_hessian":[4.4516E4,9.664E3,3.4852E4,1.875E3,7.789E3,1.9276E4,1.5576E4,7.19E2,1.156E3,2.386E3,5.403E3,1.232E4,6.956E3,1.1032E4,4.544E3,5.8E1,6.61E2,1.128E3,2.8E1,1.96E2,2.19E3,1.728E3,3.675E3,6.93E2,1.1627E4,5.958E3,9.98E2,5.464E3,5.568E3,3.201E3,1.343E3,1.2E1,4.6E1,1.24E2,5.37E2,1.04E3,8.8E1,2.2E1,6E0,9E0,1.87E2,1.415E3,7.75E2,1.549E3,1.79E2,2.899E3,7.76E2,2.19E2,4.74E2,1.0275E4,1.352E3,3.694E3,2.264E3,3.01E2,6.97E2,1.054E3,4.41E3,3.443E3,2.125E3,3.15E3,5.1E1,4E0,1.339E3],"tree_param":{"num_deleted":"0","num_feature":"26","num_nodes":"63","size_leaf_vector":"1"}},{"base_weights":[9.203422E-4,5.708343E-1,-1.4177364E-1,1.1709645E0,4.2387623E-1,8.559779E-3,-3.2855093E-1,1.4661961E0,9.5988935E-1,6.148537E-1,3.193313E-1,-2.8425373E-2,1.977003E-1,-2.5033385E-1,-4.8652512E-1,2.5697765E0,1.4036567E0,9.8583037E-1,-3.836132E-2,5.63766E-1,8.706519E-1,2.9526517E-1,4.792055E-1,1.3853925E-1,-6.3984655E-2,1.5402076E-1,6.0801744E-1,-2.7343073E-1,-1.697685E-1,-4.1357896E-1,-6.1303824E-1,2.391366E-2,8.6317174E-2,5.5566438E-2,3.896831E-2,5.1087536E-2,2.8926779E-2,9.074422E-3,-1.9441225E-2,1.5252407E-2,2.6595978E-2,3.393435E-2,1.8961545E-2,7.510406E-3,1.2290738E-2,2.1649526E-2,8.02089E-3,9.5918105E-4,6.243318E-3,-3.870841E-3,-3.4869448E-4,3.7530402E-3,1.8841099E-2,-1.4334677E-2,2.366241E-2,-8.283992E-3,1.6875448E-2,1.9842128E-3,-5.8891824E-3,-1.3082496E-2,-8.509589E-3,2.0235091E-2,-1.8522393E-2],"categories":[],"categories_nodes":[],"categories_segments":[],"categories_sizes":[],"default_left":[0,0,0,0,0,0,0,0,0,0,0,0,0,0,0,0,0,0,0,0,0,0,0,0,0,0,0,0,0,0,0,0,0,0,0,0,0,0,0,0,0,0,0,0,0,0,0,0,0,0,0,0,0,0,0,0,0,0,0,0,0,0,0],"id":4,"left_children":[1,3,5,7,9,11,13,15,17,19,21,23,25,27,29,31,33,35,37,39,41,43,45,47,49,51,53,55,57,59,61,-1,-1,-1,-1,-1,-1,-1,-1,-1,-1,-1,-1,-1,-1,-1,-1,-1,-1,-1,-1,-1,-1,-1,-1,-1,-1,-1,-1,-1,-1,-1,-1],"loss_changes":[3.630759E3,7.879575E2,1.0025869E3,1.0814429E2,1.4321753E2,1.3840244E2,1.966272E2,4.6844482E1,2.6658447E1,3.270221E1,1.7726593E1,9.826263E1,5.7903465E1,1.9774963E1,4.8399902E1,1.841742E1,3.0191162E1,1.3881226E1,5.806739E0,3.7424988E1,2.5451813E1,2.0657196E1,3.093135E1,2.1538368E1,4.6466812E1,4.0031815E1,6.1408577E1,1.885315E1,1.4887825E1,9.662537E0,1.126532E1,0E0,0E0,0E0,0E0,0E0,0E0,0E0,0E0,0E0,0E0,0E0,0E0,0E0,0E0,0E0,0E0,0E0,0E0,0E0,0E0,0E0,0E0,0E0,0E0,0E0,0E0,0E0,0E0,0E0,0E0,0E0,0E0],"parents":[2147483647,0,0,1,1,2,2,3,3,4,4,5,5,6,6,7,7,8,8,9,9,10,10,11,11,12,12,13,13,14,14,15,15,16,16,17,17,18,18,19,19,20,20,21,21,22,22,23,23,24,24,25,25,26,26,27,27,28,28,29,29,30,30],"right_children":[2,4,6,8,10,12,14,16,18,20,22,24,26,28,30,32,34,36,38,40,42,44,46,48,50,52,54,56,58,60,62,-1,-1,-1,-1,-1,-1,-1,-1,-1,-1,-1,-1,-1,-1,-1,-1,-1,-1,-1,-1,-1,-1,-1,-1,-1,-1,-1,-1,-1,-1,-1,-1],"split_conditions":[1.75E0,1.28E0,2.38E0,1.17E0,1.48E0,1.83E0,3.6E0,1.06E0,2E0,1.4E0,2.17E0,1.91E0,2.83E0,1.4E0,5.75E0,2E-1,1E1,2.41E-1,2.17E0,1.808E0,1.097E0,1.33E0,1.3E1,1.258E0,1.25E0,2.2E0,1.75E0,3.189E0,1.056E0,1.6E0,2E-1,2.391366E-2,8.6317174E-2,5.5566438E-2,3.896831E-2,5.1087536E-2,2.8926779E-2,9.074422E-3,-1.9441225E-2,1.5252407E-2,2.6595978E-2,3.393435E-2,1.8961545E-2,7.510406E-3,1.2290738E-2,2.1649526E-2,8.02089E-3,9.5918105E-4,6.243318E-3,-3.870841E-3,-3.4869448E-4,3.7530402E-3,1.8841099E-2,-1.4334677E-2,2.366241E-2,-8.283992E-3,1.6875448E-2,1.9842128E-3,-5.8891824E-3,-1.3082496E-2,-8.509589E-3,2.0235091E-2,-1.8522393E-2],"split_indices":[22,22,22,22,22,2,22,22,4,7,2,22,2,2,22,7,0,15,10,14,16,8,0,19,6,5,11,19,14,2,4,0,0,0,0,0,0,0,0,0,0,0,0,0,0,0,0,0,0,0,0,0,0,0,0,0,0,0,0,0,0,0,0],"split_type":[0,0,0,0,0,0,0,0,0,0,0,0,0,0,0,0,0,0,0,0,0,0,0,0,0,0,0,0,0,0,0,0,0,0,0,0,0,0,0,0,0,0,0,0,0,0,0,0,0,0,0,0,0,0,0,0,0,0,0,0,0,0,0],"sum_hessian":[4.4644E4,8.939E3,3.5705E4,1.757E3,7.182E3,1.9783E4,1.5922E4,7.3E2,1.027E3,2.539E3,4.643E3,1.6548E4,3.235E3,1.0651E4,5.271E3,3.7E1,6.93E2,1.001E3,2.6E1,2.119E3,4.2E2,4.038E3,6.05E2,2.905E3,1.3643E4,2.925E3,3.1E2,8.276E3,2.375E3,3.346E3,1.925E3,6E0,3.1E1,1.28E2,5.65E2,2.7E1,9.74E2,1.7E1,9E0,1.811E3,3.08E2,1.99E2,2.21E2,2.902E3,1.136E3,2.81E2,3.24E2,1.148E3,1.757E3,6.084E3,7.559E3,2.758E3,1.67E2,4.4E1,2.66E2,8.25E3,2.6E1,2.4E2,2.135E3,2.85E3,4.96E2,6E0,1.919E3],"tree_param":{"num_deleted":"0","num_feature":"26","num_nodes":"63","size_leaf_vector":"1"}},{"base_weights":[-6.385341E-3,5.482112E-1,-1.4596754E-1,4.0841785E-1,1.1513665E0,-5.2622333E-3,-3.2837573E-1,2.9606676E-1,6.497428E-1,1.0491874E0,1.8144958E0,-7.670798E-2,9.067007E-2,-2.8808334E-1,-6.114194E-1,1.0946086E-1,3.6569172E-1,6.894093E-1,3.9109406E-1,1.2183217E0,9.24343E-1,1.4508587E0,2.191635E0,-1.12305015E-1,8.722432E-2,-1.07933074E-1,1.4683701E-1,-3.4191057E-1,-2.1141693E-1,7.468407E-1,-6.1674094E-1,1.2234506E-3,9.1395425E-3,1.26939025E-2,8.640794E-3,1.9807562E-2,3.019079E-2,1.0623477E-2,4.7653828E-2,3.4927294E-2,5.5550963E-2,2.9051032E-2,3.5803244E-4,2.5712078E-2,4.8584178E-2,9.428339E-2,5.9761737E-2,-2.842467E-3,-8.611388E-3,1.6510782E-3,1.2626906E-2,9.764504E-3,-3.914461E-3,3.3906493E-3,1.3178088E-2,-9.050489E-3,-1.4369535E-2,-1.7273017E-3,-9.565502E-3,-7.951977E-3,5.4750416E-2,-1.7076803E-2,-2.1719178E-2],"categories":[],"categories_nodes":[],"categories_segments":[],"categories_sizes":[],"default_left":[0,0,0,0,0,0,0,0,0,0,0,0,0,0,0,0,0,0,0,0,0,0,0,0,0,0,0,0,0,0,0,0,0,0,0,0,0,0,0,0,0,0,0,0,0,0,0,0,0,0,0,0,0,0,0,0,0,0,0,0,0,0,0],"id":5,"left_children":[1,3,5,7,9,11,13,15,17,19,21,23,25,27,29,31,33,35,37,39,41,43,45,47,49,51,53,55,57,59,61,-1,-1,-1,-1,-1,-1,-1,-1,-1,-1,-1,-1,-1,-1,-1,-1,-1,-1,-1,-1,-1,-1,-1,-1,-1,-1,-1,-1,-1,-1,-1,-1],"loss_changes":[3.4548918E3,7.561914E2,9.1513806E2,1.9738086E2,1.1247168E2,1.379771E2,1.7690161E2,6.458432E1,2.3471313E1,2.9807983E1,2.754004E1,6.733984E1,9.5870155E1,5.602661E1,1.4439697E1,1.812525E1,1.6035767E1,1.7864563E1,1.3163181E1,1.9046326E1,3.401111E1,1.0326172E1,1.4240662E1,2.9055313E1,2.2091274E1,1.8562479E1,6.6194855E1,4.3885986E1,9.270116E1,9.211833E0,9.406006E0,0E0,0E0,0E0,0E0,0E0,0E0,0E0,0E0,0E0,0E0,0E0,0E0,0E0,0E0,0E0,0E0,0E0,0E0,0E0,0E0,0E0,0E0,0E0,0E0,0E0,0E0,0E0,0E0,0E0,0E0,0E0,0E0],"parents":[2147483647,0,0,1,1,2,2,3,3,4,4,5,5,6,6,7,7,8,8,9,9,10,10,11,11,12,12,13,13,14,14,15,15,16,16,17,17,18,18,19,19,20,20,21,21,22,22,23,23,24,24,25,25,26,26,27,27,28,28,29,29,30,30],"right_children":[2,4,6,8,10,12,14,16,18,20,22,24,26,28,30,32,34,36,38,40,42,44,46,48,50,52,54,56,58,60,62,-1,-1,-1,-1,-1,-1,-1,-1,-1,-1,-1,-1,-1,-1,-1,-1,-1,-1,-1,-1,-1,-1,-1,-1,-1,-1,-1,-1,-1,-1,-1,-1],"split_conditions":[1.75E0,6E0,2.39E0,4.5E0,1E1,1.33E0,5.75E0,3.7E0,2.67E0,1.18E0,2.6E1,3.5E0,3.3E0,3.39E0,2E-1,1.33E0,2E0,3.5E0,2.6E0,2.5E-1,1.261E0,8.27E-1,1.6E0,1.532E0,3.8E0,9.9E-1,2.5E0,3.2E0,3.25E0,2.5E-1,9.5E0,1.2234506E-3,9.1395425E-3,1.26939025E-2,8.640794E-3,1.9807562E-2,3.019079E-2,1.0623477E-2,4.7653828E-2,3.4927294E-2,5.5550963E-2,2.9051032E-2,3.5803244E-4,2.5712078E-2,4.8584178E-2,9.428339E-2,5.9761737E-2,-2.842467E-3,-8.611388E-3,1.6510782E-3,1.2626906E-2,9.764504E-3,-3.914461E-3,3.3906493E-3,1.3178088E-2,-9.050489E-3,-1.4369535E-2,-1.7273017E-3,-9.565502E-3,-7.951977E-3,5.4750416E-2,-1.7076803E-2,-2.1719178E-2],"split_indices":[22,23,22,23,23,2,22,23,10,22,24,23,23,23,4,3,10,6,8,12,16,17,6,16,23,14,2,22,22,6,22,0,0,0,0,0,0,0,0,0,0,0,0,0,0,0,0,0,0,0,0,0,0,0,0,0,0,0,0,0,0,0,0],"split_type":[0,0,0,0,0,0,0,0,0,0,0,0,0,0,0,0,0,0,0,0,0,0,0,0,0,0,0,0,0,0,0,0,0,0,0,0,0,0,0,0,0,0,0,0,0,0,0,0,0,0,0,0,0,0,0,0,0,0,0,0,0,0,0],"sum_hessian":[4.4628E4,8.973E3,3.5655E4,7.286E3,1.687E3,2.0129E4,1.5526E4,4.973E3,2.313E3,1.464E3,2.23E2,1.1537E4,8.592E3,1.3593E4,1.933E3,1.352E3,3.621E3,2.004E3,3.09E2,6.18E2,8.46E2,1.16E2,1.07E2,9.479E3,2.058E3,1.894E3,6.698E3,7.984E3,5.609E3,7E0,1.926E3,1.001E3,3.51E2,2.079E3,1.542E3,1.838E3,1.66E2,3.01E2,8E0,5.72E2,4.6E1,8.07E2,3.9E1,2.7E1,8.9E1,1.6E1,9.1E1,8.615E3,8.64E2,1.878E3,1.8E2,9.3E1,1.801E3,6.005E3,6.93E2,6.175E3,1.809E3,2.307E3,3.302E3,4E0,3E0,1.339E3,5.87E2],"tree_param":{"num_deleted":"0","num_feature":"26","num_nodes":"63","size_leaf_vector":"1"}},{"base_weights":[4.880317E-5,5.07364E-1,-1.402269E-1,3.70863E-1,1.0799531E0,-1.5161588E-3,-3.1197876E-1,2.3742718E-1,5.595613E-1,9.3929076E-1,1.5196239E0,-1.253895E-1,4.7174364E-2,-2.6049066E-1,-5.3205794E-1,1.5899518E-1,3.4008268E-1,4.2524213E-1,6.296938E-1,8.543109E-1,1.0500232E0,3.283365E0,1.4718596E0,-3.4092702E-2,-1.5544178E-1,-2.1719804E-2,1.5620624E-1,-3.180232E-1,-1.6401538E-1,-4.206882E-1,-5.892419E-1,6.0607117E-2,4.681608E-3,8.932483E-3,1.94781E-2,9.881879E-3,1.6252458E-2,2.1276919E-3,1.9522807E-2,3.5778563E-2,2.4115987E-2,2.2684703E-2,3.46861E-2,4.1628204E-2,1.2505278E-1,3.945687E-2,5.3773664E-2,-5.1281867E-3,9.767918E-4,-6.0188984E-3,-3.1266392E-3,-9.735534E-3,-2.6073487E-4,2.5564658E-2,4.2723324E-3,-8.692398E-3,-1.4760153E-2,-3.917834E-4,-7.1832365E-3,-1.42609365E-2,-5.645637E-3,-1.6344786E-2,-2.0658016E-2],"categories":[],"categories_nodes":[],"categories_segments":[],"categories_sizes":[],"default_left":[0,0,0,0,0,0,0,0,0,0,0,0,0,0,0,0,0,0,0,0,0,0,0,0,0,0,0,0,0,0,0,0,0,0,0,0,0,0,0,0,0,0,0,0,0,0,0,0,0,0,0,0,0,0,0,0,0,0,0,0,0,0,0],"id":6,"left_children":[1,3,5,7,9,11,13,15,17,19,21,23,25,27,29,31,33,35,37,39,41,43,45,47,49,51,53,55,57,59,61,-1,-1,-1,-1,-1,-1,-1,-1,-1,-1,-1,-1,-1,-1,-1,-1,-1,-1,-1,-1,-1,-1,-1,-1,-1,-1,-1,-1,-1,-1,-1,-1],"loss_changes":[3.1667266E3,7.5297363E2,8.3049805E2,1.958866E2,1.1329541E2,1.1632862E2,1.7634888E2,3.6676758E1,3.0102722E1,1.2352295E1,3.290857E1,1.4925789E1,1.0400232E2,7.001691E1,1.8552124E1,1.3853981E1,2.5657257E1,1.2205429E1,2.4861877E1,1.2728088E1,1.8065796E1,1.267234E1,1.963678E1,1.2310033E1,9.454887E0,3.34709E1,5.134813E1,3.8756897E1,5.3715927E1,1.2686371E1,8.221558E0,0E0,0E0,0E0,0E0,0E0,0E0,0E0,0E0,0E0,0E0,0E0,0E0,0E0,0E0,0E0,0E0,0E0,0E0,0E0,0E0,0E0,0E0,0E0,0E0,0E0,0E0,0E0,0E0,0E0,0E0,0E0,0E0],"parents":[2147483647,0,0,1,1,2,2,3,3,4,4,5,5,6,6,7,7,8,8,9,9,10,10,11,11,12,12,13,13,14,14,15,15,16,16,17,17,18,18,19,19,20,20,21,21,22,22,23,23,24,24,25,25,26,26,27,27,28,28,29,29,30,30],"right_children":[2,4,6,8,10,12,14,16,18,20,22,24,26,28,30,32,34,36,38,40,42,44,46,48,50,52,54,56,58,60,62,-1,-1,-1,-1,-1,-1,-1,-1,-1,-1,-1,-1,-1,-1,-1,-1,-1,-1,-1,-1,-1,-1,-1,-1,-1,-1,-1,-1,-1,-1,-1,-1],"split_conditions":[1.8E0,5.75E0,2.39E0,4.2E0,8.5E0,3.29E0,4.59E0,3.79E0,4.5E0,2.5E0,7.07E-1,2.04E0,1.6E0,3.39E0,5.75E0,1.44E0,1.83E0,1.53E0,5.92E-1,1.7E-1,1E0,7E0,1E-1,7.92E-1,1.378E0,2.77E-1,1E0,3.4E0,2.9E0,4.2E0,9.5E0,6.0607117E-2,4.681608E-3,8.932483E-3,1.94781E-2,9.881879E-3,1.6252458E-2,2.1276919E-3,1.9522807E-2,3.5778563E-2,2.4115987E-2,2.2684703E-2,3.46861E-2,4.1628204E-2,1.2505278E-1,3.945687E-2,5.3773664E-2,-5.1281867E-3,9.767918E-4,-6.0188984E-3,-3.1266392E-3,-9.735534E-3,-2.6073487E-4,2.5564658E-2,4.2723324E-3,-8.692398E-3,-1.4760153E-2,-3.917834E-4,-7.1832365E-3,-1.42609365E-2,-5.645637E-3,-1.6344786E-2,-2.0658016E-2],"split_indices":[22,23,22,23,23,23,22,23,23,6,18,22,6,23,22,22,4,22,14,11,10,20,12,14,18,14,1,22,22,23,22,0,0,0,0,0,0,0,0,0,0,0,0,0,0,0,0,0,0,0,0,0,0,0,0,0,0,0,0,0,0,0,0],"split_type":[0,0,0,0,0,0,0,0,0,0,0,0,0,0,0,0,0,0,0,0,0,0,0,0,0,0,0,0,0,0,0,0,0,0,0,0,0,0,0,0,0,0,0,0,0,0,0,0,0,0,0,0,0,0,0,0,0,0,0,0,0,0,0],"sum_hessian":[4.4497E4,9.638E3,3.4859E4,7.784E3,1.854E3,1.9285E4,1.5574E4,4.561E3,3.223E3,1.407E3,4.47E2,5.441E3,1.3844E4,1.2623E4,2.951E3,2.587E3,1.974E3,1.108E3,2.115E3,8.01E2,6.06E2,1E1,4.37E2,1.348E3,4.093E3,8.484E3,5.36E3,7.906E3,4.717E3,1.004E3,1.947E3,3E0,2.584E3,1.738E3,2.36E2,6.1E2,4.98E2,7.7E1,2.038E3,1.01E2,7E2,1.63E2,4.43E2,4E0,6E0,2.97E2,1.4E2,4.41E2,9.07E2,2.173E3,1.92E3,3.49E2,8.135E3,1.03E2,5.257E3,6.803E3,1.103E3,1.572E3,3.145E3,8.12E2,1.92E2,1.35E3,5.97E2],"tree_param":{"num_deleted":"0","num_feature":"26","num_nodes":"63","size_leaf_vector":"1"}},{"base_weights":[2.2084462E-3,4.9634877E-1,-1.353944E-1,3.626787E-1,1.0673337E0,-5.184425E-3,-2.9753837E-1,2.3903123E-1,5.382667E-1,1.386336E0,8.5809517E-1,-1.3874722E-1,4.755736E-2,-2.2104843E-1,-4.3124837E-1,1.21968426E-1,3.1630018E-1,4.241473E-1,5.9785503E-1,1.2528566E0,1.8797859E0,8.874797E-1,1.86411E-1,-4.6021692E-2,-1.6885954E-1,4.2385845E-3,1.7492813E-1,-2.8484353E-1,-6.0984217E-2,-3.814406E-1,-5.9425825E-1,1.6200956E-3,7.815174E-3,8.594846E-3,1.5803713E-2,-1.4796606E-2,1.3187793E-2,-1.6460507E-3,1.8387025E-2,3.645159E-2,6.582278E-2,2.8063836E-2,6.30751E-2,2.6898375E-2,-2.1482618E-3,-1.27064055E-2,1.801931E-2,-3.1982146E-3,2.5843007E-3,-6.623618E-3,-3.2694556E-3,-2.1263269E-4,1.46286385E-2,9.740932E-3,2.062421E-3,-9.85811E-3,-7.1854633E-3,1.1702323E-3,-4.8816577E-3,-1.5967596E-2,-1.0194914E-2,2.4075383E-2,-1.8005248E-2],"categories":[],"categories_nodes":[],"categories_segments":[],"categories_sizes":[],"default_left":[0,0,0,0,0,0,0,0,0,0,0,0,0,0,0,0,0,0,0,0,0,0,0,0,0,0,0,0,0,0,0,0,0,0,0,0,0,0,0,0,0,0,0,0,0,0,0,0,0,0,0,0,0,0,0,0,0,0,0,0,0,0,0],"id":7,"left_children":[1,3,5,7,9,11,13,15,17,19,21,23,25,27,29,31,33,35,37,39,41,43,45,47,49,51,53,55,57,59,61,-1,-1,-1,-1,-1,-1,-1,-1,-1,-1,-1,-1,-1,-1,-1,-1,-1,-1,-1,-1,-1,-1,-1,-1,-1,-1,-1,-1,-1,-1,-1,-1],"loss_changes":[3.032105E3,7.409441E2,7.364117E2,1.707804E2,1.2175952E2,1.362864E2,1.5878833E2,4.1759857E1,2.1860535E1,4.559497E1,2.1841492E1,1.5285004E1,7.652762E1,1.00911255E2,4.566284E1,1.7301449E1,1.7308868E1,1.607248E1,2.099115E1,1.7829346E1,3.0211792E1,9.419006E0,1.2382294E1,1.0770968E1,1.2829826E1,5.667474E1,5.5955025E1,1.3939087E1,2.867373E1,2.7003906E1,1.1398773E1,0E0,0E0,0E0,0E0,0E0,0E0,0E0,0E0,0E0,0E0,0E0,0E0,0E0,0E0,0E0,0E0,0E0,0E0,0E0,0E0,0E0,0E0,0E0,0E0,0E0,0E0,0E0,0E0,0E0,0E0,0E0,0E0],"parents":[2147483647,0,0,1,1,2,2,3,3,4,4,5,5,6,6,7,7,8,8,9,9,10,10,11,11,12,12,13,13,14,14,15,15,16,16,17,17,18,18,19,19,20,20,21,21,22,22,23,23,24,24,25,25,26,26,27,27,28,28,29,29,30,30],"right_children":[2,4,6,8,10,12,14,16,18,20,22,24,26,28,30,32,34,36,38,40,42,44,46,48,50,52,54,56,58,60,62,-1,-1,-1,-1,-1,-1,-1,-1,-1,-1,-1,-1,-1,-1,-1,-1,-1,-1,-1,-1,-1,-1,-1,-1,-1,-1,-1,-1,-1,-1,-1,-1],"split_conditions":[1.8E0,5.75E0,2.39E0,4.2E0,1.17E0,3.29E0,3.5E0,3.7E0,4.5E0,1.1E1,1.83E0,2.04E0,1.21E0,3.39E0,7E0,1.2E0,1.83E0,1.92E-1,5.25E-1,3.67E0,8.53E-1,2.881E0,1.4E0,1.633E0,1.378E0,3.79E0,7.66E-1,3.2E0,2.87E0,3.4E0,1.7E-1,1.6200956E-3,7.815174E-3,8.594846E-3,1.5803713E-2,-1.4796606E-2,1.3187793E-2,-1.6460507E-3,1.8387025E-2,3.645159E-2,6.582278E-2,2.8063836E-2,6.30751E-2,2.6898375E-2,-2.1482618E-3,-1.27064055E-2,1.801931E-2,-3.1982146E-3,2.5843007E-3,-6.623618E-3,-3.2694556E-3,-2.1263269E-4,1.46286385E-2,9.740932E-3,2.062421E-3,-9.85811E-3,-7.1854633E-3,1.1702323E-3,-4.8816577E-3,-1.5967596E-2,-1.0194914E-2,2.4075383E-2,-1.8005248E-2],"split_indices":[22,23,22,23,22,23,22,23,23,23,4,22,14,23,22,3,4,16,14,9,17,19,7,19,18,23,16,23,22,23,4,0,0,0,0,0,0,0,0,0,0,0,0,0,0,0,0,0,0,0,0,0,0,0,0,0,0,0,0,0,0,0,0],"split_type":[0,0,0,0,0,0,0,0,0,0,0,0,0,0,0,0,0,0,0,0,0,0,0,0,0,0,0,0,0,0,0,0,0,0,0,0,0,0,0,0,0,0,0,0,0,0,0,0,0,0,0,0,0,0,0,0,0,0,0,0,0,0,0],"sum_hessian":[4.4591E4,9.712E3,3.4879E4,7.871E3,1.841E3,1.9345E4,1.5534E4,4.62E3,3.251E3,7.27E2,1.114E3,5.476E3,1.3869E4,9.883E3,5.651E3,1.838E3,2.782E3,1.118E3,2.133E3,5.75E2,1.52E2,1.067E3,4.7E1,1.343E3,4.133E3,1.035E4,3.519E3,7.066E3,2.817E3,4.331E3,1.32E3,1.234E3,6.04E2,2.439E3,3.43E2,1.8E1,1.1E3,4.8E1,2.085E3,5.55E2,2E1,3E1,1.22E2,1.057E3,1E1,1.9E1,2.8E1,9.21E2,4.22E2,2.212E3,1.921E3,1.0114E4,2.36E2,1.459E3,2.06E3,3.592E3,3.474E3,1.421E3,1.396E3,9.34E2,3.397E3,5E0,1.315E3],"tree_param":{"num_deleted":"0","num_feature":"26","num_nodes":"63","size_leaf_vector":"1"}},{"base_weights":[1.0385135E-3,4.728648E-1,-1.2988912E-1,3.2054538E-1,1.0042799E0,1.3259655E-3,-2.857426E-1,2.4841662E-1,5.4998446E-1,1.3432279E0,8.239972E-1,-1.284459E-1,5.0879084E-2,-2.2063917E-1,-4.1787475E-1,1.1496688E-1,3.0995327E-1,1.946791E-1,5.859833E-1,2.3007028E0,1.2985597E0,8.4837157E-1,4.3406314E-1,-2.2480395E-2,-1.4855471E-1,-1.5493699E-3,1.9111507E-1,-2.581563E-1,5.0268695E-3,-3.5357794E-1,-5.277925E-1,9.714226E-3,2.0600446E-3,6.875763E-3,1.0322263E-2,1.0100447E-2,-1.7650817E-2,4.5403548E-2,1.7276103E-2,3.7724834E-2,8.153188E-2,4.788572E-2,3.561715E-2,2.4729082E-2,3.953428E-2,2.266863E-2,-4.513344E-3,-9.323705E-4,4.2384785E-2,-6.1697033E-3,-2.528018E-3,-9.1009744E-4,5.5745333E-3,4.6877735E-3,1.8075032E-2,-1.0714851E-2,-6.7358455E-3,-5.8090896E-4,9.206062E-3,-1.4807793E-2,-9.450078E-3,2.1995008E-2,-1.5982144E-2],"categories":[],"categories_nodes":[],"categories_segments":[],"categories_sizes":[],"default_left":[0,0,0,0,0,0,0,0,0,0,0,0,0,0,0,0,0,0,0,0,0,0,0,0,0,0,0,0,0,0,0,0,0,0,0,0,0,0,0,0,0,0,0,0,0,0,0,0,0,0,0,0,0,0,0,0,0,0,0,0,0,0,0],"id":8,"left_children":[1,3,5,7,9,11,13,15,17,19,21,23,25,27,29,31,33,35,37,39,41,43,45,47,49,51,53,55,57,59,61,-1,-1,-1,-1,-1,-1,-1,-1,-1,-1,-1,-1,-1,-1,-1,-1,-1,-1,-1,-1,-1,-1,-1,-1,-1,-1,-1,-1,-1,-1,-1,-1],"loss_changes":[2.7529453E3,7.8322363E2,7.133896E2,1.2439575E2,1.3063892E2,1.2180209E2,1.370708E2,4.699478E1,2.289618E1,2.8960571E1,1.3032898E1,1.1149483E1,1.0077904E2,9.045563E1,3.7001953E1,1.7469086E1,1.0720917E1,1.8767418E1,1.44453125E1,1.05039215E1,2.1828003E1,1.3895874E1,1.6089695E1,1.0361534E1,1.6131157E1,5.3824757E1,5.3391266E1,3.0420105E1,1.1225744E1,1.779245E1,1.2488831E1,0E0,0E0,0E0,0E0,0E0,0E0,0E0,0E0,0E0,0E0,0E0,0E0,0E0,0E0,0E0,0E0,0E0,0E0,0E0,0E0,0E0,0E0,0E0,0E0,0E0,0E0,0E0,0E0,0E0,0E0,0E0,0E0],"parents":[2147483647,0,0,1,1,2,2,3,3,4,4,5,5,6,6,7,7,8,8,9,9,10,10,11,11,12,12,13,13,14,14,15,15,16,16,17,17,18,18,19,19,20,20,21,21,22,22,23,23,24,24,25,25,26,26,27,27,28,28,29,29,30,30],"right_children":[2,4,6,8,10,12,14,16,18,20,22,24,26,28,30,32,34,36,38,40,42,44,46,48,50,52,54,56,58,60,62,-1,-1,-1,-1,-1,-1,-1,-1,-1,-1,-1,-1,-1,-1,-1,-1,-1,-1,-1,-1,-1,-1,-1,-1,-1,-1,-1,-1,-1,-1,-1,-1],"split_conditions":[1.8E0,5.4E0,2.38E0,4.5E0,1.17E0,3.29E0,3.6E0,3.7E0,7.57E-1,1.06E0,1.239E0,2E0,1.67E0,3.5E0,5.75E0,5E0,6.59E-1,1.789E0,7.73E-1,2.67E0,1.169E0,1.114E0,1.949E0,2.828E0,1.378E0,3.6E0,2.83E0,3.1E0,3.8E0,3.4E0,2E-1,9.714226E-3,2.0600446E-3,6.875763E-3,1.0322263E-2,1.0100447E-2,-1.7650817E-2,4.5403548E-2,1.7276103E-2,3.7724834E-2,8.153188E-2,4.788572E-2,3.561715E-2,2.4729082E-2,3.953428E-2,2.266863E-2,-4.513344E-3,-9.323705E-4,4.2384785E-2,-6.1697033E-3,-2.528018E-3,-9.1009744E-4,5.5745333E-3,4.6877735E-3,1.8075032E-2,-1.0714851E-2,-6.7358455E-3,-5.8090896E-4,9.206062E-3,-1.4807793E-2,-9.450078E-3,2.1995008E-2,-1.5982144E-2],"split_indices":[22,23,22,23,22,23,22,23,14,22,16,22,2,23,22,24,15,18,14,6,18,16,18,19,18,23,2,23,23,23,4,0,0,0,0,0,0,0,0,0,0,0,0,0,0,0,0,0,0,0,0,0,0,0,0,0,0,0,0,0,0,0,0],"split_type":[0,0,0,0,0,0,0,0,0,0,0,0,0,0,0,0,0,0,0,0,0,0,0,0,0,0,0,0,0,0,0,0,0,0,0,0,0,0,0,0,0,0,0,0,0,0,0,0,0,0,0,0,0,0,0,0,0,0,0,0,0,0,0],"sum_hessian":[4.4562E4,9.679E3,3.4883E4,7.524E3,2.155E3,1.8939E4,1.5944E4,5.726E3,1.798E3,7.46E2,1.409E3,5.233E3,1.3706E4,1.0683E4,5.261E3,1.808E3,3.918E3,1.66E2,1.632E3,3.1E1,7.15E2,1.325E3,8.4E1,8.35E2,4.398E3,9.977E3,3.729E3,9.16E3,1.523E3,3.322E3,1.939E3,3.27E2,1.481E3,1.166E3,2.752E3,1.41E2,2.5E1,1.6E1,1.616E3,1E1,2.1E1,1.91E2,5.24E2,1.263E3,6.2E1,5.4E1,3E1,8.31E2,4E0,2.328E3,2.07E3,8.649E3,1.328E3,3.439E3,2.9E2,2.32E3,6.84E3,1.41E3,1.13E2,7.15E2,2.607E3,7E0,1.932E3],"tree_param":{"num_deleted":"0","num_feature":"26","num_nodes":"63","size_leaf_vector":"1"}},{"base_weights":[5.465148E-3,4.753575E-1,-1.2514445E-1,2.814592E-1,8.28228E-1,-6.259773E-3,-2.714999E-1,1.4834507E-1,3.7386045E-1,1.2416475E0,6.9476384E-1,-8.8801146E-2,6.662844E-2,-2.1961331E-1,-4.391173E-1,3.1672764E-1,1.06033646E-1,3.1201988E-1,4.4744357E-1,1.1210833E0,1.749459E0,8.33766E-1,6.1759585E-1,-1.24408506E-1,7.878723E-2,-6.449531E-2,1.2291712E-1,-2.767815E-1,-1.10443324E-1,-3.7263426E-1,-5.618006E-1,1.2467633E-2,-5.152542E-5,4.031533E-3,-3.1412404E-3,1.3311947E-3,1.0154033E-2,6.179909E-3,1.4663181E-2,3.0404788E-2,4.0911764E-2,2.8171765E-2,5.8387805E-2,2.625554E-2,1.7202703E-2,1.6658666E-2,2.402984E-2,-9.378775E-3,-3.1699692E-3,-5.7226494E-5,5.529147E-3,1.1535857E-3,-3.2783884E-3,1.6408509E-3,7.5141885E-3,-7.4221552E-3,-1.1645538E-2,-1.9410517E-4,-5.0281947E-3,-1.4111633E-2,-9.678971E-3,-2.1929367E-2,-1.5957706E-2],"categories":[],"categories_nodes":[],"categories_segments":[],"categories_sizes":[],"default_left":[0,0,0,0,0,0,0,0,0,0,0,0,0,0,0,0,0,0,0,0,0,0,0,0,0,0,0,0,0,0,0,0,0,0,0,0,0,0,0,0,0,0,0,0,0,0,0,0,0,0,0,0,0,0,0,0,0,0,0,0,0,0,0],"id":9,"left_children":[1,3,5,7,9,11,13,15,17,19,21,23,25,27,29,31,33,35,37,39,41,43,45,47,49,51,53,55,57,59,61,-1,-1,-1,-1,-1,-1,-1,-1,-1,-1,-1,-1,-1,-1,-1,-1,-1,-1,-1,-1,-1,-1,-1,-1,-1,-1,-1,-1,-1,-1,-1,-1],"loss_changes":[2.7367798E3,6.633821E2,6.071337E2,7.6954285E1,1.888899E2,1.1584964E2,1.3592615E2,1.8255028E1,1.6674194E1,4.9344482E1,2.7395386E1,5.3895233E1,7.548382E1,7.451874E1,2.9936584E1,1.6213707E1,1.2280117E1,1.4220245E1,1.6713531E1,1.6369934E1,2.3530853E1,9.483276E0,1.8718323E1,2.6241524E1,1.3479161E1,1.4167543E1,6.2250015E1,2.5558044E1,2.4408607E1,1.1579102E1,6.166931E0,0E0,0E0,0E0,0E0,0E0,0E0,0E0,0E0,0E0,0E0,0E0,0E0,0E0,0E0,0E0,0E0,0E0,0E0,0E0,0E0,0E0,0E0,0E0,0E0,0E0,0E0,0E0,0E0,0E0,0E0,0E0,0E0],"parents":[2147483647,0,0,1,1,2,2,3,3,4,4,5,5,6,6,7,7,8,8,9,9,10,10,11,11,12,12,13,13,14,14,15,15,16,16,17,17,18,18,19,19,20,20,21,21,22,22,23,23,24,24,25,25,26,26,27,27,28,28,29,29,30,30],"right_children":[2,4,6,8,10,12,14,16,18,20,22,24,26,28,30,32,34,36,38,40,42,44,46,48,50,52,54,56,58,60,62,-1,-1,-1,-1,-1,-1,-1,-1,-1,-1,-1,-1,-1,-1,-1,-1,-1,-1,-1,-1,-1,-1,-1,-1,-1,-1,-1,-1,-1,-1,-1,-1],"split_conditions":[1.8E0,4.59E0,2.39E0,3.79E0,1.18E0,1.2E0,4.2E0,4.8E0,4.2E0,1.1E1,1.28E0,3.5E0,3.4E0,3.39E0,7E0,1.285E0,2.4E0,8.94E-1,1E0,2.33E0,8.53E-1,3E0,2.33E0,4.75E-1,1.33E0,2.04E0,1.4E0,3.2E0,2.87E0,3.75E0,6E-1,1.2467633E-2,-5.152542E-5,4.031533E-3,-3.1412404E-3,1.3311947E-3,1.0154033E-2,6.179909E-3,1.4663181E-2,3.0404788E-2,4.0911764E-2,2.8171765E-2,5.8387805E-2,2.625554E-2,1.7202703E-2,1.6658666E-2,2.402984E-2,-9.378775E-3,-3.1699692E-3,-5.7226494E-5,5.529147E-3,1.1535857E-3,-3.2783884E-3,1.6408509E-3,7.5141885E-3,-7.4221552E-3,-1.1645538E-2,-1.9410517E-4,-5.0281947E-3,-1.4111633E-2,-9.678971E-3,-2.1929367E-2,-1.5957706E-2],"split_indices":[22,23,22,23,22,2,22,24,23,23,22,23,23,23,22,14,9,19,18,9,17,11,2,17,3,22,5,22,22,23,2,0,0,0,0,0,0,0,0,0,0,0,0,0,0,0,0,0,0,0,0,0,0,0,0,0,0,0,0,0,0,0,0],"split_type":[0,0,0,0,0,0,0,0,0,0,0,0,0,0,0,0,0,0,0,0,0,0,0,0,0,0,0,0,0,0,0,0,0,0,0,0,0,0,0,0,0,0,0,0,0,0,0,0,0,0,0,0,0,0,0,0,0,0,0,0,0,0,0],"sum_hessian":[4.4591E4,9.698E3,3.4893E4,6.26E3,3.438E3,1.9254E4,1.5639E4,2.566E3,3.694E3,8.37E2,2.601E3,9.029E3,1.0225E4,1.1944E4,3.695E3,5.14E2,2.052E3,2.01E3,1.684E3,6.79E2,1.58E2,9.25E2,1.676E3,7.447E3,1.582E3,3.071E3,7.154E3,7.838E3,4.106E3,2.399E3,1.296E3,3.92E2,1.22E2,1.809E3,2.43E2,1.81E2,1.829E3,2.47E2,1.437E3,4.74E2,2.05E2,3.2E1,1.26E2,7.96E2,1.29E2,1.254E3,4.22E2,6.73E2,6.774E3,8.97E2,6.85E2,9.31E2,2.14E3,4.662E3,2.492E3,6.205E3,1.633E3,1.457E3,2.649E3,8.09E2,1.59E3,1.91E2,1.105E3],"tree_param":{"num_deleted":"0","num_feature":"26","num_nodes":"63","size_leaf_vector":"1"}},{"base_weights":[1.1731875E-3,4.4024214E-1,-1.210548E-1,9.4744533E-1,3.172076E-1,-1.4452215E-2,-2.791089E-1,1.2013547E0,7.7748674E-1,4.7227058E-1,2.232102E-1,-6.328473E-2,7.4513406E-2,-2.4236876E-1,-5.0870454E-1,2.0802817E0,1.1558031E0,8.0411094E-1,6.5478005E-2,4.2132047E-1,7.555999E-1,1.6626543E-1,3.3301294E-1,-7.03955E-2,2.6809472E-1,1.1772465E-1,-1.0800736E-1,-2.0505457E-1,-3.2553256E-1,9.1275716E-1,-5.1360667E-1,9.123849E-3,7.0708424E-2,5.9002116E-2,3.3346858E-2,1.9602519E-2,2.6473038E-2,-1.424209E-2,1.3554396E-2,1.3912669E-2,7.7658747E-3,2.3188677E-2,-1.3373044E-2,6.033049E-3,8.0798805E-4,3.8564362E-4,1.0746761E-2,-1.3164955E-3,-4.551018E-3,1.10549815E-2,-9.432604E-3,2.0230864E-3,7.525842E-3,-3.6230618E-3,3.2605555E-2,-7.7519002E-3,-4.6791714E-3,-1.1574637E-2,-8.564435E-3,-5.5312878E-3,5.345104E-2,-1.5549393E-2,8.407787E-3],"categories":[],"categories_nodes":[],"categories_segments":[],"categories_sizes":[],"default_left":[0,0,0,0,0,0,0,0,0,0,0,0,0,0,0,0,0,0,0,0,0,0,0,0,0,0,0,0,0,0,0,0,0,0,0,0,0,0,0,0,0,0,0,0,0,0,0,0,0,0,0,0,0,0,0,0,0,0,0,0,0,0,0],"id":10,"left_children":[1,3,5,7,9,11,13,15,17,19,21,23,25,27,29,31,33,35,37,39,41,43,45,47,49,51,53,55,57,59,61,-1,-1,-1,-1,-1,-1,-1,-1,-1,-1,-1,-1,-1,-1,-1,-1,-1,-1,-1,-1,-1,-1,-1,-1,-1,-1,-1,-1,-1,-1,-1,-1],"loss_changes":[2.386603E3,6.0401526E2,5.861213E2,8.06272E1,1.135108E2,9.026429E1,1.1807324E2,2.786316E1,2.1463135E1,4.21369E1,3.0301453E1,3.1627117E1,5.8084324E1,3.7422913E1,1.39313965E1,1.6973618E1,2.3680908E1,1.2335754E1,8.980053E0,1.7080353E1,9.664917E0,1.55219345E1,1.3370651E1,2.8302658E1,1.6609262E1,3.9846542E1,2.1631006E1,2.1800323E1,8.920624E0,7.0019374E0,7.341339E0,0E0,0E0,0E0,0E0,0E0,0E0,0E0,0E0,0E0,0E0,0E0,0E0,0E0,0E0,0E0,0E0,0E0,0E0,0E0,0E0,0E0,0E0,0E0,0E0,0E0,0E0,0E0,0E0,0E0,0E0,0E0,0E0],"parents":[2147483647,0,0,1,1,2,2,3,3,4,4,5,5,6,6,7,7,8,8,9,9,10,10,11,11,12,12,13,13,14,14,15,15,16,16,17,17,18,18,19,19,20,20,21,21,22,22,23,23,24,24,25,25,26,26,27,27,28,28,29,29,30,30],"right_children":[2,4,6,8,10,12,14,16,18,20,22,24,26,28,30,32,34,36,38,40,42,44,46,48,50,52,54,56,58,60,62,-1,-1,-1,-1,-1,-1,-1,-1,-1,-1,-1,-1,-1,-1,-1,-1,-1,-1,-1,-1,-1,-1,-1,-1,-1,-1,-1,-1,-1,-1,-1,-1],"split_conditions":[1.8E0,1.29E0,2.5E0,1.17E0,1.53E0,1.6E0,5.75E0,1.06E0,1.249E0,3E0,1.33E0,3.5E0,2.25E0,3.5E0,1.36E-1,8.41E-1,8.16E-1,7E0,1.4E0,1.457E0,3.209E0,1.2E1,6E-1,1.225E0,1.578E0,1.67E0,3.67E0,1.33E0,7E0,4E-1,1.808E0,9.123849E-3,7.0708424E-2,5.9002116E-2,3.3346858E-2,1.9602519E-2,2.6473038E-2,-1.424209E-2,1.3554396E-2,1.3912669E-2,7.7658747E-3,2.3188677E-2,-1.3373044E-2,6.033049E-3,8.0798805E-4,3.8564362E-4,1.0746761E-2,-1.3164955E-3,-4.551018E-3,1.10549815E-2,-9.432604E-3,2.0230864E-3,7.525842E-3,-3.6230618E-3,3.2605555E-2,-7.7519002E-3,-4.6791714E-3,-1.1574637E-2,-8.564435E-3,-5.5312878E-3,5.345104E-2,-1.5549393E-2,8.407787E-3],"split_indices":[22,22,22,22,22,6,22,22,16,6,3,9,22,22,16,17,18,21,9,17,18,0,6,16,16,5,9,3,20,6,14,0,0,0,0,0,0,0,0,0,0,0,0,0,0,0,0,0,0,0,0,0,0,0,0,0,0,0,0,0,0,0,0],"split_type":[0,0,0,0,0,0,0,0,0,0,0,0,0,0,0,0,0,0,0,0,0,0,0,0,0,0,0,0,0,0,0,0,0,0,0,0,0,0,0,0,0,0,0,0,0,0,0,0,0,0,0,0,0,0,0,0,0,0,0,0,0,0,0],"sum_hessian":[4.4469E4,9.683E3,3.4786E4,1.889E3,7.794E3,2.0775E4,1.4011E4,7.55E2,1.134E3,2.94E3,4.854E3,1.3413E4,7.362E3,1.208E4,1.931E3,3.5E1,7.2E2,1.093E3,4.1E1,2.494E3,4.46E2,3.198E3,1.656E3,1.3132E4,2.81E2,5.953E3,1.409E3,8.341E3,3.739E3,6E0,1.925E3,5E0,3E1,3.5E1,6.85E2,3.77E2,7.16E2,1.7E1,2.4E1,1.976E3,5.18E2,4.4E2,6E0,2.558E3,6.4E2,1.21E2,1.535E3,9.904E3,3.228E3,2.4E2,4.1E1,4.322E3,1.631E3,1.395E3,1.4E1,3.995E3,4.346E3,1.489E3,2.25E3,3E0,3E0,1.914E3,1.1E1],"tree_param":{"num_deleted":"0","num_feature":"26","num_nodes":"63","size_leaf_vector":"1"}},{"base_weights":[-4.69839E-4,4.6072426E-1,-1.1501239E-1,9.31596E-1,3.3331656E-1,3.0282969E-2,-2.454214E-1,8.018868E-1,1.3477782E0,2.0530413E-1,4.8310015E-1,6.116588E-3,2.9921237E-1,-1.8448518E-1,-4.0190688E-1,7.1219385E-1,9.262359E-1,3.0262196E0,1.3022366E0,9.664212E-2,2.6296914E-1,3.8355595E-1,5.637697E-1,-1.1042678E-2,2.6846388E-1,2.5690326E-1,9.8669696E-1,-2.2870314E-1,-7.6655455E-2,-3.3649823E-1,-5.1418114E-1,2.3310574E-2,1.4326777E-2,2.874675E-2,-2.970652E-3,1.1701597E-1,3.590813E-2,5.615081E-2,3.628989E-2,5.743613E-3,-1.0944721E-3,6.9876653E-3,1.4625379E-2,6.159228E-3,1.3065421E-2,1.6262554E-2,2.75884E-2,-2.050926E-3,1.4468689E-3,4.5128185E-3,1.2319128E-2,5.534456E-3,1.8243462E-2,2.0005153E-2,9.477067E-2,-5.812313E-3,-9.0385005E-3,-3.2135334E-3,1.0571937E-3,-1.456697E-2,-8.932835E-3,1.6667243E-2,-1.55676855E-2],"categories":[],"categories_nodes":[],"categories_segments":[],"categories_sizes":[],"default_left":[0,0,0,0,0,0,0,0,0,0,0,0,0,0,0,0,0,0,0,0,0,0,0,0,0,0,0,0,0,0,0,0,0,0,0,0,0,0,0,0,0,0,0,0,0,0,0,0,0,0,0,0,0,0,0,0,0,0,0,0,0,0,0],"id":11,"left_children":[1,3,5,7,9,11,13,15,17,19,21,23,25,27,29,31,33,35,37,39,41,43,45,47,49,51,53,55,57,59,61,-1,-1,-1,-1,-1,-1,-1,-1,-1,-1,-1,-1,-1,-1,-1,-1,-1,-1,-1,-1,-1,-1,-1,-1,-1,-1,-1,-1,-1,-1,-1,-1],"loss_changes":[2.3435356E3,5.2918494E2,6.733562E2,1.0035266E2,1.331228E2,1.092472E2,1.7850928E2,1.5345215E1,3.0074524E1,2.3459549E1,2.5488403E1,6.944149E1,4.0060867E1,6.426001E1,3.836676E1,1.2375122E1,1.9707458E1,1.2924324E1,2.0667603E1,1.642789E1,1.640274E1,1.3210037E1,1.3128479E1,4.9196293E1,1.5830505E1,3.313172E1,5.3480377E1,2.4198822E1,1.3372263E1,1.9020782E1,1.0078217E1,0E0,0E0,0E0,0E0,0E0,0E0,0E0,0E0,0E0,0E0,0E0,0E0,0E0,0E0,0E0,0E0,0E0,0E0,0E0,0E0,0E0,0E0,0E0,0E0,0E0,0E0,0E0,0E0,0E0,0E0,0E0,0E0],"parents":[2147483647,0,0,1,1,2,2,3,3,4,4,5,5,6,6,7,7,8,8,9,9,10,10,11,11,12,12,13,13,14,14,15,15,16,16,17,17,18,18,19,19,20,20,21,21,22,22,23,23,24,24,25,25,26,26,27,27,28,28,29,29,30,30],"right_children":[2,4,6,8,10,12,14,16,18,20,22,24,26,28,30,32,34,36,38,40,42,44,46,48,50,52,54,56,58,60,62,-1,-1,-1,-1,-1,-1,-1,-1,-1,-1,-1,-1,-1,-1,-1,-1,-1,-1,-1,-1,-1,-1,-1,-1,-1,-1,-1,-1,-1,-1,-1,-1],"split_conditions":[1.75E0,1.29E0,2.25E0,8.5E0,4.2E0,2.17E0,3.6E0,2.5E0,7.07E-1,3.7E0,1.67E0,3.7E0,1.604E0,3.39E0,5.75E0,2.6E0,2.51E0,1.4E0,1.07E0,5.59E0,1.83E0,5.67E-1,2.608E0,1.3E0,9.88E-1,3E0,2.3E1,2.8E0,3.6E0,3.39E0,2E-1,2.3310574E-2,1.4326777E-2,2.874675E-2,-2.970652E-3,1.1701597E-1,3.590813E-2,5.615081E-2,3.628989E-2,5.743613E-3,-1.0944721E-3,6.9876653E-3,1.4625379E-2,6.159228E-3,1.3065421E-2,1.6262554E-2,2.75884E-2,-2.050926E-3,1.4468689E-3,4.5128185E-3,1.2319128E-2,5.534456E-3,1.8243462E-2,2.0005153E-2,9.477067E-2,-5.812313E-3,-9.0385005E-3,-3.2135334E-3,1.0571937E-3,-1.456697E-2,-8.932835E-3,1.6667243E-2,-1.55676855E-2],"split_indices":[22,22,22,23,23,2,22,6,18,23,2,23,17,23,22,11,19,8,22,24,4,15,18,2,15,2,21,22,23,23,4,0,0,0,0,0,0,0,0,0,0,0,0,0,0,0,0,0,0,0,0,0,0,0,0,0,0,0,0,0,0,0,0],"split_type":[0,0,0,0,0,0,0,0,0,0,0,0,0,0,0,0,0,0,0,0,0,0,0,0,0,0,0,0,0,0,0,0,0,0,0,0,0,0,0,0,0,0,0,0,0,0,0,0,0,0,0,0,0,0,0,0,0,0,0,0,0,0,0],"sum_hessian":[4.4361E4,8.825E3,3.5536E4,1.878E3,6.947E3,1.6809E4,1.8727E4,1.434E3,4.44E2,3.747E3,3.2E3,1.5424E4,1.385E3,1.348E4,5.247E3,8.37E2,5.97E2,1E1,4.34E2,1.3E3,2.447E3,1.435E3,1.765E3,1.4478E4,9.46E2,1.306E3,7.9E1,9.559E3,3.921E3,3.318E3,1.929E3,6.54E2,1.83E2,5.79E2,1.8E1,6E0,4E0,5.8E1,3.76E2,7.59E2,5.41E2,2.16E3,2.87E2,3.25E2,1.11E3,1.666E3,9.9E1,7.36E3,7.118E3,5.18E2,4.28E2,1.084E3,2.22E2,7E1,9E0,6.454E3,3.105E3,3.082E3,8.39E2,6.82E2,2.636E3,8E0,1.921E3],"tree_param":{"num_deleted":"0","num_feature":"26","num_nodes":"63","size_leaf_vector":"1"}},{"base_weights":[-1.749704E-3,4.5987868E-1,-1.1678172E-1,9.619346E-1,3.366897E-1,2.691243E-4,-2.671558E-1,1.1904019E0,7.88535E-1,2.4746764E-1,5.38672E-1,-1.2191766E-1,4.8001096E-2,-2.1203004E-1,-3.7576324E-1,2.0842252E0,1.1387329E0,8.0721E-1,-7.74979E-2,1.3135728E-1,3.2477835E-1,2.5083428E-2,5.5239767E-1,-3.6680095E-2,-1.515231E-1,3.360683E-2,4.1832462E-1,-2.6271245E-1,-8.991933E-2,-3.277854E-1,-5.182523E-1,2.5987795E-2,7.229652E-2,1.915559E-2,3.5684012E-2,4.228164E-2,2.3580285E-2,-1.6319394E-2,1.069706E-2,6.2230555E-3,7.296032E-4,9.615944E-3,3.8032793E-2,8.843072E-3,-1.631988E-2,1.5848355E-2,2.392289E-2,-1.2854208E-2,-7.2476733E-4,-4.797808E-3,4.4995532E-3,7.321821E-4,1.8243052E-2,1.1369274E-2,3.8590215E-2,-9.616879E-3,-7.005055E-3,-3.4067996E-3,5.3063193E-3,-1.3842537E-2,-8.933532E-3,-1.5695406E-2,1.4488376E-2],"categories":[],"categories_nodes":[],"categories_segments":[],"categories_sizes":[],"default_left":[0,0,0,0,0,0,0,0,0,0,0,0,0,0,0,0,0,0,0,0,0,0,0,0,0,0,0,0,0,0,0,0,0,0,0,0,0,0,0,0,0,0,0,0,0,0,0,0,0,0,0,0,0,0,0,0,0,0,0,0,0,0,0],"id":12,"left_children":[1,3,5,7,9,11,13,15,17,19,21,23,25,27,29,31,33,35,37,39,41,43,45,47,49,51,53,55,57,59,61,-1,-1,-1,-1,-1,-1,-1,-1,-1,-1,-1,-1,-1,-1,-1,-1,-1,-1,-1,-1,-1,-1,-1,-1,-1,-1,-1,-1,-1,-1,-1,-1],"loss_changes":[2.3678738E3,5.498119E2,6.2830005E2,6.846863E1,1.2861072E2,1.1707592E2,9.34624E1,3.244861E1,1.6219604E1,4.4454224E1,1.5410156E1,1.4224426E1,7.6932205E1,6.413016E1,3.5782288E1,1.3778061E1,1.7385681E1,1.1377808E1,4.648619E0,1.6142853E1,1.1507721E1,9.061762E0,1.2172791E1,7.127468E0,1.0628052E1,7.343648E1,1.7956429E1,1.2303253E1,1.920674E1,1.5646484E1,6.780182E0,0E0,0E0,0E0,0E0,0E0,0E0,0E0,0E0,0E0,0E0,0E0,0E0,0E0,0E0,0E0,0E0,0E0,0E0,0E0,0E0,0E0,0E0,0E0,0E0,0E0,0E0,0E0,0E0,0E0,0E0,0E0,0E0],"parents":[2147483647,0,0,1,1,2,2,3,3,4,4,5,5,6,6,7,7,8,8,9,9,10,10,11,11,12,12,13,13,14,14,15,15,16,16,17,17,18,18,19,19,20,20,21,21,22,22,23,23,24,24,25,25,26,26,27,27,28,28,29,29,30,30],"right_children":[2,4,6,8,10,12,14,16,18,20,22,24,26,28,30,32,34,36,38,40,42,44,46,48,50,52,54,56,58,60,62,-1,-1,-1,-1,-1,-1,-1,-1,-1,-1,-1,-1,-1,-1,-1,-1,-1,-1,-1,-1,-1,-1,-1,-1,-1,-1,-1,-1,-1,-1,-1,-1],"split_conditions":[1.75E0,1.28E0,2.39E0,1.17E0,4.5E0,3.3E0,3.6E0,1.06E0,2E0,3.79E0,5.19E-1,2.04E0,3.79E0,3.39E0,7E0,1.4E0,9.57E-1,2.41E-1,1.438E0,5.59E0,4E0,4.84E-1,3.5E0,6.32E-1,2.5E0,3E0,1.5E1,1.169E0,2.88E0,3.4E0,3.5E0,2.5987795E-2,7.229652E-2,1.915559E-2,3.5684012E-2,4.228164E-2,2.3580285E-2,-1.6319394E-2,1.069706E-2,6.2230555E-3,7.296032E-4,9.615944E-3,3.8032793E-2,8.843072E-3,-1.631988E-2,1.5848355E-2,2.392289E-2,-1.2854208E-2,-7.2476733E-4,-4.797808E-3,4.4995532E-3,7.321821E-4,1.8243052E-2,1.1369274E-2,3.8590215E-2,-9.616879E-3,-7.005055E-3,-3.4067996E-3,5.3063193E-3,-1.3842537E-2,-8.933532E-3,-1.5695406E-2,1.4488376E-2],"split_indices":[22,22,22,22,23,23,22,22,4,23,14,22,23,23,22,5,19,15,14,24,10,14,6,19,19,2,21,19,24,23,6,0,0,0,0,0,0,0,0,0,0,0,0,0,0,0,0,0,0,0,0,0,0,0,0,0,0,0,0,0,0,0,0],"split_type":[0,0,0,0,0,0,0,0,0,0,0,0,0,0,0,0,0,0,0,0,0,0,0,0,0,0,0,0,0,0,0,0,0,0,0,0,0,0,0,0,0,0,0,0,0,0,0,0,0,0,0,0,0,0,0,0,0,0,0,0,0,0,0],"sum_hessian":[4.4589E4,8.894E3,3.5695E4,1.751E3,7.143E3,2.0072E4,1.5623E4,7.53E2,9.98E2,4.956E3,2.187E3,5.638E3,1.4434E4,1.0365E4,5.258E3,3.9E1,7.14E2,9.77E2,2.1E1,1.982E3,2.974E3,5.7E1,2.13E3,1.454E3,4.184E3,1.3895E4,5.39E2,7.324E3,3.041E3,3.936E3,1.322E3,9E0,3E1,6.7E1,6.47E2,3.1E1,9.46E2,1E1,1.1E1,1.158E3,8.24E2,2.962E3,1.2E1,3.9E1,1.8E1,1.942E3,1.88E2,4.4E1,1.41E3,4.071E3,1.13E2,1.3677E4,2.18E2,5.17E2,2.2E1,2.454E3,4.87E3,2.794E3,2.47E2,7.19E2,3.217E3,1.316E3,6E0],"tree_param":{"num_deleted":"0","num_feature":"26","num_nodes":"63","size_leaf_vector":"1"}},{"base_weights":[3.122676E-3,5.253195E-1,-8.7565236E-2,3.8432094E-1,9.3005884E-1,2.6833385E-2,-2.5291374E-1,2.7919754E-1,5.0523347E-1,8.5210663E-1,1.4495285E0,-1.3306526E-2,1.9957998E-1,-2.2082132E-1,-4.5439556E-1,1.0185561E-1,3.250879E-1,4.2101035E-1,5.901299E-1,9.884934E-1,7.534955E-1,9.672764E-1,1.6543887E0,-3.0097207E-2,3.234575E-1,1.414604E-1,3.1934625E-1,-1.794249E-1,-2.8927207E-1,-4.0625146E-1,-5.8596915E-1,7.183978E-3,-3.477336E-3,-7.4635474E-3,1.0155709E-2,1.9667063E-2,1.0802963E-2,1.2678727E-2,2.0932622E-2,2.7995713E-2,4.5463458E-2,3.4496486E-2,2.1051945E-2,4.1998886E-2,1.4802438E-2,4.678787E-2,1.1150649E-1,-2.5722622E-3,8.2689314E-4,1.7757697E-2,3.4361302E-3,2.4599424E-3,7.5305267E-3,2.0237183E-2,8.765954E-3,-6.7996234E-3,-1.3932867E-3,-1.0907479E-2,-6.501456E-3,-1.17426105E-2,-1.8115584E-2,-1.8730175E-2,-3.1161397E-3],"categories":[],"categories_nodes":[],"categories_segments":[],"categories_sizes":[],"default_left":[0,0,0,0,0,0,0,0,0,0,0,0,0,0,0,0,0,0,0,0,0,0,0,0,0,0,0,0,0,0,0,0,0,0,0,0,0,0,0,0,0,0,0,0,0,0,0,0,0,0,0,0,0,0,0,0,0,0,0,0,0,0,0],"id":13,"left_children":[1,3,5,7,9,11,13,15,17,19,21,23,25,27,29,31,33,35,37,39,41,43,45,47,49,51,53,55,57,59,61,-1,-1,-1,-1,-1,-1,-1,-1,-1,-1,-1,-1,-1,-1,-1,-1,-1,-1,-1,-1,-1,-1,-1,-1,-1,-1,-1,-1,-1,-1,-1,-1],"loss_changes":[2.1030254E3,3.7463428E2,7.1571796E2,6.182379E1,6.748279E1,1.550823E2,9.994867E1,2.120781E1,1.5954041E1,1.91333E1,2.0134521E1,1.026332E2,2.9308365E1,3.7774048E1,1.3222717E1,1.6149984E1,1.6067871E1,1.6065765E1,2.0004242E1,1.6566467E1,1.6880096E1,1.3251526E1,2.411618E1,5.5470924E1,4.8279907E1,1.8487179E1,1.3082153E1,5.225064E1,2.7036255E1,4.3325195E0,1.0423569E1,0E0,0E0,0E0,0E0,0E0,0E0,0E0,0E0,0E0,0E0,0E0,0E0,0E0,0E0,0E0,0E0,0E0,0E0,0E0,0E0,0E0,0E0,0E0,0E0,0E0,0E0,0E0,0E0,0E0,0E0,0E0,0E0],"parents":[2147483647,0,0,1,1,2,2,3,3,4,4,5,5,6,6,7,7,8,8,9,9,10,10,11,11,12,12,13,13,14,14,15,15,16,16,17,17,18,18,19,19,20,20,21,21,22,22,23,23,24,24,25,25,26,26,27,27,28,28,29,29,30,30],"right_children":[2,4,6,8,10,12,14,16,18,20,22,24,26,28,30,32,34,36,38,40,42,44,46,48,50,52,54,56,58,60,62,-1,-1,-1,-1,-1,-1,-1,-1,-1,-1,-1,-1,-1,-1,-1,-1,-1,-1,-1,-1,-1,-1,-1,-1,-1,-1,-1,-1,-1,-1,-1,-1],"split_conditions":[1.62E0,6E0,2.39E0,4.5E0,1E1,3.6E0,5.5E0,3.79E0,8.31E-1,1.18E0,9.45E-1,2.33E0,3.79E0,3.2E0,9.5E0,1E-1,2E-1,8.13E-1,9.82E-1,2E-1,6.24E-1,7.24E-1,1.155E0,1.2E0,9.9E-1,1.004E0,3.3E-1,3.39E0,3.5E0,1.123E0,1.4E0,7.183978E-3,-3.477336E-3,-7.4635474E-3,1.0155709E-2,1.9667063E-2,1.0802963E-2,1.2678727E-2,2.0932622E-2,2.7995713E-2,4.5463458E-2,3.4496486E-2,2.1051945E-2,4.1998886E-2,1.4802438E-2,4.678787E-2,1.1150649E-1,-2.5722622E-3,8.2689314E-4,1.7757697E-2,3.4361302E-3,2.4599424E-3,7.5305267E-3,2.0237183E-2,8.765954E-3,-6.7996234E-3,-1.3932867E-3,-1.0907479E-2,-6.501456E-3,-1.17426105E-2,-1.8115584E-2,-1.8730175E-2,-3.1161397E-3],"split_indices":[22,23,22,23,23,23,22,23,15,22,17,2,23,22,22,12,3,17,17,12,17,15,16,2,15,15,7,23,23,17,5,0,0,0,0,0,0,0,0,0,0,0,0,0,0,0,0,0,0,0,0,0,0,0,0,0,0,0,0,0,0,0,0],"split_type":[0,0,0,0,0,0,0,0,0,0,0,0,0,0,0,0,0,0,0,0,0,0,0,0,0,0,0,0,0,0,0,0,0,0,0,0,0,0,0,0,0,0,0,0,0,0,0,0,0,0,0,0,0,0,0,0,0,0,0,0,0,0,0],"sum_hessian":[4.4406E4,6.57E3,3.7836E4,4.874E3,1.696E3,2.2364E4,1.5472E4,2.609E3,2.265E3,1.477E3,2.19E2,1.8148E4,4.216E3,1.3348E4,2.124E3,5.37E2,2.072E3,1.14E3,1.125E3,6.16E2,8.61E2,6.7E1,1.52E2,1.7287E4,8.61E2,2.84E3,1.376E3,8.32E3,5.028E3,1.558E3,5.66E2,3.29E2,2.08E2,4.7E1,2.025E3,2.33E2,9.07E2,4.42E2,6.83E2,5.6E2,5.6E1,9.7E1,7.64E2,3.4E1,3.3E1,1.47E2,5E0,8.797E3,8.49E3,3.76E2,4.85E2,1.842E3,9.98E2,9.6E1,1.28E3,6.139E3,2.181E3,2.482E3,2.546E3,1.452E3,1.06E2,5.24E2,4.2E1],"tree_param":{"num_deleted":"0","num_feature":"26","num_nodes":"63","size_leaf_vector":"1"}},{"base_weights":[-1.4784394E-3,3.3713964E-1,-1.3271265E-1,1.99484E-1,7.006499E-1,-2.7055286E-2,-2.4501212E-1,8.5737705E-2,2.916394E-1,5.9110224E-1,1.0531777E0,-3.6155365E-2,6.370058E-1,-1.9792582E-1,-3.9498246E-1,-2.1644773E-1,9.750527E-2,2.5342137E-1,3.535102E-1,1.3818973E-1,6.08135E-1,9.3557197E-1,1.5402198E0,-5.2906338E-2,2.6218462E-1,2.131985E0,5.117575E-1,-2.507316E-1,-9.480089E-2,-3.454745E-1,-4.8601896E-1,4.8314887E-3,-1.2430705E-2,-3.3787433E-5,3.9345725E-3,5.5354782E-3,9.003955E-3,7.3748077E-3,1.268007E-2,2.3765542E-4,3.148214E-2,1.49170775E-2,2.0133793E-2,5.7319086E-2,2.6766889E-2,5.0244354E-2,7.73591E-3,-3.7916452E-3,-1.8930802E-4,3.3580557E-2,5.9850803E-3,4.368823E-2,1.18919276E-1,-1.7941529E-2,1.9187596E-2,-6.8893833E-3,-1.1124919E-2,3.8711904E-4,-4.6230513E-3,3.509394E-2,-1.0454208E-2,2.324003E-2,-1.4743408E-2],"categories":[],"categories_nodes":[],"categories_segments":[],"categories_sizes":[],"default_left":[0,0,0,0,0,0,0,0,0,0,0,0,0,0,0,0,0,0,0,0,0,0,0,0,0,0,0,0,0,0,0,0,0,0,0,0,0,0,0,0,0,0,0,0,0,0,0,0,0,0,0,0,0,0,0,0,0,0,0,0,0,0,0],"id":14,"left_children":[1,3,5,7,9,11,13,15,17,19,21,23,25,27,29,31,33,35,37,39,41,43,45,47,49,51,53,55,57,59,61,-1,-1,-1,-1,-1,-1,-1,-1,-1,-1,-1,-1,-1,-1,-1,-1,-1,-1,-1,-1,-1,-1,-1,-1,-1,-1,-1,-1,-1,-1,-1,-1],"loss_changes":[1.9823917E3,6.2334924E2,3.8146167E2,9.472485E1,1.3153027E2,1.0013153E2,1.09976074E2,1.44121895E1,1.1716736E1,2.0073486E1,4.4954956E1,8.168777E1,4.085151E1,6.457727E1,1.6611755E1,1.142268E1,1.2929684E1,9.890091E0,1.4075653E1,1.1387084E1,1.7256348E1,2.5976624E1,2.649295E1,5.298506E1,4.6467102E1,1.5271591E1,2.9890575E1,1.9781097E1,2.5671288E1,1.1382568E1,9.338196E0,0E0,0E0,0E0,0E0,0E0,0E0,0E0,0E0,0E0,0E0,0E0,0E0,0E0,0E0,0E0,0E0,0E0,0E0,0E0,0E0,0E0,0E0,0E0,0E0,0E0,0E0,0E0,0E0,0E0,0E0,0E0,0E0],"parents":[2147483647,0,0,1,1,2,2,3,3,4,4,5,5,6,6,7,7,8,8,9,9,10,10,11,11,12,12,13,13,14,14,15,15,16,16,17,17,18,18,19,19,20,20,21,21,22,22,23,23,24,24,25,25,26,26,27,27,28,28,29,29,30,30],"right_children":[2,4,6,8,10,12,14,16,18,20,22,24,26,28,30,32,34,36,38,40,42,44,46,48,50,52,54,56,58,60,62,-1,-1,-1,-1,-1,-1,-1,-1,-1,-1,-1,-1,-1,-1,-1,-1,-1,-1,-1,-1,-1,-1,-1,-1,-1,-1,-1,-1,-1,-1,-1,-1],"split_conditions":[1.91E0,4.59E0,2.39E0,3.7E0,7.5E0,3E0,4.2E0,3.2E0,1.633E0,1E0,1.1E1,2.33E0,4.42E-1,3.39E0,7E0,7E0,6.08E-1,7.69E-1,4E0,2.75E0,7E0,1.3E0,9E0,1.25E0,2.17E-1,1.6E0,1.6E0,3.29E0,2.87E0,1.4E0,1.36E-1,4.8314887E-3,-1.2430705E-2,-3.3787433E-5,3.9345725E-3,5.5354782E-3,9.003955E-3,7.3748077E-3,1.268007E-2,2.3765542E-4,3.148214E-2,1.49170775E-2,2.0133793E-2,5.7319086E-2,2.6766889E-2,5.0244354E-2,7.73591E-3,-3.7916452E-3,-1.8930802E-4,3.3580557E-2,5.9850803E-3,4.368823E-2,1.18919276E-1,-1.7941529E-2,1.9187596E-2,-6.8893833E-3,-1.1124919E-2,3.8711904E-4,-4.6230513E-3,3.509394E-2,-1.0454208E-2,2.324003E-2,-1.4743408E-2],"split_indices":[22,23,22,23,23,2,22,23,18,2,23,5,15,23,22,20,15,15,23,11,21,2,1,6,15,9,11,22,22,24,16,0,0,0,0,0,0,0,0,0,0,0,0,0,0,0,0,0,0,0,0,0,0,0,0,0,0,0,0,0,0,0,0],"split_type":[0,0,0,0,0,0,0,0,0,0,0,0,0,0,0,0,0,0,0,0,0,0,0,0,0,0,0,0,0,0,0,0,0,0,0,0,0,0,0,0,0,0,0,0,0,0,0,0,0,0,0,0,0,0,0,0,0,0,0,0,0,0,0],"sum_hessian":[4.4608E4,1.2459E4,3.2149E4,9.038E3,3.421E3,1.6565E4,1.5584E4,4.046E3,4.992E3,2.612E3,8.09E2,1.6342E4,2.23E2,1.1862E4,3.722E3,1.51E2,3.895E3,3.089E3,1.903E3,9.5E1,2.517E3,6.54E2,1.55E2,1.5474E4,8.68E2,1.6E1,2.07E2,7.844E3,4.018E3,2.414E3,1.308E3,5.2E1,9.9E1,9.91E2,2.904E3,1.25E3,1.839E3,7.46E2,1.157E3,8.4E1,1.1E1,9.15E2,1.602E3,2.6E1,6.28E2,1.4E2,1.5E1,6.004E3,9.47E3,5.8E1,8.1E2,1.3E1,3E0,2.1E1,1.86E2,6.675E3,1.169E3,1.427E3,2.591E3,4E0,2.41E3,5E0,1.303E3],"tree_param":{"num_deleted":"0","num_feature":"26","num_nodes":"63","size_leaf_vector":"1"}},{"base_weights":[9.288004E-5,4.905888E-1,-8.462539E-2,3.658755E-1,8.6352E-1,4.0427633E-2,-2.1234141E-1,2.7614784E-1,5.3116745E-1,1.0566286E0,7.137577E-1,1.8750448E-2,3.2120913E-1,-1.5703118E-1,-3.5430253E-1,9.0934426E-2,3.138409E-1,5.201476E-1,1.756424E0,9.690032E-1,1.397967E0,7.3566324E-1,-1.8111551E-1,-2.2194646E-2,1.4667821E-1,8.934024E-1,3.0473077E-1,-1.9739492E-1,-5.8664892E-2,-3.1292146E-1,-4.7727266E-1,5.388571E-2,2.246624E-3,8.45386E-3,1.3951978E-2,1.19335335E-2,1.784823E-2,8.288445E-2,6.3472395E-3,1.940993E-2,3.153271E-2,6.779977E-2,3.4244467E-2,1.5580405E-2,2.4200652E-2,-1.33259E-2,2.5644481E-2,-1.6092819E-3,2.2332568E-3,3.4916515E-3,1.6792964E-2,-9.920287E-3,3.6925375E-2,5.5821594E-3,1.1388185E-2,-4.874726E-3,-8.102038E-3,-2.0559235E-3,7.210842E-3,-1.2927112E-2,-8.586947E-3,2.7667323E-2,-1.4498176E-2],"categories":[],"categories_nodes":[],"categories_segments":[],"categories_sizes":[],"default_left":[0,0,0,0,0,0,0,0,0,0,0,0,0,0,0,0,0,0,0,0,0,0,0,0,0,0,0,0,0,0,0,0,0,0,0,0,0,0,0,0,0,0,0,0,0,0,0,0,0,0,0,0,0,0,0,0,0,0,0,0,0,0,0],"id":15,"left_children":[1,3,5,7,9,11,13,15,17,19,21,23,25,27,29,31,33,35,37,39,41,43,45,47,49,51,53,55,57,59,61,-1,-1,-1,-1,-1,-1,-1,-1,-1,-1,-1,-1,-1,-1,-1,-1,-1,-1,-1,-1,-1,-1,-1,-1,-1,-1,-1,-1,-1,-1,-1,-1],"loss_changes":[1.8516865E3,3.0492566E2,6.0688513E2,7.282318E1,4.6790894E1,1.16855774E2,1.475523E2,2.2248657E1,2.2445068E1,2.0060852E1,1.8344147E1,9.3370865E1,1.2701813E1,5.3708344E1,2.6667725E1,1.4669502E1,1.2715942E1,1.5468079E1,2.2736305E1,1.4465759E1,2.9258148E1,1.3516113E1,6.64799E0,4.1043114E1,5.4013176E1,1.610319E1,1.1825874E1,2.428955E1,1.1634208E1,1.2302368E1,1.1571655E1,0E0,0E0,0E0,0E0,0E0,0E0,0E0,0E0,0E0,0E0,0E0,0E0,0E0,0E0,0E0,0E0,0E0,0E0,0E0,0E0,0E0,0E0,0E0,0E0,0E0,0E0,0E0,0E0,0E0,0E0,0E0,0E0],"parents":[2147483647,0,0,1,1,2,2,3,3,4,4,5,5,6,6,7,7,8,8,9,9,10,10,11,11,12,12,13,13,14,14,15,15,16,16,17,17,18,18,19,19,20,20,21,21,22,22,23,23,24,24,25,25,26,26,27,27,28,28,29,29,30,30],"right_children":[2,4,6,8,10,12,14,16,18,20,22,24,26,28,30,32,34,36,38,40,42,44,46,48,50,52,54,56,58,60,62,-1,-1,-1,-1,-1,-1,-1,-1,-1,-1,-1,-1,-1,-1,-1,-1,-1,-1,-1,-1,-1,-1,-1,-1,-1,-1,-1,-1,-1,-1,-1,-1],"split_conditions":[1.62E0,6E0,2.25E0,4.59E0,1.17E0,3.79E0,3.6E0,3.79E0,3.017E0,1.1E1,2E0,1.67E0,3.91E-1,3.39E0,6.75E0,1.44E0,2.67E0,7E0,1.1E1,3.3E-1,1.1E1,1.6E0,8E0,3.5E0,2.83E0,1.4E0,1.7E0,2.8E0,3.8E0,3.39E0,1.7E-1,5.388571E-2,2.246624E-3,8.45386E-3,1.3951978E-2,1.19335335E-2,1.784823E-2,8.288445E-2,6.3472395E-3,1.940993E-2,3.153271E-2,6.779977E-2,3.4244467E-2,1.5580405E-2,2.4200652E-2,-1.33259E-2,2.5644481E-2,-1.6092819E-3,2.2332568E-3,3.4916515E-3,1.6792964E-2,-9.920287E-3,3.6925375E-2,5.5821594E-3,1.1388185E-2,-4.874726E-3,-8.102038E-3,-2.0559235E-3,7.210842E-3,-1.2927112E-2,-8.586947E-3,2.7667323E-2,-1.4498176E-2],"split_indices":[22,23,22,23,22,23,22,23,19,23,4,2,17,23,22,22,6,21,0,7,0,2,20,23,2,6,22,22,23,23,4,0,0,0,0,0,0,0,0,0,0,0,0,0,0,0,0,0,0,0,0,0,0,0,0,0,0,0,0,0,0,0,0],"split_type":[0,0,0,0,0,0,0,0,0,0,0,0,0,0,0,0,0,0,0,0,0,0,0,0,0,0,0,0,0,0,0,0,0,0,0,0,0,0,0,0,0,0,0,0,0,0,0,0,0,0,0,0,0,0,0,0,0,0,0,0,0,0,0],"sum_hessian":[4.4559E4,6.562E3,3.7997E4,4.919E3,1.643E3,1.9199E4,1.8798E4,3.19E3,1.729E3,7.15E2,9.28E2,1.7824E4,1.375E3,1.3529E4,5.269E3,5.4E2,2.65E3,1.715E3,1.4E1,5.72E2,1.43E2,9.06E2,2.2E1,1.3503E4,4.321E3,3.7E1,1.338E3,9.592E3,3.937E3,3.945E3,1.324E3,4E0,5.36E2,2.189E3,4.61E2,6.53E2,1.062E3,8E0,6E0,1.18E2,4.54E2,3.1E1,1.12E2,2.26E2,6.8E2,1.8E1,4E0,1.0188E4,3.315E3,4.027E3,2.94E2,8E0,2.9E1,5.19E2,8.19E2,6.482E3,3.11E3,3.812E3,1.25E2,7.25E2,3.22E3,5E0,1.319E3],"tree_param":{"num_deleted":"0","num_feature":"26","num_nodes":"63","size_leaf_vector":"1"}},{"base_weights":[1.423206E-3,5.8229923E-1,-6.930374E-2,1.0382358E0,4.86359E-1,5.3397413E-2,-2.0650552E-1,1.3888537E0,9.100383E-1,4.4335032E-1,6.760577E-1,1.6896513E-1,4.9362276E-3,-1.5587324E-1,-3.2329565E-1,1.4874314E0,3.6979982E-1,9.2638695E-1,-1.7659934E-1,1.925652E-1,4.7635025E-1,1.0694473E0,6.0385114E-1,1.2049181E-1,2.617719E-1,-3.7023436E-2,1.3799067E-1,-1.3196202E-1,-2.1378995E-1,-2.736419E-1,-4.1977838E-1,4.9863495E-2,2.6167836E-2,3.0219365E-2,-2.376215E-2,2.6813073E-2,6.02904E-2,2.2241931E-2,-2.736491E-2,4.1571055E-3,2.3313543E-2,1.1384159E-2,1.6718796E-2,3.4840647E-2,5.973349E-3,1.1725158E-2,2.2095626E-2,2.3939176E-3,6.8067526E-3,1.8229779E-2,7.3371073E-3,-2.1805593E-3,1.9016194E-3,8.631314E-3,1.1840037E-3,-5.1853852E-3,-2.4800755E-3,3.608885E-3,-6.7901164E-3,-7.3208874E-3,-1.2353311E-2,1.6781066E-2,-1.2709307E-2],"categories":[],"categories_nodes":[],"categories_segments":[],"categories_sizes":[],"default_left":[0,0,0,0,0,0,0,0,0,0,0,0,0,0,0,0,0,0,0,0,0,0,0,0,0,0,0,0,0,0,0,0,0,0,0,0,0,0,0,0,0,0,0,0,0,0,0,0,0,0,0,0,0,0,0,0,0,0,0,0,0,0,0],"id":16,"left_children":[1,3,5,7,9,11,13,15,17,19,21,23,25,27,29,31,33,35,37,39,41,43,45,47,49,51,53,55,57,59,61,-1,-1,-1,-1,-1,-1,-1,-1,-1,-1,-1,-1,-1,-1,-1,-1,-1,-1,-1,-1,-1,-1,-1,-1,-1,-1,-1,-1,-1,-1,-1,-1],"loss_changes":[1.8308071E3,2.1107825E2,6.6879095E2,3.6492676E1,3.2318726E1,1.1745387E2,1.1085443E2,2.1851654E1,1.1142426E1,2.6904175E1,2.028891E1,2.7842117E1,8.2503914E1,1.8092651E1,2.7053406E1,2.0364777E1,1.6352718E1,1.9722656E1,7.4287357E0,1.1917794E1,2.2388062E1,8.807678E0,1.7374832E1,1.761324E1,1.2494766E1,4.02353E1,5.2251366E1,1.8655426E1,1.6048553E1,1.5226624E1,7.5222473E0,0E0,0E0,0E0,0E0,0E0,0E0,0E0,0E0,0E0,0E0,0E0,0E0,0E0,0E0,0E0,0E0,0E0,0E0,0E0,0E0,0E0,0E0,0E0,0E0,0E0,0E0,0E0,0E0,0E0,0E0,0E0,0E0],"parents":[2147483647,0,0,1,1,2,2,3,3,4,4,5,5,6,6,7,7,8,8,9,9,10,10,11,11,12,12,13,13,14,14,15,15,16,16,17,17,18,18,19,19,20,20,21,21,22,22,23,23,24,24,25,25,26,26,27,27,28,28,29,29,30,30],"right_children":[2,4,6,8,10,12,14,16,18,20,22,24,26,28,30,32,34,36,38,40,42,44,46,48,50,52,54,56,58,60,62,-1,-1,-1,-1,-1,-1,-1,-1,-1,-1,-1,-1,-1,-1,-1,-1,-1,-1,-1,-1,-1,-1,-1,-1,-1,-1,-1,-1,-1,-1,-1,-1],"split_conditions":[1.53E0,1.18E0,2.25E0,1.11E0,1.2E1,1.85E0,3.5E0,1E1,3E0,1.17E0,1E0,1.33E0,1.67E0,2.87E0,5.75E0,1.604E0,1E0,3.67E0,5E0,1.4E1,1E0,1.4E0,1.291E0,1.5E0,4.2E0,1.67E0,7.66E-1,1.33E0,2.1E0,2.1E0,2E-1,4.9863495E-2,2.6167836E-2,3.0219365E-2,-2.376215E-2,2.6813073E-2,6.02904E-2,2.2241931E-2,-2.736491E-2,4.1571055E-3,2.3313543E-2,1.1384159E-2,1.6718796E-2,3.4840647E-2,5.973349E-3,1.1725158E-2,2.2095626E-2,2.3939176E-3,6.8067526E-3,1.8229779E-2,7.3371073E-3,-2.1805593E-3,1.9016194E-3,8.631314E-3,1.1840037E-3,-5.1853852E-3,-2.4800755E-3,3.608885E-3,-6.7901164E-3,-7.3208874E-3,-1.2353311E-2,1.6781066E-2,-1.2709307E-2],"split_indices":[22,22,22,22,24,22,22,1,5,2,5,3,2,22,22,17,4,9,20,20,7,9,19,4,24,5,16,3,24,24,4,0,0,0,0,0,0,0,0,0,0,0,0,0,0,0,0,0,0,0,0,0,0,0,0,0,0,0,0,0,0,0,0],"split_type":[0,0,0,0,0,0,0,0,0,0,0,0,0,0,0,0,0,0,0,0,0,0,0,0,0,0,0,0,0,0,0,0,0,0,0,0,0,0,0,0,0,0,0,0,0,0,0,0,0,0,0,0,0,0,0,0,0,0,0,0,0,0,0],"sum_hessian":[4.4561E4,4.836E3,3.9725E4,8.39E2,3.997E3,2.0971E4,1.8754E4,2.22E2,6.17E2,3.261E3,7.36E2,6.195E3,1.4776E4,1.3084E4,5.67E3,2.02E2,2E1,6.08E2,9E0,3.8E2,2.881E3,1.12E2,6.24E2,4.071E3,2.124E3,1.1234E4,3.542E3,9.263E3,3.821E3,3.746E3,1.924E3,1.56E2,4.6E1,1.3E1,7E0,5.92E2,1.6E1,4E0,5E0,3.49E2,3.1E1,1.314E3,1.567E3,1.01E2,1.1E1,2.41E2,3.83E2,2.946E3,1.125E3,9.9E1,2.025E3,8.29E3,2.944E3,1.405E3,2.137E3,5.062E3,4.201E3,1.38E2,3.683E3,3.087E3,6.59E2,7E0,1.917E3],"tree_param":{"num_deleted":"0","num_feature":"26","num_nodes":"63","size_leaf_vector":"1"}},{"base_weights":[-5.481784E-3,3.7912527E-1,-1.01484604E-1,2.755797E-1,7.664299E-1,1.8535417E-2,-2.1005157E-1,2.0507614E-1,4.3994564E-1,6.613639E-1,1.1006399E0,-6.0778536E-2,8.4991E-2,-1.5816982E-1,-3.2851276E-1,1.1461246E-1,2.6628482E-1,4.1205344E-1,7.712476E-1,5.8051795E-1,7.810526E-1,1.7930063E0,1.0373168E0,-7.456678E-2,3.1022552E-1,-1.2356196E-1,1.1399428E-1,-1.9442046E-1,-6.692107E-2,-2.802048E-1,-4.0711543E-1,6.543163E-3,1.4487706E-3,-6.0981233E-3,8.245809E-3,1.2899864E-2,-7.828099E-3,1.9706463E-2,4.949035E-2,1.764966E-2,-3.6805887E-2,2.0203996E-2,2.8940702E-2,6.209411E-2,1.9215703E-3,4.9348064E-2,2.8105E-2,-8.691995E-3,-1.6669781E-3,1.3334394E-2,-3.2091362E-3,-5.717913E-3,8.771919E-4,3.0204947E-3,1.6829954E-2,-4.950196E-3,-7.803498E-3,3.2334495E-2,-2.109684E-3,-1.2459728E-2,-6.9833924E-3,-1.2364202E-2,1.1786643E-2],"categories":[],"categories_nodes":[],"categories_segments":[],"categories_sizes":[],"default_left":[0,0,0,0,0,0,0,0,0,0,0,0,0,0,0,0,0,0,0,0,0,0,0,0,0,0,0,0,0,0,0,0,0,0,0,0,0,0,0,0,0,0,0,0,0,0,0,0,0,0,0,0,0,0,0,0,0,0,0,0,0,0,0],"id":17,"left_children":[1,3,5,7,9,11,13,15,17,19,21,23,25,27,29,31,33,35,37,39,41,43,45,47,49,51,53,55,57,59,61,-1,-1,-1,-1,-1,-1,-1,-1,-1,-1,-1,-1,-1,-1,-1,-1,-1,-1,-1,-1,-1,-1,-1,-1,-1,-1,-1,-1,-1,-1,-1,-1],"loss_changes":[1.6399528E3,3.5558862E2,4.6313657E2,8.1051636E1,6.497058E1,8.898773E1,1.14644165E2,2.711264E1,1.9097046E1,1.3345093E1,1.769397E1,3.9397095E1,5.557762E1,4.2922607E1,2.1465027E1,1.3579523E1,1.1825806E1,2.3537323E1,1.5191238E1,1.2781403E1,1.0651215E1,1.7095932E1,2.3552795E1,3.032758E1,1.55064335E1,1.1498314E1,4.7931282E1,1.7906952E1,1.4452795E1,2.2478882E1,8.848541E0,0E0,0E0,0E0,0E0,0E0,0E0,0E0,0E0,0E0,0E0,0E0,0E0,0E0,0E0,0E0,0E0,0E0,0E0,0E0,0E0,0E0,0E0,0E0,0E0,0E0,0E0,0E0,0E0,0E0,0E0,0E0,0E0],"parents":[2147483647,0,0,1,1,2,2,3,3,4,4,5,5,6,6,7,7,8,8,9,9,10,10,11,11,12,12,13,13,14,14,15,15,16,16,17,17,18,18,19,19,20,20,21,21,22,22,23,23,24,24,25,25,26,26,27,27,28,28,29,29,30,30],"right_children":[2,4,6,8,10,12,14,16,18,20,22,24,26,28,30,32,34,36,38,40,42,44,46,48,50,52,54,56,58,60,62,-1,-1,-1,-1,-1,-1,-1,-1,-1,-1,-1,-1,-1,-1,-1,-1,-1,-1,-1,-1,-1,-1,-1,-1,-1,-1,-1,-1,-1,-1,-1,-1],"split_conditions":[1.75E0,5.75E0,2.25E0,4.5E0,8.5E0,1.3E0,3.5E0,3.79E0,3.5E0,2E0,1.06E0,3.25E0,3.25E0,3.39E0,5.5E0,9.91E-1,2.5E-1,3E0,1.67E0,2.9E1,1.751E0,3.67E0,1.4E0,4.75E-1,2E0,1.07E0,3E0,2.8E0,2E0,3.39E0,1.808E0,6.543163E-3,1.4487706E-3,-6.0981233E-3,8.245809E-3,1.2899864E-2,-7.828099E-3,1.9706463E-2,4.949035E-2,1.764966E-2,-3.6805887E-2,2.0203996E-2,2.8940702E-2,6.209411E-2,1.9215703E-3,4.9348064E-2,2.8105E-2,-8.691995E-3,-1.6669781E-3,1.3334394E-2,-3.2091362E-3,-5.717913E-3,8.771919E-4,3.0204947E-3,1.6829954E-2,-4.950196E-3,-7.803498E-3,3.2334495E-2,-2.109684E-3,-1.2459728E-2,-6.9833924E-3,-1.2364202E-2,1.1786643E-2],"split_indices":[22,23,22,23,23,2,22,23,6,9,22,9,23,23,22,17,3,2,4,20,19,9,6,17,4,15,2,22,24,23,14,0,0,0,0,0,0,0,0,0,0,0,0,0,0,0,0,0,0,0,0,0,0,0,0,0,0,0,0,0,0,0,0],"split_type":[0,0,0,0,0,0,0,0,0,0,0,0,0,0,0,0,0,0,0,0,0,0,0,0,0,0,0,0,0,0,0,0,0,0,0,0,0,0,0,0,0,0,0,0,0,0,0,0,0,0,0,0,0,0,0,0,0,0,0,0,0,0,0],"sum_hessian":[4.4413E4,8.871E3,3.5542E4,7.001E3,1.87E3,1.6881E4,1.8661E4,4.901E3,2.1E3,1.425E3,4.45E2,7.696E3,9.185E3,1.2979E4,5.682E3,1.979E3,2.922E3,1.939E3,1.61E2,8.54E2,5.71E2,3.5E1,4.1E2,7.421E3,2.75E2,1.121E3,8.064E3,9.288E3,3.691E3,3.522E3,2.16E3,7.72E2,1.207E3,5.2E1,2.87E3,1.889E3,5E1,1.44E2,1.7E1,8.51E2,3E0,3.63E2,2.08E2,3E1,5E0,5.6E1,3.54E2,6.01E2,6.82E3,2.08E2,6.7E1,7.79E2,3.42E2,7.832E3,2.32E2,6.418E3,2.87E3,1E1,3.681E3,9.13E2,2.609E3,2.147E3,1.3E1],"tree_param":{"num_deleted":"0","num_feature":"26","num_nodes":"63","size_leaf_vector":"1"}},{"base_weights":[3.4181387E-3,4.6590224E-1,-7.3187746E-2,7.858525E-1,3.4068146E-1,4.1997187E-2,-1.9251336E-1,6.7175525E-1,1.1256202E0,2.428016E-1,4.4677103E-1,2.3078367E-3,1.7966284E-1,-1.4972098E-1,-3.2777646E-1,6.848668E-1,9.752225E-3,2.87499E0,1.0831105E0,1.4568125E-1,3.0313697E-1,4.9926424E-1,3.070069E-1,-8.211101E-3,5.96999E-1,1.2928034E-1,2.700747E-1,-1.7587098E-1,-1.1335055E-2,-2.7963862E-1,-4.4028282E-1,1.714201E-2,2.3097696E-2,2.9757855E-2,-1.1508177E-2,1.1811394E-1,3.0762669E-2,3.0880786E-2,7.061051E-2,7.34594E-4,8.101604E-3,2.5391493E-3,1.0294947E-2,1.3798336E-2,2.6993882E-2,7.535959E-3,3.1274352E-2,1.3708567E-2,-4.975751E-4,3.187935E-2,8.717935E-3,3.8068471E-3,5.3002853E-2,9.013274E-3,1.5641833E-3,-4.1793315E-3,-7.2351093E-3,5.906004E-4,-5.082222E-3,-1.0510758E-2,-6.708465E-3,-1.875433E-2,-1.2173155E-2],"categories":[],"categories_nodes":[],"categories_segments":[],"categories_sizes":[],"default_left":[0,0,0,0,0,0,0,0,0,0,0,0,0,0,0,0,0,0,0,0,0,0,0,0,0,0,0,0,0,0,0,0,0,0,0,0,0,0,0,0,0,0,0,0,0,0,0,0,0,0,0,0,0,0,0,0,0,0,0,0,0,0,0],"id":18,"left_children":[1,3,5,7,9,11,13,15,17,19,21,23,25,27,29,31,33,35,37,39,41,43,45,47,49,51,53,55,57,59,61,-1,-1,-1,-1,-1,-1,-1,-1,-1,-1,-1,-1,-1,-1,-1,-1,-1,-1,-1,-1,-1,-1,-1,-1,-1,-1,-1,-1,-1,-1,-1,-1],"loss_changes":[1.581939E3,2.5394092E2,5.265054E2,6.840332E1,4.726349E1,1.0650116E2,1.0885651E2,1.1606995E1,3.0127441E1,1.38728485E1,1.5899353E1,9.4657166E1,1.9834747E1,5.1728638E1,2.4361816E1,1.222229E1,1.0811879E1,1.5607796E1,2.7490173E1,1.37402E1,1.2775162E1,2.4610962E1,2.4365356E1,5.7931545E1,3.7214592E1,1.0724606E1,1.0308739E1,2.8669373E1,1.1149398E1,1.2477097E1,8.378113E0,0E0,0E0,0E0,0E0,0E0,0E0,0E0,0E0,0E0,0E0,0E0,0E0,0E0,0E0,0E0,0E0,0E0,0E0,0E0,0E0,0E0,0E0,0E0,0E0,0E0,0E0,0E0,0E0,0E0,0E0,0E0,0E0],"parents":[2147483647,0,0,1,1,2,2,3,3,4,4,5,5,6,6,7,7,8,8,9,9,10,10,11,11,12,12,13,13,14,14,15,15,16,16,17,17,18,18,19,19,20,20,21,21,22,22,23,23,24,24,25,25,26,26,27,27,28,28,29,29,30,30],"right_children":[2,4,6,8,10,12,14,16,18,20,22,24,26,28,30,32,34,36,38,40,42,44,46,48,50,52,54,56,58,60,62,-1,-1,-1,-1,-1,-1,-1,-1,-1,-1,-1,-1,-1,-1,-1,-1,-1,-1,-1,-1,-1,-1,-1,-1,-1,-1,-1,-1,-1,-1,-1,-1],"split_conditions":[1.61E0,1.28E0,2.25E0,8.5E0,4.5E0,3.6E0,3.79E0,3.75E0,7.07E-1,1E0,1.339E0,2.83E0,3.79E0,3.5E0,7E0,1.329E0,2E-1,1.4E0,4E0,8.3E-1,3.79E0,1.83E0,1.892E0,1E0,9.71E-1,4E0,1.627E0,2.79E0,1.532E0,3.75E0,6E-1,1.714201E-2,2.3097696E-2,2.9757855E-2,-1.1508177E-2,1.1811394E-1,3.0762669E-2,3.0880786E-2,7.061051E-2,7.34594E-4,8.101604E-3,2.5391493E-3,1.0294947E-2,1.3798336E-2,2.6993882E-2,7.535959E-3,3.1274352E-2,1.3708567E-2,-4.975751E-4,3.187935E-2,8.717935E-3,3.8068471E-3,5.3002853E-2,9.013274E-3,1.5641833E-3,-4.1793315E-3,-7.2351093E-3,5.906004E-4,-5.082222E-3,-1.0510758E-2,-6.708465E-3,-1.875433E-2,-1.2173155E-2],"split_indices":[22,22,22,23,23,23,22,9,18,3,17,2,23,23,22,19,8,8,2,16,23,5,14,1,15,2,14,22,16,23,2,0,0,0,0,0,0,0,0,0,0,0,0,0,0,0,0,0,0,0,0,0,0,0,0,0,0,0,0,0,0,0,0],"split_type":[0,0,0,0,0,0,0,0,0,0,0,0,0,0,0,0,0,0,0,0,0,0,0,0,0,0,0,0,0,0,0,0,0,0,0,0,0,0,0,0,0,0,0,0,0,0,0,0,0,0,0,0,0,0,0,0,0,0,0,0,0,0,0],"sum_hessian":[4.4649E4,6.344E3,3.8305E4,1.783E3,4.561E3,1.9491E4,1.8814E4,1.337E3,4.46E2,2.374E3,2.187E3,1.513E4,4.361E3,1.4294E4,4.52E3,1.311E3,2.6E1,9E0,4.37E2,9.11E2,1.463E3,1.588E3,5.99E2,1.4868E4,2.62E2,2.802E3,1.559E3,1.2022E4,2.272E3,3.168E3,1.352E3,5.65E2,7.46E2,7E0,1.9E1,5E0,4E0,4.21E2,1.6E1,4.62E2,4.49E2,2.27E2,1.236E3,1.448E3,1.4E2,5.58E2,4.1E1,2.62E2,1.4606E4,1.03E2,1.59E2,2.799E3,3E0,1.368E3,1.91E2,7.709E3,4.313E3,1.9E3,3.72E2,1.398E3,1.77E3,2.1E2,1.142E3],"tree_param":{"num_deleted":"0","num_feature":"26","num_nodes":"63","size_leaf_vector":"1"}},{"base_weights":[2.0484023E-3,3.4651425E-1,-9.389813E-2,2.4331222E-1,7.089042E-1,-6.410948E-4,-2.1006206E-1,1.0348844E-1,3.1777123E-1,9.491148E-1,5.760781E-1,-9.295667E-3,4.463799E-1,-1.8079664E-1,-3.9342794E-1,5.1906884E-2,1.0034687E-1,2.6156777E-1,4.1377297E-1,8.653869E-1,1.4496714E0,-2.8891808E-1,5.851086E-1,-2.1314144E-2,2.145488E-1,3.9623156E-1,1.3440318E0,-2.5028998E-1,-1.3384467E-1,-5.071999E-1,-3.6315218E-1,1.8297124E-3,6.0277437E-3,9.713854E-3,5.8790534E-3,1.21005345E-2,3.991574E-2,4.81021E-2,2.4058597E-2,3.8976237E-2,8.3828785E-2,-2.8157583E-2,1.1905941E-2,1.7774943E-2,-9.070909E-3,-2.769276E-3,2.6772922E-4,5.504063E-3,3.9934635E-2,7.6942774E-3,1.924624E-2,5.9791554E-2,2.0724917E-2,-6.8864995E-3,-1.2296248E-2,-2.049125E-3,-5.967304E-3,-1.5864018E-2,1.823793E-4,-4.118143E-3,-1.1625531E-2],"categories":[],"categories_nodes":[],"categories_segments":[],"categories_sizes":[],"default_left":[0,0,0,0,0,0,0,0,0,0,0,0,0,0,0,0,0,0,0,0,0,0,0,0,0,0,0,0,0,0,0,0,0,0,0,0,0,0,0,0,0,0,0,0,0,0,0,0,0,0,0,0,0,0,0,0,0,0,0,0,0],"id":19,"left_children":[1,3,5,7,9,11,13,15,17,19,21,23,25,27,29,-1,31,33,35,37,39,41,43,45,47,49,51,53,55,57,59,-1,-1,-1,-1,-1,-1,-1,-1,-1,-1,-1,-1,-1,-1,-1,-1,-1,-1,-1,-1,-1,-1,-1,-1,-1,-1,-1,-1,-1,-1],"loss_changes":[1.4718617E3,3.6267615E2,3.7733856E2,7.860245E1,6.805176E1,7.475662E1,8.316522E1,1.3246599E1,2.6481445E1,3.0765076E1,1.1003418E1,5.1001328E1,1.598822E1,4.3616882E1,7.166443E0,0E0,1.0366644E1,1.2635864E1,1.6832855E1,2.947168E1,1.8219833E1,7.05546E0,9.183289E0,3.8623558E1,3.3279964E1,1.1800373E1,6.678009E0,1.7755615E1,3.40421E1,4.9481125E0,9.242554E0,0E0,0E0,0E0,0E0,0E0,0E0,0E0,0E0,0E0,0E0,0E0,0E0,0E0,0E0,0E0,0E0,0E0,0E0,0E0,0E0,0E0,0E0,0E0,0E0,0E0,0E0,0E0,0E0,0E0,0E0],"parents":[2147483647,0,0,1,1,2,2,3,3,4,4,5,5,6,6,7,7,8,8,9,9,10,10,11,11,12,12,13,13,14,14,16,16,17,17,18,18,19,19,20,20,21,21,22,22,23,23,24,24,25,25,26,26,27,27,28,28,29,29,30,30],"right_children":[2,4,6,8,10,12,14,16,18,20,22,24,26,28,30,-1,32,34,36,38,40,42,44,46,48,50,52,54,56,58,60,-1,-1,-1,-1,-1,-1,-1,-1,-1,-1,-1,-1,-1,-1,-1,-1,-1,-1,-1,-1,-1,-1,-1,-1,-1,-1,-1,-1,-1,-1],"split_conditions":[1.8E0,5.4E0,2.39E0,3.79E0,1.17E0,3.79E0,5.5E0,1.44E0,4.5E0,9.88E-1,5.83E-1,2.33E0,1.5E1,3.25E0,5.25E-1,5.1906884E-2,1.33E0,1.83E0,4E0,1.07E0,2E-1,1.211E0,4E0,3.29E0,2.6E0,3.9E0,1.75E0,3.4E0,3.2E0,3.6E0,5.92E-1,1.8297124E-3,6.0277437E-3,9.713854E-3,5.8790534E-3,1.21005345E-2,3.991574E-2,4.81021E-2,2.4058597E-2,3.8976237E-2,8.3828785E-2,-2.8157583E-2,1.1905941E-2,1.7774943E-2,-9.070909E-3,-2.769276E-3,2.6772922E-4,5.504063E-3,3.9934635E-2,7.6942774E-3,1.924624E-2,5.9791554E-2,2.0724917E-2,-6.8864995E-3,-1.2296248E-2,-2.049125E-3,-5.967304E-3,-1.5864018E-2,1.823793E-4,-4.118143E-3,-1.1625531E-2],"split_indices":[22,23,22,23,22,23,22,22,23,16,14,2,21,23,14,0,3,10,11,22,12,18,2,23,5,23,6,22,22,3,14,0,0,0,0,0,0,0,0,0,0,0,0,0,0,0,0,0,0,0,0,0,0,0,0,0,0,0,0,0,0],"split_type":[0,0,0,0,0,0,0,0,0,0,0,0,0,0,0,0,0,0,0,0,0,0,0,0,0,0,0,0,0,0,0,0,0,0,0,0,0,0,0,0,0,0,0,0,0,0,0,0,0,0,0,0,0,0,0,0,0,0,0,0,0],"sum_hessian":[4.4532E4,9.701E3,3.4831E4,7.552E3,2.149E3,1.9321E4,1.551E4,2.625E3,4.927E3,7.63E2,1.386E3,1.8955E4,3.66E2,1.3377E4,2.133E3,4E0,2.621E3,3.11E3,1.817E3,6.56E2,1.07E2,1.4E1,1.372E3,1.799E4,9.65E2,3.48E2,1.8E1,5.392E3,7.985E3,4.45E2,1.688E3,1.885E3,7.36E2,1.594E3,1.516E3,1.798E3,1.9E1,5E1,6.06E2,9.8E1,9E0,7E0,7E0,1.361E3,1.1E1,5.373E3,1.2617E4,9.4E2,2.5E1,2.23E2,1.25E2,8E0,1E1,4.774E3,6.18E2,3.979E3,4.006E3,4.27E2,1.8E1,1.65E2,1.523E3],"tree_param":{"num_deleted":"0","num_feature":"26","num_nodes":"61","size_leaf_vector":"1"}},{"base_weights":[-4.0516453E-3,3.4355214E-1,-9.0160586E-2,2.0922668E-1,6.2924653E-1,1.1281758E-3,-1.9600277E-1,8.784678E-2,2.6731214E-1,9.26988E-1,5.246724E-1,-1.0376491E-1,3.9119106E-2,-1.6246696E-1,-3.5048565E-1,3.096279E-2,2.4512556E-1,-2.0601948E-1,2.744547E-1,8.3874565E-1,1.3298447E0,6.6294974E-1,4.805111E-1,-2.3081208E-2,-1.3569587E-1,-9.239217E-3,1.1453265E-1,-2.028165E-1,-9.22784E-2,-3.2082093E-1,-4.6834952E-1,3.443172E-3,-2.2462273E-3,9.334722E-3,-7.607711E-3,2.588229E-2,-1.7198527E-2,7.912657E-3,1.7816758E-2,9.996956E-3,2.6847623E-2,3.5369422E-2,7.486944E-2,1.805992E-2,3.4487907E-2,1.1856714E-2,1.7104251E-2,-5.0052004E-3,4.706112E-4,-4.925973E-3,-1.2589323E-3,-6.1310744E-3,3.4407075E-4,2.4658446E-3,1.0010442E-2,-5.2830474E-3,-9.27425E-3,-8.1123586E-4,-4.656857E-3,-8.200713E-3,-1.2198969E-2,3.683564E-2,-1.4373302E-2],"categories":[],"categories_nodes":[],"categories_segments":[],"categories_sizes":[],"default_left":[0,0,0,0,0,0,0,0,0,0,0,0,0,0,0,0,0,0,0,0,0,0,0,0,0,0,0,0,0,0,0,0,0,0,0,0,0,0,0,0,0,0,0,0,0,0,0,0,0,0,0,0,0,0,0,0,0,0,0,0,0,0,0],"id":20,"left_children":[1,3,5,7,9,11,13,15,17,19,21,23,25,27,29,31,33,35,37,39,41,43,45,47,49,51,53,55,57,59,61,-1,-1,-1,-1,-1,-1,-1,-1,-1,-1,-1,-1,-1,-1,-1,-1,-1,-1,-1,-1,-1,-1,-1,-1,-1,-1,-1,-1,-1,-1,-1,-1],"loss_changes":[1.3319658E3,3.3892065E2,3.446026E2,4.2356537E1,8.74729E1,7.6316536E1,8.550769E1,1.741153E1,1.3799469E1,2.4942017E1,1.2462402E1,1.3115433E1,5.1272446E1,3.8418213E1,1.0146637E1,1.2701794E1,1.71043E1,2.4438248E1,1.3531677E1,1.685376E1,1.9921783E1,1.4257751E1,1.1929169E1,8.056004E0,9.739288E0,3.461986E1,3.8900337E1,2.4421875E1,2.0348576E1,9.484665E0,1.1357056E1,0E0,0E0,0E0,0E0,0E0,0E0,0E0,0E0,0E0,0E0,0E0,0E0,0E0,0E0,0E0,0E0,0E0,0E0,0E0,0E0,0E0,0E0,0E0,0E0,0E0,0E0,0E0,0E0,0E0,0E0,0E0,0E0],"parents":[2147483647,0,0,1,1,2,2,3,3,4,4,5,5,6,6,7,7,8,8,9,9,10,10,11,11,12,12,13,13,14,14,15,15,16,16,17,17,18,18,19,19,20,20,21,21,22,22,23,23,24,24,25,25,26,26,27,27,28,28,29,29,30,30],"right_children":[2,4,6,8,10,12,14,16,18,20,22,24,26,28,30,32,34,36,38,40,42,44,46,48,50,52,54,56,58,60,62,-1,-1,-1,-1,-1,-1,-1,-1,-1,-1,-1,-1,-1,-1,-1,-1,-1,-1,-1,-1,-1,-1,-1,-1,-1,-1,-1,-1,-1,-1,-1,-1],"split_conditions":[1.75E0,4.8E0,2.35E0,3.79E0,1.17E0,3.3E0,4.59E0,1.33E0,4.4E0,1.2E0,1.17E0,2.04E0,1.6E0,3.39E0,9.5E0,5.59E0,2.25E0,7.29E-1,1.72E0,9.57E-1,2E-1,3.75E0,5.75E0,4E-1,1E1,3E0,2.4E0,3.2E0,3.2E0,2.2E0,1.7E-1,3.443172E-3,-2.2462273E-3,9.334722E-3,-7.607711E-3,2.588229E-2,-1.7198527E-2,7.912657E-3,1.7816758E-2,9.996956E-3,2.6847623E-2,3.5369422E-2,7.486944E-2,1.805992E-2,3.4487907E-2,1.1856714E-2,1.7104251E-2,-5.0052004E-3,4.706112E-4,-4.925973E-3,-1.2589323E-3,-6.1310744E-3,3.4407075E-4,2.4658446E-3,1.0010442E-2,-5.2830474E-3,-9.27425E-3,-8.1123586E-4,-4.656857E-3,-8.200713E-3,-1.2198969E-2,3.683564E-2,-1.4373302E-2],"split_indices":[22,23,22,23,22,23,22,3,24,4,10,22,6,23,22,24,8,15,22,19,12,6,23,8,1,0,9,22,22,10,4,0,0,0,0,0,0,0,0,0,0,0,0,0,0,0,0,0,0,0,0,0,0,0,0,0,0,0,0,0,0,0,0],"split_type":[0,0,0,0,0,0,0,0,0,0,0,0,0,0,0,0,0,0,0,0,0,0,0,0,0,0,0,0,0,0,0,0,0,0,0,0,0,0,0,0,0,0,0,0,0,0,0,0,0,0,0,0,0,0,0,0,0,0,0,0,0,0,0],"sum_hessian":[4.4498E4,8.834E3,3.5664E4,6.01E3,2.824E3,1.9149E4,1.6515E4,1.946E3,4.064E3,7.32E2,2.092E3,5.091E3,1.4058E4,1.3571E4,2.944E3,1.43E3,5.16E2,6E1,4.004E3,6.03E2,1.29E2,5.03E2,1.589E3,1.444E3,3.647E3,8.566E3,5.492E3,8.616E3,4.955E3,2.355E3,5.89E2,7.98E2,6.32E2,4.56E2,6E1,1.5E1,4.5E1,3.876E3,1.28E2,6.1E1,5.42E2,1.16E2,1.3E1,4.49E2,5.4E1,8.17E2,7.72E2,3.06E2,1.138E3,2.796E3,8.51E2,8.21E2,7.745E3,4.787E3,7.05E2,6.888E3,1.728E3,2.434E3,2.521E3,1.519E3,8.36E2,3E0,5.86E2],"tree_param":{"num_deleted":"0","num_feature":"26","num_nodes":"63","size_leaf_vector":"1"}},{"base_weights":[2.3211184E-4,2.8004527E-1,-1.0065314E-1,1.654281E-1,5.640228E-1,-4.4028968E-2,-2.3774925E-1,7.280458E-2,2.3096836E-1,8.5061896E-1,4.7264946E-1,-1.1941548E-1,2.8991045E-2,-1.9552818E-1,-3.3393526E-1,7.055347E-2,4.100067E-2,2.2938442E-1,5.230102E-2,7.54066E-1,1.2868742E0,-1.7370573E-1,4.9025053E-1,-8.6334266E-2,-1.6810723E-1,-8.444268E-3,1.7390144E-1,-2.4002446E-1,-1.10911645E-1,-3.0610362E-1,-4.4318628E-1,3.6831747E-3,5.949369E-4,7.378211E-3,2.7448765E-3,2.5961587E-2,1.6939696E-2,2.463716E-2,5.0647616E-2,-2.1833822E-2,3.034193E-3,1.51605625E-2,2.2285283E-3,-3.7912237E-3,-1.272326E-3,-5.8461567E-3,-2.5768434E-3,1.5244131E-2,-5.1271444E-4,2.0234412E-2,4.1856947E-3,-7.264911E-3,2.860411E-2,-1.2600884E-3,-5.25086E-3,-8.387654E-3,-1.374646E-2,4.05491E-2,-1.3639852E-2],"categories":[],"categories_nodes":[],"categories_segments":[],"categories_sizes":[],"default_left":[0,0,0,0,0,0,0,0,0,0,0,0,0,0,0,0,0,0,0,0,0,0,0,0,0,0,0,0,0,0,0,0,0,0,0,0,0,0,0,0,0,0,0,0,0,0,0,0,0,0,0,0,0,0,0,0,0,0,0],"id":21,"left_children":[1,3,5,7,9,11,13,15,17,19,21,23,25,27,29,31,-1,33,-1,35,37,39,41,43,45,47,49,51,53,55,57,-1,-1,-1,-1,-1,-1,-1,-1,-1,-1,-1,-1,-1,-1,-1,-1,-1,-1,-1,-1,-1,-1,-1,-1,-1,-1,-1,-1],"loss_changes":[1.2570947E3,3.840138E2,2.540787E2,5.103061E1,8.8451294E1,1.27520386E2,3.878705E1,1.0057163E1,1.1395752E1,3.3527344E1,2.93797E1,1.8345184E1,6.384011E1,2.5015182E1,8.733887E0,9.217571E0,0E0,1.12092285E1,0E0,1.370163E1,2.6087326E1,1.058153E1,1.5710754E1,1.19343605E1,1.012706E1,4.1783657E1,4.1482925E1,1.1357758E1,1.0128048E1,9.261322E0,1.2766449E1,0E0,0E0,0E0,0E0,0E0,0E0,0E0,0E0,0E0,0E0,0E0,0E0,0E0,0E0,0E0,0E0,0E0,0E0,0E0,0E0,0E0,0E0,0E0,0E0,0E0,0E0,0E0,0E0],"parents":[2147483647,0,0,1,1,2,2,3,3,4,4,5,5,6,6,7,7,8,8,9,9,10,10,11,11,12,12,13,13,14,14,15,15,17,17,19,19,20,20,21,21,22,22,23,23,24,24,25,25,26,26,27,27,28,28,29,29,30,30],"right_children":[2,4,6,8,10,12,14,16,18,20,22,24,26,28,30,32,-1,34,-1,36,38,40,42,44,46,48,50,52,54,56,58,-1,-1,-1,-1,-1,-1,-1,-1,-1,-1,-1,-1,-1,-1,-1,-1,-1,-1,-1,-1,-1,-1,-1,-1,-1,-1,-1,-1],"split_conditions":[1.89E0,4.59E0,2.87E0,3.7E0,1.18E0,3.39E0,4.59E0,3.67E0,1.3E1,1.1E1,6.3E-1,2.39E0,1.83E0,3.5E0,9.5E0,4.8E0,4.100067E-2,2.75E0,5.230102E-2,1.5E1,4.93E-1,5E-1,3.67E0,1.378E0,1.732E0,1E0,4.42E-1,3.304E0,3.7E0,2.5E0,2.47E-1,3.6831747E-3,5.949369E-4,7.378211E-3,2.7448765E-3,2.5961587E-2,1.6939696E-2,2.463716E-2,5.0647616E-2,-2.1833822E-2,3.034193E-3,1.51605625E-2,2.2285283E-3,-3.7912237E-3,-1.272326E-3,-5.8461567E-3,-2.5768434E-3,1.5244131E-2,-5.1271444E-4,2.0234412E-2,4.1856947E-3,-7.264911E-3,2.860411E-2,-1.2600884E-3,-5.25086E-3,-8.387654E-3,-1.374646E-2,4.05491E-2,-1.3639852E-2],"split_indices":[22,23,22,23,22,23,22,8,24,23,14,22,2,23,22,24,0,10,0,0,16,15,9,18,19,1,15,19,22,11,16,0,0,0,0,0,0,0,0,0,0,0,0,0,0,0,0,0,0,0,0,0,0,0,0,0,0,0,0],"split_type":[0,0,0,0,0,0,0,0,0,0,0,0,0,0,0,0,0,0,0,0,0,0,0,0,0,0,0,0,0,0,0,0,0,0,0,0,0,0,0,0,0,0,0,0,0,0,0,0,0,0,0,0,0,0,0,0,0,0,0],"sum_hessian":[4.453E4,1.18E4,3.273E4,8.408E3,3.392E3,2.3164E4,9.566E3,3.485E3,4.923E3,8.18E2,2.574E3,1.1397E4,1.1767E4,6.65E3,2.916E3,3.48E3,5E0,4.919E3,4E0,6.72E2,1.46E2,6.8E1,2.506E3,6.788E3,4.609E3,9.352E3,2.415E3,4.357E3,2.293E3,2.327E3,5.89E2,1.714E3,1.766E3,4.391E3,5.28E2,4.21E2,2.51E2,6.9E1,7.7E1,2.2E1,4.6E1,2.418E3,8.8E1,3.55E3,3.238E3,3.476E3,1.133E3,1.53E2,9.199E3,1.54E2,2.261E3,4.35E3,7E0,1.106E3,1.187E3,1.984E3,3.43E2,3E0,5.86E2],"tree_param":{"num_deleted":"0","num_feature":"26","num_nodes":"59","size_leaf_vector":"1"}},{"base_weights":[2.1106165E-3,2.7211893E-1,-9.5036305E-2,6.736293E-1,2.0237708E-1,-3.8686387E-2,-2.3143665E-1,1.0613868E0,6.130133E-1,3.3696243E-1,1.4195748E-1,-6.761364E-2,6.923265E-2,-1.954696E-1,-3.5261896E-1,1.2202421E0,5.3466356E-1,6.3955283E-1,5.0260495E-2,2.9256374E-1,5.5568004E-1,-6.626701E-2,1.5255737E-1,-4.3899704E-2,-1.2889707E-1,1.3570237E-1,-8.578985E-2,-1.6376445E-1,-2.4375819E-1,-3.4302798E-1,-6.758094E-1,5.392106E-2,2.9093577E-2,2.4772013E-2,-1.4748754E-2,1.6677046E-2,2.2954637E-2,1.6718425E-2,-1.3745876E-2,1.0313982E-2,4.9903146E-3,1.42869875E-2,3.354071E-2,-4.3392E-3,7.881397E-3,3.714716E-3,6.8706176E-3,-4.4965252E-4,-3.319301E-3,-4.9263393E-3,-1.2229567E-3,-1.806144E-3,5.8512418E-3,-1.0629956E-3,-8.335635E-3,-4.769369E-3,-1.746555E-2,-8.123322E-3,-3.947894E-3,-1.06313005E-2,2.969702E-3,-2.2463616E-2,-8.081582E-3],"categories":[],"categories_nodes":[],"categories_segments":[],"categories_sizes":[],"default_left":[0,0,0,0,0,0,0,0,0,0,0,0,0,0,0,0,0,0,0,0,0,0,0,0,0,0,0,0,0,0,0,0,0,0,0,0,0,0,0,0,0,0,0,0,0,0,0,0,0,0,0,0,0,0,0,0,0,0,0,0,0,0,0],"id":22,"left_children":[1,3,5,7,9,11,13,15,17,19,21,23,25,27,29,31,33,35,37,39,41,43,45,47,49,51,53,55,57,59,61,-1,-1,-1,-1,-1,-1,-1,-1,-1,-1,-1,-1,-1,-1,-1,-1,-1,-1,-1,-1,-1,-1,-1,-1,-1,-1,-1,-1,-1,-1,-1,-1],"loss_changes":[1.1665214E3,3.2936407E2,2.5136658E2,4.0270325E1,8.148767E1,7.225877E1,4.1603333E1,1.8927032E1,2.2490173E1,2.9999084E1,1.528804E1,2.652089E1,5.04306E1,1.125116E1,6.547241E0,2.4130463E1,1.713439E1,1.4704407E1,1.8043388E1,1.6653442E1,2.283342E1,8.701141E0,1.4443649E1,2.539633E1,1.5841194E1,3.9827164E1,1.419793E1,8.827881E0,8.816528E0,1.0699829E1,1.6372013E0,0E0,0E0,0E0,0E0,0E0,0E0,0E0,0E0,0E0,0E0,0E0,0E0,0E0,0E0,0E0,0E0,0E0,0E0,0E0,0E0,0E0,0E0,0E0,0E0,0E0,0E0,0E0,0E0,0E0,0E0,0E0,0E0],"parents":[2147483647,0,0,1,1,2,2,3,3,4,4,5,5,6,6,7,7,8,8,9,9,10,10,11,11,12,12,13,13,14,14,15,15,16,16,17,17,18,18,19,19,20,20,21,21,22,22,23,23,24,24,25,25,26,26,27,27,28,28,29,29,30,30],"right_children":[2,4,6,8,10,12,14,16,18,20,22,24,26,28,30,32,34,36,38,40,42,44,46,48,50,52,54,56,58,60,62,-1,-1,-1,-1,-1,-1,-1,-1,-1,-1,-1,-1,-1,-1,-1,-1,-1,-1,-1,-1,-1,-1,-1,-1,-1,-1,-1,-1,-1,-1,-1,-1],"split_conditions":[1.89E0,1.28E0,2.87E0,1.11E0,1.53E0,1.6E0,5.5E0,1.478E0,1.849E0,3E0,3.02E-1,2.39E0,2.25E0,1E-1,2.006E0,6.08E-1,7.79E-1,2.67E0,1.378E0,1.346E0,1.158E0,6.2E0,1.4E0,1.158E0,1.722E0,1.67E0,3.2E0,2.4E1,1.4E0,2.67E0,3.2E0,5.392106E-2,2.9093577E-2,2.4772013E-2,-1.4748754E-2,1.6677046E-2,2.2954637E-2,1.6718425E-2,-1.3745876E-2,1.0313982E-2,4.9903146E-3,1.42869875E-2,3.354071E-2,-4.3392E-3,7.881397E-3,3.714716E-3,6.8706176E-3,-4.4965252E-4,-3.319301E-3,-4.9263393E-3,-1.2229567E-3,-1.806144E-3,5.8512418E-3,-1.0629956E-3,-8.335635E-3,-4.769369E-3,-1.746555E-2,-8.123322E-3,-3.947894E-3,-1.06313005E-2,2.969702E-3,-2.2463616E-2,-8.081582E-3],"split_indices":[22,22,22,22,22,2,22,17,17,6,15,22,22,13,16,15,16,6,18,17,16,24,4,16,19,10,24,21,2,4,4,0,0,0,0,0,0,0,0,0,0,0,0,0,0,0,0,0,0,0,0,0,0,0,0,0,0,0,0,0,0,0,0],"split_type":[0,0,0,0,0,0,0,0,0,0,0,0,0,0,0,0,0,0,0,0,0,0,0,0,0,0,0,0,0,0,0,0,0,0,0,0,0,0,0,0,0,0,0,0,0,0,0,0,0,0,0,0,0,0,0,0,0,0,0,0,0,0,0],"sum_hessian":[4.447E4,1.1766E4,3.2704E4,1.74E3,1.0026E4,2.3144E4,9.56E3,2.33E2,1.507E3,3.105E3,6.921E3,1.8252E4,4.892E3,7.374E3,2.186E3,1.78E2,5.5E1,1.439E3,6.8E1,2.583E3,5.22E2,3.35E2,6.586E3,1.3161E4,5.091E3,3.424E3,1.468E3,4.454E3,2.92E3,2.125E3,6.1E1,5.2E1,1.26E2,4.3E1,1.2E1,8.67E2,5.72E2,3.4E1,3.4E1,1.836E3,7.47E2,4.59E2,6.3E1,2.71E2,6.4E1,4.789E3,1.797E3,9.184E3,3.977E3,3.634E3,1.457E3,7.96E2,2.628E3,1.164E3,3.04E2,4.405E3,4.9E1,2.352E3,5.68E2,2.072E3,5.3E1,5.1E1,1E1],"tree_param":{"num_deleted":"0","num_feature":"26","num_nodes":"63","size_leaf_vector":"1"}},{"base_weights":[2.04261E-3,2.723255E-1,-9.552041E-2,6.821962E-1,2.0051709E-1,-3.2106362E-2,-2.1301588E-1,6.433996E-1,1.1072096E0,8.6816676E-2,2.9236078E-1,-1.17059164E-1,1.764813E-2,-1.8795393E-1,-3.391228E-1,6.538778E-1,-2.2598186E-1,1.5102196E0,7.05557E-1,4.814899E-2,1.8105452E-1,3.2229507E-1,1.7549948E-1,-1.2826632E-1,-1.43349655E-2,1.7726023E-3,3.2204977E-1,-2.4616116E-1,-1.5018505E-1,8.402081E-1,-3.4329802E-1,3.1355936E-2,1.9049952E-2,1.8080242E-2,-1.627137E-2,2.283378E-2,6.2713996E-2,3.574871E-2,6.789769E-3,2.1647518E-3,-3.233992E-3,6.894401E-3,1.5688597E-4,8.183428E-3,1.2292719E-2,5.615834E-3,-1.818019E-2,-4.5012548E-3,-1.7073862E-3,9.323333E-3,-1.8909712E-3,-1.397798E-3,2.297877E-3,2.2638742E-2,8.9876854E-4,-6.406991E-3,-1.0353459E-2,-2.9880158E-3,-6.076257E-3,-8.063453E-3,5.217438E-2,-1.0808168E-2,-3.8840303E-3],"categories":[],"categories_nodes":[],"categories_segments":[],"categories_sizes":[],"default_left":[0,0,0,0,0,0,0,0,0,0,0,0,0,0,0,0,0,0,0,0,0,0,0,0,0,0,0,0,0,0,0,0,0,0,0,0,0,0,0,0,0,0,0,0,0,0,0,0,0,0,0,0,0,0,0,0,0,0,0,0,0,0,0],"id":23,"left_children":[1,3,5,7,9,11,13,15,17,19,21,23,25,27,29,31,33,35,37,39,41,43,45,47,49,51,53,55,57,59,61,-1,-1,-1,-1,-1,-1,-1,-1,-1,-1,-1,-1,-1,-1,-1,-1,-1,-1,-1,-1,-1,-1,-1,-1,-1,-1,-1,-1,-1,-1,-1,-1],"loss_changes":[1.1753726E3,3.4781024E2,2.4401639E2,2.834137E1,1.050383E2,8.99142E1,3.6218628E1,1.4877991E1,2.256749E1,1.6378166E1,1.9410706E1,9.043503E0,6.483274E1,2.1021729E1,9.653793E0,1.1142151E1,5.5705705E0,2.9704346E1,1.7200684E1,1.1951895E1,1.1212311E1,1.9068542E1,1.0505295E1,1.0998276E1,1.2273672E1,4.6151703E1,8.400092E1,1.2079559E1,1.5372589E1,7.445842E0,6.8350983E0,0E0,0E0,0E0,0E0,0E0,0E0,0E0,0E0,0E0,0E0,0E0,0E0,0E0,0E0,0E0,0E0,0E0,0E0,0E0,0E0,0E0,0E0,0E0,0E0,0E0,0E0,0E0,0E0,0E0,0E0,0E0,0E0],"parents":[2147483647,0,0,1,1,2,2,3,3,4,4,5,5,6,6,7,7,8,8,9,9,10,10,11,11,12,12,13,13,14,14,15,15,16,16,17,17,18,18,19,19,20,20,21,21,22,22,23,23,24,24,25,25,26,26,27,27,28,28,29,29,30,30],"right_children":[2,4,6,8,10,12,14,16,18,20,22,24,26,28,30,32,34,36,38,40,42,44,46,48,50,52,54,56,58,60,62,-1,-1,-1,-1,-1,-1,-1,-1,-1,-1,-1,-1,-1,-1,-1,-1,-1,-1,-1,-1,-1,-1,-1,-1,-1,-1,-1,-1,-1,-1,-1,-1],"split_conditions":[1.9E0,1.28E0,2.63E0,1.1E1,3.79E0,3.29E0,5.75E0,3.4E0,6.63E-1,1.33E0,2.5E0,1.433E0,2.5E0,3.29E0,1.36E-1,8.16E-1,1.17E0,4.81E-1,1.7E-1,1.56E0,2.33E0,1.3E0,1.754E0,3.8E0,1.465E0,1.4E0,9.9E-1,3.29E0,3.6E0,2.6E0,2.401E0,3.1355936E-2,1.9049952E-2,1.8080242E-2,-1.627137E-2,2.283378E-2,6.2713996E-2,3.574871E-2,6.789769E-3,2.1647518E-3,-3.233992E-3,6.894401E-3,1.5688597E-4,8.183428E-3,1.2292719E-2,5.615834E-3,-1.818019E-2,-4.5012548E-3,-1.7073862E-3,9.323333E-3,-1.8909712E-3,-1.397798E-3,2.297877E-3,2.2638742E-2,8.9876854E-4,-6.406991E-3,-1.0353459E-2,-2.9880158E-3,-6.076257E-3,-8.063453E-3,5.217438E-2,-1.0808168E-2,-3.8840303E-3],"split_indices":[22,22,22,23,23,23,22,10,15,3,10,15,2,23,16,18,22,15,13,17,6,7,15,24,15,5,15,22,22,3,19,0,0,0,0,0,0,0,0,0,0,0,0,0,0,0,0,0,0,0,0,0,0,0,0,0,0,0,0,0,0,0,0],"split_type":[0,0,0,0,0,0,0,0,0,0,0,0,0,0,0,0,0,0,0,0,0,0,0,0,0,0,0,0,0,0,0,0,0,0,0,0,0,0,0,0,0,0,0,0,0,0,0,0,0,0,0,0,0,0,0,0,0,0,0,0,0,0,0],"sum_hessian":[4.4571E4,1.1821E4,3.275E4,1.761E3,1.006E4,2.1271E4,1.1479E4,1.616E3,1.45E2,4.496E3,5.564E3,7.856E3,1.3415E4,9.578E3,1.901E3,1.597E3,1.9E1,7.1E1,7.4E1,3.189E3,1.307E3,4.428E3,1.136E3,7.083E3,7.73E2,1.2751E4,6.64E2,3.767E3,5.811E3,6E0,1.895E3,7.1E1,1.526E3,5E0,1.4E1,3.2E1,3.9E1,3.6E1,3.8E1,2.764E3,4.25E2,1.023E3,2.84E2,2.83E3,1.598E3,1.12E3,1.6E1,5.426E3,1.657E3,1E2,6.73E2,7.745E3,5.006E3,2.67E2,3.97E2,2.836E3,9.31E2,2.957E3,2.854E3,3E0,3E0,1.755E3,1.4E2],"tree_param":{"num_deleted":"0","num_feature":"26","num_nodes":"63","size_leaf_vector":"1"}},{"base_weights":[2.8753607E-3,2.6529232E-1,-9.065135E-2,1.9650523E-1,6.342533E-1,6.663034E-3,-1.6283375E-1,7.817465E-2,2.917822E-1,5.7560533E-1,1.0707849E0,-3.268701E-2,1.3268976E-1,-1.2297529E-1,-2.5468543E-1,-6.3854516E-2,1.0899661E-1,3.1858593E-1,1.3497916E-1,5.539669E-1,9.037664E-1,1.2002773E0,1.1508744E-1,-9.099002E-2,1.7052762E-2,1.044827E0,1.1622187E-1,-1.7822717E-1,-6.838009E-2,-2.2130165E-1,-3.641555E-1,-5.8002337E-3,1.4067758E-3,3.206341E-3,4.863128E-2,6.8065654E-3,1.0772679E-2,3.3874977E-3,2.0380268E-2,1.204616E-2,1.8048968E-2,5.647491E-3,3.636397E-2,3.8384352E-2,-2.632858E-3,1.5756201E-2,-1.587587E-2,-2.304315E-3,-1.2299003E-2,-3.1702395E-3,1.4281381E-3,1.3529506E-2,8.270107E-2,2.606776E-3,1.37691E-2,-1.2890923E-2,-5.0700954E-3,-2.9696033E-3,4.3196222E-4,-9.573061E-3,-5.8186366E-3,-1.1081592E-2,2.5655407E-2],"categories":[],"categories_nodes":[],"categories_segments":[],"categories_sizes":[],"default_left":[0,0,0,0,0,0,0,0,0,0,0,0,0,0,0,0,0,0,0,0,0,0,0,0,0,0,0,0,0,0,0,0,0,0,0,0,0,0,0,0,0,0,0,0,0,0,0,0,0,0,0,0,0,0,0,0,0,0,0,0,0,0,0],"id":24,"left_children":[1,3,5,7,9,11,13,15,17,19,21,23,25,27,29,31,33,35,37,39,41,43,45,47,49,51,53,55,57,59,61,-1,-1,-1,-1,-1,-1,-1,-1,-1,-1,-1,-1,-1,-1,-1,-1,-1,-1,-1,-1,-1,-1,-1,-1,-1,-1,-1,-1,-1,-1,-1,-1],"loss_changes":[1.0951815E3,2.9745294E2,2.3108936E2,1.1141116E2,4.6541992E1,6.9487076E1,6.911893E1,1.9312252E1,2.2967926E1,1.104541E1,2.6716812E1,3.0967522E1,4.995848E1,3.9727036E1,2.0804993E1,1.1294849E1,1.1435783E1,1.7282318E1,9.543336E0,1.0860168E1,2.1615273E1,1.9596985E1,7.412225E0,2.2203255E1,2.161368E1,5.8735344E1,3.2892345E1,1.5113495E1,1.6794025E1,1.165802E1,8.824432E0,0E0,0E0,0E0,0E0,0E0,0E0,0E0,0E0,0E0,0E0,0E0,0E0,0E0,0E0,0E0,0E0,0E0,0E0,0E0,0E0,0E0,0E0,0E0,0E0,0E0,0E0,0E0,0E0,0E0,0E0,0E0,0E0],"parents":[2147483647,0,0,1,1,2,2,3,3,4,4,5,5,6,6,7,7,8,8,9,9,10,10,11,11,12,12,13,13,14,14,15,15,16,16,17,17,18,18,19,19,20,20,21,21,22,22,23,23,24,24,25,25,26,26,27,27,28,28,29,29,30,30],"right_children":[2,4,6,8,10,12,14,16,18,20,22,24,26,28,30,32,34,36,38,40,42,44,46,48,50,52,54,56,58,60,62,-1,-1,-1,-1,-1,-1,-1,-1,-1,-1,-1,-1,-1,-1,-1,-1,-1,-1,-1,-1,-1,-1,-1,-1,-1,-1,-1,-1,-1,-1,-1,-1],"split_conditions":[1.9E0,5.75E0,2.25E0,3.79E0,1E1,1.67E0,3.5E0,3.4E0,2.67E0,3.2E0,9E0,1.25E0,2.17E-1,3.25E0,7E0,1.265E0,4E0,1E0,4E0,1.2E1,7.14E-1,2.345E0,6.31E-1,1.694E0,3.25E0,1.2E1,2.83E0,2.87E0,3.5E0,3.4E0,1.808E0,-5.8002337E-3,1.4067758E-3,3.206341E-3,4.863128E-2,6.8065654E-3,1.0772679E-2,3.3874977E-3,2.0380268E-2,1.204616E-2,1.8048968E-2,5.647491E-3,3.636397E-2,3.8384352E-2,-2.632858E-3,1.5756201E-2,-1.587587E-2,-2.304315E-3,-1.2299003E-2,-3.1702395E-3,1.4281381E-3,1.3529506E-2,8.270107E-2,2.606776E-3,1.37691E-2,-1.2890923E-2,-5.0700954E-3,-2.9696033E-3,4.3196222E-4,-9.573061E-3,-5.8186366E-3,-1.1081592E-2,2.5655407E-2],"split_indices":[22,23,22,23,23,2,22,23,10,2,1,6,15,23,22,19,2,3,10,24,15,19,16,15,23,0,2,23,23,23,14,0,0,0,0,0,0,0,0,0,0,0,0,0,0,0,0,0,0,0,0,0,0,0,0,0,0,0,0,0,0,0,0],"split_type":[0,0,0,0,0,0,0,0,0,0,0,0,0,0,0,0,0,0,0,0,0,0,0,0,0,0,0,0,0,0,0,0,0,0,0,0,0,0,0,0,0,0,0,0,0,0,0,0,0,0,0,0,0,0,0,0,0,0,0,0,0,0,0],"sum_hessian":[4.4621E4,1.1724E4,3.2897E4,9.883E3,1.841E3,1.401E4,1.8887E4,4.409E3,5.474E3,1.625E3,2.16E2,1.0677E4,3.333E3,1.3173E4,5.714E3,7.86E2,3.623E3,4.674E3,8E2,1.527E3,9.8E1,1.9E2,2.6E1,4.915E3,5.762E3,5.8E1,3.275E3,6.546E3,6.627E3,4.381E3,1.333E3,3.62E2,4.24E2,3.619E3,4E0,1.434E3,3.24E3,7.7E2,3E1,3.66E2,1.161E3,3E1,6.8E1,1.79E2,1.1E1,1.6E1,1E1,4.707E3,2.08E2,1.148E3,4.614E3,4.4E1,1.4E1,3.018E3,2.57E2,2.3E2,6.316E3,4.838E3,1.789E3,9.55E2,3.426E3,1.328E3,5E0],"tree_param":{"num_deleted":"0","num_feature":"26","num_nodes":"63","size_leaf_vector":"1"}},{"base_weights":[9.563709E-4,2.979525E-1,-8.118249E-2,1.7019752E-1,5.3303325E-1,-3.9611324E-3,-1.7751037E-1,4.7958344E-2,2.1930122E-1,8.4349424E-1,4.434743E-1,-1.1889779E-2,3.962673E-1,-1.5471637E-1,-3.1759715E-1,2.1737897E-1,1.24924565E-2,1.7189869E0,2.1656388E-1,1.1323388E0,7.178115E-1,-1.10340945E-1,4.5791587E-1,-3.9214756E-2,6.59913E-2,4.698601E-1,-3.138719E-1,-2.1410456E-1,-1.14382125E-1,6.5902E-1,-3.2060117E-1,1.1209213E-2,-4.759576E-3,1.8980113E-3,-2.9459044E-3,7.1717046E-2,1.34929065E-2,7.1357465E-3,1.3963169E-3,5.6008346E-2,2.7341198E-2,1.9060178E-2,3.5306063E-2,4.8434124E-3,-1.8460378E-2,1.4123901E-2,3.0256547E-3,-8.9579625E-3,-9.0071186E-4,-1.8315477E-3,3.931995E-3,9.5207E-3,2.1670422E-2,-1.96933E-2,1.0281351E-2,-5.8463393E-3,-9.956107E-3,-2.1014551E-3,-5.625191E-3,-1.0024404E-2,4.462295E-2,-9.747673E-3,9.656544E-3],"categories":[],"categories_nodes":[],"categories_segments":[],"categories_sizes":[],"default_left":[0,0,0,0,0,0,0,0,0,0,0,0,0,0,0,0,0,0,0,0,0,0,0,0,0,0,0,0,0,0,0,0,0,0,0,0,0,0,0,0,0,0,0,0,0,0,0,0,0,0,0,0,0,0,0,0,0,0,0,0,0,0,0],"id":25,"left_children":[1,3,5,7,9,11,13,15,17,19,21,23,25,27,29,31,33,35,37,39,41,43,45,47,49,51,53,55,57,59,61,-1,-1,-1,-1,-1,-1,-1,-1,-1,-1,-1,-1,-1,-1,-1,-1,-1,-1,-1,-1,-1,-1,-1,-1,-1,-1,-1,-1,-1,-1,-1,-1],"loss_changes":[1.0887452E3,2.902959E2,2.6005908E2,3.760051E1,9.427252E1,6.1585182E1,4.962332E1,1.0794834E1,1.7977783E1,2.681366E1,2.1197144E1,4.0500305E1,1.984993E1,3.2028046E1,6.595169E0,1.83334E1,8.363454E0,5.743902E0,1.614708E1,3.5470398E1,1.9431396E1,9.432639E0,1.1804749E1,3.35769E1,4.0873474E1,1.2939529E1,8.322335E0,1.2187073E1,2.5827759E1,6.256278E0,6.129303E0,0E0,0E0,0E0,0E0,0E0,0E0,0E0,0E0,0E0,0E0,0E0,0E0,0E0,0E0,0E0,0E0,0E0,0E0,0E0,0E0,0E0,0E0,0E0,0E0,0E0,0E0,0E0,0E0,0E0,0E0,0E0,0E0],"parents":[2147483647,0,0,1,1,2,2,3,3,4,4,5,5,6,6,7,7,8,8,9,9,10,10,11,11,12,12,13,13,14,14,15,15,16,16,17,17,18,18,19,19,20,20,21,21,22,22,23,23,24,24,25,25,26,26,27,27,28,28,29,29,30,30],"right_children":[2,4,6,8,10,12,14,16,18,20,22,24,26,28,30,32,34,36,38,40,42,44,46,48,50,52,54,56,58,60,62,-1,-1,-1,-1,-1,-1,-1,-1,-1,-1,-1,-1,-1,-1,-1,-1,-1,-1,-1,-1,-1,-1,-1,-1,-1,-1,-1,-1,-1,-1,-1,-1],"split_conditions":[1.8E0,4.59E0,2.39E0,3.7E0,1.17E0,3.79E0,5.5E0,5E0,1.7E-1,1.11E0,6.3E-1,1.67E0,2.4E0,3.25E0,2E-1,1.1E1,2E0,8E0,2.8E0,1.1E1,2.17E0,2E0,3.67E0,2E0,3.4E0,1.7E-1,2.168E0,3.29E0,3.5E0,4.25E0,1.808E0,1.1209213E-2,-4.759576E-3,1.8980113E-3,-2.9459044E-3,7.1717046E-2,1.34929065E-2,7.1357465E-3,1.3963169E-3,5.6008346E-2,2.7341198E-2,1.9060178E-2,3.5306063E-2,4.8434124E-3,-1.8460378E-2,1.4123901E-2,3.0256547E-3,-8.9579625E-3,-9.0071186E-4,-1.8315477E-3,3.931995E-3,9.5207E-3,2.1670422E-2,-1.96933E-2,1.0281351E-2,-5.8463393E-3,-9.956107E-3,-2.1014551E-3,-5.625191E-3,-1.0024404E-2,4.462295E-2,-9.747673E-3,9.656544E-3],"split_indices":[22,23,22,23,22,23,22,24,5,22,14,5,7,23,4,0,9,0,10,0,5,5,9,0,23,12,18,22,22,23,14,0,0,0,0,0,0,0,0,0,0,0,0,0,0,0,0,0,0,0,0,0,0,0,0,0,0,0,0,0,0,0,0],"split_type":[0,0,0,0,0,0,0,0,0,0,0,0,0,0,0,0,0,0,0,0,0,0,0,0,0,0,0,0,0,0,0,0,0,0,0,0,0,0,0,0,0,0,0,0,0,0,0,0,0,0,0,0,0,0,0,0,0,0,0,0,0,0,0],"sum_hessian":[4.4628E4,9.668E3,3.496E4,6.265E3,3.403E3,1.9405E4,1.5555E4,1.796E3,4.469E3,7.6E2,2.643E3,1.9029E4,3.76E2,1.338E4,2.175E3,3.1E2,1.486E3,7E0,4.462E3,2.28E2,5.32E2,6.7E1,2.576E3,1.4087E4,4.942E3,3.41E2,3.5E1,5.41E3,7.97E3,6E0,2.169E3,2.19E2,9.1E1,1.019E3,4.67E2,4E0,3E0,3.965E3,4.97E2,5.1E1,1.77E2,4.53E2,7.9E1,4.4E1,2.3E1,2.486E3,9E1,4.81E2,1.3606E4,1.674E3,3.268E3,2.14E2,1.27E2,2.3E1,1.2E1,4.653E3,7.57E2,4.963E3,3.007E3,3E0,3E0,2.155E3,1.4E1],"tree_param":{"num_deleted":"0","num_feature":"26","num_nodes":"63","size_leaf_vector":"1"}},{"base_weights":[-2.466383E-3,2.4641256E-1,-9.1609485E-2,1.3298075E-1,4.6818408E-1,-1.0879112E-2,-1.7083E-1,6.866361E-2,2.1933098E-1,7.560767E-1,4.031749E-1,-8.332346E-2,3.384534E-2,-1.3260898E-1,-2.6508012E-1,2.8539518E-2,1.6429897E-1,2.830749E-1,1.3061154E-1,1.9268665E-1,7.998979E-1,3.100793E-1,4.5917365E-1,-3.8881886E-1,-7.168571E-2,-9.2781626E-2,7.5518526E-2,-1.605974E-1,2.0171145E-2,-2.5369775E-1,-4.7783652E-1,1.3193019E-2,6.153451E-4,4.747752E-3,5.14582E-2,3.97458E-3,9.842125E-3,1.25261E-3,6.4147934E-3,